{"learner":{"attributes":{"scikit_learn":"{\"_estimator_type\": \"regressor\"}"},"feature_names":["Open","High","Low","Close","Volume","volume_adi","volume_obv","volume_cmf","volume_fi","volume_em","volume_sma_em","volume_vpt","volume_vwap","volume_mfi","volume_nvi","volatility_bbm","volatility_bbh","volatility_bbl","volatility_bbw","volatility_bbp","volatility_bbhi","volatility_bbli","volatility_kcc","volatility_kch","volatility_kcl","volatility_kcw","volatility_kcp","volatility_kchi","volatility_kcli","volatility_dcl","volatility_dch","volatility_dcm","volatility_dcw","volatility_dcp","volatility_atr","volatility_ui","trend_macd","trend_macd_signal","trend_macd_diff","trend_sma_fast","trend_sma_slow","trend_ema_fast","trend_ema_slow","trend_vortex_ind_pos","trend_vortex_ind_neg","trend_vortex_ind_diff","trend_trix","trend_mass_index","trend_dpo","trend_kst","trend_kst_sig","trend_kst_diff","trend_ichimoku_conv","trend_ichimoku_base","trend_ichimoku_a","trend_ichimoku_b","trend_stc","trend_adx","trend_adx_pos","trend_adx_neg","trend_cci","trend_visual_ichimoku_a","trend_visual_ichimoku_b","trend_aroon_up","trend_aroon_down","trend_aroon_ind","trend_psar_up","trend_psar_down","trend_psar_up_indicator","trend_psar_down_indicator","momentum_rsi","momentum_stoch_rsi","momentum_stoch_rsi_k","momentum_stoch_rsi_d","momentum_tsi","momentum_uo","momentum_stoch","momentum_stoch_signal","momentum_wr","momentum_ao","momentum_roc","momentum_ppo","momentum_ppo_signal","momentum_ppo_hist","momentum_pvo","momentum_pvo_signal","momentum_pvo_hist","momentum_kama","others_dr","others_dlr","others_cr","ema2","ema3","ema4","ema5","ema6","ema7","ema10","ema20"],"feature_types":["float","float","float","float","int","float","int","float","float","float","float","float","float","float","float","float","float","float","float","float","float","float","float","float","float","float","float","float","float","float","float","float","float","float","float","float","float","float","float","float","float","float","float","float","float","float","float","float","float","float","float","float","float","float","float","float","float","float","float","float","float","float","float","float","float","float","float","float","float","float","float","float","float","float","float","float","float","float","float","float","float","float","float","float","float","float","float","float","float","float","float","float","float","float","float","float","float","float","float"],"gradient_booster":{"model":{"gbtree_model_param":{"num_parallel_tree":"1","num_trees":"1100"},"iteration_indptr":[0,1,2,3,4,5,6,7,8,9,10,11,12,13,14,15,16,17,18,19,20,21,22,23,24,25,26,27,28,29,30,31,32,33,34,35,36,37,38,39,40,41,42,43,44,45,46,47,48,49,50,51,52,53,54,55,56,57,58,59,60,61,62,63,64,65,66,67,68,69,70,71,72,73,74,75,76,77,78,79,80,81,82,83,84,85,86,87,88,89,90,91,92,93,94,95,96,97,98,99,100,101,102,103,104,105,106,107,108,109,110,111,112,113,114,115,116,117,118,119,120,121,122,123,124,125,126,127,128,129,130,131,132,133,134,135,136,137,138,139,140,141,142,143,144,145,146,147,148,149,150,151,152,153,154,155,156,157,158,159,160,161,162,163,164,165,166,167,168,169,170,171,172,173,174,175,176,177,178,179,180,181,182,183,184,185,186,187,188,189,190,191,192,193,194,195,196,197,198,199,200,201,202,203,204,205,206,207,208,209,210,211,212,213,214,215,216,217,218,219,220,221,222,223,224,225,226,227,228,229,230,231,232,233,234,235,236,237,238,239,240,241,242,243,244,245,246,247,248,249,250,251,252,253,254,255,256,257,258,259,260,261,262,263,264,265,266,267,268,269,270,271,272,273,274,275,276,277,278,279,280,281,282,283,284,285,286,287,288,289,290,291,292,293,294,295,296,297,298,299,300,301,302,303,304,305,306,307,308,309,310,311,312,313,314,315,316,317,318,319,320,321,322,323,324,325,326,327,328,329,330,331,332,333,334,335,336,337,338,339,340,341,342,343,344,345,346,347,348,349,350,351,352,353,354,355,356,357,358,359,360,361,362,363,364,365,366,367,368,369,370,371,372,373,374,375,376,377,378,379,380,381,382,383,384,385,386,387,388,389,390,391,392,393,394,395,396,397,398,399,400,401,402,403,404,405,406,407,408,409,410,411,412,413,414,415,416,417,418,419,420,421,422,423,424,425,426,427,428,429,430,431,432,433,434,435,436,437,438,439,440,441,442,443,444,445,446,447,448,449,450,451,452,453,454,455,456,457,458,459,460,461,462,463,464,465,466,467,468,469,470,471,472,473,474,475,476,477,478,479,480,481,482,483,484,485,486,487,488,489,490,491,492,493,494,495,496,497,498,499,500,501,502,503,504,505,506,507,508,509,510,511,512,513,514,515,516,517,518,519,520,521,522,523,524,525,526,527,528,529,530,531,532,533,534,535,536,537,538,539,540,541,542,543,544,545,546,547,548,549,550,551,552,553,554,555,556,557,558,559,560,561,562,563,564,565,566,567,568,569,570,571,572,573,574,575,576,577,578,579,580,581,582,583,584,585,586,587,588,589,590,591,592,593,594,595,596,597,598,599,600,601,602,603,604,605,606,607,608,609,610,611,612,613,614,615,616,617,618,619,620,621,622,623,624,625,626,627,628,629,630,631,632,633,634,635,636,637,638,639,640,641,642,643,644,645,646,647,648,649,650,651,652,653,654,655,656,657,658,659,660,661,662,663,664,665,666,667,668,669,670,671,672,673,674,675,676,677,678,679,680,681,682,683,684,685,686,687,688,689,690,691,692,693,694,695,696,697,698,699,700,701,702,703,704,705,706,707,708,709,710,711,712,713,714,715,716,717,718,719,720,721,722,723,724,725,726,727,728,729,730,731,732,733,734,735,736,737,738,739,740,741,742,743,744,745,746,747,748,749,750,751,752,753,754,755,756,757,758,759,760,761,762,763,764,765,766,767,768,769,770,771,772,773,774,775,776,777,778,779,780,781,782,783,784,785,786,787,788,789,790,791,792,793,794,795,796,797,798,799,800,801,802,803,804,805,806,807,808,809,810,811,812,813,814,815,816,817,818,819,820,821,822,823,824,825,826,827,828,829,830,831,832,833,834,835,836,837,838,839,840,841,842,843,844,845,846,847,848,849,850,851,852,853,854,855,856,857,858,859,860,861,862,863,864,865,866,867,868,869,870,871,872,873,874,875,876,877,878,879,880,881,882,883,884,885,886,887,888,889,890,891,892,893,894,895,896,897,898,899,900,901,902,903,904,905,906,907,908,909,910,911,912,913,914,915,916,917,918,919,920,921,922,923,924,925,926,927,928,929,930,931,932,933,934,935,936,937,938,939,940,941,942,943,944,945,946,947,948,949,950,951,952,953,954,955,956,957,958,959,960,961,962,963,964,965,966,967,968,969,970,971,972,973,974,975,976,977,978,979,980,981,982,983,984,985,986,987,988,989,990,991,992,993,994,995,996,997,998,999,1000,1001,1002,1003,1004,1005,1006,1007,1008,1009,1010,1011,1012,1013,1014,1015,1016,1017,1018,1019,1020,1021,1022,1023,1024,1025,1026,1027,1028,1029,1030,1031,1032,1033,1034,1035,1036,1037,1038,1039,1040,1041,1042,1043,1044,1045,1046,1047,1048,1049,1050,1051,1052,1053,1054,1055,1056,1057,1058,1059,1060,1061,1062,1063,1064,1065,1066,1067,1068,1069,1070,1071,1072,1073,1074,1075,1076,1077,1078,1079,1080,1081,1082,1083,1084,1085,1086,1087,1088,1089,1090,1091,1092,1093,1094,1095,1096,1097,1098,1099,1100],"tree_info":[0,0,0,0,0,0,0,0,0,0,0,0,0,0,0,0,0,0,0,0,0,0,0,0,0,0,0,0,0,0,0,0,0,0,0,0,0,0,0,0,0,0,0,0,0,0,0,0,0,0,0,0,0,0,0,0,0,0,0,0,0,0,0,0,0,0,0,0,0,0,0,0,0,0,0,0,0,0,0,0,0,0,0,0,0,0,0,0,0,0,0,0,0,0,0,0,0,0,0,0,0,0,0,0,0,0,0,0,0,0,0,0,0,0,0,0,0,0,0,0,0,0,0,0,0,0,0,0,0,0,0,0,0,0,0,0,0,0,0,0,0,0,0,0,0,0,0,0,0,0,0,0,0,0,0,0,0,0,0,0,0,0,0,0,0,0,0,0,0,0,0,0,0,0,0,0,0,0,0,0,0,0,0,0,0,0,0,0,0,0,0,0,0,0,0,0,0,0,0,0,0,0,0,0,0,0,0,0,0,0,0,0,0,0,0,0,0,0,0,0,0,0,0,0,0,0,0,0,0,0,0,0,0,0,0,0,0,0,0,0,0,0,0,0,0,0,0,0,0,0,0,0,0,0,0,0,0,0,0,0,0,0,0,0,0,0,0,0,0,0,0,0,0,0,0,0,0,0,0,0,0,0,0,0,0,0,0,0,0,0,0,0,0,0,0,0,0,0,0,0,0,0,0,0,0,0,0,0,0,0,0,0,0,0,0,0,0,0,0,0,0,0,0,0,0,0,0,0,0,0,0,0,0,0,0,0,0,0,0,0,0,0,0,0,0,0,0,0,0,0,0,0,0,0,0,0,0,0,0,0,0,0,0,0,0,0,0,0,0,0,0,0,0,0,0,0,0,0,0,0,0,0,0,0,0,0,0,0,0,0,0,0,0,0,0,0,0,0,0,0,0,0,0,0,0,0,0,0,0,0,0,0,0,0,0,0,0,0,0,0,0,0,0,0,0,0,0,0,0,0,0,0,0,0,0,0,0,0,0,0,0,0,0,0,0,0,0,0,0,0,0,0,0,0,0,0,0,0,0,0,0,0,0,0,0,0,0,0,0,0,0,0,0,0,0,0,0,0,0,0,0,0,0,0,0,0,0,0,0,0,0,0,0,0,0,0,0,0,0,0,0,0,0,0,0,0,0,0,0,0,0,0,0,0,0,0,0,0,0,0,0,0,0,0,0,0,0,0,0,0,0,0,0,0,0,0,0,0,0,0,0,0,0,0,0,0,0,0,0,0,0,0,0,0,0,0,0,0,0,0,0,0,0,0,0,0,0,0,0,0,0,0,0,0,0,0,0,0,0,0,0,0,0,0,0,0,0,0,0,0,0,0,0,0,0,0,0,0,0,0,0,0,0,0,0,0,0,0,0,0,0,0,0,0,0,0,0,0,0,0,0,0,0,0,0,0,0,0,0,0,0,0,0,0,0,0,0,0,0,0,0,0,0,0,0,0,0,0,0,0,0,0,0,0,0,0,0,0,0,0,0,0,0,0,0,0,0,0,0,0,0,0,0,0,0,0,0,0,0,0,0,0,0,0,0,0,0,0,0,0,0,0,0,0,0,0,0,0,0,0,0,0,0,0,0,0,0,0,0,0,0,0,0,0,0,0,0,0,0,0,0,0,0,0,0,0,0,0,0,0,0,0,0,0,0,0,0,0,0,0,0,0,0,0,0,0,0,0,0,0,0,0,0,0,0,0,0,0,0,0,0,0,0,0,0,0,0,0,0,0,0,0,0,0,0,0,0,0,0,0,0,0,0,0,0,0,0,0,0,0,0,0,0,0,0,0,0,0,0,0,0,0,0,0,0,0,0,0,0,0,0,0,0,0,0,0,0,0,0,0,0,0,0,0,0,0,0,0,0,0,0,0,0,0,0,0,0,0,0,0,0,0,0,0,0,0,0,0,0,0,0,0,0,0,0,0,0,0,0,0,0,0,0,0,0,0,0,0,0,0,0,0,0,0,0,0,0,0,0,0,0,0,0,0,0,0,0,0,0,0,0,0,0,0,0,0,0,0,0,0,0,0,0,0,0,0,0,0,0,0,0,0,0,0,0,0,0,0,0,0,0,0,0,0,0,0,0,0,0,0,0,0,0,0,0,0,0,0,0,0,0,0,0,0,0,0,0,0,0,0,0,0,0,0,0,0,0,0,0,0,0,0,0,0,0,0,0,0,0,0,0,0,0,0,0,0,0,0,0,0,0,0,0,0,0,0,0,0,0,0,0,0,0,0,0,0,0,0,0,0,0,0,0,0,0,0,0,0,0,0,0,0,0,0,0,0,0,0,0,0,0,0,0,0,0,0,0,0,0,0,0,0,0,0,0,0,0,0,0,0,0,0,0,0,0,0,0,0,0,0,0,0,0,0,0,0,0,0,0,0,0,0,0,0,0,0,0,0,0,0,0,0,0,0,0,0,0,0,0,0,0,0,0,0,0,0,0,0,0,0,0,0,0,0,0,0,0,0,0,0],"trees":[{"base_weights":[1.7161247E-1,-5.9335437E-2,4.942392E-1,-2.912405E-1,1.3766748E-1,4.022782E0,-7.777938E-2,3.019052E-1,1.1783862E-2,9.5165324E-1,-6.1940587E-1,-4.018564E-2,2.3210926E0,-9.538897E-1,2.4900541E0,1.6900564E0,-1.4677689E0,4.0322757E0,1.4772002E0,-2.244816E0,-2.9650295E-1,2.5171065E-1,2.0067674E-1,-1.3775647E-1,1.3295963E-1,-1.791054E-1,-2.3733616E-2,2.302748E-1,9.996151E-2,5.2594617E-3,1.4597131E-1,-2.5794002E-1,-5.898414E-2,-9.311625E-2,4.2585734E-2,-8.6089306E-2,8.463335E-2],"categories":[],"categories_nodes":[],"categories_segments":[],"categories_sizes":[],"default_left":[0,0,0,0,0,0,0,0,0,0,0,0,0,0,0,0,0,0,0,0,0,0,0,0,0,0,0,0,0,0,0,0,0,0,0,0,0],"id":0,"left_children":[1,3,-1,-1,5,7,9,-1,-1,11,13,15,17,19,21,23,25,27,29,31,33,-1,35,-1,-1,-1,-1,-1,-1,-1,-1,-1,-1,-1,-1,-1,-1],"loss_changes":[5.011354E2,2.4959117E2,0E0,0E0,1.7525333E2,8.703961E1,1.1154549E2,0E0,0E0,9.381343E1,1.3862364E2,1.0375327E2,3.5921097E1,1.0032231E2,7.7467896E1,9.460481E1,4.760566E1,2.2790833E0,4.27334E1,1.19279755E2,1.5067123E2,0E0,2.6841536E1,0E0,0E0,0E0,0E0,0E0,0E0,0E0,0E0,0E0,0E0,0E0,0E0,0E0,0E0],"parents":[2147483647,0,0,1,1,4,4,5,5,6,6,9,9,10,10,11,11,12,12,13,13,14,14,15,15,16,16,17,17,18,18,19,19,20,20,22,22],"right_children":[2,4,-1,-1,6,8,10,-1,-1,12,14,16,18,20,22,24,26,28,30,32,34,-1,36,-1,-1,-1,-1,-1,-1,-1,-1,-1,-1,-1,-1,-1,-1],"split_conditions":[9.8231445E1,1.377636E2,4.942392E-1,-2.912405E-1,-1.1266747E1,2.4675276E1,5.78803E0,3.019052E-1,1.1783862E-2,7.6841385E1,2.6720566E1,-7.354185E-2,-1.8644363E-1,-3.8986733E0,1.7120633E2,-2.12003E3,-3.019143E0,2.7049856E1,-4.204009E0,1.5514499E2,-2.0663683E1,2.5171065E-1,1.7243E2,-1.3775647E-1,1.3295963E-1,-1.791054E-1,-2.3733616E-2,2.302748E-1,9.996151E-2,5.2594617E-3,1.4597131E-1,-2.5794002E-1,-5.898414E-2,-9.311625E-2,4.2585734E-2,-8.6089306E-2,8.463335E-2],"split_indices":[76,66,0,0,85,47,34,0,0,9,32,85,88,85,23,9,86,57,84,61,9,0,3,0,0,0,0,0,0,0,0,0,0,0,0,0,0],"split_type":[0,0,0,0,0,0,0,0,0,0,0,0,0,0,0,0,0,0,0,0,0,0,0,0,0,0,0,0,0,0,0,0,0,0,0,0,0],"sum_hessian":[2.18E2,2.14E2,4E0,6E0,2.08E2,1E1,1.98E2,6E0,4E0,6.8E1,1.3E2,4E1,2.8E1,1.18E2,1.2E1,1.8E1,2.2E1,8E0,2E1,3.9E1,7.9E1,5E0,7E0,3E0,1.5E1,6E0,1.6E1,5E0,3E0,1.1E1,9E0,9E0,3E1,3.3E1,4.6E1,3E0,4E0],"tree_param":{"num_deleted":"0","num_feature":"99","num_nodes":"37","size_leaf_vector":"1"}},{"base_weights":[5.4585993E-2,-1.6368875E-1,5.940177E-1,-2.803746E0,2.0269707E-1,-2.8551784E-1,-1.6660736E0,1.2517705E0,-3.68868E-1,-3.890592E0,2.1372414E-3,7.3478913E-1,4.228482E0,-2.1578865E0,3.6258864E-1,-3.1253704E-1,-7.8124925E-2,-1.4241332E0,1.4281024E0,1.1339056E0,-1.4953972E-1,-4.603618E-2,3.2284296E-1,-3.767542E0,1.902574E-1,-3.708889E-2,2.5634644E0,-1.0292126E-1,-1.9422129E-2,1.0400111E-1,1.8683257E-2,-1.5908207E-1,2.068212E0,-4.522281E0,3.7276603E-2,-9.461867E-1,1.4449749E0,6.22029E-1,-1.2363005E0,3.3455515E0,-1.1199412E-2,-3.8154982E-2,1.1513521E-1,2.3827668E-1,4.601724E-2,-1.345641E-1,-2.7335346E-1,-7.4141674E-2,6.704114E-3,1.1848753E-1,1.870376E-2,-4.2183246E-2,6.8135284E-2,-1.1759992E-1,2.4990296E-2,1.8996143E-1,7.171694E-2],"categories":[],"categories_nodes":[],"categories_segments":[],"categories_sizes":[],"default_left":[0,0,0,0,0,0,0,0,0,0,0,0,0,0,0,0,0,0,0,0,0,0,0,0,0,0,0,0,0,0,0,0,0,0,0,0,0,0,0,0,0,0,0,0,0,0,0,0,0,0,0,0,0,0,0,0,0],"id":1,"left_children":[1,3,-1,5,7,-1,9,11,13,15,17,19,21,23,25,-1,-1,27,29,31,-1,-1,-1,33,35,37,39,-1,-1,-1,-1,41,43,45,-1,47,49,51,53,55,-1,-1,-1,-1,-1,-1,-1,-1,-1,-1,-1,-1,-1,-1,-1,-1,-1],"loss_changes":[5.909539E2,2.143371E2,0E0,8.284462E1,1.1738641E2,0E0,7.7938614E1,1.03077354E2,1.669733E2,4.1102203E1,2.8473364E1,9.399855E1,1.2747621E2,1.4056577E2,8.0142365E1,0E0,0E0,4.0117893E0,4.2566996E0,6.677158E1,0E0,0E0,0E0,7.859982E1,2.4181875E1,6.2421917E1,3.1329147E1,0E0,0E0,0E0,0E0,3.8979336E1,9.62516E1,2.013858E1,0E0,5.70368E0,7.325754E0,5.905813E1,5.7875244E1,5.2120285E0,0E0,0E0,0E0,0E0,0E0,0E0,0E0,0E0,0E0,0E0,0E0,0E0,0E0,0E0,0E0,0E0,0E0],"parents":[2147483647,0,0,1,1,3,3,4,4,6,6,7,7,8,8,9,9,10,10,11,11,12,12,13,13,14,14,17,17,18,18,19,19,23,23,24,24,25,25,26,26,31,31,32,32,33,33,35,35,36,36,37,37,38,38,39,39],"right_children":[2,4,-1,6,8,-1,10,12,14,16,18,20,22,24,26,-1,-1,28,30,32,-1,-1,-1,34,36,38,40,-1,-1,-1,-1,42,44,46,-1,48,50,52,54,56,-1,-1,-1,-1,-1,-1,-1,-1,-1,-1,-1,-1,-1,-1,-1,-1,-1],"split_conditions":[9.724426E-1,1.4857286E2,5.940177E-1,1.4455667E2,5.846148E0,-2.8551784E-1,-1.5510932E-1,1.896075E2,1.5531764E1,6.695329E0,-5.600499E0,1.883675E2,-6.479191E6,-3.7707021E0,1.65635E0,-3.1253704E-1,-7.8124925E-2,1.255E6,1.6452E2,4.514331E1,-1.4953972E-1,-4.603618E-2,3.2284296E-1,5.9763023E1,5.9397648E1,1.7393892E2,5.0670547E0,-1.0292126E-1,-1.9422129E-2,1.0400111E-1,1.8683257E-2,6.2808264E2,4.1216445E-1,-5.555655E5,3.7276603E-2,1.3514948E3,6.162698E1,1.5379083E2,1.8509364E2,2.3934E6,-1.1199412E-2,-3.8154982E-2,1.1513521E-1,2.3827668E-1,4.601724E-2,-1.345641E-1,-2.7335346E-1,-7.4141674E-2,6.704114E-3,1.1848753E-1,1.870376E-2,-4.2183246E-2,6.8135284E-2,-1.1759992E-1,2.4990296E-2,1.8996143E-1,7.171694E-2],"split_indices":[33,66,0,22,25,0,88,61,18,35,48,61,8,51,88,0,0,4,0,13,0,0,0,13,76,12,88,0,0,0,0,9,33,8,0,14,77,39,96,4,0,0,0,0,0,0,0,0,0,0,0,0,0,0,0,0,0],"split_type":[0,0,0,0,0,0,0,0,0,0,0,0,0,0,0,0,0,0,0,0,0,0,0,0,0,0,0,0,0,0,0,0,0,0,0,0,0,0,0,0,0,0,0,0,0,0,0,0,0,0,0,0,0,0,0,0,0],"sum_hessian":[2.23E2,2.2E2,3E0,2.6E1,1.94E2,6E0,2E1,6.8E1,1.26E2,8E0,1.2E1,5.9E1,9E0,3.6E1,9E1,3E0,5E0,6E0,6E0,5.4E1,5E0,3E0,6E0,2.1E1,1.5E1,7.7E1,1.3E1,3E0,3E0,3E0,3E0,2.3E1,3.1E1,1.8E1,3E0,8E0,7E0,5E1,2.7E1,1E1,3E0,1.9E1,4E0,8E0,2.3E1,8E0,1E1,5E0,3E0,3E0,4E0,1.7E1,3.3E1,1.6E1,1.1E1,7E0,3E0],"tree_param":{"num_deleted":"0","num_feature":"99","num_nodes":"57","size_leaf_vector":"1"}},{"base_weights":[-2.1546373E-2,-1.966261E-1,4.826552E-1,-3.0082176E0,1.6986391E-1,-3.446772E-1,-1.7183594E0,3.7595172E0,-3.885213E-2,-6.25761E-1,-3.0462527E-1,2.826278E-1,1.0340306E-2,1.502797E0,-4.731502E-1,7.849116E-2,-1.3755955E0,3.5087419E0,2.5842974E-1,-9.3092954E-1,9.3772054E-1,-2.1586313E0,2.2856014E-2,1.0365427E0,2.3997125E-1,-8.6873245E-1,1.3671327E0,-2.244068E0,-2.87851E-1,-7.930904E-1,2.1538684E0,-4.3538902E-2,-1.2650195E-1,1.6145574E-1,-7.240919E-2,-8.340501E-2,1.0028092E-2,-2.661364E-3,1.1977532E-1,-8.238722E-2,-2.7143565E-1,-4.57348E-2,7.8228235E-2,8.66378E-2,-1.2293878E-1,2.5249663E-1,6.9270626E-2],"categories":[],"categories_nodes":[],"categories_segments":[],"categories_sizes":[],"default_left":[0,0,0,0,0,0,0,0,0,0,0,0,0,0,0,0,0,0,0,0,0,0,0,0,0,0,0,0,0,0,0,0,0,0,0,0,0,0,0,0,0,0,0,0,0,0,0],"id":2,"left_children":[1,3,-1,5,7,-1,9,11,13,15,-1,-1,-1,17,19,-1,21,23,25,27,29,31,-1,33,-1,35,37,39,41,43,45,-1,-1,-1,-1,-1,-1,-1,-1,-1,-1,-1,-1,-1,-1,-1,-1],"loss_changes":[3.9527185E2,2.3235553E2,0E0,1.2252051E2,1.499897E2,0E0,9.907149E1,7.677818E1,1.2792273E2,3.2226154E1,0E0,0E0,0E0,1.0393078E2,9.710721E1,0E0,2.1189108E1,4.950589E1,3.492925E1,9.477701E1,7.959033E1,3.0341988E0,0E0,4.445159E1,0E0,1.2819911E1,2.147951E1,5.949327E1,9.475221E1,7.445805E1,4.1596306E1,0E0,0E0,0E0,0E0,0E0,0E0,0E0,0E0,0E0,0E0,0E0,0E0,0E0,0E0,0E0,0E0],"parents":[2147483647,0,0,1,1,3,3,4,4,6,6,7,7,8,8,9,9,13,13,14,14,16,16,17,17,18,18,19,19,20,20,21,21,23,23,25,25,26,26,27,27,28,28,29,29,30,30],"right_children":[2,4,-1,6,8,-1,10,12,14,16,-1,-1,-1,18,20,-1,22,24,26,28,30,32,-1,34,-1,36,38,40,42,44,46,-1,-1,-1,-1,-1,-1,-1,-1,-1,-1,-1,-1,-1,-1,-1,-1],"split_conditions":[9.670607E-1,1.4857286E2,4.826552E-1,1.4455667E2,-1.1266747E1,-3.446772E-1,1.58254E2,2.4675276E1,5.478556E0,4.5445244E1,-3.0462527E-1,2.826278E-1,1.0340306E-2,-1.4761449E0,9.048734E1,7.849116E-2,1.6712E2,1.982E6,1.3208732E3,-4.1378756E0,5.186598E-1,5.136251E-1,2.2856014E-2,1.5808922E1,2.3997125E-1,1.8971169E-1,1.562E5,-4.5287275E0,1.3049941E0,2.5087053E2,1.6749E2,-4.3538902E-2,-1.2650195E-1,1.6145574E-1,-7.240919E-2,-8.340501E-2,1.0028092E-2,-2.661364E-3,1.1977532E-1,-8.238722E-2,-2.7143565E-1,-4.57348E-2,7.8228235E-2,8.66378E-2,-1.2293878E-1,2.5249663E-1,6.9270626E-2],"split_indices":[33,66,0,22,85,0,22,47,34,75,0,0,0,85,56,0,1,6,14,84,26,85,0,76,0,88,6,84,88,10,3,0,0,0,0,0,0,0,0,0,0,0,0,0,0,0,0],"split_type":[0,0,0,0,0,0,0,0,0,0,0,0,0,0,0,0,0,0,0,0,0,0,0,0,0,0,0,0,0,0,0,0,0,0,0,0,0,0,0,0,0,0,0,0,0,0,0],"sum_hessian":[2.27E2,2.24E2,3E0,2.5E1,1.99E2,5E0,2E1,1E1,1.89E2,1.7E1,3E0,6E0,4E0,4.1E1,1.48E2,4E0,1.3E1,1.5E1,2.6E1,1.12E2,3.6E1,9E0,4E0,6E0,9E0,1.3E1,1.3E1,3.6E1,7.6E1,1.5E1,2.1E1,3E0,6E0,3E0,3E0,7E0,6E0,6E0,7E0,3.2E1,4E0,5.7E1,1.9E1,6E0,9E0,3E0,1.8E1],"tree_param":{"num_deleted":"0","num_feature":"99","num_nodes":"47","size_leaf_vector":"1"}},{"base_weights":[1.2008626E-1,-6.410568E-2,5.085104E-1,-3.1492162E0,2.3867038E-1,-4.267775E0,5.2036047E-2,2.1213606E-1,1.1437419E-1,-6.717308E0,-9.785791E-1,1.429903E0,-2.6829144E-1,-4.0020728E-1,-1.4163044E-1,-1.1328531E-1,4.553E-2,2.3314479E-1,3.0553014E0,-7.147983E-1,1.0781083E0,-1.7065071E0,1.2977767E0,3.7520318E0,-2.4321316E-2,-3.0490937E0,-3.6791253E-1,1.4755347E0,-1.3589332E-1,-1.1244314E-1,-1.26550095E-2,-2.934461E-2,1.12679206E-1,2.0517437E-1,6.9930226E-2,1.7360993E-2,-1.9288649E-1,-5.4393567E-2,4.0523205E-2,9.465115E-2,-5.4428156E-2],"categories":[],"categories_nodes":[],"categories_segments":[],"categories_sizes":[],"default_left":[0,0,0,0,0,0,0,0,0,0,0,0,0,0,0,0,0,0,0,0,0,0,0,0,0,0,0,0,0,0,0,0,0,0,0,0,0,0,0,0,0],"id":3,"left_children":[1,3,-1,5,7,9,-1,-1,11,13,15,17,19,-1,-1,-1,-1,21,23,25,27,29,31,33,-1,35,37,39,-1,-1,-1,-1,-1,-1,-1,-1,-1,-1,-1,-1,-1],"loss_changes":[4.268734E2,2.0905537E2,0E0,9.868941E1,1.030287E2,1.2233847E2,0E0,0E0,1.0056176E2,2.5979706E1,2.2407652E1,8.682207E1,9.395301E1,0E0,0E0,0E0,0E0,5.7970074E1,4.886325E1,9.3617065E1,6.3701874E1,7.8707275E0,3.5409763E1,9.967468E0,0E0,4.6314056E1,9.1891594E1,4.4243652E1,0E0,0E0,0E0,0E0,0E0,0E0,0E0,0E0,0E0,0E0,0E0,0E0,0E0],"parents":[2147483647,0,0,1,1,3,3,4,4,5,5,8,8,9,9,10,10,11,11,12,12,17,17,18,18,19,19,20,20,21,21,22,22,23,23,25,25,26,26,27,27],"right_children":[2,4,-1,6,8,10,-1,-1,12,14,16,18,20,-1,-1,-1,-1,22,24,26,28,30,32,34,-1,36,38,40,-1,-1,-1,-1,-1,-1,-1,-1,-1,-1,-1,-1,-1],"split_conditions":[9.824564E1,1.4403769E2,5.085104E-1,2.553418E1,-1.1935887E1,6.187814E0,5.2036047E-2,2.1213606E-1,5.4779687E0,2.1308E6,1.6712E2,1.982E6,9.048734E1,-4.0020728E-1,-1.4163044E-1,-1.1328531E-1,4.553E-2,4.717834E0,3.1303458E6,1.2E1,1E0,1.9300026E0,-1.3457811E2,8.375496E0,-2.4321316E-2,1.59064E2,2.279274E1,6.125208E-1,-1.3589332E-1,-1.1244314E-1,-1.26550095E-2,-2.934461E-2,1.12679206E-1,2.0517437E-1,6.9930226E-2,1.7360993E-2,-1.9288649E-1,-5.4393567E-2,4.0523205E-2,9.465115E-2,-5.4428156E-2],"split_indices":[76,66,0,18,85,25,0,0,34,4,1,6,56,0,0,0,0,34,8,64,69,48,60,48,0,15,58,46,0,0,0,0,0,0,0,0,0,0,0,0,0],"split_type":[0,0,0,0,0,0,0,0,0,0,0,0,0,0,0,0,0,0,0,0,0,0,0,0,0,0,0,0,0,0,0,0,0,0,0,0,0,0,0,0,0],"sum_hessian":[2.25E2,2.22E2,3E0,1.9E1,2.03E2,1.5E1,4E0,5E0,1.98E2,8E0,7E0,4.4E1,1.54E2,5E0,3E0,4E0,3E0,2.6E1,1.8E1,1.16E2,3.8E1,9E0,1.7E1,1.5E1,3E0,1.4E1,1.02E2,3.5E1,3E0,6E0,3E0,6E0,1.1E1,1.2E1,3E0,3E0,1.1E1,6.3E1,3.9E1,3E1,5E0],"tree_param":{"num_deleted":"0","num_feature":"99","num_nodes":"41","size_leaf_vector":"1"}},{"base_weights":[-9.984802E-2,-2.777643E-1,4.8978835E-1,3.8383524E0,-4.6616706E-1,3.0639976E-2,3.400804E-1,-2.8029368E0,-1.7467922E-1,-5.550026E0,-1.3453101E0,1.225984E0,-6.308503E-1,-3.2678723E-1,-1.3641599E-1,-1.5879299E-1,-2.533917E-1,6.4903684E-2,2.7157106E0,-1.6856619E0,1.8065972E-2,7.342897E-2,-9.7021383E-1,-6.0444736E-1,1.6026899E-1,3.2011964E0,-7.2605093E-3,-2.4847188E0,1.1710854E-3,2.7940693E0,-3.5454503E-1,-7.621583E-2,1.43085485E-2,-1.0471962E-1,2.2337493E-2,1.8129008E-1,2.7320543E-2,-9.198748E-2,-2.665741E-1,-1.2192437E-1,4.0714275E-2,2.1466722E-1,1.2189373E-3,4.9929228E-2,-4.7812887E-2],"categories":[],"categories_nodes":[],"categories_segments":[],"categories_sizes":[],"default_left":[0,0,0,0,0,0,0,0,0,0,0,0,0,0,0,0,0,0,0,0,0,0,0,0,0,0,0,0,0,0,0,0,0,0,0,0,0,0,0,0,0,0,0,0,0],"id":4,"left_children":[1,3,-1,5,7,-1,-1,9,11,13,15,17,19,-1,-1,21,-1,23,25,27,29,-1,31,33,-1,35,-1,37,39,41,43,-1,-1,-1,-1,-1,-1,-1,-1,-1,-1,-1,-1,-1,-1],"loss_changes":[4.133462E2,1.7704956E2,0E0,9.497391E1,1.4731776E2,0E0,0E0,8.8635025E1,1.2472819E2,6.039749E0,7.616182E1,8.2848976E1,1.0064967E2,0E0,0E0,2.0247334E1,0E0,6.194547E1,2.9668564E1,7.548395E1,9.61526E1,0E0,7.800171E0,3.984365E1,0E0,2.135756E1,0E0,5.81998E1,4.116187E1,4.7986504E1,7.0662224E1,0E0,0E0,0E0,0E0,0E0,0E0,0E0,0E0,0E0,0E0,0E0,0E0,0E0,0E0],"parents":[2147483647,0,0,1,1,3,3,4,4,7,7,8,8,9,9,10,10,11,11,12,12,15,15,17,17,18,18,19,19,20,20,22,22,23,23,25,25,27,27,28,28,29,29,30,30],"right_children":[2,4,-1,6,8,-1,-1,10,12,14,16,18,20,-1,-1,22,-1,24,26,28,30,-1,32,34,-1,36,-1,38,40,42,44,-1,-1,-1,-1,-1,-1,-1,-1,-1,-1,-1,-1,-1,-1],"split_conditions":[9.824564E1,-1.1266747E1,4.8978835E-1,-1.222427E-1,1.4403769E2,3.0639976E-2,3.400804E-1,1.4455667E2,5.478556E0,2.1308E6,1.5720833E2,2.4E1,1.986034E-1,-3.2678723E-1,-1.3641599E-1,1.365647E-1,-2.533917E-1,2.0017316E2,-1.5049456E-2,-5.8112424E-2,-1.0119563E2,7.342897E-2,1.6712E2,4.619132E0,1.6026899E-1,1.471E6,-7.2605093E-3,7.2780027E0,2.4030866E-2,4.3432596E-1,3.9489026E0,-7.621583E-2,1.43085485E-2,-1.0471962E-1,2.2337493E-2,1.8129008E-1,2.7320543E-2,-9.198748E-2,-2.665741E-1,-1.2192437E-1,4.0714275E-2,2.1466722E-1,1.2189373E-3,4.9929228E-2,-4.7812887E-2],"split_indices":[76,85,0,7,66,0,0,22,34,4,39,63,71,0,0,38,0,91,7,7,50,0,1,34,0,4,0,48,72,73,35,0,0,0,0,0,0,0,0,0,0,0,0,0,0],"split_type":[0,0,0,0,0,0,0,0,0,0,0,0,0,0,0,0,0,0,0,0,0,0,0,0,0,0,0,0,0,0,0,0,0,0,0,0,0,0,0,0,0,0,0,0,0],"sum_hessian":[2.28E2,2.25E2,3E0,9E0,2.16E2,5E0,4E0,2.3E1,1.93E2,7E0,1.6E1,4.7E1,1.46E2,4E0,3E0,1.3E1,3E0,2.7E1,2E1,5.5E1,9.1E1,4E0,9E0,2.3E1,4E0,1.7E1,3E0,3.7E1,1.8E1,1E1,8.1E1,6E0,3E0,9E0,1.4E1,1.4E1,3E0,3.2E1,5E0,4E0,1.4E1,6E0,4E0,2.5E1,5.6E1],"tree_param":{"num_deleted":"0","num_feature":"99","num_nodes":"45","size_leaf_vector":"1"}},{"base_weights":[1.7264645E-1,5.588175E-3,4.7175562E-1,-2.1586955E0,2.9628503E-1,-2.8902783E0,8.042512E-2,3.3567185E0,1.1847848E-1,-3.18385E-1,-1.5312139E0,5.173088E0,6.993228E-3,-7.3280805E-1,6.170145E-1,-2.5034907E0,4.0773448E-2,3.0768922E-1,1.367166E-1,1.695539E0,-1.5286865E0,2.1612208E-1,2.1477966E0,-3.084614E0,-2.0853832E-2,-4.9913144E-1,3.137523E0,-2.3082955E0,3.0389148E-1,4.1175574E-1,-1.7014E-1,-4.6229613E-1,3.4032695E0,-1.845294E-1,-8.14113E-2,5.174446E-2,-8.059924E-2,2.079044E-1,4.7779124E-2,-1.4199443E-1,3.3984747E-2,6.8152525E-2,-1.264754E-1,4.9069006E-2,-6.0237966E-2,6.341974E-2,-1.0426903E-1,2.4679191E-2,2.08979E-1],"categories":[],"categories_nodes":[],"categories_segments":[],"categories_sizes":[],"default_left":[0,0,0,0,0,0,0,0,0,0,0,0,0,0,0,0,0,0,0,0,0,0,0,0,0,0,0,0,0,0,0,0,0,0,0,0,0,0,0,0,0,0,0,0,0,0,0,0,0],"id":5,"left_children":[1,3,-1,5,7,9,-1,11,13,-1,15,17,-1,19,21,23,-1,-1,-1,25,27,29,31,33,-1,35,37,39,41,43,-1,45,47,-1,-1,-1,-1,-1,-1,-1,-1,-1,-1,-1,-1,-1,-1,-1,-1],"loss_changes":[3.625631E2,1.4345674E2,0E0,7.973675E1,1.0897951E2,1.02458145E2,0E0,6.348419E1,8.1511986E1,0E0,4.3413223E1,8.447418E-1,0E0,1.3981146E2,7.3790985E1,1.4393242E1,0E0,0E0,0E0,5.8530266E1,7.785095E1,7.1298645E1,8.3495834E1,3.3842697E0,0E0,1.5929958E1,2.200924E1,6.86196E1,5.6676067E1,9.081799E1,0E0,2.8979525E1,3.9959946E1,0E0,0E0,0E0,0E0,0E0,0E0,0E0,0E0,0E0,0E0,0E0,0E0,0E0,0E0,0E0,0E0],"parents":[2147483647,0,0,1,1,3,3,4,4,5,5,7,7,8,8,10,10,11,11,13,13,14,14,15,15,19,19,20,20,21,21,22,22,23,23,25,25,26,26,27,27,28,28,29,29,31,31,32,32],"right_children":[2,4,-1,6,8,10,-1,12,14,-1,16,18,-1,20,22,24,-1,-1,-1,26,28,30,32,34,-1,36,38,40,42,44,-1,46,48,-1,-1,-1,-1,-1,-1,-1,-1,-1,-1,-1,-1,-1,-1,-1,-1],"split_conditions":[9.824564E1,1.4857286E2,4.7175562E-1,1.7546E2,-1.1266747E1,5.6748095E0,8.042512E-2,2.4675276E1,1.577532E1,-3.18385E-1,1.6712E2,1.9313E2,6.993228E-3,-3.5652788E0,5.331687E2,5.502378E6,4.0773448E-2,3.0768922E-1,1.367166E-1,-2.5950014E4,1.7626999E2,7.640572E1,1.6732E2,1.6442E2,-2.0853832E-2,1.946E2,-4.4815025E0,1.9978E2,6.194638E0,1.7879039E2,-1.7014E-1,5.507968E0,1.2E1,-1.845294E-1,-8.14113E-2,5.174446E-2,-8.059924E-2,2.079044E-1,4.7779124E-2,-1.4199443E-1,3.3984747E-2,6.8152525E-2,-1.264754E-1,4.9069006E-2,-6.0237966E-2,6.341974E-2,-1.0426903E-1,2.4679191E-2,2.08979E-1],"split_indices":[76,66,0,30,85,25,0,47,18,0,1,2,0,86,9,8,0,0,0,8,62,51,62,1,0,30,48,2,25,40,0,35,63,0,0,0,0,0,0,0,0,0,0,0,0,0,0,0,0],"split_type":[0,0,0,0,0,0,0,0,0,0,0,0,0,0,0,0,0,0,0,0,0,0,0,0,0,0,0,0,0,0,0,0,0,0,0,0,0,0,0,0,0,0,0,0,0,0,0,0,0],"sum_hessian":[2.29E2,2.26E2,3E0,2.6E1,2E2,2.2E1,4E0,1E1,1.9E2,5E0,1.7E1,6E0,4E0,7E1,1.2E2,1.2E1,5E0,3E0,3E0,1.7E1,5.3E1,9.6E1,2.4E1,9E0,3E0,7E0,1E1,3.7E1,1.6E1,9.2E1,4E0,8E0,1.6E1,5E0,4E0,3E0,4E0,6E0,4E0,3.1E1,6E0,1.2E1,4E0,6.8E1,2.4E1,4E0,4E0,4E0,1.2E1],"tree_param":{"num_deleted":"0","num_feature":"99","num_nodes":"49","size_leaf_vector":"1"}},{"base_weights":[-2.7315304E-2,-1.8935393E-1,4.543868E-1,-2.894647E0,9.76932E-2,4.5424017E-1,-4.1788697E0,2.0379815E-1,-2.1444967E-3,6.0795356E-2,-2.1772826E-2,-6.023564E0,-1.5812303E0,-1.5252274E-1,2.4166176E0,-3.602335E-1,-1.2496558E-1,-1.0819109E-1,-2.0005893E-2,3.1972492E-1,-9.3320006E-1,3.1874924E0,3.8287716E-3,1.1141468E0,-5.6239104E-1,-1.7080178E0,5.331251E-1,6.1345343E-2,1.9381346E-1,-6.0763918E-2,7.469112E-2,-2.2305958E-1,-4.960171E-3,-1.7226587E-1,-1.997614E-2,-1.9517054E-1,6.352735E-2],"categories":[],"categories_nodes":[],"categories_segments":[],"categories_sizes":[],"default_left":[0,0,0,0,0,0,0,0,0,0,0,0,0,0,0,0,0,0,0,0,0,0,0,0,0,0,0,0,0,0,0,0,0,0,0,0,0],"id":6,"left_children":[1,3,-1,5,7,9,11,-1,13,-1,-1,15,17,19,21,-1,-1,-1,-1,23,25,27,-1,29,31,33,35,-1,-1,-1,-1,-1,-1,-1,-1,-1,-1],"loss_changes":[3.5074847E2,1.7811195E2,0E0,9.651398E1,8.4191895E1,5.4775724E0,6.714496E1,0E0,7.456934E1,0E0,0E0,2.2470581E1,4.9487762E0,7.145227E1,2.1384804E1,0E0,0E0,0E0,0E0,8.542002E1,8.3848434E1,8.332245E0,0E0,6.3202995E1,1.0607898E2,1.1105946E2,9.435573E1,0E0,0E0,0E0,0E0,0E0,0E0,0E0,0E0,0E0,0E0],"parents":[2147483647,0,0,1,1,3,3,4,4,5,5,6,6,8,8,11,11,12,12,13,13,14,14,19,19,20,20,21,21,23,23,24,24,25,25,26,26],"right_children":[2,4,-1,6,8,10,12,-1,14,-1,-1,16,18,20,22,-1,-1,-1,-1,24,26,28,-1,30,32,34,36,-1,-1,-1,-1,-1,-1,-1,-1,-1,-1],"split_conditions":[9.824564E1,1.4477512E2,4.543868E-1,-1.7474503E1,-1.1935887E1,2.3682291E1,6.187814E0,2.0379815E-1,9.99939E1,6.0795356E-2,-2.1772826E-2,2.1308E6,1.475E6,6.3887606E0,7.929597E-1,-3.602335E-1,-1.2496558E-1,-1.0819109E-1,-2.0005893E-2,1.8198999E2,5.6978825E1,6.8148845E-1,3.8287716E-3,-6.58481E-1,1.786085E2,1.0118474E1,1.5708424E2,6.1345343E-2,1.9381346E-1,-6.0763918E-2,7.469112E-2,-2.2305958E-1,-4.960171E-3,-1.7226587E-1,-1.997614E-2,-1.9517054E-1,6.352735E-2],"split_indices":[76,66,0,51,85,32,25,0,56,0,0,4,4,25,19,0,0,0,0,53,13,38,0,46,41,35,87,0,0,0,0,0,0,0,0,0,0],"split_type":[0,0,0,0,0,0,0,0,0,0,0,0,0,0,0,0,0,0,0,0,0,0,0,0,0,0,0,0,0,0,0,0,0,0,0,0,0],"sum_hessian":[2.31E2,2.28E2,3E0,2.1E1,2.07E2,6E0,1.5E1,4E0,2.03E2,3E0,3E0,8E0,7E0,1.92E2,1.1E1,5E0,3E0,4E0,3E0,1.2E2,7.2E1,8E0,3E0,6.3E1,5.7E1,4.7E1,2.5E1,3E0,5E0,9E0,5.4E1,5E0,5.2E1,1.9E1,2.8E1,3E0,2.2E1],"tree_param":{"num_deleted":"0","num_feature":"99","num_nodes":"37","size_leaf_vector":"1"}},{"base_weights":[-3.84051E-2,-2.0558715E-1,4.3765754E-1,3.4935179E0,-3.8502842E-1,2.7269742E-1,1.5755752E-2,-2.5169663E0,-1.2803026E-1,-3.5755525E0,2.6222566E-1,-2.9719052E-1,2.5594165E0,-4.8610673E0,-3.0575605E-2,-3.868828E-2,6.1215363E-2,2.9798624E-1,-1.0335361E0,1.2780434E0,2.2003593E-1,-3.1283203E-1,-8.70193E-2,9.0722245E-1,-8.5757565E-1,-2.870159E0,-4.7463867E-1,-5.234599E-3,1.0457004E-1,-5.4938714E-3,1.4029562E-1,-1.16093606E-1,3.8726103E-2,-6.287138E-2,-2.5452372E-1,-5.4429416E-2,5.408875E-2],"categories":[],"categories_nodes":[],"categories_segments":[],"categories_sizes":[],"default_left":[0,0,0,0,0,0,0,0,0,0,0,0,0,0,0,0,0,0,0,0,0,0,0,0,0,0,0,0,0,0,0,0,0,0,0,0,0],"id":7,"left_children":[1,3,-1,5,7,-1,-1,9,11,13,15,17,19,21,-1,-1,-1,23,25,27,-1,-1,-1,29,31,33,35,-1,-1,-1,-1,-1,-1,-1,-1,-1,-1],"loss_changes":[3.2666483E2,1.4339235E2,0E0,6.362091E1,1.1199811E2,0E0,0E0,6.566191E1,8.440873E1,5.7704178E1,8.22324E0,7.656449E1,2.1374786E1,4.005548E1,0E0,0E0,0E0,6.9067E1,7.870344E1,9.666568E0,0E0,0E0,0E0,1.2755461E2,8.6246124E1,5.9581863E1,6.2202797E1,0E0,0E0,0E0,0E0,0E0,0E0,0E0,0E0,0E0,0E0],"parents":[2147483647,0,0,1,1,3,3,4,4,7,7,8,8,9,9,10,10,11,11,12,12,13,13,17,17,18,18,19,19,23,23,24,24,25,25,26,26],"right_children":[2,4,-1,6,8,-1,-1,10,12,14,16,18,20,22,-1,-1,-1,24,26,28,-1,-1,-1,30,32,34,36,-1,-1,-1,-1,-1,-1,-1,-1,-1,-1],"split_conditions":[9.824564E1,-1.1266747E1,4.3765754E-1,1.9358E2,1.4477512E2,2.7269742E-1,1.5755752E-2,2.553418E1,2.837943E1,5.28581E6,7.906382E-1,6.2092752E0,1.6474829E2,6.187814E0,-3.0575605E-2,-3.868828E-2,6.1215363E-2,1.8198999E2,-4.2186522E0,1.7351E2,2.2003593E-1,-3.1283203E-1,-8.70193E-2,7.6841385E1,5.5355865E1,4.33905E0,-4.8211418E-2,-5.234599E-3,1.0457004E-1,-5.4938714E-3,1.4029562E-1,-1.16093606E-1,3.8726103E-2,-6.287138E-2,-2.5452372E-1,-5.4429416E-2,5.408875E-2],"split_indices":[76,85,0,2,66,0,0,18,32,8,71,34,67,25,0,0,0,53,84,3,0,0,0,9,77,35,7,0,0,0,0,0,0,0,0,0,0],"split_type":[0,0,0,0,0,0,0,0,0,0,0,0,0,0,0,0,0,0,0,0,0,0,0,0,0,0,0,0,0,0,0,0,0,0,0,0,0],"sum_hessian":[2.16E2,2.13E2,3E0,9E0,2.04E2,5E0,4E0,2.1E1,1.83E2,1.5E1,6E0,1.73E2,1E1,1E1,5E0,3E0,3E0,9.6E1,7.7E1,7E0,3E0,6E0,4E0,6.3E1,3.3E1,1.7E1,6E1,3E0,4E0,4.2E1,2.1E1,1.7E1,1.6E1,1.1E1,6E0,4.3E1,1.7E1],"tree_param":{"num_deleted":"0","num_feature":"99","num_nodes":"37","size_leaf_vector":"1"}},{"base_weights":[-6.2916376E-2,-2.4221258E-1,4.9277505E-1,-2.4716082E0,1.267713E-1,-3.4517853E0,4.1682085E-1,8.317205E-1,-5.172193E-1,7.368374E-3,-4.1796675E0,-7.069096E-3,5.664242E-2,-7.149581E-1,1.3501285E0,1.6233395E-1,-1.2272013E0,-5.5764155E0,-1.8529292E0,-1.6102008E0,1.4771162E-1,3.68613E0,8.993594E-1,-3.7517422E-1,1.6864763E0,-1.7707138E-1,-8.2069236E-1,-1.714192E-1,-3.4750187E-1,-1.7873178E-1,-1.728555E-2,-3.9921057E0,-3.04234E-1,1.2223746E-2,2.426966E-1,1.0526409E-1,2.0861163E0,-1.4433405E-1,-8.49906E-3,3.2374915E-2,2.183739E0,-1.4828401E0,4.3074358E-1,-2.5238705E-1,-9.056383E-2,8.1592664E-2,-4.8677992E-2,-2.1832386E-2,1.0577068E-1,2.1992968E-1,6.7906186E-2,8.482857E-2,-2.0293994E-2,4.6737228E-2,1.2964103E-1,-1.1719132E-1,3.8893066E-2,-1.4634823E-2,1.0278804E-1],"categories":[],"categories_nodes":[],"categories_segments":[],"categories_sizes":[],"default_left":[0,0,0,0,0,0,0,0,0,0,0,0,0,0,0,0,0,0,0,0,0,0,0,0,0,0,0,0,0,0,0,0,0,0,0,0,0,0,0,0,0,0,0,0,0,0,0,0,0,0,0,0,0,0,0,0,0,0,0],"id":8,"left_children":[1,3,-1,5,7,9,11,13,15,-1,17,-1,-1,19,21,23,25,27,29,31,-1,33,35,37,39,-1,41,-1,-1,-1,-1,43,45,-1,-1,47,49,-1,51,-1,53,55,57,-1,-1,-1,-1,-1,-1,-1,-1,-1,-1,-1,-1,-1,-1,-1,-1],"loss_changes":[4.153613E2,1.8540082E2,0E0,9.203627E1,8.8502426E1,6.3549316E1,3.8862598E0,7.553367E1,4.9411224E1,0E0,5.466461E1,0E0,0E0,8.485751E1,7.039465E1,4.4052395E1,4.5411926E1,1.2863281E1,2.2868717E1,6.099924E1,0E0,4.6324066E1,5.6324303E1,3.7596275E1,5.7092705E0,0E0,3.7098686E1,0E0,0E0,0E0,0E0,7.78862E0,2.057079E1,0E0,0E0,4.266349E1,3.4183884E1,0E0,2.602703E1,0E0,2.5532036E0,6.1565147E1,2.0019447E1,0E0,0E0,0E0,0E0,0E0,0E0,0E0,0E0,0E0,0E0,0E0,0E0,0E0,0E0,0E0,0E0],"parents":[2147483647,0,0,1,1,3,3,4,4,5,5,6,6,7,7,8,8,10,10,13,13,14,14,15,15,16,16,17,17,18,18,19,19,21,21,22,22,23,23,24,24,26,26,31,31,32,32,35,35,36,36,38,38,40,40,41,41,42,42],"right_children":[2,4,-1,6,8,10,12,14,16,-1,18,-1,-1,20,22,24,26,28,30,32,-1,34,36,38,40,-1,42,-1,-1,-1,-1,44,46,-1,-1,48,50,-1,52,-1,54,56,58,-1,-1,-1,-1,-1,-1,-1,-1,-1,-1,-1,-1,-1,-1,-1,-1],"split_conditions":[9.8231445E1,1.536232E2,4.9277505E-1,6.1348145E1,6.0964327E0,-1.7474503E1,1.6812E2,1.6388E1,1.5692993E2,7.368374E-3,1.7296607E0,-7.069096E-3,5.664242E-2,1.9992734E2,1.874192E1,8.1875E6,1.57935E2,-8.684698E6,2.7989E6,3.7877297E-5,1.4771162E-1,1.2478623E1,-5.207242E-2,1.5531764E1,7.2E1,-1.7707138E-1,3.6E1,-1.714192E-1,-3.4750187E-1,-1.7873178E-1,-1.728555E-2,1.9381E2,-2.5685494E0,1.2223746E-2,2.426966E-1,5.488323E-2,-1.2398238E1,-1.4433405E-1,2.276791E1,3.2374915E-2,7.1504393E0,-3.293036E-2,-9.241633E6,-2.5238705E-1,-9.056383E-2,8.1592664E-2,-4.8677992E-2,-2.1832386E-2,1.0577068E-1,2.1992968E-1,6.7906186E-2,8.482857E-2,-2.0293994E-2,4.6737228E-2,1.2964103E-1,-1.1719132E-1,3.8893066E-2,-1.4634823E-2,1.0278804E-1],"split_indices":[76,66,0,70,25,51,3,58,17,0,84,0,0,91,58,6,61,5,6,56,0,32,7,18,65,0,63,0,0,0,0,2,38,0,0,38,84,0,57,0,25,7,5,0,0,0,0,0,0,0,0,0,0,0,0,0,0,0,0],"split_type":[0,0,0,0,0,0,0,0,0,0,0,0,0,0,0,0,0,0,0,0,0,0,0,0,0,0,0,0,0,0,0,0,0,0,0,0,0,0,0,0,0,0,0,0,0,0,0,0,0,0,0,0,0,0,0,0,0,0,0],"sum_hessian":[2.27E2,2.24E2,3E0,3.1E1,1.93E2,2.3E1,8E0,9.2E1,1.01E2,4E0,1.9E1,5E0,3E0,2.3E1,6.9E1,5.2E1,4.9E1,1.1E1,8E0,1.9E1,4E0,1E1,5.9E1,3.9E1,1.3E1,6E0,4.3E1,6E0,5E0,3E0,5E0,6E0,1.3E1,3E0,7E0,3.6E1,2.3E1,4E0,3.5E1,5E0,8E0,2.8E1,1.5E1,3E0,3E0,3E0,1E1,2.9E1,7E0,4E0,1.9E1,6E0,2.9E1,3E0,5E0,2E1,8E0,1.1E1,4E0],"tree_param":{"num_deleted":"0","num_feature":"99","num_nodes":"59","size_leaf_vector":"1"}},{"base_weights":[5.0586857E-2,-1.20763235E-1,3.6704803E-1,1.7703216E-1,-2.1372046E0,1.0442339E0,-3.609573E-1,1.5050182E-1,-3.1321228E0,1.9771374E0,-2.5122577E-2,-2.6458466E0,-7.732977E-2,-5.263635E0,-9.2364043E-1,-8.9356184E-2,2.4631329E0,-8.693823E-1,1.0317723E0,-2.771497E-3,-3.4170175E0,-3.6882746E-1,2.757931E0,-3.0178645E-1,-9.615388E-2,-1.792841E-1,2.6013187E-1,1.4025509E0,4.3790355E0,-2.0779781E0,3.083759E-1,-6.488657E-2,1.6765786E0,-7.006508E-2,-1.995927E-1,-5.0378513E-1,1.4210948E-1,2.1355954E-1,1.4501463E-2,-7.992079E-2,1.3019316E0,1.15555204E-1,-6.1081264E-2,2.5710282E-1,6.641744E-2,-1.6241122E-2,-1.364446E-1,-2.7983934E-2,7.2481394E-2,1.1194834E-1,-1.2386044E-2,-1.3845347E-1,-1.2541962E-2,1.4743951E-2,9.7101435E-2],"categories":[],"categories_nodes":[],"categories_segments":[],"categories_sizes":[],"default_left":[0,0,0,0,0,0,0,0,0,0,0,0,0,0,0,0,0,0,0,0,0,0,0,0,0,0,0,0,0,0,0,0,0,0,0,0,0,0,0,0,0,0,0,0,0,0,0,0,0,0,0,0,0,0,0],"id":9,"left_children":[1,3,-1,5,7,9,11,-1,13,15,17,19,21,23,25,-1,27,29,31,-1,33,35,37,-1,-1,-1,39,41,43,45,47,-1,49,-1,-1,51,-1,-1,-1,-1,53,-1,-1,-1,-1,-1,-1,-1,-1,-1,-1,-1,-1,-1,-1],"loss_changes":[2.821315E2,1.3068404E2,0E0,8.9020546E1,1.5454758E2,7.2874954E1,7.626618E1,0E0,1.0811609E2,7.645865E1,3.2127285E1,2.5766281E1,8.862323E1,2.3016754E1,4.2939354E1,0E0,6.497719E1,2.910947E1,2.649757E1,0E0,7.107193E0,4.418331E1,3.7929306E1,0E0,0E0,0E0,2.1790693E1,6.336561E1,2.4083145E1,1.13367E1,1.2129013E1,0E0,1.5718533E1,0E0,0E0,5.334884E1,0E0,0E0,0E0,0E0,4.1461267E0,0E0,0E0,0E0,0E0,0E0,0E0,0E0,0E0,0E0,0E0,0E0,0E0,0E0,0E0],"parents":[2147483647,0,0,1,1,3,3,4,4,5,5,6,6,8,8,9,9,10,10,11,11,12,12,13,13,14,14,16,16,17,17,18,18,20,20,21,21,22,22,26,26,27,27,28,28,29,29,30,30,32,32,35,35,40,40],"right_children":[2,4,-1,6,8,10,12,-1,14,16,18,20,22,24,26,-1,28,30,32,-1,34,36,38,-1,-1,-1,40,42,44,46,48,-1,50,-1,-1,52,-1,-1,-1,-1,54,-1,-1,-1,-1,-1,-1,-1,-1,-1,-1,-1,-1,-1,-1],"split_conditions":[9.724426E-1,9.4071776E-1,3.6704803E-1,5.821592E0,1.9856079E-1,2.794608E1,2.1311447E-2,1.5050182E-1,9.4658154E-1,4.8022524E-1,1.6183537E2,-2.3434975E0,2.6728004E1,8.156902E-1,1.2782723E3,-8.9356184E-2,4.4696075E1,-5.032817E-1,9.259E5,-2.771497E-3,-3.896351E1,6.510732E1,1.7E2,-3.0178645E-1,-9.615388E-2,-1.792841E-1,1.657E2,1.716E2,4.691361E3,1.5375961E2,-7.67574E-2,-6.488657E-2,1.471E6,-7.006508E-2,-1.995927E-1,-9.796994E0,1.4210948E-1,2.1355954E-1,1.4501463E-2,-7.992079E-2,1.6967E2,1.15555204E-1,-6.1081264E-2,2.5710282E-1,6.641744E-2,-1.6241122E-2,-1.364446E-1,-2.7983934E-2,7.2481394E-2,1.1194834E-1,-1.2386044E-2,-1.3845347E-1,-1.2541962E-2,1.4743951E-2,9.7101435E-2],"split_indices":[33,71,0,34,83,57,72,0,19,43,42,48,32,33,14,0,70,88,4,0,51,70,0,0,0,0,0,0,11,40,38,0,4,0,0,48,0,0,0,0,1,0,0,0,0,0,0,0,0,0,0,0,0,0,0],"split_type":[0,0,0,0,0,0,0,0,0,0,0,0,0,0,0,0,0,0,0,0,0,0,0,0,0,0,0,0,0,0,0,0,0,0,0,0,0,0,0,0,0,0,0,0,0,0,0,0,0,0,0,0,0,0,0],"sum_hessian":[2.2E2,2.16E2,4E0,1.89E2,2.7E1,7.2E1,1.17E2,4E0,2.3E1,3.8E1,3.4E1,1.2E1,1.05E2,1.1E1,1.2E1,4E0,3.4E1,1.9E1,1.5E1,3E0,9E0,9.6E1,9E0,8E0,3E0,3E0,9E0,2.3E1,1.1E1,9E0,1E1,3E0,1.2E1,3E0,6E0,9.3E1,3E0,5E0,4E0,3E0,6E0,1.7E1,6E0,8E0,3E0,3E0,6E0,6E0,4E0,9E0,3E0,8E0,8.5E1,3E0,3E0],"tree_param":{"num_deleted":"0","num_feature":"99","num_nodes":"55","size_leaf_vector":"1"}},{"base_weights":[-9.0292804E-2,-2.4940814E-1,3.526334E-1,3.8665265E-2,-2.4890041E0,1.0497528E0,-2.8121832E-1,-4.8815517E0,-8.9566514E-2,8.255444E-2,2.3354194E0,-2.5415976E0,-7.376272E-2,-3.1812215E-1,-2.5853357E0,-2.0862763E0,2.2051826E0,-4.4483718E-1,1.3268998E-1,1.485106E-1,3.2002823E0,-1.2311047E0,-2.1561079E-1,1.4420922E0,-3.9159977E-1,-1.6659078E-1,-5.550832E-2,-1.6822144E-1,-2.9286873E-2,2.0738592E-2,1.6870262E-1,2.6968482E-1,-1.3511679E-1,5.5459656E-2,-4.2701516E-2,3.627233E0,5.4949224E-2,1.531556E-2,-1.0086252E-1,9.126098E-1,1.9605125E-1,-1.5065818E0,1.50078E-1,-8.1977565E-3,1.01034425E-1,2.26314E-1,9.208774E-2,6.264369E-2,-2.8397756E-2,-4.5766246E-2,-3.0919328E-1,-1.09642735E-2,8.252463E-2],"categories":[],"categories_nodes":[],"categories_segments":[],"categories_sizes":[],"default_left":[0,0,0,0,0,0,0,0,0,0,0,0,0,0,0,0,0,0,0,0,0,0,0,0,0,0,0,0,0,0,0,0,0,0,0,0,0,0,0,0,0,0,0,0,0,0,0,0,0,0,0,0,0],"id":10,"left_children":[1,3,-1,5,7,9,11,13,15,17,19,21,23,-1,25,27,29,31,-1,33,35,37,-1,39,41,-1,-1,-1,-1,-1,-1,43,-1,-1,-1,45,-1,-1,-1,47,-1,49,51,-1,-1,-1,-1,-1,-1,-1,-1,-1,-1],"loss_changes":[2.7029916E2,1.4719455E2,0E0,6.595156E1,1.4882278E2,6.0738438E1,7.249642E1,3.0972992E1,6.874789E1,4.128045E1,3.924363E1,2.6119804E1,6.946139E1,0E0,4.392418E0,1.3931252E1,1.3915176E1,4.1963074E1,0E0,7.977678E0,9.266586E0,1.2078317E1,0E0,3.013136E1,7.209746E1,0E0,0E0,0E0,0E0,0E0,0E0,1.5963451E1,0E0,0E0,0E0,1.2009705E1,0E0,0E0,0E0,1.2662247E1,0E0,1.01453705E2,4.668524E1,0E0,0E0,0E0,0E0,0E0,0E0,0E0,0E0,0E0,0E0],"parents":[2147483647,0,0,1,1,3,3,4,4,5,5,6,6,7,7,8,8,9,9,10,10,11,11,12,12,14,14,15,15,16,16,17,17,19,19,20,20,21,21,23,23,24,24,31,31,35,35,39,39,41,41,42,42],"right_children":[2,4,-1,6,8,10,12,14,16,18,20,22,24,-1,26,28,30,32,-1,34,36,38,-1,40,42,-1,-1,-1,-1,-1,-1,44,-1,-1,-1,46,-1,-1,-1,48,-1,50,52,-1,-1,-1,-1,-1,-1,-1,-1,-1,-1],"split_conditions":[9.670607E-1,9.4071776E-1,3.526334E-1,5.520789E0,7.1073335E-1,1.3327103E3,1.0825536E3,2.3966293E0,1.555475E2,2.0094E2,1.5743E2,3.7755683E-2,3.4697478E0,-3.1812215E-1,6.7136055E-1,2.4684175E1,4E0,1.3105106E1,1.3268998E-1,-5.3075854E2,9.998844E1,3.0448958E-1,-2.1561079E-1,2.6720566E1,-4.144794E0,-1.6659078E-1,-5.550832E-2,-1.6822144E-1,-2.9286873E-2,2.0738592E-2,1.6870262E-1,1.6163374E1,-1.3511679E-1,5.5459656E-2,-4.2701516E-2,1.8095E2,5.4949224E-2,1.531556E-2,-1.0086252E-1,-2.8569777E0,1.9605125E-1,-4.298442E0,6.9822314E2,-8.1977565E-3,1.01034425E-1,2.26314E-1,9.208774E-2,6.264369E-2,-2.8397756E-2,-4.5766246E-2,-3.0919328E-1,-1.09642735E-2,8.252463E-2],"split_indices":[33,71,0,34,85,14,14,89,54,0,1,89,35,0,33,47,63,74,0,9,56,73,0,32,84,0,0,0,0,0,0,58,0,0,0,55,0,0,0,85,0,84,9,0,0,0,0,0,0,0,0,0,0],"split_type":[0,0,0,0,0,0,0,0,0,0,0,0,0,0,0,0,0,0,0,0,0,0,0,0,0,0,0,0,0,0,0,0,0,0,0,0,0,0,0,0,0,0,0,0,0,0,0,0,0,0,0,0,0],"sum_hessian":[2.31E2,2.27E2,4E0,2.02E2,2.5E1,4.8E1,1.54E2,1.2E1,1.3E1,2.8E1,2E1,1.2E1,1.42E2,6E0,6E0,7E0,6E0,2.4E1,4E0,6E0,1.4E1,8E0,4E0,2.4E1,1.18E2,3E0,3E0,3E0,4E0,3E0,3E0,1.9E1,5E0,3E0,3E0,1.1E1,3E0,3E0,5E0,2.1E1,3E0,3.8E1,8E1,1.6E1,3E0,6E0,5E0,1.7E1,4E0,3.5E1,3E0,6.5E1,1.5E1],"tree_param":{"num_deleted":"0","num_feature":"99","num_nodes":"53","size_leaf_vector":"1"}},{"base_weights":[-5.8084708E-2,-1.9736977E-1,3.875981E-1,2.8610828E0,-3.5079E-1,1.3498128E-2,2.4399385E-1,-8.753258E-1,4.0494233E-1,-2.1911675E-1,-6.639995E-1,-3.3317298E-2,1.8465248E0,-9.097273E-1,1.684793E0,4.843169E-1,-1.4482468E0,-4.8575345E-2,2.7946334E0,-6.0179055E-1,-2.8609324E0,4.0614253E-1,1.6659504E-1,2.2919004E0,-4.591351E-1,-2.2867565E0,3.15878E-1,9.180987E-1,2.0382844E-1,4.395551E-2,-4.44188E-2,-2.752374E-1,-6.640496E-2,-7.951236E-3,4.981401E-2,2.3673497E-1,7.188157E-2,-9.163527E-2,4.047047E-2,-1.339989E-1,-2.98366E-2,-1.5655238E-2,4.2791452E-2,7.626264E-2,-5.1896195E-3],"categories":[],"categories_nodes":[],"categories_segments":[],"categories_sizes":[],"default_left":[0,0,0,0,0,0,0,0,0,0,0,0,0,0,0,0,0,0,0,0,0,0,0,0,0,0,0,0,0,0,0,0,0,0,0,0,0,0,0,0,0,0,0,0,0],"id":11,"left_children":[1,3,-1,5,7,-1,-1,9,11,-1,13,15,17,19,21,23,25,-1,27,29,31,33,-1,35,37,39,41,43,-1,-1,-1,-1,-1,-1,-1,-1,-1,-1,-1,-1,-1,-1,-1,-1,-1],"loss_changes":[2.5746976E2,1.0798774E2,0E0,5.863623E1,8.677155E1,0E0,0E0,9.485604E1,5.6922386E1,0E0,7.25238E1,5.1970528E1,5.9231773E1,6.5573265E1,2.4842438E1,8.973143E1,2.882782E1,0E0,3.694673E1,4.5276287E1,5.4535873E1,2.9304442E0,0E0,3.0636757E1,6.4772064E1,8.008064E0,2.7477791E0,5.3687596E0,0E0,0E0,0E0,0E0,0E0,0E0,0E0,0E0,0E0,0E0,0E0,0E0,0E0,0E0,0E0,0E0,0E0],"parents":[2147483647,0,0,1,1,3,3,4,4,7,7,8,8,10,10,11,11,12,12,13,13,14,14,15,15,16,16,18,18,19,19,20,20,21,21,23,23,24,24,25,25,26,26,27,27],"right_children":[2,4,-1,6,8,-1,-1,10,12,-1,14,16,18,20,22,24,26,-1,28,30,32,34,-1,36,38,40,42,44,-1,-1,-1,-1,-1,-1,-1,-1,-1,-1,-1,-1,-1,-1,-1,-1,-1],"split_conditions":[9.824564E1,-1.1266747E1,3.875981E-1,-1.222427E-1,2.2170005E0,1.3498128E-2,2.4399385E-1,1.43955E2,2.4487572E1,-2.1911675E-1,4.8789415E-1,1.9669127E1,1.4105938E1,2.5542196E1,8.275247E-1,2.1701687E1,-7.2367954E-1,-4.8575345E-2,1.3713E6,-2.267945E1,6.9839125E0,1.2094501E0,1.6659504E-1,1.6201E2,9.3907274E-2,1.2332422E3,1.5837E6,2.4540388E1,2.0382844E-1,4.395551E-2,-4.44188E-2,-2.752374E-1,-6.640496E-2,-7.951236E-3,4.981401E-2,2.3673497E-1,7.188157E-2,-9.163527E-2,4.047047E-2,-1.339989E-1,-2.98366E-2,-1.5655238E-2,4.2791452E-2,7.626264E-2,-5.1896195E-3],"split_indices":[76,85,0,7,48,0,0,22,58,0,45,77,18,47,71,57,38,0,4,74,34,43,0,0,71,14,4,18,0,0,0,0,0,0,0,0,0,0,0,0,0,0,0,0,0],"split_type":[0,0,0,0,0,0,0,0,0,0,0,0,0,0,0,0,0,0,0,0,0,0,0,0,0,0,0,0,0,0,0,0,0,0,0,0,0,0,0,0,0,0,0,0,0],"sum_hessian":[2.3E2,2.27E2,3E0,1E1,2.17E2,5E0,5E0,1.28E2,8.9E1,6E0,1.22E2,6.9E1,2E1,1.11E2,1.1E1,5.1E1,1.8E1,5E0,1.5E1,9.7E1,1.4E1,7E0,4E0,1.7E1,3.4E1,1.2E1,6E0,7E0,8E0,1.6E1,8.1E1,4E0,1E1,4E0,3E0,3E0,1.4E1,1.6E1,1.8E1,9E0,3E0,3E0,3E0,4E0,3E0],"tree_param":{"num_deleted":"0","num_feature":"99","num_nodes":"45","size_leaf_vector":"1"}},{"base_weights":[-7.892198E-2,-2.1163504E-1,3.733278E-1,-1.4044384E0,1.0068124E-1,-4.7677526E-1,-3.2299662E0,-9.727841E-1,3.8673922E-1,-9.861559E-1,1.699871E-1,-2.6570025E-1,-1.3791759E0,-2.6311824E0,4.2830467E-1,1.3075737E0,-2.0075303E-1,-2.9249537E-1,-2.5721977E0,-1.5489493E-1,-1.6720308E-1,-4.203195E-1,-1.9635378E-1,1.3287467E-1,-2.283953E-1,1.0916177E-1,2.5448875E0,-1.2771152E0,6.47389E-1,3.200088E-1,-9.715742E-2,-4.783638E-2,-1.5751234E-1,2.6923759E-2,-4.128772E-2,-6.14981E-2,1.6184999E-2,-1.3353647E0,6.490844E-2,2.0494375E0,-5.7046294E-1,4.2198453E0,8.119341E-1,-2.3186252E-1,-3.2017374E0,-1.0234668E0,1.5129188E0,-1.3318928E-2,7.1147226E-2,-1.2755293E-1,7.37266E-3,1.4088016E-2,1.4970016E-1,-1.6462569E-1,7.205964E-4,2.5274074E-1,7.454309E-2,-2.5098765E-2,7.484586E-2,-3.674495E-2,8.351203E-2,-2.896079E-1,-7.523803E-2,-8.9264855E-2,4.2681642E-2,3.9079316E-2,1.2174855E-1],"categories":[],"categories_nodes":[],"categories_segments":[],"categories_sizes":[],"default_left":[0,0,0,0,0,0,0,0,0,0,0,0,0,0,0,0,0,0,0,0,0,0,0,0,0,0,0,0,0,0,0,0,0,0,0,0,0,0,0,0,0,0,0,0,0,0,0,0,0,0,0,0,0,0,0,0,0,0,0,0,0,0,0,0,0,0,0],"id":12,"left_children":[1,3,-1,5,7,9,11,13,15,17,-1,-1,19,21,23,25,27,29,31,-1,33,35,-1,-1,37,39,41,43,45,47,-1,-1,-1,-1,-1,-1,-1,49,-1,51,53,55,57,59,61,63,65,-1,-1,-1,-1,-1,-1,-1,-1,-1,-1,-1,-1,-1,-1,-1,-1,-1,-1,-1,-1],"loss_changes":[2.4023218E2,8.6196266E1,0E0,7.9746826E1,5.6877712E1,6.963693E1,5.716661E1,9.174591E1,7.924604E1,3.2252884E1,0E0,0E0,2.0998978E1,5.278698E1,3.353602E1,8.4242455E1,8.298852E1,2.3361513E1,6.025242E0,0E0,3.8370845E0,5.407856E0,0E0,0E0,3.2662716E1,4.0728912E1,7.784723E1,7.972629E1,7.530339E1,1.1745739E1,0E0,0E0,0E0,0E0,0E0,0E0,0E0,2.1028862E1,0E0,1.3225525E1,3.7504864E1,2.7303772E1,1.4926099E1,2.823945E1,5.3997955E1,2.8666414E1,2.1598755E1,0E0,0E0,0E0,0E0,0E0,0E0,0E0,0E0,0E0,0E0,0E0,0E0,0E0,0E0,0E0,0E0,0E0,0E0,0E0,0E0],"parents":[2147483647,0,0,1,1,3,3,4,4,5,5,6,6,7,7,8,8,9,9,12,12,13,13,14,14,15,15,16,16,17,17,18,18,20,20,21,21,24,24,25,25,26,26,27,27,28,28,29,29,37,37,39,39,40,40,41,41,42,42,43,43,44,44,45,45,46,46],"right_children":[2,4,-1,6,8,10,12,14,16,18,-1,-1,20,22,24,26,28,30,32,-1,34,36,-1,-1,38,40,42,44,46,48,-1,-1,-1,-1,-1,-1,-1,50,-1,52,54,56,58,60,62,64,66,-1,-1,-1,-1,-1,-1,-1,-1,-1,-1,-1,-1,-1,-1,-1,-1,-1,-1,-1,-1],"split_conditions":[9.824564E1,1.7320938E2,3.733278E-1,9.032835E-1,2.397286E1,8.205916E-1,1.7296607E0,1.9388E2,2.4656322E1,3.2823338E1,1.699871E-1,-2.6570025E-1,2.7989E6,1.6538501E2,-3.6356783E0,1.12786755E-1,2.279274E1,1.238683E1,1.3512E2,-1.5489493E-1,2.4699669E1,-6.849917E2,-1.9635378E-1,1.3287467E-1,1.0825536E3,7.2835994E0,2.794608E1,-1.0796493E7,-6.350021E-2,-9.537873E6,-9.715742E-2,-4.783638E-2,-1.5751234E-1,2.6923759E-2,-4.128772E-2,-6.14981E-2,1.6184999E-2,1.2174E6,6.490844E-2,1.1073E6,4.50966E-2,9.6E1,1.6897284E2,2.7786914E-1,2.115686E1,5.4845375E1,4.50155E2,-1.3318928E-2,7.1147226E-2,-1.2755293E-1,7.37266E-3,1.4088016E-2,1.4970016E-1,-1.6462569E-1,7.205964E-4,2.5274074E-1,7.454309E-2,-2.5098765E-2,7.484586E-2,-3.674495E-2,8.351203E-2,-2.896079E-1,-7.523803E-2,-8.9264855E-2,4.2681642E-2,3.9079316E-2,1.2174855E-1],"split_indices":[76,16,0,71,47,71,84,2,47,57,0,0,6,53,86,71,58,25,0,0,47,9,0,0,14,77,57,5,48,5,0,0,0,0,0,0,0,4,0,4,73,64,93,80,58,75,9,0,0,0,0,0,0,0,0,0,0,0,0,0,0,0,0,0,0,0,0],"split_type":[0,0,0,0,0,0,0,0,0,0,0,0,0,0,0,0,0,0,0,0,0,0,0,0,0,0,0,0,0,0,0,0,0,0,0,0,0,0,0,0,0,0,0,0,0,0,0,0,0,0,0,0,0,0,0,0,0,0,0,0,0,0,0,0,0,0,0],"sum_hessian":[2.33E2,2.3E2,3E0,4.7E1,1.83E2,3.2E1,1.5E1,3.8E1,1.45E2,2.9E1,3E0,6E0,9E0,1.7E1,2.1E1,5.6E1,8.9E1,2.1E1,8E0,3E0,6E0,7E0,1E1,4E0,1.7E1,2.9E1,2.7E1,3.9E1,5E1,1.6E1,5E0,3E0,5E0,3E0,3E0,3E0,4E0,1E1,7E0,7E0,2.2E1,1.3E1,1.4E1,2.6E1,1.3E1,1.7E1,3.3E1,1.1E1,5E0,5E0,5E0,3E0,4E0,3E0,1.9E1,9E0,4E0,5E0,9E0,2.1E1,5E0,4E0,9E0,1.2E1,5E0,2E1,1.3E1],"tree_param":{"num_deleted":"0","num_feature":"99","num_nodes":"67","size_leaf_vector":"1"}},{"base_weights":[-8.543096E-3,-1.6015048E-1,3.241525E-1,-2.309243E0,1.051745E-1,1.5326882E-2,-3.0155346E0,2.1798469E-1,-2.0036125E0,-4.3447723E0,-1.0558512E0,3.8001835E-1,-1.4151746E0,-1.7748088E-1,-1.6027702E-2,-2.7772656E-1,-1.13294624E-1,-1.4919211E-1,2.1714017E-2,-3.6863217E-1,1.0495814E0,-3.4094396E0,1.2545536E0,2.321588E0,-6.544852E-1,4.0687495E-1,2.3214319E0,-4.7586985E-2,-2.392924E-1,2.3842907E-2,7.946305E-2,5.1989546E-3,1.7818715E-1,1.9050721E-2,-5.414774E-2,1.412537E-1,-3.7337958E-3,1.4206362E-1,1.8912517E-2],"categories":[],"categories_nodes":[],"categories_segments":[],"categories_sizes":[],"default_left":[0,0,0,0,0,0,0,0,0,0,0,0,0,0,0,0,0,0,0,0,0,0,0,0,0,0,0,0,0,0,0,0,0,0,0,0,0,0,0],"id":13,"left_children":[1,3,-1,5,7,-1,9,11,13,15,17,19,21,-1,-1,-1,-1,-1,-1,23,25,27,29,31,33,35,37,-1,-1,-1,-1,-1,-1,-1,-1,-1,-1,-1,-1],"loss_changes":[2.2358948E2,1.24548195E2,0E0,4.5377937E1,4.6825825E1,0E0,4.490538E1,4.9758373E1,2.5851585E1,1.6355713E1,2.8086601E1,8.560259E1,9.478779E1,0E0,0E0,0E0,0E0,0E0,0E0,6.3809067E1,7.262385E1,3.1024841E1,1.4537535E0,2.2804497E1,3.50334E1,7.299971E1,3.2139816E1,0E0,0E0,0E0,0E0,0E0,0E0,0E0,0E0,0E0,0E0,0E0,0E0],"parents":[2147483647,0,0,1,1,3,3,4,4,6,6,7,7,8,8,9,9,10,10,11,11,12,12,19,19,20,20,21,21,22,22,23,23,24,24,25,25,26,26],"right_children":[2,4,-1,6,8,-1,10,12,14,16,18,20,22,-1,-1,-1,-1,-1,-1,24,26,28,30,32,34,36,38,-1,-1,-1,-1,-1,-1,-1,-1,-1,-1,-1,-1],"split_conditions":[9.724426E-1,1.4857286E2,3.241525E-1,-1.8374445E1,2.0311E2,1.5326882E-2,1.7296607E0,5.6835552E1,8.170907E0,2.3496042E1,2.7989E6,-4.1604573E-1,1.948197E1,-1.7748088E-1,-1.6027702E-2,-2.7772656E-1,-1.13294624E-1,-1.4919211E-1,2.1714017E-2,-4.6081543E0,6.2808264E2,4.9204865E1,1.1531E6,-1.5715869E6,5.548273E0,-1.8644363E-1,2.9911761E0,-4.7586985E-2,-2.392924E-1,2.3842907E-2,7.946305E-2,5.1989546E-3,1.7818715E-1,1.9050721E-2,-5.414774E-2,1.412537E-1,-3.7337958E-3,1.4206362E-1,1.8912517E-2],"split_indices":[33,66,0,51,61,0,84,75,25,32,6,88,51,0,0,0,0,0,0,88,9,13,4,11,34,88,88,0,0,0,0,0,0,0,0,0,0,0,0],"split_type":[0,0,0,0,0,0,0,0,0,0,0,0,0,0,0,0,0,0,0,0,0,0,0,0,0,0,0,0,0,0,0,0,0,0,0,0,0,0,0],"sum_hessian":[2.21E2,2.17E2,4E0,2.3E1,1.94E2,5E0,1.8E1,1.85E2,9E0,1E1,8E0,1.69E2,1.6E1,4E0,5E0,5E0,5E0,3E0,5E0,8E1,8.9E1,9E0,7E0,7E0,7.3E1,6E1,2.9E1,4E0,5E0,3E0,4E0,3E0,4E0,2.2E1,5.1E1,9E0,5.1E1,2.2E1,7E0],"tree_param":{"num_deleted":"0","num_feature":"99","num_nodes":"39","size_leaf_vector":"1"}},{"base_weights":[-2.4441503E-2,-1.5376115E-1,3.5301694E-1,3.546901E0,-3.079574E-1,3.8667906E-2,2.7474248E-1,-1.8964242E0,-9.843057E-2,-1.2196798E0,-2.5253847E-1,-2.0655747E-1,-1.0474849E-2,-2.993226E0,-3.675234E-1,1.1405935E0,-3.000783E-1,-6.525777E-2,-1.9188207E-1,6.62039E-2,-1.051959E0,-1.8437803E-1,2.11259E0,-5.48094E-1,1.9851369E0,-7.3695414E-2,1.0893098E-2,-5.318843E-2,4.7251966E-2,1.4023605E-1,2.2250988E-2,8.813854E-2,-3.472364E-2,3.2172803E-2,1.900039E-1],"categories":[],"categories_nodes":[],"categories_segments":[],"categories_sizes":[],"default_left":[0,0,0,0,0,0,0,0,0,0,0,0,0,0,0,0,0,0,0,0,0,0,0,0,0,0,0,0,0,0,0,0,0,0,0],"id":14,"left_children":[1,3,-1,5,7,-1,-1,9,11,13,-1,-1,15,17,19,21,23,-1,-1,-1,25,27,29,31,33,-1,-1,-1,-1,-1,-1,-1,-1,-1,-1],"loss_changes":[2.1199294E2,1.283424E2,0E0,4.6494446E1,7.137101E1,0E0,0E0,4.867691E1,6.899048E1,3.2149376E1,0E0,0E0,6.3012703E1,5.467533E0,2.0212208E1,4.9328484E1,8.66702E1,0E0,0E0,0E0,7.2009E0,1.8573792E1,2.586966E1,5.2401207E1,3.5069897E1,0E0,0E0,0E0,0E0,0E0,0E0,0E0,0E0,0E0,0E0],"parents":[2147483647,0,0,1,1,3,3,4,4,7,7,8,8,9,9,12,12,13,13,14,14,15,15,16,16,20,20,21,21,22,22,23,23,24,24],"right_children":[2,4,-1,6,8,-1,-1,10,12,14,-1,-1,16,18,20,22,24,-1,-1,-1,26,28,30,32,34,-1,-1,-1,-1,-1,-1,-1,-1,-1,-1],"split_conditions":[9.824564E1,-1.1266747E1,3.5301694E-1,-1.222427E-1,1.4477512E2,3.8667906E-2,2.7474248E-1,8.685852E1,-2.743829E-1,1.4518123E2,-2.5253847E-1,-2.0655747E-1,5.4558363E0,-1.5265045E0,4.5445244E1,1.59294E2,2.6746529E1,-6.525777E-2,-1.9188207E-1,6.62039E-2,1.657E2,7.6841385E1,6.068872E0,-6.2362247E0,1.6689594E2,-7.3695414E-2,1.0893098E-2,-5.318843E-2,4.7251966E-2,1.4023605E-1,2.2250988E-2,8.813854E-2,-3.472364E-2,3.2172803E-2,1.900039E-1],"split_indices":[76,85,0,7,66,0,0,77,7,87,0,0,34,48,75,98,32,0,0,0,1,9,25,86,67,0,0,0,0,0,0,0,0,0,0],"split_type":[0,0,0,0,0,0,0,0,0,0,0,0,0,0,0,0,0,0,0,0,0,0,0,0,0,0,0,0,0,0,0,0,0,0,0],"sum_hessian":[2.25E2,2.22E2,3E0,8E0,2.14E2,4E0,4E0,2.4E1,1.9E2,2.1E1,3E0,3E0,1.87E2,6E0,1.5E1,3.7E1,1.5E2,3E0,3E0,4E0,1.1E1,1.6E1,2.1E1,1.36E2,1.4E1,8E0,3E0,9E0,7E0,1.4E1,7E0,8E0,1.28E2,9E0,5E0],"tree_param":{"num_deleted":"0","num_feature":"99","num_nodes":"35","size_leaf_vector":"1"}},{"base_weights":[-1.09169774E-1,-2.4670678E-1,3.5719517E-1,-7.996057E-2,-3.0469382E0,6.9261074E-2,-2.0994E0,-9.3049806E-1,-2.8589222E-1,1.4963907E-1,-2.7729755E-2,-3.231068E0,2.8659444E-2,-9.085084E-2,2.22075E-2,-3.014391E-1,1.0752546E0,-2.5537329E-2,-2.1199681E-1,-3.111112E0,-1.6179469E-1,3.6094646E0,4.68328E-1,-7.13007E-2,-1.9596641E-1,-3.7233952E-2,2.7780116E-2,8.7870926E-2,2.222083E-1,-5.089402E-2,6.0596623E-2],"categories":[],"categories_nodes":[],"categories_segments":[],"categories_sizes":[],"default_left":[0,0,0,0,0,0,0,0,0,0,0,0,0,0,0,0,0,0,0,0,0,0,0,0,0,0,0,0,0,0,0],"id":15,"left_children":[1,3,-1,5,7,9,11,13,-1,-1,15,17,-1,-1,-1,19,21,-1,-1,23,25,27,29,-1,-1,-1,-1,-1,-1,-1,-1],"loss_changes":[2.2221999E2,9.9678955E1,0E0,6.131826E1,6.510705E1,5.498244E1,4.4397488E1,1.1017532E1,0E0,0E0,5.617509E1,2.7233322E1,0E0,0E0,0E0,5.795755E1,5.521853E1,0E0,0E0,4.42939E0,6.2521362E1,3.5778198E0,3.7022854E1,0E0,0E0,0E0,0E0,0E0,0E0,0E0,0E0],"parents":[2147483647,0,0,1,1,3,3,4,4,5,5,6,6,7,7,10,10,11,11,15,15,16,16,19,19,20,20,21,21,22,22],"right_children":[2,4,-1,6,8,10,12,14,-1,-1,16,18,-1,-1,-1,20,22,-1,-1,24,26,28,30,-1,-1,-1,-1,-1,-1,-1,-1],"split_conditions":[9.570437E-1,9.3077785E-1,3.5719517E-1,5.6835552E1,2.4E1,-1.1935887E1,1.948197E1,4.9134E6,-2.8589222E-1,1.4963907E-1,6.2808264E2,-1.243413E2,2.8659444E-2,-9.085084E-2,2.22075E-2,1.4632962E2,-3.6356783E0,-2.5537329E-2,-2.1199681E-1,1.564E6,-3.7707021E0,-9.113619E6,1.6070038E1,-7.13007E-2,-1.9596641E-1,-3.7233952E-2,2.7780116E-2,8.7870926E-2,2.222083E-1,-5.089402E-2,6.0596623E-2],"split_indices":[33,72,0,75,63,85,51,6,0,0,9,10,0,0,0,40,86,0,0,4,51,5,18,0,0,0,0,0,0,0,0],"split_type":[0,0,0,0,0,0,0,0,0,0,0,0,0,0,0,0,0,0,0,0,0,0,0,0,0,0,0,0,0,0,0],"sum_hessian":[2.16E2,2.13E2,3E0,2.02E2,1.1E1,1.89E2,1.3E1,7E0,4E0,5E0,1.84E2,9E0,4E0,4E0,3E0,1.48E2,3.6E1,3E0,6E0,6E0,1.42E2,6E0,3E1,3E0,3E0,7.8E1,6.4E1,3E0,3E0,1E1,2E1],"tree_param":{"num_deleted":"0","num_feature":"99","num_nodes":"31","size_leaf_vector":"1"}},{"base_weights":[1.6858897E-3,-1.3377601E-1,3.7078878E-1,-2.0588934E0,1.1969281E-1,2.6127884E-1,-2.768009E0,-1.0853871E0,3.8511112E-1,-5.7617474E-2,8.0063224E-2,-3.647194E0,-6.14209E-1,-1.4004316E0,8.762919E-2,1.2343056E0,-7.08627E-2,-4.4176393E0,-3.0272283E-2,-6.4434975E-2,1.1669964E-2,-5.4100734E-1,-2.3956735E0,2.5736248E0,7.383964E-1,-2.1752846E0,2.4331568E-1,-2.4256715E-1,-1.1123431E-1,-1.3619832E0,7.580824E-1,-3.56436E0,-5.5083776E-1,1.0581323E0,1.8494186E-1,-7.488892E-1,1.3382776E0,-3.4190123E0,2.5946177E-3,1.8804179E-1,8.29607E-2,-1.0326194E-1,-1.3246877E-2,6.619028E-2,-8.309525E-3,-2.1702036E-1,-6.816085E-2,-8.080135E-2,3.348039E-2,1.0519598E-1,-1.0470704E-3,-9.1497436E-2,8.883415E-3,1.2392904E-1,2.2394437E-2,-7.553641E-2,-2.2657351E-1,-3.2457262E-2,3.747333E-2],"categories":[],"categories_nodes":[],"categories_segments":[],"categories_sizes":[],"default_left":[0,0,0,0,0,0,0,0,0,0,0,0,0,0,0,0,0,0,0,0,0,0,0,0,0,0,0,0,0,0,0,0,0,0,0,0,0,0,0,0,0,0,0,0,0,0,0,0,0,0,0,0,0,0,0,0,0,0,0],"id":16,"left_children":[1,3,-1,5,7,9,11,13,15,-1,-1,17,19,21,-1,23,25,27,-1,-1,-1,29,31,33,35,37,39,-1,-1,41,43,45,47,49,-1,51,53,55,-1,-1,57,-1,-1,-1,-1,-1,-1,-1,-1,-1,-1,-1,-1,-1,-1,-1,-1,-1,-1],"loss_changes":[2.3219746E2,1.090609E2,0E0,4.3500244E1,6.374835E1,1.5672576E1,3.5631638E1,3.5055542E1,6.3202774E1,0E0,0E0,2.99637E1,4.476881E0,2.6929977E1,0E0,3.5957947E1,7.127382E1,1.1974945E0,0E0,0E0,0E0,2.12964E1,3.0377136E1,2.3151268E1,3.9366592E1,3.8977493E1,5.375411E1,0E0,0E0,9.150766E0,4.6073284E0,1.0634712E1,1.0573775E1,9.413664E0,0E0,1.3815334E1,3.1286072E1,1.3145241E1,0E0,0E0,4.6579338E1,0E0,0E0,0E0,0E0,0E0,0E0,0E0,0E0,0E0,0E0,0E0,0E0,0E0,0E0,0E0,0E0,0E0,0E0],"parents":[2147483647,0,0,1,1,3,3,4,4,5,5,6,6,7,7,8,8,11,11,12,12,13,13,15,15,16,16,17,17,21,21,22,22,23,23,24,24,25,25,26,26,29,29,30,30,31,31,32,32,33,33,35,35,36,36,37,37,40,40],"right_children":[2,4,-1,6,8,10,12,14,16,-1,-1,18,20,22,-1,24,26,28,-1,-1,-1,30,32,34,36,38,40,-1,-1,42,44,46,48,50,-1,52,54,56,-1,-1,58,-1,-1,-1,-1,-1,-1,-1,-1,-1,-1,-1,-1,-1,-1,-1,-1,-1,-1],"split_conditions":[9.724426E-1,1.4857286E2,3.7078878E-1,-1.7474503E1,8E0,-1.5510932E-1,2.2312362E0,6.424421E1,5.78803E0,-5.7617474E-2,8.0063224E-2,5.28581E6,1.6712E2,-1.6305107E1,8.762919E-2,1.0317E6,-1.5231812E-1,2.3496042E1,-3.0272283E-2,-6.4434975E-2,1.1669964E-2,2.3551085E2,1.9866838E1,5.0296337E1,-4.8062134E0,-4.0574713E0,-4.194734E3,-2.4256715E-1,-1.1123431E-1,4.3975353E1,1.05469055E1,2.0085E2,8.180054E-1,1.67262E2,1.8494186E-1,1.0773579E-1,2.7853256E1,-1.8016453E3,2.5946177E-3,1.8804179E-1,-4.1604573E-1,-1.0326194E-1,-1.3246877E-2,6.619028E-2,-8.309525E-3,-2.1702036E-1,-6.816085E-2,-8.080135E-2,3.348039E-2,1.0519598E-1,-1.0470704E-3,-9.1497436E-2,8.883415E-3,1.2392904E-1,2.2394437E-2,-7.553641E-2,-2.2657351E-1,-3.2457262E-2,3.747333E-2],"split_indices":[33,66,0,51,63,88,83,13,34,0,0,8,1,74,0,4,7,32,0,0,0,9,57,13,84,36,9,0,0,75,35,1,48,15,0,19,57,9,0,0,88,0,0,0,0,0,0,0,0,0,0,0,0,0,0,0,0,0,0],"split_type":[0,0,0,0,0,0,0,0,0,0,0,0,0,0,0,0,0,0,0,0,0,0,0,0,0,0,0,0,0,0,0,0,0,0,0,0,0,0,0,0,0,0,0,0,0,0,0,0,0,0,0,0,0,0,0,0,0,0,0],"sum_hessian":[2.25E2,2.22E2,3E0,2.5E1,1.97E2,6E0,1.9E1,3.5E1,1.62E2,3E0,3E0,1.3E1,6E0,3.2E1,3E0,5.6E1,1.06E2,1E1,3E0,3E0,3E0,1.8E1,1.4E1,1.4E1,4.2E1,1.3E1,9.3E1,7E0,3E0,1.1E1,7E0,8E0,6E0,7E0,7E0,1.2E1,3E1,8E0,5E0,3E0,9E1,6E0,5E0,4E0,3E0,5E0,3E0,3E0,3E0,3E0,4E0,5E0,7E0,1.2E1,1.8E1,4E0,4E0,4.3E1,4.7E1],"tree_param":{"num_deleted":"0","num_feature":"99","num_nodes":"59","size_leaf_vector":"1"}},{"base_weights":[-3.2961212E-2,-1.6331647E-1,3.5713732E-1,-2.0131817E0,7.919515E-2,-1.4123727E0,-2.0883344E-1,-1.1126008E0,3.1422552E-1,-2.283599E0,9.9798344E-2,-1.4145279E0,7.019862E-2,1.8891566E0,3.6690544E-2,-1.4412702E-2,-2.7996356E0,4.265804E-2,-3.3839684E-2,-8.1030947E-1,-2.0978838E-1,2.5684538E0,-3.387335E-2,-2.1873047E0,2.2035414E-1,-1.6557227E-1,-8.6389564E-2,-1.897058E0,2.5669336E-1,4.083213E0,2.6339135E-1,-1.7729338E-1,1.1986833E-2,9.246017E-1,-5.7681936E-1,-4.2710837E-2,-1.6524892E-1,-1.456509E-2,8.415764E-2,1.06690794E-1,2.339848E-1,-7.2491266E-2,6.772227E-2,3.434799E-2,1.5927018E-1,-8.188584E-2,6.7497166E-3],"categories":[],"categories_nodes":[],"categories_segments":[],"categories_sizes":[],"default_left":[0,0,0,0,0,0,0,0,0,0,0,0,0,0,0,0,0,0,0,0,0,0,0,0,0,0,0,0,0,0,0,0,0,0,0,0,0,0,0,0,0,0,0,0,0,0,0],"id":17,"left_children":[1,3,-1,5,7,9,-1,11,13,15,17,19,-1,21,23,-1,25,-1,-1,27,-1,29,-1,31,33,-1,-1,35,37,39,41,-1,-1,43,45,-1,-1,-1,-1,-1,-1,-1,-1,-1,-1,-1,-1],"loss_changes":[2.174406E2,1.0064893E2,0E0,2.8997154E1,5.609115E1,2.9211647E1,0E0,2.735624E1,7.292612E1,1.3554825E1,6.0619407E0,4.8361454E1,0E0,4.5573135E1,5.8892754E1,0E0,6.206589E-1,0E0,0E0,3.0635618E1,0E0,6.875679E1,0E0,3.8976814E1,7.520052E1,0E0,0E0,1.6686478E1,1.1801982E1,5.299347E0,1.9517326E1,0E0,0E0,3.4774063E1,4.933822E1,0E0,0E0,0E0,0E0,0E0,0E0,0E0,0E0,0E0,0E0,0E0,0E0],"parents":[2147483647,0,0,1,1,3,3,4,4,5,5,7,7,8,8,9,9,10,10,11,11,13,13,14,14,16,16,19,19,21,21,23,23,24,24,27,27,28,28,29,29,30,30,33,33,34,34],"right_children":[2,4,-1,6,8,10,-1,12,14,16,18,20,-1,22,24,-1,26,-1,-1,28,-1,30,-1,32,34,-1,-1,36,38,40,42,-1,-1,44,46,-1,-1,-1,-1,-1,-1,-1,-1,-1,-1,-1,-1],"split_conditions":[9.724426E-1,1.4857286E2,3.5713732E-1,8.685852E1,8E0,8.6004484E-1,-2.0883344E-1,2.8595993E2,5.539551E0,-6.086736E0,9.30018E-1,5.565062E-1,7.019862E-2,2.4578407E1,1.0694639E3,-1.4412702E-2,7.504884E1,4.265804E-2,-3.3839684E-2,-6.7345284E-2,-2.0978838E-1,1.9998E2,-3.387335E-2,6.624358E0,1.0740551E-1,-1.6557227E-1,-8.6389564E-2,-1.0189121E-1,4.020008E-1,1.8996646E2,1.0789016E1,-1.7729338E-1,1.1986833E-2,9.700845E1,9.09551E1,-4.2710837E-2,-1.6524892E-1,-1.456509E-2,8.415764E-2,1.06690794E-1,2.339848E-1,-7.2491266E-2,6.772227E-2,3.434799E-2,1.5927018E-1,-8.188584E-2,6.7497166E-3],"split_indices":[33,66,0,77,63,72,0,10,25,86,73,19,0,47,14,0,56,0,0,7,0,3,0,34,82,0,0,7,19,16,18,0,0,56,49,0,0,0,0,0,0,0,0,0,0,0,0],"split_type":[0,0,0,0,0,0,0,0,0,0,0,0,0,0,0,0,0,0,0,0,0,0,0,0,0,0,0,0,0,0,0,0,0,0,0,0,0,0,0,0,0,0,0,0,0,0,0],"sum_hessian":[2.26E2,2.23E2,3E0,2.5E1,1.98E2,2.1E1,4E0,3.2E1,1.66E2,1.3E1,8E0,2.9E1,3E0,2.4E1,1.42E2,3E0,1E1,4E0,4E0,2.5E1,4E0,1.9E1,5E0,1E1,1.32E2,5E0,5E0,1.2E1,1.3E1,1.1E1,8E0,6E0,4E0,7E1,6.2E1,8E0,4E0,1E1,3E0,4E0,7E0,3E0,5E0,6.5E1,5E0,2.4E1,3.8E1],"tree_param":{"num_deleted":"0","num_feature":"99","num_nodes":"47","size_leaf_vector":"1"}},{"base_weights":[-8.82878E-2,-2.0224495E-1,3.184126E-1,3.2519748E0,-3.2525623E-1,1.5012552E-2,3.005123E-1,-1.9141841E-1,-2.587943E-1,-1.5484824E0,-6.2649794E-2,-1.9797149E0,4.5033876E-2,9.456696E-1,-3.5128367E-1,-3.4749246E0,-7.512467E-1,-1.9043706E-1,1.6958331E0,-1.2291363E0,1.2705791E-1,-2.193582E-1,-3.0388417E-2,-6.555233E-2,3.3579342E-2,-3.5506405E-2,2.7787115E-2,1.01131305E-1,-1.2087064E-2,-8.646634E-2,1.862374E-2,-2.8760158E-2,3.7749585E-2],"categories":[],"categories_nodes":[],"categories_segments":[],"categories_sizes":[],"default_left":[0,0,0,0,0,0,0,0,0,0,0,0,0,0,0,0,0,0,0,0,0,0,0,0,0,0,0,0,0,0,0,0,0],"id":18,"left_children":[1,3,-1,5,7,-1,-1,-1,9,11,13,15,-1,17,19,21,23,25,27,29,31,-1,-1,-1,-1,-1,-1,-1,-1,-1,-1,-1,-1],"loss_changes":[1.7588094E2,9.878656E1,0E0,6.576463E1,5.1962494E1,0E0,0E0,0E0,5.5555344E1,3.2653526E1,5.6210945E1,4.330992E1,0E0,3.697038E1,6.314318E1,2.8446869E1,1.3488832E1,7.665167E0,1.8901672E1,4.6043518E1,4.530015E1,0E0,0E0,0E0,0E0,0E0,0E0,0E0,0E0,0E0,0E0,0E0,0E0],"parents":[2147483647,0,0,1,1,3,3,4,4,8,8,9,9,10,10,11,11,13,13,14,14,15,15,16,16,17,17,18,18,19,19,20,20],"right_children":[2,4,-1,6,8,-1,-1,-1,10,12,14,16,-1,18,20,22,24,26,28,30,32,-1,-1,-1,-1,-1,-1,-1,-1,-1,-1,-1,-1],"split_conditions":[-1.7543533E0,-1.133243E1,3.184126E-1,-1.4299592E0,-2.743829E-1,1.5012552E-2,3.005123E-1,-1.9141841E-1,1.4857286E2,1.7546E2,5.478556E0,6.187814E0,4.5033876E-2,2E1,1.5531764E1,8.156902E-1,1.6712E2,1.4430697E-1,3.4752967E0,3.723975E0,-2.0663683E1,-2.193582E-1,-3.0388417E-2,-6.555233E-2,3.3579342E-2,-3.5506405E-2,2.7787115E-2,1.01131305E-1,-1.2087064E-2,-8.646634E-2,1.862374E-2,-2.8760158E-2,3.7749585E-2],"split_indices":[78,85,0,88,7,0,0,0,66,30,34,25,0,63,18,33,1,84,85,80,9,0,0,0,0,0,0,0,0,0,0,0,0],"split_type":[0,0,0,0,0,0,0,0,0,0,0,0,0,0,0,0,0,0,0,0,0,0,0,0,0,0,0,0,0,0,0,0,0],"sum_hessian":[2.32E2,2.29E2,3E0,7E0,2.22E2,4E0,3E0,3E0,2.19E2,2.8E1,1.91E2,2.4E1,4E0,4.2E1,1.49E2,1E1,1.4E1,1.7E1,2.5E1,5.2E1,9.7E1,7E0,3E0,1E1,4E0,1E1,7E0,2.1E1,4E0,3.9E1,1.3E1,4.6E1,5.1E1],"tree_param":{"num_deleted":"0","num_feature":"99","num_nodes":"33","size_leaf_vector":"1"}},{"base_weights":[-7.698128E-2,2.3341713E0,-1.8825233E-1,1.7717876E-3,2.2704214E-1,-1.0436264E0,6.2352337E-2,1.5476519E-1,-1.480678E0,9.467462E-1,-3.5347044E-1,-6.106655E-2,6.493283E-1,-5.797034E-1,-3.2343185E0,-5.964581E-1,1.3553905E0,-6.1625797E-1,1.586372E0,-2.1202956E-1,8.469787E-2,-1.2876624E-1,6.229234E-2,-7.380511E-2,-2.0891948E-1,-1.0888762E-1,4.9164313E-1,-3.8483888E-2,1.6575125E0,-2.0074182E0,-1.3851222E-1,3.2008798E0,-2.4618845E-2,-3.4288656E-2,1.6073776E-2,-7.2245635E-2,4.1956788E-1,-3.201846E-2,6.423028E-2,3.3809187E0,1.2287202E0,-3.2609937E0,-2.731635E-1,-6.938238E-1,1.478817E0,1.9526212E-1,7.971671E-2,-7.4422136E-2,5.7604056E-2,5.5211343E-2,-2.5246553E-2,2.027771E-1,8.766837E-2,4.8055877E-3,9.804676E-2,-2.3194943E-1,-6.820383E-2,-1.0989794E-1,4.8571877E-2,-1.4202367E-1,-1.6456356E-2,1.07414834E-1,-5.3347778E-2],"categories":[],"categories_nodes":[],"categories_segments":[],"categories_sizes":[],"default_left":[0,0,0,0,0,0,0,0,0,0,0,0,0,0,0,0,0,0,0,0,0,0,0,0,0,0,0,0,0,0,0,0,0,0,0,0,0,0,0,0,0,0,0,0,0,0,0,0,0,0,0,0,0,0,0,0,0,0,0,0,0,0,0],"id":19,"left_children":[1,3,5,-1,-1,7,9,11,13,15,17,-1,19,21,23,25,27,29,31,33,-1,-1,35,-1,-1,-1,37,-1,39,41,43,45,47,-1,-1,-1,49,-1,-1,51,53,55,57,59,61,-1,-1,-1,-1,-1,-1,-1,-1,-1,-1,-1,-1,-1,-1,-1,-1,-1,-1],"loss_changes":[6.0804985E1,5.247883E1,4.636699E1,0E0,0E0,2.5893353E1,6.2116837E1,1.049246E1,5.500453E1,3.4862E1,5.9600746E1,0E0,1.0561195E1,3.2959244E1,1.4819023E1,2.2265026E1,2.9092087E1,6.7513275E1,3.6492214E1,2.0656998E0,0E0,0E0,1.1578649E1,0E0,0E0,0E0,8.32782E0,0E0,2.3927162E1,5.563372E1,7.01814E1,2.1153717E0,1.6073463E1,0E0,0E0,0E0,1.1772831E1,0E0,0E0,9.949341E-1,2.7616337E1,3.453624E1,3.1995743E1,4.4772503E1,3.877337E1,0E0,0E0,0E0,0E0,0E0,0E0,0E0,0E0,0E0,0E0,0E0,0E0,0E0,0E0,0E0,0E0,0E0,0E0],"parents":[2147483647,0,0,1,1,2,2,5,5,6,6,7,7,8,8,9,9,10,10,12,12,13,13,14,14,15,15,16,16,17,17,18,18,19,19,22,22,26,26,28,28,29,29,30,30,31,31,32,32,36,36,39,39,40,40,41,41,42,42,43,43,44,44],"right_children":[2,4,6,-1,-1,8,10,12,14,16,18,-1,20,22,24,26,28,30,32,34,-1,-1,36,-1,-1,-1,38,-1,40,42,44,46,48,-1,-1,-1,50,-1,-1,52,54,56,58,60,62,-1,-1,-1,-1,-1,-1,-1,-1,-1,-1,-1,-1,-1,-1,-1,-1,-1,-1],"split_conditions":[-1.133243E1,-1.222427E-1,8E0,1.7717876E-3,2.2704214E-1,8.711427E-1,5.78803E0,2.7888E6,3.3048254E-1,1.5385922E2,2.6746529E1,-6.106655E-2,1.7279E2,3.6535145E1,1.3049941E0,1.7296607E0,-1.9366603E3,1.555475E2,1.6508E2,5.022181E2,8.469787E-2,-1.2876624E-1,-4.531134E1,-7.380511E-2,-2.0891948E-1,-1.0888762E-1,1.3671E2,-3.8483888E-2,4.473709E-3,-1.7200094E0,5.331687E2,-9.1197944E-1,1.7243E2,-3.4288656E-2,1.6073776E-2,-7.2245635E-2,1.449336E1,-3.201846E-2,6.423028E-2,1.6201E2,1.039914E-1,6.9839125E0,1.5590688E2,-1.5891641E-1,1.0542988E2,1.9526212E-1,7.971671E-2,-7.4422136E-2,5.7604056E-2,5.5211343E-2,-2.5246553E-2,2.027771E-1,8.766837E-2,4.8055877E-3,9.804676E-2,-2.3194943E-1,-6.820383E-2,-1.0989794E-1,4.8571877E-2,-1.4202367E-1,-1.6456356E-2,1.07414834E-1,-5.3347778E-2],"split_indices":[85,7,63,0,0,44,34,6,19,40,32,0,2,75,88,84,9,61,22,9,0,0,74,0,0,0,2,0,72,85,9,86,3,0,0,0,77,0,0,0,71,34,41,7,60,0,0,0,0,0,0,0,0,0,0,0,0,0,0,0,0,0,0],"split_type":[0,0,0,0,0,0,0,0,0,0,0,0,0,0,0,0,0,0,0,0,0,0,0,0,0,0,0,0,0,0,0,0,0,0,0,0,0,0,0,0,0,0,0,0,0,0,0,0,0,0,0,0,0,0,0,0,0,0,0,0,0,0,0],"sum_hessian":[2.24E2,9E0,2.15E2,5E0,4E0,4.8E1,1.67E2,1.3E1,3.5E1,5.3E1,1.14E2,3E0,1E1,2.4E1,1.1E1,1.1E1,4.2E1,1.01E2,1.3E1,6E0,4E0,5E0,1.9E1,5E0,6E0,4E0,7E0,5E0,3.7E1,2.5E1,7.6E1,6E0,7E0,3E0,3E0,3E0,1.6E1,3E0,4E0,6E0,3.1E1,1.4E1,1.1E1,5.7E1,1.9E1,3E0,3E0,3E0,4E0,9E0,7E0,3E0,3E0,1.3E1,1.8E1,7E0,7E0,4E0,7E0,7E0,5E1,1.5E1,4E0],"tree_param":{"num_deleted":"0","num_feature":"99","num_nodes":"63","size_leaf_vector":"1"}},{"base_weights":[1.1769852E-1,3.8231693E-3,3.1039274E-1,2.8019068E0,-1.1554449E-1,2.3635548E-1,1.1225935E-2,-1.3930345E0,1.1220676E-1,1.012859E0,-2.107199E0,-7.0535505E-1,4.4985184E-1,-8.769911E-3,1.104046E-1,-2.142352E-1,-1.3247558E0,-3.7236634E-1,-1.8789507E-1,1.6259126E-1,3.0657193E-1,3.480039E-2,-1.8774797E0,-6.3131654E-1,7.798724E-2,7.813722E-1,-5.949489E-1,-4.258484E-2,-1.4982787E-1,-6.4150035E-2,2.544626E-2,-2.3668265E-2,5.908176E-2,-1.4109491E-1,8.975386E-3],"categories":[],"categories_nodes":[],"categories_segments":[],"categories_sizes":[],"default_left":[0,0,0,0,0,0,0,0,0,0,0,0,0,0,0,0,0,0,0,0,0,0,0,0,0,0,0,0,0,0,0,0,0,0,0],"id":20,"left_children":[1,3,-1,5,7,-1,-1,9,11,13,15,17,19,-1,-1,-1,21,23,-1,-1,25,-1,27,29,-1,31,33,-1,-1,-1,-1,-1,-1,-1,-1],"loss_changes":[1.568466E2,7.34699E1,0E0,4.5514473E1,6.1546745E1,0E0,0E0,5.711682E1,5.000554E1,1.2185069E1,3.836686E1,5.367691E1,5.1478E1,0E0,0E0,0E0,2.38121E1,2.5885582E1,0E0,0E0,5.3114086E1,0E0,1.6334286E1,3.484665E1,0E0,4.378719E1,7.6755035E1,0E0,0E0,0E0,0E0,0E0,0E0,0E0,0E0],"parents":[2147483647,0,0,1,1,3,3,4,4,7,7,8,8,9,9,10,10,11,11,12,12,16,16,17,17,20,20,22,22,23,23,25,25,26,26],"right_children":[2,4,-1,6,8,-1,-1,10,12,14,16,18,20,-1,-1,-1,22,24,-1,-1,26,-1,28,30,-1,32,34,-1,-1,-1,-1,-1,-1,-1,-1],"split_conditions":[9.824564E1,-1.1266747E1,3.1039274E-1,-7.488316E-1,1.536232E2,2.3635548E-1,1.1225935E-2,6.741949E-1,1.9626452E-1,1.1543908E0,6.185442E0,9.252997E0,-1.9930121E0,-8.769911E-3,1.104046E-1,-2.142352E-1,-1.6154302E7,1.8440785E-1,-1.8789507E-1,1.6259126E-1,7.8595634E1,3.480039E-2,-4.272006E0,3.4289994E0,7.798724E-2,1.562E5,4.6155995E-1,-4.258484E-2,-1.4982787E-1,-6.4150035E-2,2.544626E-2,-2.3668265E-2,5.908176E-2,-1.4109491E-1,8.975386E-3],"split_indices":[76,85,0,38,66,0,0,44,56,43,35,48,38,0,0,0,5,45,0,0,50,0,48,48,0,6,33,0,0,0,0,0,0,0,0],"split_type":[0,0,0,0,0,0,0,0,0,0,0,0,0,0,0,0,0,0,0,0,0,0,0,0,0,0,0,0,0,0,0,0,0,0,0],"sum_hessian":[2.21E2,2.18E2,3E0,8E0,2.1E2,4E0,4E0,3.1E1,1.79E2,7E0,2.4E1,5.2E1,1.27E2,4E0,3E0,5E0,1.9E1,4.8E1,4E0,5E0,1.22E2,4E0,1.5E1,4.3E1,5E0,8E1,4.2E1,9E0,6E0,2.7E1,1.6E1,2E1,6E1,1E1,3.2E1],"tree_param":{"num_deleted":"0","num_feature":"99","num_nodes":"35","size_leaf_vector":"1"}},{"base_weights":[-1.133628E-1,2.1246285E0,-2.1790059E-1,-1.6833153E-2,1.8785718E-1,-5.60836E-1,2.9504865E-1,-1.458289E-1,-1.6594027E0,-8.325102E-2,1.4699405E0,1.9792503E-1,-1.8339996E0,-2.964448E0,-5.323963E-1,6.7168593E-1,-8.5854214E-1,2.5323725E0,-5.7305807E-1,-5.38855E-1,9.6741366E-1,-2.9756727E0,-3.2036752E-1,-2.0158407E-1,-1.868616E0,-1.7207158E0,4.0320963E-1,1.1817102E0,-9.35348E-2,-1.4605265E0,1.7993577E-1,3.6603216E-2,3.172503E0,3.5014E-2,-1.0003019E-1,-2.2010387E-1,-1.159283E-1,2.375086E0,1.7222801E-1,-4.6037883E-2,-1.8842112E-1,-6.0452245E-2,2.319892E-2,-2.8762316E-2,-1.14607394E-1,-5.510705E-3,-1.2303075E-1,-5.4976E-1,7.107259E-2,7.550108E-2,2.0757864E0,-2.613951E-1,-2.5268826E0,-3.36519E-1,5.2701265E-2,7.996315E-2,1.9292694E-1,2.1180311E-2,-4.3966733E-2,1.7121439E-1,-1.5969353E-2,-4.416622E-2,3.429538E-2,-3.817037E-2,-9.058E-3,-4.2388048E-2,3.4024112E-2,1.797294E-1,2.139621E-2,4.318723E-2,-5.101236E-2,-1.969068E-1,-5.4279085E-2,-4.2934637E-3,-3.0729067E-2],"categories":[],"categories_nodes":[],"categories_segments":[],"categories_sizes":[],"default_left":[0,0,0,0,0,0,0,0,0,0,0,0,0,0,0,0,0,0,0,0,0,0,0,0,0,0,0,0,0,0,0,0,0,0,0,0,0,0,0,0,0,0,0,0,0,0,0,0,0,0,0,0,0,0,0,0,0,0,0,0,0,0,0,0,0,0,0,0,0,0,0,0,0,0,0],"id":21,"left_children":[1,3,5,-1,-1,7,9,11,13,15,17,19,21,23,25,27,29,31,33,35,37,39,41,-1,43,45,47,49,-1,51,53,-1,55,-1,-1,57,-1,59,61,-1,-1,-1,-1,-1,-1,-1,-1,63,-1,65,67,69,71,73,-1,-1,-1,-1,-1,-1,-1,-1,-1,-1,-1,-1,-1,-1,-1,-1,-1,-1,-1,-1,-1],"loss_changes":[5.24009E1,4.331393E1,3.7633976E1,0E0,0E0,5.811487E1,3.8346035E1,5.4912636E1,4.9899536E1,3.92062E1,4.7032696E1,4.5309856E1,2.6695858E1,1.23493805E1,2.2929783E1,4.694004E1,2.0892664E1,1.3646873E1,1.6525366E1,2.3300674E1,4.324602E1,1.2221252E1,6.3615627E0,0E0,4.6098747E0,1.1089933E1,1.2741568E1,2.8525291E1,0E0,2.6192211E1,6.361038E0,0E0,5.292076E0,0E0,0E0,1.6231955E1,0E0,4.3200386E1,1.5299311E1,0E0,0E0,0E0,0E0,0E0,0E0,0E0,0E0,4.3894243E-1,0E0,8.717236E0,4.000451E1,1.0677289E1,1.8768257E1,5.9407425E-1,0E0,0E0,0E0,0E0,0E0,0E0,0E0,0E0,0E0,0E0,0E0,0E0,0E0,0E0,0E0,0E0,0E0,0E0,0E0,0E0,0E0],"parents":[2147483647,0,0,1,1,2,2,5,5,6,6,7,7,8,8,9,9,10,10,11,11,12,12,13,13,14,14,15,15,16,16,17,17,18,18,19,19,20,20,21,21,22,22,24,24,25,25,26,26,27,27,29,29,30,30,32,32,35,35,37,37,38,38,47,47,49,49,50,50,51,51,52,52,53,53],"right_children":[2,4,6,-1,-1,8,10,12,14,16,18,20,22,24,26,28,30,32,34,36,38,40,42,-1,44,46,48,50,-1,52,54,-1,56,-1,-1,58,-1,60,62,-1,-1,-1,-1,-1,-1,-1,-1,64,-1,66,68,70,72,74,-1,-1,-1,-1,-1,-1,-1,-1,-1,-1,-1,-1,-1,-1,-1,-1,-1,-1,-1,-1,-1],"split_conditions":[-1.1266747E1,-1.222427E-1,2.4914947E0,-1.6833153E-2,1.8785718E-1,-9.2928207E-1,2.4487572E1,2.5344482E1,2.1192034E1,2.4685669E1,9.271663E1,2.5204311E1,1.6070038E1,1.7172374E2,2.4773937E1,-9.626892E1,2.532351E-1,2.4928795E1,4.5742825E1,5.969797E0,-3.6356783E0,1.639E2,1.65E2,-2.0158407E-1,-1.2877762E0,4.9470305E0,3.6173302E-1,-7.6E1,-9.35348E-2,-3.012528E-1,2.37813E1,3.6603216E-2,2.1824541E1,3.5014E-2,-1.0003019E-1,4.9109642E1,-1.159283E-1,-4.4815025E0,6.9776225E-1,-4.6037883E-2,-1.8842112E-1,-6.0452245E-2,2.319892E-2,-2.8762316E-2,-1.14607394E-1,-5.510705E-3,-1.2303075E-1,2.3661047E1,7.107259E-2,-4.8656598E2,4.4E1,1.388559E1,1.3415686E3,1.3388568E3,5.2701265E-2,7.996315E-2,1.9292694E-1,2.1180311E-2,-4.3966733E-2,1.7121439E-1,-1.5969353E-2,-4.416622E-2,3.429538E-2,-3.817037E-2,-9.058E-3,-4.2388048E-2,3.4024112E-2,1.797294E-1,2.139621E-2,4.318723E-2,-5.101236E-2,-1.969068E-1,-5.4279085E-2,-4.2934637E-3,-3.0729067E-2],"split_indices":[85,7,48,0,0,48,58,47,58,47,50,9,18,66,47,60,19,47,9,85,86,0,0,0,86,35,88,65,0,46,32,0,18,0,0,77,0,48,44,0,0,0,0,0,0,0,0,51,0,9,63,77,14,14,0,0,0,0,0,0,0,0,0,0,0,0,0,0,0,0,0,0,0,0,0],"split_type":[0,0,0,0,0,0,0,0,0,0,0,0,0,0,0,0,0,0,0,0,0,0,0,0,0,0,0,0,0,0,0,0,0,0,0,0,0,0,0,0,0,0,0,0,0,0,0,0,0,0,0,0,0,0,0,0,0,0,0,0,0,0,0,0,0,0,0,0,0,0,0,0,0,0,0],"sum_hessian":[2.21E2,9E0,2.12E2,4E0,5E0,1.27E2,8.5E1,9.3E1,3.4E1,6.5E1,2E1,7.8E1,1.5E1,1.5E1,1.9E1,3.3E1,3.2E1,1.3E1,7E0,4E1,3.8E1,8E0,7E0,6E0,9E0,8E0,1.1E1,2.8E1,5E0,2E1,1.2E1,4E0,9E0,4E0,3E0,3.5E1,5E0,1.3E1,2.5E1,3E0,5E0,3E0,4E0,3E0,6E0,3E0,5E0,6E0,5E0,1.3E1,1.5E1,1E1,1E1,8E0,4E0,4E0,5E0,1.8E1,1.7E1,9E0,4E0,8E0,1.7E1,3E0,3E0,5E0,8E0,7E0,8E0,4E0,6E0,4E0,6E0,5E0,3E0],"tree_param":{"num_deleted":"0","num_feature":"99","num_nodes":"75","size_leaf_vector":"1"}},{"base_weights":[-8.867754E-2,-1.3846956E0,1.15349784E-1,6.2818575E-1,-1.9140904E0,1.7370098E0,-4.284203E-2,5.703746E-2,-3.071742E-3,-1.7363898E-1,-8.814797E-1,6.0187453E-1,2.589849E-1,6.974087E-1,-3.0444735E-1,-1.7688006E0,5.192154E-3,-2.9905534E-1,1.120898E-1,-4.1753373E-1,1.7368364E0,-1.6854854E-1,-1.5181871E-1,-2.6026506E-2,-1.1810708E-1,1.8573508E-2,-2.7286775E-2,-6.8986416E-2,5.3422526E-2,6.509577E-1,-1.1509181E0,1.038581E0,1.7959557E-1,3.2253793E-1,-7.2337645E-1,-2.8850485E-2,7.7301115E-2,-1.3373327E-1,-4.7416687E-1,4.212075E-1,1.5946497E-1,2.4874246E0,-1.3093065E-1,-1.2530105E0,4.0183967E-1,2.3143824E-2,-5.3109113E-2,7.505712E-2,-3.7044405E-3,1.9315045E-2,1.927711E-1,-3.5240512E-2,3.585961E-2,-1.2010587E-1,-5.5658617E-3,-1.06093235E-1,4.9948238E-2],"categories":[],"categories_nodes":[],"categories_segments":[],"categories_sizes":[],"default_left":[0,0,0,0,0,0,0,0,0,0,0,0,0,0,0,0,0,0,0,0,0,0,0,0,0,0,0,0,0,0,0,0,0,0,0,0,0,0,0,0,0,0,0,0,0,0,0,0,0,0,0,0,0,0,0,0,0],"id":22,"left_children":[1,3,5,7,9,11,13,-1,-1,-1,15,17,-1,19,21,23,25,27,-1,29,31,-1,33,-1,-1,-1,-1,-1,-1,35,37,39,-1,41,43,-1,-1,-1,45,47,-1,49,51,53,55,-1,-1,-1,-1,-1,-1,-1,-1,-1,-1,-1,-1],"loss_changes":[5.8332806E1,3.3170666E1,4.907228E1,2.6533766E0,3.7106186E1,6.511243E1,3.4101692E1,0E0,0E0,0E0,1.2597383E1,2.1891445E1,0E0,5.4034683E1,6.1563923E1,5.0377693E0,2.0945754E0,1.6876564E1,0E0,1.8772343E1,2.8403946E1,0E0,3.4123592E1,0E0,0E0,0E0,0E0,0E0,0E0,1.2367355E1,1.3614849E1,2.4553478E1,0E0,6.806354E1,3.447282E1,0E0,0E0,0E0,6.831367E0,8.918487E0,0E0,3.4625435E1,2.9849648E1,5.277468E1,3.217963E1,0E0,0E0,0E0,0E0,0E0,0E0,0E0,0E0,0E0,0E0,0E0,0E0],"parents":[2147483647,0,0,1,1,2,2,3,3,4,4,5,5,6,6,10,10,11,11,13,13,14,14,15,15,16,16,17,17,19,19,20,20,22,22,29,29,30,30,31,31,33,33,34,34,38,38,39,39,41,41,42,42,43,43,44,44],"right_children":[2,4,6,8,10,12,14,-1,-1,-1,16,18,-1,20,22,24,26,28,-1,30,32,-1,34,-1,-1,-1,-1,-1,-1,36,38,40,-1,42,44,-1,-1,-1,46,48,-1,50,52,54,56,-1,-1,-1,-1,-1,-1,-1,-1,-1,-1,-1,-1],"split_conditions":[1.4857286E2,-1.7474503E1,-1.2227925E1,1.5675137E2,3.3697612E6,1.738575E2,-3.5177226E0,5.703746E-2,-3.071742E-3,-1.7363898E-1,1.6131E2,5.8052483E1,2.589849E-1,-5.6241453E-2,-3.285579E0,7.776151E1,7.575225E0,5.76923E-1,1.120898E-1,2.313956E1,4.50155E2,-1.6854854E-1,6.3887606E0,-2.6026506E-2,-1.1810708E-1,1.8573508E-2,-2.7286775E-2,-6.8986416E-2,5.3422526E-2,7.511798E-2,3.8271088E1,-9.029042E-1,1.7959557E-1,-2.2884758E0,9.09551E1,-2.8850485E-2,7.7301115E-2,-1.3373327E-1,4.9889478E-1,5.6926136E0,1.5946497E-1,2E1,-5.0873384E-2,2.41073E0,5.1473103E1,2.3143824E-2,-5.3109113E-2,7.505712E-2,-3.7044405E-3,1.9315045E-2,1.927711E-1,-3.5240512E-2,3.585961E-2,-1.2010587E-1,-5.5658617E-3,-1.06093235E-1,4.9948238E-2],"split_indices":[66,51,84,42,8,61,86,0,0,0,0,13,0,83,86,77,85,33,0,18,9,0,25,0,0,0,0,0,0,71,75,84,0,81,49,0,0,0,56,25,0,63,7,85,13,0,0,0,0,0,0,0,0,0,0,0,0],"split_type":[0,0,0,0,0,0,0,0,0,0,0,0,0,0,0,0,0,0,0,0,0,0,0,0,0,0,0,0,0,0,0,0,0,0,0,0,0,0,0,0,0,0,0,0,0,0,0,0,0,0,0,0,0,0,0,0,0],"sum_hessian":[2.19E2,2.9E1,1.9E2,6E0,2.3E1,1.6E1,1.74E2,3E0,3E0,8E0,1.5E1,1.3E1,3E0,4.5E1,1.29E2,7E0,8E0,9E0,4E0,2.2E1,2.3E1,5E0,1.24E2,3E0,4E0,5E0,3E0,5E0,4E0,9E0,1.3E1,1.8E1,5E0,6.8E1,5.6E1,4E0,5E0,3E0,1E1,1.5E1,3E0,1.1E1,5.7E1,3.8E1,1.8E1,4E0,6E0,4E0,1.1E1,5E0,6E0,3.4E1,2.3E1,1.8E1,2E1,3E0,1.5E1],"tree_param":{"num_deleted":"0","num_feature":"99","num_nodes":"57","size_leaf_vector":"1"}},{"base_weights":[-5.4920814E-3,-1.1956428E-1,3.0918613E-1,-4.609162E-1,4.1149402E-1,4.1089445E-1,-8.3231956E-1,-1.163488E-1,1.3223598E0,-4.2757675E-1,2.249723E0,-1.8819901E-1,-6.9277495E-1,2.2532445E-1,-2.5402508E0,1.7988852E0,-6.3650054E-1,-1.7233545E0,2.416909E-1,3.3368187E0,-7.706801E-3,1.2032254E-1,-8.2628727E-1,1.1545473E0,-1.3515416E0,7.4766125E-3,-2.257026E-1,-1.7929194E-2,2.0970411E0,4.5347683E-2,-1.00027695E-1,-1.084831E-1,-2.1652648E-2,-1.3316091E0,1.191284E0,9.61764E-2,1.9867074E-1,-1.1286272E0,1.4577639E-1,2.5390196E0,3.0844182E-1,-2.8008232E-1,-1.9532194E0,2.4231982E0,-2.8474417E-3,-2.1506742E-2,-1.038536E-1,1.1956491E-1,-1.095926E-2,-7.00204E-2,2.6700048E-2,-3.4822643E-2,8.4971845E-2,1.787071E-1,6.0491282E-2,-3.4366192E-3,6.2159106E-2,-2.1452729E-2,-6.8249635E-4,-1.2507626E-1,-4.584424E-2,4.355292E-3,1.3892165E-1],"categories":[],"categories_nodes":[],"categories_segments":[],"categories_sizes":[],"default_left":[0,0,0,0,0,0,0,0,0,0,0,0,0,0,0,0,0,0,0,0,0,0,0,0,0,0,0,0,0,0,0,0,0,0,0,0,0,0,0,0,0,0,0,0,0,0,0,0,0,0,0,0,0,0,0,0,0,0,0,0,0,0,0],"id":23,"left_children":[1,3,-1,5,7,9,11,13,15,17,19,-1,21,23,25,27,29,31,33,35,-1,-1,37,39,41,-1,-1,-1,43,-1,-1,-1,-1,45,47,-1,-1,49,51,53,55,57,59,61,-1,-1,-1,-1,-1,-1,-1,-1,-1,-1,-1,-1,-1,-1,-1,-1,-1,-1,-1],"loss_changes":[1.6183043E2,4.0252052E1,0E0,4.4054104E1,4.1982933E1,6.417593E1,3.713344E1,4.6950596E1,3.1015285E1,2.556596E1,3.453617E1,0E0,4.064151E1,7.482342E1,3.947965E1,1.754226E1,1.7185448E1,5.2639465E0,3.146622E1,8.773117E-1,0E0,0E0,2.6321053E1,3.6701965E1,1.1701725E1,0E0,0E0,0E0,1.630687E1,0E0,0E0,0E0,0E0,4.6769724E0,2.3426006E1,0E0,0E0,3.4638885E1,3.1049833E1,1.2785126E1,7.700596E0,3.2809007E-1,4.8947525E0,1.87398E1,0E0,0E0,0E0,0E0,0E0,0E0,0E0,0E0,0E0,0E0,0E0,0E0,0E0,0E0,0E0,0E0,0E0,0E0,0E0],"parents":[2147483647,0,0,1,1,3,3,4,4,5,5,6,6,7,7,8,8,9,9,10,10,12,12,13,13,14,14,15,15,16,16,17,17,18,18,19,19,22,22,23,23,24,24,28,28,33,33,34,34,37,37,38,38,39,39,40,40,41,41,42,42,43,43],"right_children":[2,4,-1,6,8,10,12,14,16,18,20,-1,22,24,26,28,30,32,34,36,-1,-1,38,40,42,-1,-1,-1,44,-1,-1,-1,-1,46,48,-1,-1,50,52,54,56,58,60,62,-1,-1,-1,-1,-1,-1,-1,-1,-1,-1,-1,-1,-1,-1,-1,-1,-1,-1,-1],"split_conditions":[9.824564E1,2.4914947E0,3.0918613E-1,-3.4813602E0,2.3117683E1,3.325265E2,-3.424134E0,9.338499E0,4.987855E1,1.3909E2,1.0079554E0,-1.8819901E-1,-1.3798431E1,1.874192E1,8.332962E0,-1.9476868E1,1.7652458E0,7.5184693E0,-2.8630966E-2,5.4022546E0,-7.706801E-3,1.2032254E-1,1.3521934E3,2.5238655E1,-3.0891895E-1,7.4766125E-3,-2.257026E-1,-1.7929194E-2,5.703903E2,4.5347683E-2,-1.00027695E-1,-1.084831E-1,-2.1652648E-2,-1.4428036E1,2.471153E1,9.61764E-2,1.9867074E-1,4.8789415E-1,-5.960226E5,1.7102E2,1.3062062E1,-8.3707854E-2,1.2332422E3,-3.955788E-1,-2.8474417E-3,-2.1506742E-2,-1.038536E-1,1.1956491E-1,-1.095926E-2,-7.00204E-2,2.6700048E-2,-3.4822643E-2,8.4971845E-2,1.787071E-1,6.0491282E-2,-3.4366192E-3,6.2159106E-2,-2.1452729E-2,-6.8249635E-4,-1.2507626E-1,-4.584424E-2,4.355292E-3,1.3892165E-1],"split_indices":[76,48,0,86,58,9,86,48,75,29,37,0,84,58,35,74,9,25,38,34,0,0,14,57,45,0,0,0,10,0,0,0,0,51,47,0,0,45,8,0,76,7,14,26,0,0,0,0,0,0,0,0,0,0,0,0,0,0,0,0,0,0,0],"split_type":[0,0,0,0,0,0,0,0,0,0,0,0,0,0,0,0,0,0,0,0,0,0,0,0,0,0,0,0,0,0,0,0,0,0,0,0,0,0,0,0,0,0,0,0,0,0,0,0,0,0,0,0,0,0,0,0,0,0,0,0,0,0,0],"sum_hessian":[2.23E2,2.2E2,3E0,1.34E2,8.6E1,4E1,9.4E1,5.5E1,3.1E1,2.8E1,1.2E1,3E0,9.1E1,4.9E1,6E0,2.5E1,6E0,9E0,1.9E1,8E0,4E0,3E0,8.8E1,3.1E1,1.8E1,3E0,3E0,3E0,2.2E1,3E0,3E0,6E0,3E0,7E0,1.2E1,4E0,4E0,6.7E1,2.1E1,1.1E1,2E1,7E0,1.1E1,1.9E1,3E0,4E0,3E0,6E0,6E0,5.7E1,1E1,1.4E1,7E0,5E0,6E0,1.5E1,5E0,4E0,3E0,6E0,5E0,3E0,1.6E1],"tree_param":{"num_deleted":"0","num_feature":"99","num_nodes":"63","size_leaf_vector":"1"}},{"base_weights":[4.156806E-2,-8.2244225E-2,3.3885545E-1,2.1653202E0,-1.8737756E-1,-2.37874E-3,2.1544504E-1,-4.216464E-2,-1.1453142E0,-5.0548375E-1,3.360972E-1,-2.6555333E0,-1.190575E-2,1.1540512E-1,-9.96724E-1,-6.9707215E-1,6.587951E-1,-4.1981667E-2,-1.874896E-1,-8.096041E-2,6.187496E-1,1.0395944E0,-8.634997E-1,-1.2500695E0,4.6282675E-2,1.2966816E0,-1.5444587E0,3.1863362E-1,1.880641E0,9.466681E-2,5.1762294E-2,7.331859E-2,-5.6436256E-2,-6.870436E-2,7.346931E-2,-4.339354E-2,-1.3232341E-1,-2.1371164E-3,1.2997924E-1,-1.50389E-1,-2.5998987E-2,-3.661931E-3,9.016803E-2,1.4252768E-1,3.185531E-2,1.670843E-2,-8.575863E-3],"categories":[],"categories_nodes":[],"categories_segments":[],"categories_sizes":[],"default_left":[0,0,0,0,0,0,0,0,0,0,0,0,0,0,0,0,0,0,0,0,0,0,0,0,0,0,0,0,0,0,0,0,0,0,0,0,0,0,0,0,0,0,0,0,0,0,0],"id":24,"left_children":[1,3,-1,5,7,-1,-1,9,11,13,15,17,19,21,23,25,27,-1,-1,-1,29,31,33,35,-1,37,39,41,43,45,-1,-1,-1,-1,-1,-1,-1,-1,-1,-1,-1,-1,-1,-1,-1,-1,-1],"loss_changes":[1.9170512E2,5.2862988E1,0E0,4.9435303E1,2.9581024E1,0E0,0E0,3.2767498E1,4.7895847E1,2.57355E1,3.4799595E1,2.1876038E1,1.8574429E1,3.527604E1,2.427314E1,4.4239674E1,3.223513E1,0E0,0E0,0E0,2.8685694E0,2.159386E1,2.6133018E1,1.9843506E1,0E0,1.4601402E1,2.612677E1,3.7747192E1,1.9531845E1,5.227349E-1,0E0,0E0,0E0,0E0,0E0,0E0,0E0,0E0,0E0,0E0,0E0,0E0,0E0,0E0,0E0,0E0,0E0],"parents":[2147483647,0,0,1,1,3,3,4,4,7,7,8,8,9,9,10,10,11,11,12,12,13,13,14,14,15,15,16,16,20,20,21,21,22,22,23,23,25,25,26,26,27,27,28,28,29,29],"right_children":[2,4,-1,6,8,-1,-1,10,12,14,16,18,20,22,24,26,28,-1,-1,-1,30,32,34,36,-1,38,40,42,44,46,-1,-1,-1,-1,-1,-1,-1,-1,-1,-1,-1,-1,-1,-1,-1,-1,-1],"split_conditions":[9.724426E-1,-1.1266747E1,3.3885545E-1,-1.222427E-1,5.6835552E1,-2.37874E-3,2.1544504E-1,-4.1604573E-1,1.948197E1,6.0955324E0,1.562E5,4.9204865E1,2.4507281E2,1.7288E2,1.9169125E2,1.3638364E-1,1.1364813E3,-4.1981667E-2,-1.874896E-1,-8.096041E-2,1.7435E2,3.6403946E1,2.0709E2,9.321562E1,4.6282675E-2,3.3247772E1,1.1793374E0,9.2E1,1.9222833E0,6.014239E-2,5.1762294E-2,7.331859E-2,-5.6436256E-2,-6.870436E-2,7.346931E-2,-4.339354E-2,-1.3232341E-1,-2.1371164E-3,1.2997924E-1,-1.50389E-1,-2.5998987E-2,-3.661931E-3,9.016803E-2,1.4252768E-1,3.185531E-2,1.670843E-2,-8.575863E-3],"split_indices":[33,85,0,7,75,0,0,88,51,25,6,13,10,1,87,88,9,0,0,0,1,59,94,50,0,13,85,64,88,7,0,0,0,0,0,0,0,0,0,0,0,0,0,0,0,0,0],"split_type":[0,0,0,0,0,0,0,0,0,0,0,0,0,0,0,0,0,0,0,0,0,0,0,0,0,0,0,0,0,0,0,0,0,0,0,0,0,0,0,0,0,0,0,0,0,0,0],"sum_hessian":[2.24E2,2.21E2,3E0,9E0,2.12E2,5E0,4E0,1.85E2,2.7E1,8.3E1,1.02E2,1.1E1,1.6E1,3.7E1,4.6E1,2.4E1,7.8E1,5E0,6E0,4E0,1.2E1,1.9E1,1.8E1,4.1E1,5E0,7E0,1.7E1,6.2E1,1.6E1,6E0,6E0,1.6E1,3E0,1.5E1,3E0,3.4E1,7E0,4E0,3E0,6E0,1.1E1,5E1,1.2E1,8E0,8E0,3E0,3E0],"tree_param":{"num_deleted":"0","num_feature":"99","num_nodes":"47","size_leaf_vector":"1"}},{"base_weights":[2.6100513E-2,-9.701084E-2,3.3335453E-1,2.2057493E0,-1.9431193E-1,-2.2814297E-3,2.4705198E-1,-6.8457425E-2,-1.8426373E0,5.7329834E-1,-3.1929564E-1,-2.0100002E-1,-3.0723652E-1,-4.6968E-2,1.9990251E0,-5.2024657E-1,1.4301684E0,-6.5140545E-2,4.800426E-2,-1.3176118E0,3.644322E-1,2.8885956E0,-5.5612335E-3,6.0132783E-2,-1.1292175E0,-7.5934835E-2,2.7575006E0,-9.8537706E-2,-2.5687553E-2,-5.102402E-2,4.4078432E-2,5.427385E-2,1.6494597E-1,-1.2868568E-2,8.466239E-2,-9.819676E-2,-2.0632727E-2,2.5722558E-2,-3.960846E-2,1.7436156E-1,5.277871E-2],"categories":[],"categories_nodes":[],"categories_segments":[],"categories_sizes":[],"default_left":[0,0,0,0,0,0,0,0,0,0,0,0,0,0,0,0,0,0,0,0,0,0,0,0,0,0,0,0,0,0,0,0,0,0,0,0,0,0,0,0,0],"id":25,"left_children":[1,3,-1,5,7,-1,-1,9,11,13,15,-1,17,19,21,23,25,-1,-1,27,29,31,-1,33,35,37,39,-1,-1,-1,-1,-1,-1,-1,-1,-1,-1,-1,-1,-1,-1],"loss_changes":[1.8637297E2,4.972204E1,0E0,5.7535164E1,4.385308E1,0E0,0E0,3.2056473E1,5.0605423E1,4.961639E1,5.1016605E1,0E0,1.4402376E1,2.1389904E1,3.2271095E1,4.5660908E1,3.019588E1,0E0,0E0,4.428013E0,2.4149744E1,6.3729706E0,0E0,3.6392967E1,3.806517E1,3.9307623E0,6.8727074E0,0E0,0E0,0E0,0E0,0E0,0E0,0E0,0E0,0E0,0E0,0E0,0E0,0E0,0E0],"parents":[2147483647,0,0,1,1,3,3,4,4,7,7,8,8,9,9,10,10,12,12,13,13,14,14,15,15,16,16,19,19,20,20,21,21,23,23,24,24,25,25,26,26],"right_children":[2,4,-1,6,8,-1,-1,10,12,14,16,-1,18,20,22,24,26,-1,-1,28,30,32,-1,34,36,38,40,-1,-1,-1,-1,-1,-1,-1,-1,-1,-1,-1,-1,-1,-1],"split_conditions":[9.8231445E1,-1.133243E1,3.3335453E-1,-1.222427E-1,9.425082E-1,-2.2814297E-3,2.4705198E-1,-3.4813602E0,1.7296607E0,3.325265E2,2.6746529E1,-2.0100002E-1,2.147783E0,4.2318172E1,1.7097194E0,3.0232662E1,2.715014E-1,-6.5140545E-2,4.800426E-2,2.4789086E-1,1.3764E2,1.4675034E2,-5.5612335E-3,2.3970478E1,9.567642E-1,1.4301872E0,1.7E2,-9.8537706E-2,-2.5687553E-2,-5.102402E-2,4.4078432E-2,5.427385E-2,1.6494597E-1,-1.2868568E-2,8.466239E-2,-9.819676E-2,-2.0632727E-2,2.5722558E-2,-3.960846E-2,1.7436156E-1,5.277871E-2],"split_indices":[76,85,0,7,72,0,0,86,84,9,32,0,89,75,37,77,72,0,0,71,29,24,0,58,43,44,0,0,0,0,0,0,0,0,0,0,0,0,0,0,0],"split_type":[0,0,0,0,0,0,0,0,0,0,0,0,0,0,0,0,0,0,0,0,0,0,0,0,0,0,0,0,0,0,0,0,0,0,0,0,0,0,0,0,0],"sum_hessian":[2.22E2,2.19E2,3E0,8E0,2.11E2,5E0,3E0,1.97E2,1.4E1,5.5E1,1.42E2,5E0,9E0,3.9E1,1.6E1,1.28E2,1.4E1,5E0,4E0,9E0,3E1,1.1E1,5E0,6.6E1,6.2E1,7E0,7E0,4E0,5E0,8E0,2.2E1,3E0,8E0,5.6E1,1E1,2.7E1,3.5E1,4E0,3E0,4E0,3E0],"tree_param":{"num_deleted":"0","num_feature":"99","num_nodes":"41","size_leaf_vector":"1"}},{"base_weights":[-1.401543E-1,-1.4463997E0,5.4536372E-2,-2.3577266E0,-6.108128E-1,5.630611E-1,-3.674349E-1,-1.1313578E0,-2.1299694E-1,-1.124228E0,2.5419705E-2,-6.532897E-1,1.0019686E0,-5.10767E-1,1.1312957E0,1.1194073E-2,-1.2450929E-1,-2.133184E-2,-1.3058388E0,6.421356E-1,-2.1101782E0,3.177285E-1,1.8083929E0,-9.9102694E-1,-1.4394991E-1,1.5927678E-1,1.2515484E-1,-3.1682845E-2,-7.503328E-2,-7.848359E-2,1.3986357E0,-7.4141586E-1,-2.2887409E-1,1.5805519E0,-3.259035E-1,2.3480825E0,-3.672523E-2,-1.3005191E0,8.2623936E-2,-1.8787515E0,1.6501409E-1,3.896383E-2,-2.5280794E-2,-2.7996505E-2,1.2788998E-1,-5.6742214E-2,3.2223144E-3,4.8603198E-1,1.2023475E-1,-9.552616E-1,9.480072E-2,2.700046E0,-4.25838E-3,-7.9293676E-2,6.05504E-2,5.2173316E-1,-1.6374382E0,-1.3863514E-1,4.404915E-4,-7.917339E-1,6.250056E-1,7.596511E-2,-3.421143E-2,-9.1209605E-2,-1.2606185E-2,1.5278737E-1,8.317572E-3,6.757447E-3,3.806322E-2,8.53087E-3,-9.600552E-2,2.2626354E-3,-8.541878E-2,-5.2411735E-2,4.627736E-2],"categories":[],"categories_nodes":[],"categories_segments":[],"categories_sizes":[],"default_left":[0,0,0,0,0,0,0,0,0,0,0,0,0,0,0,0,0,0,0,0,0,0,0,0,0,0,0,0,0,0,0,0,0,0,0,0,0,0,0,0,0,0,0,0,0,0,0,0,0,0,0,0,0,0,0,0,0,0,0,0,0,0,0,0,0,0,0,0,0,0,0,0,0,0,0],"id":26,"left_children":[1,3,5,7,9,11,13,15,-1,17,-1,19,21,23,25,-1,-1,-1,27,29,31,33,35,37,39,41,-1,-1,-1,-1,43,45,-1,47,49,51,53,55,-1,57,59,-1,-1,-1,-1,-1,-1,61,-1,63,-1,65,-1,-1,-1,67,69,-1,-1,71,73,-1,-1,-1,-1,-1,-1,-1,-1,-1,-1,-1,-1,-1,-1],"loss_changes":[5.8825367E1,2.1404663E1,4.355262E1,2.9106537E1,1.043292E1,4.9770195E1,2.4422422E1,1.9677753E1,0E0,9.355936E-1,0E0,4.853728E1,3.6947E1,1.7826431E1,1.3379183E1,0E0,0E0,0E0,3.3691216E-1,2.596958E1,3.8463047E1,3.1401258E1,3.0955757E1,3.8604492E1,3.1933506E1,3.4032698E0,0E0,0E0,0E0,0E0,2.7618525E1,3.0863714E0,0E0,1.1170479E1,3.8777912E1,2.0801529E1,1.8032797E1,2.5412361E1,0E0,1.6086517E1,2.2939732E1,0E0,0E0,0E0,0E0,0E0,0E0,9.867827E0,0E0,1.2764183E1,0E0,2.1386368E1,0E0,0E0,0E0,5.752034E-1,1.9939484E1,0E0,0E0,1.3587091E1,1.9828281E1,0E0,0E0,0E0,0E0,0E0,0E0,0E0,0E0,0E0,0E0,0E0,0E0,0E0,0E0],"parents":[2147483647,0,0,1,1,2,2,3,3,4,4,5,5,6,6,7,7,9,9,11,11,12,12,13,13,14,14,18,18,19,19,20,20,21,21,22,22,23,23,24,24,25,25,30,30,31,31,33,33,34,34,35,35,36,36,37,37,39,39,40,40,47,47,49,49,51,51,55,55,56,56,59,59,60,60],"right_children":[2,4,6,8,10,12,14,16,-1,18,-1,20,22,24,26,-1,-1,-1,28,30,32,34,36,38,40,42,-1,-1,-1,-1,44,46,-1,48,50,52,54,56,-1,58,60,-1,-1,-1,-1,-1,-1,62,-1,64,-1,66,-1,-1,-1,68,70,-1,-1,72,74,-1,-1,-1,-1,-1,-1,-1,-1,-1,-1,-1,-1,-1,-1],"split_conditions":[1.4857286E2,6.187814E0,6.0964327E0,2.8E1,1.6712E2,1.6388E1,3.2115776E1,8.8E1,-2.1299694E-1,6.5696826E0,2.5419705E-2,6.591823E-1,2.5349542E-1,-3.7710385E2,7.199308E-1,1.1194073E-2,-1.2450929E-1,-2.133184E-2,-9.537873E6,4.8022524E-1,2.3551085E2,5.520789E0,8.463856E1,2.8232471E1,2.3437063E1,-1.9076176E6,1.2515484E-1,-3.1682845E-2,-7.503328E-2,-7.848359E-2,1.921065E2,6.5189046E-1,-2.2887409E-1,1.3214652E-1,1.9758499E2,3.3674503E1,7.853521E-1,4.230401E0,8.2623936E-2,1.99339E2,-4.1604573E-1,3.896383E-2,-2.5280794E-2,-2.7996505E-2,1.2788998E-1,-5.6742214E-2,3.2223144E-3,-2.0518992E0,1.2023475E-1,3.93841E1,9.480072E-2,7.905799E-1,-4.25838E-3,-7.9293676E-2,6.05504E-2,1.0026642E1,-1.4015065E2,-1.3863514E-1,4.404915E-4,3.3026944E2,-2.0663683E1,7.596511E-2,-3.421143E-2,-9.1209605E-2,-1.2606185E-2,1.5278737E-1,8.317572E-3,6.757447E-3,3.806322E-2,8.53087E-3,-9.600552E-2,2.2626354E-3,-8.541878E-2,-5.2411735E-2,4.627736E-2],"split_indices":[66,25,25,63,1,58,18,64,0,25,0,43,71,9,73,0,0,0,5,43,9,34,60,32,47,8,0,0,0,0,16,88,0,19,62,59,19,35,0,15,88,0,0,0,0,0,0,36,0,75,0,72,0,0,0,18,49,0,0,9,9,0,0,0,0,0,0,0,0,0,0,0,0,0,0],"split_type":[0,0,0,0,0,0,0,0,0,0,0,0,0,0,0,0,0,0,0,0,0,0,0,0,0,0,0,0,0,0,0,0,0,0,0,0,0,0,0,0,0,0,0,0,0,0,0,0,0,0,0,0,0,0,0,0,0,0,0,0,0,0,0,0,0,0,0,0,0,0,0,0,0,0,0],"sum_hessian":[2.3E2,2.9E1,2.01E2,1.3E1,1.6E1,9.1E1,1.1E2,9E0,4E0,1.1E1,5E0,2.4E1,6.7E1,1.01E2,9E0,5E0,4E0,3E0,8E0,1.3E1,1.1E1,3.7E1,3E1,4.3E1,5.8E1,6E0,3E0,3E0,5E0,3E0,1E1,8E0,3E0,1.2E1,2.5E1,2.3E1,7E0,3.9E1,4E0,8E0,5E1,3E0,3E0,4E0,6E0,5E0,3E0,6E0,6E0,2E1,5E0,2E1,3E0,3E0,4E0,6E0,3.3E1,5E0,3E0,1.6E1,3.4E1,3E0,3E0,8E0,1.2E1,1.7E1,3E0,3E0,3E0,5E0,2.8E1,9E0,7E0,5E0,2.9E1],"tree_param":{"num_deleted":"0","num_feature":"99","num_nodes":"75","size_leaf_vector":"1"}},{"base_weights":[4.817247E-2,-5.258909E-2,2.8248015E-1,-1.3323098E-1,1.9578423E-2,1.8649452E0,-5.8121946E-2,-1.032369E-2,1.7511351E-1,-1.1391321E0,7.167678E-2,-1.3947237E-1,-6.312746E-1,6.7622256E-1,-2.3587911E-1,-8.8800125E-2,-8.147412E-2,1.2622602E0,-4.956336E-2,-4.0938643E-1,1.206208E0,-2.5155561E-2,3.911237E-2,7.9310775E-2,-2.1230396E-2,-6.6546805E-2,1.636816E-2,-5.1500887E-2,-1.3230841E-3,1.2238926E-1,-3.4685761E-3],"categories":[],"categories_nodes":[],"categories_segments":[],"categories_sizes":[],"default_left":[0,0,0,0,0,0,0,0,0,0,0,0,0,0,0,0,0,0,0,0,0,0,0,0,0,0,0,0,0,0,0],"id":27,"left_children":[1,3,-1,-1,5,7,9,-1,-1,11,13,-1,15,17,19,-1,21,23,25,27,29,-1,-1,-1,-1,-1,-1,-1,-1,-1,-1],"loss_changes":[1.3254413E2,4.3652798E1,0E0,0E0,3.1940016E1,3.2543636E1,3.010879E1,0E0,0E0,1.8087412E1,3.5858376E1,0E0,1.2154653E1,2.7709526E1,3.2521027E1,0E0,5.7070613E0,2.2257698E1,1.54583435E1,2.8106915E1,2.3182007E1,0E0,0E0,0E0,0E0,0E0,0E0,0E0,0E0,0E0,0E0],"parents":[2147483647,0,0,1,1,4,4,5,5,6,6,9,9,10,10,12,12,13,13,14,14,16,16,17,17,18,18,19,19,20,20],"right_children":[2,4,-1,-1,6,8,10,-1,-1,12,14,-1,16,18,20,-1,22,24,26,28,30,-1,-1,-1,-1,-1,-1,-1,-1,-1,-1],"split_conditions":[-1.7543533E0,1.377636E2,2.8248015E-1,-1.3323098E-1,-1.133243E1,-1.222427E-1,4E0,-1.032369E-2,1.7511351E-1,-3.424134E0,5.78803E0,-1.3947237E-1,-3E4,2.7853256E1,2.6746529E1,-8.8800125E-2,1.7902933E2,9.309885E-1,-4.1045785E0,1.986034E-1,1.6508E2,-2.5155561E-2,3.911237E-2,7.9310775E-2,-2.1230396E-2,-6.6546805E-2,1.636816E-2,-5.1500887E-2,-1.3230841E-3,1.2238926E-1,-3.4685761E-3],"split_indices":[78,66,0,0,85,7,63,0,0,86,34,0,6,57,32,0,22,88,86,71,22,0,0,0,0,0,0,0,0,0,0],"split_type":[0,0,0,0,0,0,0,0,0,0,0,0,0,0,0,0,0,0,0,0,0,0,0,0,0,0,0,0,0,0,0],"sum_hessian":[2.29E2,2.26E2,3E0,5E0,2.21E2,8E0,2.13E2,4E0,4E0,2.2E1,1.91E2,4E0,1.8E1,6.4E1,1.27E2,5E0,1.3E1,3.5E1,2.9E1,1.14E2,1.3E1,9E0,4E0,2.9E1,6E0,6E0,2.3E1,4.2E1,7.2E1,6E0,7E0],"tree_param":{"num_deleted":"0","num_feature":"99","num_nodes":"31","size_leaf_vector":"1"}},{"base_weights":[9.964634E-2,-9.5097226E-4,2.8391773E-1,1.4362833E-1,-1.0772283E0,-8.476433E-2,1.010276E0,-1.9881965E0,4.2856142E-1,-1.2050904E0,9.3163274E-2,1.7453068E0,-1.7331703E-1,-2.751557E0,-6.3870572E-3,1.00907E-2,4.559016E-2,-1.7095615E0,4.1825715E-2,-2.818216E-1,8.8272774E-1,-3.195631E-1,2.6807804E0,7.2750473E-1,-1.2776797E0,-1.849979E-1,-2.8179903E-2,-1.0751451E-2,1.1618315E-2,-3.4263214E-1,-2.7688417E0,4.0428793E-1,-8.816865E-1,3.7005216E-1,2.1162329E0,-5.6509815E-2,2.8272659E-2,3.5176392E0,1.4530727E0,3.9536306E-3,5.622716E-2,-9.897081E-2,-1.7287334E-3,3.761258E-2,-6.7888156E-2,-1.6801363E-1,-4.578129E-2,8.263151E-2,-1.4300479E-2,1.1145421E-1,-5.5274837E-2,-2.1782761E-2,5.266644E-2,4.095025E-2,1.3810138E-1,8.181204E-2,1.9993658E-1,1.2754901E-1,2.1964038E-2],"categories":[],"categories_nodes":[],"categories_segments":[],"categories_sizes":[],"default_left":[0,0,0,0,0,0,0,0,0,0,0,0,0,0,0,0,0,0,0,0,0,0,0,0,0,0,0,0,0,0,0,0,0,0,0,0,0,0,0,0,0,0,0,0,0,0,0,0,0,0,0,0,0,0,0,0,0,0,0],"id":28,"left_children":[1,3,-1,5,7,9,11,13,15,17,19,21,23,25,-1,27,-1,29,-1,31,33,35,37,39,41,-1,-1,-1,-1,43,45,47,49,51,53,-1,-1,55,57,-1,-1,-1,-1,-1,-1,-1,-1,-1,-1,-1,-1,-1,-1,-1,-1,-1,-1,-1,-1],"loss_changes":[1.3151804E2,3.5477608E1,0E0,3.9870758E1,3.788869E1,3.200618E1,3.684154E1,2.3754623E1,2.2928932E0,2.428718E1,4.140316E1,5.107908E1,1.7841694E1,2.4410973E1,0E0,4.1521788E-1,0E0,2.5114609E1,0E0,3.9455894E1,2.7674343E1,7.365166E0,1.3382141E1,2.6113434E0,7.268836E0,0E0,0E0,0E0,0E0,1.1441295E1,8.812172E0,4.052507E1,4.183044E1,1.9349827E1,9.269882E0,0E0,0E0,3.4898987E0,9.202503E0,0E0,0E0,0E0,0E0,0E0,0E0,0E0,0E0,0E0,0E0,0E0,0E0,0E0,0E0,0E0,0E0,0E0,0E0,0E0,0E0],"parents":[2147483647,0,0,1,1,3,3,4,4,5,5,6,6,7,7,8,8,9,9,10,10,11,11,12,12,13,13,15,15,17,17,19,19,20,20,21,21,22,22,23,23,24,24,29,29,30,30,31,31,32,32,33,33,34,34,37,37,38,38],"right_children":[2,4,-1,6,8,10,12,14,16,18,20,22,24,26,-1,28,-1,30,-1,32,34,36,38,40,42,-1,-1,-1,-1,44,46,48,50,52,54,-1,-1,56,58,-1,-1,-1,-1,-1,-1,-1,-1,-1,-1,-1,-1,-1,-1,-1,-1,-1,-1,-1,-1],"split_conditions":[9.724426E-1,5.6835552E1,2.8391773E-1,6.2808264E2,1.939247E1,1.5576714E2,1.8721E2,3.5482612E0,-1.1612429E6,3.2986023E0,-4.8211418E-2,-1.4921854E6,2.4831305E1,1.7868976E2,-6.3870572E-3,6.2022276E0,4.559016E-2,1.3303E6,4.1825715E-2,1.7879039E2,1.7194376E2,1.527675E2,6.7349067E0,1.9404E2,-5.8686975E-2,-1.849979E-1,-2.8179903E-2,-1.0751451E-2,1.1618315E-2,2.4176973E1,2.41073E0,2.276791E1,4.2653112E0,1.9177954E1,1.8433499E2,-5.6509815E-2,2.8272659E-2,2E1,-2.1603096E0,3.9536306E-3,5.622716E-2,-9.897081E-2,-1.7287334E-3,3.761258E-2,-6.7888156E-2,-1.6801363E-1,-4.578129E-2,8.263151E-2,-1.4300479E-2,1.1145421E-1,-5.5274837E-2,-2.1782761E-2,5.266644E-2,4.095025E-2,1.3810138E-1,8.181204E-2,1.9993658E-1,1.2754901E-1,2.1964038E-2],"split_indices":[33,75,0,9,18,66,1,88,11,36,7,11,58,12,0,25,0,4,0,40,17,54,34,0,7,0,0,0,0,58,85,57,18,32,61,0,0,64,86,0,0,0,0,0,0,0,0,0,0,0,0,0,0,0,0,0,0,0,0],"split_type":[0,0,0,0,0,0,0,0,0,0,0,0,0,0,0,0,0,0,0,0,0,0,0,0,0,0,0,0,0,0,0,0,0,0,0,0,0,0,0,0,0,0,0,0,0,0,0,0,0,0,0,0,0,0,0,0,0,0,0],"sum_hessian":[2.29E2,2.26E2,3E0,2E2,2.6E1,1.59E2,4.1E1,1.6E1,1E1,2.1E1,1.38E2,2.5E1,1.6E1,1.1E1,5E0,6E0,4E0,1.7E1,4E0,9.4E1,4.4E1,8E0,1.7E1,9E0,7E0,7E0,4E0,3E0,3E0,8E0,9E0,4.4E1,5E1,3.2E1,1.2E1,4E0,4E0,9E0,8E0,4E0,5E0,4E0,3E0,4E0,4E0,6E0,3E0,1.5E1,2.9E1,3E0,4.7E1,1.5E1,1.7E1,5E0,7E0,3E0,6E0,3E0,5E0],"tree_param":{"num_deleted":"0","num_feature":"99","num_nodes":"59","size_leaf_vector":"1"}},{"base_weights":[1.3925515E-1,4.1678224E-2,2.673816E-1,2.5001807E0,-3.931331E-2,-6.694786E-3,2.2147846E-1,-3.4665456E-1,4.1858196E-1,-1.5759973E-1,-2.0069396E0,8.119862E-1,-2.0697702E-1,1.5443289E0,-3.3272818E-1,-2.8767502E0,-1.9583183E-3,2.0047824E0,3.7420782E-1,-6.900748E-1,1.0615643E-1,2.584133E0,-1.0812656E-2,-1.3056383E-1,-2.1539938E-1,-5.158768E-2,-1.7743713E-1,2.8413384E0,2.041246E-2,1.7001095E-1,1.0649933E-1,4.2779073E-2,-1.8931793E0,1.623621E-1,5.9633695E-2,-6.617863E-2,3.7952524E-3,1.597535E-1,7.4201815E-2,2.3094937E-2,-2.8615287E-2,-2.8310858E-2,4.7453832E-2,2.5779146E-3,-1.2907584E-1],"categories":[],"categories_nodes":[],"categories_segments":[],"categories_sizes":[],"default_left":[0,0,0,0,0,0,0,0,0,0,0,0,0,0,0,0,0,0,0,0,0,0,0,0,0,0,0,0,0,0,0,0,0,0,0,0,0,0,0,0,0,0,0,0,0],"id":29,"left_children":[1,3,-1,5,7,-1,-1,9,11,13,15,17,19,21,23,25,-1,27,29,31,-1,33,-1,-1,35,-1,-1,37,-1,39,-1,41,43,-1,-1,-1,-1,-1,-1,-1,-1,-1,-1,-1,-1],"loss_changes":[1.1474496E2,4.3705105E1,0E0,3.7739624E1,3.0120615E1,0E0,0E0,3.9860977E1,2.133245E1,3.5088352E1,2.2127705E1,2.6925358E1,4.0411575E1,2.075231E1,2.8367188E1,8.325455E0,0E0,1.7428127E1,1.4294698E1,2.565028E1,0E0,2.9154243E0,0E0,0E0,3.392317E1,0E0,0E0,2.3399353E-2,0E0,8.644311E0,0E0,1.143208E1,1.5894684E1,0E0,0E0,0E0,0E0,0E0,0E0,0E0,0E0,0E0,0E0,0E0,0E0],"parents":[2147483647,0,0,1,1,3,3,4,4,7,7,8,8,9,9,10,10,11,11,12,12,13,13,14,14,15,15,17,17,18,18,19,19,21,21,24,24,27,27,29,29,31,31,32,32],"right_children":[2,4,-1,6,8,-1,-1,10,12,14,16,18,20,22,24,26,-1,28,30,32,-1,34,-1,-1,36,-1,-1,38,-1,40,-1,42,44,-1,-1,-1,-1,-1,-1,-1,-1,-1,-1,-1,-1],"split_conditions":[9.824564E1,-1.133243E1,2.673816E-1,-1.4299592E0,2.4914947E0,-6.694786E-3,2.2147846E-1,1.2730004E0,6.3757E0,-5.7023854E0,2.3952679E1,-1.9609708E0,7.2E1,9.109761E5,-5.287691E0,-9.384881E0,-1.9583183E-3,3.9602E6,2.0125E6,-2.9015657E-1,1.0615643E-1,-4.4815025E0,-1.0812656E-2,-1.3056383E-1,1.3932E6,-5.158768E-2,-1.7743713E-1,5.093784E-2,2.041246E-2,6.0793276E0,1.0649933E-1,-1.12866424E-1,1.6435767E2,1.623621E-1,5.9633695E-2,-6.617863E-2,3.7952524E-3,1.597535E-1,7.4201815E-2,2.3094937E-2,-2.8615287E-2,-2.8310858E-2,4.7453832E-2,2.5779146E-3,-1.2907584E-1],"split_indices":[76,85,0,88,48,0,0,48,25,86,18,38,63,8,86,51,0,6,4,46,0,48,0,0,6,0,0,73,0,34,0,7,23,0,0,0,0,0,0,0,0,0,0,0,0],"split_type":[0,0,0,0,0,0,0,0,0,0,0,0,0,0,0,0,0,0,0,0,0,0,0,0,0,0,0,0,0,0,0,0,0,0,0,0,0,0,0,0,0,0,0,0,0],"sum_hessian":[2.21E2,2.18E2,3E0,6E0,2.12E2,3E0,3E0,1.27E2,8.5E1,1.15E2,1.2E1,5.2E1,3.3E1,1E1,1.05E2,8E0,4E0,1.3E1,3.9E1,2.8E1,5E0,6E0,4E0,4E0,1.01E2,3E0,5E0,8E0,5E0,3.6E1,3E0,1.8E1,1E1,3E0,3E0,2E1,8.1E1,5E0,3E0,2.6E1,1E1,1.1E1,7E0,3E0,7E0],"tree_param":{"num_deleted":"0","num_feature":"99","num_nodes":"45","size_leaf_vector":"1"}},{"base_weights":[4.269422E-3,-9.062722E-2,2.5753728E-1,2.0886714E-2,-1.4300231E0,1.16992E-1,-1.2042463E0,-3.2696517E0,-1.2934837E-1,-3.1117645E-1,4.706459E-1,-2.123321E0,2.5931843E-2,-5.755973E-2,-2.2332709E-1,-7.278498E-2,5.6349033E-1,1.1698434E0,-5.409273E-1,5.9819543E-1,-1.4005035E0,-2.8842017E-2,-1.4968754E-1,4.705366E-2,-3.4937533E-3,-3.6984373E-2,2.225641E0,-8.1168586E-1,1.1327996E0,9.898711E-1,-1.1473344E-1,-1.0916103E-1,-1.11524E-2,1.5050994E-1,5.4402325E-2,2.5121286E-3,-6.1081484E-2,1.38535E-1,7.1948483E-3,-2.7704703E-2,6.323483E-2,-1.8663054E-2,1.0327995E-1],"categories":[],"categories_nodes":[],"categories_segments":[],"categories_sizes":[],"default_left":[0,0,0,0,0,0,0,0,0,0,0,0,0,0,0,0,0,0,0,0,0,0,0,0,0,0,0,0,0,0,0,0,0,0,0,0,0,0,0,0,0,0,0],"id":30,"left_children":[1,3,-1,5,7,9,11,13,15,17,19,21,-1,-1,-1,-1,23,25,27,29,31,-1,-1,-1,-1,-1,33,35,37,39,41,-1,-1,-1,-1,-1,-1,-1,-1,-1,-1,-1,-1],"loss_changes":[1.1190327E2,3.303872E1,0E0,2.4277946E1,4.0253967E1,2.9068335E1,2.5006086E1,1.3451454E1,1.1149592E1,3.02359E1,2.589751E1,1.2428829E1,0E0,0E0,0E0,0E0,2.0739021E0,2.6043491E1,3.5360847E1,2.7758022E1,6.255907E0,0E0,0E0,0E0,0E0,0E0,4.1145477E0,2.4699318E1,1.7912563E1,3.039658E1,2.2001366E1,0E0,0E0,0E0,0E0,0E0,0E0,0E0,0E0,0E0,0E0,0E0,0E0],"parents":[2147483647,0,0,1,1,3,3,4,4,5,5,6,6,7,7,8,8,9,9,10,10,11,11,16,16,17,17,18,18,19,19,20,20,26,26,27,27,28,28,29,29,30,30],"right_children":[2,4,-1,6,8,10,12,14,16,18,20,22,-1,-1,-1,-1,24,26,28,30,32,-1,-1,-1,-1,-1,34,36,38,40,42,-1,-1,-1,-1,-1,-1,-1,-1,-1,-1,-1,-1],"split_conditions":[9.824564E1,9.3077785E-1,2.5753728E-1,5.6835552E1,3.2783493E-1,-4.1604573E-1,1.948197E1,-1.4483656E7,1.8147502E0,-4.1305556E0,2.027E2,-1.990228E1,2.5931843E-2,-5.755973E-2,-2.2332709E-1,-7.278498E-2,8.937424E0,-5.3921256E0,2.0161E2,2.7844097E1,-1.8448E6,-2.8842017E-2,-1.4968754E-1,4.705366E-2,-3.4937533E-3,-3.6984373E-2,-2.9234567E0,-1.1755341E0,2.4E1,1.0694639E3,8.022376E-1,-1.0916103E-1,-1.11524E-2,1.5050994E-1,5.4402325E-2,2.5121286E-3,-6.1081484E-2,1.38535E-1,7.1948483E-3,-2.7704703E-2,6.323483E-2,-1.8663054E-2,1.0327995E-1],"split_indices":[76,72,0,75,88,88,51,5,38,88,61,10,0,0,0,0,35,88,1,57,6,0,0,0,0,0,37,38,64,14,72,0,0,0,0,0,0,0,0,0,0,0,0],"split_type":[0,0,0,0,0,0,0,0,0,0,0,0,0,0,0,0,0,0,0,0,0,0,0,0,0,0,0,0,0,0,0,0,0,0,0,0,0,0,0,0,0,0,0],"sum_hessian":[2.23E2,2.2E2,3E0,2.04E2,1.6E1,1.9E2,1.4E1,6E0,1E1,8.6E1,1.04E2,9E0,5E0,3E0,3E0,3E0,7E0,1.1E1,7.5E1,9.8E1,6E0,4E0,