{"learner":{"attributes":{"scikit_learn":"{\"_estimator_type\": \"regressor\"}"},"feature_names":["Open","High","Low","Close","Volume","volume_adi","volume_obv","volume_cmf","volume_fi","volume_em","volume_sma_em","volume_vpt","volume_vwap","volume_mfi","volume_nvi","volatility_bbm","volatility_bbh","volatility_bbl","volatility_bbw","volatility_bbp","volatility_bbhi","volatility_bbli","volatility_kcc","volatility_kch","volatility_kcl","volatility_kcw","volatility_kcp","volatility_kchi","volatility_kcli","volatility_dcl","volatility_dch","volatility_dcm","volatility_dcw","volatility_dcp","volatility_atr","volatility_ui","trend_macd","trend_macd_signal","trend_macd_diff","trend_sma_fast","trend_sma_slow","trend_ema_fast","trend_ema_slow","trend_vortex_ind_pos","trend_vortex_ind_neg","trend_vortex_ind_diff","trend_trix","trend_mass_index","trend_dpo","trend_kst","trend_kst_sig","trend_kst_diff","trend_ichimoku_conv","trend_ichimoku_base","trend_ichimoku_a","trend_ichimoku_b","trend_stc","trend_adx","trend_adx_pos","trend_adx_neg","trend_cci","trend_visual_ichimoku_a","trend_visual_ichimoku_b","trend_aroon_up","trend_aroon_down","trend_aroon_ind","trend_psar_up","trend_psar_down","trend_psar_up_indicator","trend_psar_down_indicator","momentum_rsi","momentum_stoch_rsi","momentum_stoch_rsi_k","momentum_stoch_rsi_d","momentum_tsi","momentum_uo","momentum_stoch","momentum_stoch_signal","momentum_wr","momentum_ao","momentum_roc","momentum_ppo","momentum_ppo_signal","momentum_ppo_hist","momentum_pvo","momentum_pvo_signal","momentum_pvo_hist","momentum_kama","others_dr","others_dlr","others_cr"],"feature_types":["float","float","float","float","int","float","int","float","float","float","float","float","float","float","float","float","float","float","float","float","float","float","float","float","float","float","float","float","float","float","float","float","float","float","float","float","float","float","float","float","float","float","float","float","float","float","float","float","float","float","float","float","float","float","float","float","float","float","float","float","float","float","float","float","float","float","float","float","float","float","float","float","float","float","float","float","float","float","float","float","float","float","float","float","float","float","float","float","float","float","float"],"gradient_booster":{"model":{"gbtree_model_param":{"num_parallel_tree":"1","num_trees":"1000"},"iteration_indptr":[0,1,2,3,4,5,6,7,8,9,10,11,12,13,14,15,16,17,18,19,20,21,22,23,24,25,26,27,28,29,30,31,32,33,34,35,36,37,38,39,40,41,42,43,44,45,46,47,48,49,50,51,52,53,54,55,56,57,58,59,60,61,62,63,64,65,66,67,68,69,70,71,72,73,74,75,76,77,78,79,80,81,82,83,84,85,86,87,88,89,90,91,92,93,94,95,96,97,98,99,100,101,102,103,104,105,106,107,108,109,110,111,112,113,114,115,116,117,118,119,120,121,122,123,124,125,126,127,128,129,130,131,132,133,134,135,136,137,138,139,140,141,142,143,144,145,146,147,148,149,150,151,152,153,154,155,156,157,158,159,160,161,162,163,164,165,166,167,168,169,170,171,172,173,174,175,176,177,178,179,180,181,182,183,184,185,186,187,188,189,190,191,192,193,194,195,196,197,198,199,200,201,202,203,204,205,206,207,208,209,210,211,212,213,214,215,216,217,218,219,220,221,222,223,224,225,226,227,228,229,230,231,232,233,234,235,236,237,238,239,240,241,242,243,244,245,246,247,248,249,250,251,252,253,254,255,256,257,258,259,260,261,262,263,264,265,266,267,268,269,270,271,272,273,274,275,276,277,278,279,280,281,282,283,284,285,286,287,288,289,290,291,292,293,294,295,296,297,298,299,300,301,302,303,304,305,306,307,308,309,310,311,312,313,314,315,316,317,318,319,320,321,322,323,324,325,326,327,328,329,330,331,332,333,334,335,336,337,338,339,340,341,342,343,344,345,346,347,348,349,350,351,352,353,354,355,356,357,358,359,360,361,362,363,364,365,366,367,368,369,370,371,372,373,374,375,376,377,378,379,380,381,382,383,384,385,386,387,388,389,390,391,392,393,394,395,396,397,398,399,400,401,402,403,404,405,406,407,408,409,410,411,412,413,414,415,416,417,418,419,420,421,422,423,424,425,426,427,428,429,430,431,432,433,434,435,436,437,438,439,440,441,442,443,444,445,446,447,448,449,450,451,452,453,454,455,456,457,458,459,460,461,462,463,464,465,466,467,468,469,470,471,472,473,474,475,476,477,478,479,480,481,482,483,484,485,486,487,488,489,490,491,492,493,494,495,496,497,498,499,500,501,502,503,504,505,506,507,508,509,510,511,512,513,514,515,516,517,518,519,520,521,522,523,524,525,526,527,528,529,530,531,532,533,534,535,536,537,538,539,540,541,542,543,544,545,546,547,548,549,550,551,552,553,554,555,556,557,558,559,560,561,562,563,564,565,566,567,568,569,570,571,572,573,574,575,576,577,578,579,580,581,582,583,584,585,586,587,588,589,590,591,592,593,594,595,596,597,598,599,600,601,602,603,604,605,606,607,608,609,610,611,612,613,614,615,616,617,618,619,620,621,622,623,624,625,626,627,628,629,630,631,632,633,634,635,636,637,638,639,640,641,642,643,644,645,646,647,648,649,650,651,652,653,654,655,656,657,658,659,660,661,662,663,664,665,666,667,668,669,670,671,672,673,674,675,676,677,678,679,680,681,682,683,684,685,686,687,688,689,690,691,692,693,694,695,696,697,698,699,700,701,702,703,704,705,706,707,708,709,710,711,712,713,714,715,716,717,718,719,720,721,722,723,724,725,726,727,728,729,730,731,732,733,734,735,736,737,738,739,740,741,742,743,744,745,746,747,748,749,750,751,752,753,754,755,756,757,758,759,760,761,762,763,764,765,766,767,768,769,770,771,772,773,774,775,776,777,778,779,780,781,782,783,784,785,786,787,788,789,790,791,792,793,794,795,796,797,798,799,800,801,802,803,804,805,806,807,808,809,810,811,812,813,814,815,816,817,818,819,820,821,822,823,824,825,826,827,828,829,830,831,832,833,834,835,836,837,838,839,840,841,842,843,844,845,846,847,848,849,850,851,852,853,854,855,856,857,858,859,860,861,862,863,864,865,866,867,868,869,870,871,872,873,874,875,876,877,878,879,880,881,882,883,884,885,886,887,888,889,890,891,892,893,894,895,896,897,898,899,900,901,902,903,904,905,906,907,908,909,910,911,912,913,914,915,916,917,918,919,920,921,922,923,924,925,926,927,928,929,930,931,932,933,934,935,936,937,938,939,940,941,942,943,944,945,946,947,948,949,950,951,952,953,954,955,956,957,958,959,960,961,962,963,964,965,966,967,968,969,970,971,972,973,974,975,976,977,978,979,980,981,982,983,984,985,986,987,988,989,990,991,992,993,994,995,996,997,998,999,1000],"tree_info":[0,0,0,0,0,0,0,0,0,0,0,0,0,0,0,0,0,0,0,0,0,0,0,0,0,0,0,0,0,0,0,0,0,0,0,0,0,0,0,0,0,0,0,0,0,0,0,0,0,0,0,0,0,0,0,0,0,0,0,0,0,0,0,0,0,0,0,0,0,0,0,0,0,0,0,0,0,0,0,0,0,0,0,0,0,0,0,0,0,0,0,0,0,0,0,0,0,0,0,0,0,0,0,0,0,0,0,0,0,0,0,0,0,0,0,0,0,0,0,0,0,0,0,0,0,0,0,0,0,0,0,0,0,0,0,0,0,0,0,0,0,0,0,0,0,0,0,0,0,0,0,0,0,0,0,0,0,0,0,0,0,0,0,0,0,0,0,0,0,0,0,0,0,0,0,0,0,0,0,0,0,0,0,0,0,0,0,0,0,0,0,0,0,0,0,0,0,0,0,0,0,0,0,0,0,0,0,0,0,0,0,0,0,0,0,0,0,0,0,0,0,0,0,0,0,0,0,0,0,0,0,0,0,0,0,0,0,0,0,0,0,0,0,0,0,0,0,0,0,0,0,0,0,0,0,0,0,0,0,0,0,0,0,0,0,0,0,0,0,0,0,0,0,0,0,0,0,0,0,0,0,0,0,0,0,0,0,0,0,0,0,0,0,0,0,0,0,0,0,0,0,0,0,0,0,0,0,0,0,0,0,0,0,0,0,0,0,0,0,0,0,0,0,0,0,0,0,0,0,0,0,0,0,0,0,0,0,0,0,0,0,0,0,0,0,0,0,0,0,0,0,0,0,0,0,0,0,0,0,0,0,0,0,0,0,0,0,0,0,0,0,0,0,0,0,0,0,0,0,0,0,0,0,0,0,0,0,0,0,0,0,0,0,0,0,0,0,0,0,0,0,0,0,0,0,0,0,0,0,0,0,0,0,0,0,0,0,0,0,0,0,0,0,0,0,0,0,0,0,0,0,0,0,0,0,0,0,0,0,0,0,0,0,0,0,0,0,0,0,0,0,0,0,0,0,0,0,0,0,0,0,0,0,0,0,0,0,0,0,0,0,0,0,0,0,0,0,0,0,0,0,0,0,0,0,0,0,0,0,0,0,0,0,0,0,0,0,0,0,0,0,0,0,0,0,0,0,0,0,0,0,0,0,0,0,0,0,0,0,0,0,0,0,0,0,0,0,0,0,0,0,0,0,0,0,0,0,0,0,0,0,0,0,0,0,0,0,0,0,0,0,0,0,0,0,0,0,0,0,0,0,0,0,0,0,0,0,0,0,0,0,0,0,0,0,0,0,0,0,0,0,0,0,0,0,0,0,0,0,0,0,0,0,0,0,0,0,0,0,0,0,0,0,0,0,0,0,0,0,0,0,0,0,0,0,0,0,0,0,0,0,0,0,0,0,0,0,0,0,0,0,0,0,0,0,0,0,0,0,0,0,0,0,0,0,0,0,0,0,0,0,0,0,0,0,0,0,0,0,0,0,0,0,0,0,0,0,0,0,0,0,0,0,0,0,0,0,0,0,0,0,0,0,0,0,0,0,0,0,0,0,0,0,0,0,0,0,0,0,0,0,0,0,0,0,0,0,0,0,0,0,0,0,0,0,0,0,0,0,0,0,0,0,0,0,0,0,0,0,0,0,0,0,0,0,0,0,0,0,0,0,0,0,0,0,0,0,0,0,0,0,0,0,0,0,0,0,0,0,0,0,0,0,0,0,0,0,0,0,0,0,0,0,0,0,0,0,0,0,0,0,0,0,0,0,0,0,0,0,0,0,0,0,0,0,0,0,0,0,0,0,0,0,0,0,0,0,0,0,0,0,0,0,0,0,0,0,0,0,0,0,0,0,0,0,0,0,0,0,0,0,0,0,0,0,0,0,0,0,0,0,0,0,0,0,0,0,0,0,0,0,0,0,0,0,0,0,0,0,0,0,0,0,0,0,0,0,0,0,0,0,0,0,0,0,0,0,0,0,0,0,0,0,0,0,0,0,0,0,0,0,0,0,0,0,0,0,0,0,0,0,0,0,0,0,0,0,0,0,0,0,0,0,0,0,0,0,0,0,0,0,0,0,0,0,0,0,0,0,0,0,0,0,0,0,0,0,0,0,0,0,0,0,0,0,0,0,0,0,0,0,0,0,0,0,0,0,0,0,0,0,0,0,0,0,0,0,0,0,0,0,0,0,0,0,0,0,0,0,0,0,0,0,0,0,0,0,0,0,0,0,0,0,0,0,0,0,0,0,0],"trees":[{"base_weights":[8.893266E-3,-2.1088075E-2,6.5787934E-2,-3.3063114E-1,9.734295E-2,-1.9258702E-1,-1.5409303E0,3.8871225E-2,6.322793E-2,-4.184795E-1,7.546534E-2,-7.989823E-2,-1.8186944E-2,-1.4157253E-2,8.830078E-1,-6.681527E-2,-8.156089E-1,4.6827316E-1,-9.3899295E-2,-1.7608257E-1,2.6718777E-1,7.007666E-3,1.2090691E0,-4.3924326E-1,1.7625846E-1,-3.5588163E-1,-5.541195E-2,4.3404857E-3,5.707361E-1,1.6647238E-1,-2.2687641E-1,1.23043604E-1,-3.3011463E-1,-1.7666067E-1,5.204166E-1,5.9211805E-2,1.8909078E-2,-2.5709324E-2,1.3727874E-3,1.1261312E-2,-2.9071616E-3,-1.9394195E-2,2.0472503E-3,2.7342936E-2,9.736291E-3,-4.0229666E-3,1.1845396E-2,-1.6899515E-2,-2.245013E-3,-2.7893407E-2,1.2100018E-2,-1.9550007E-2,8.820627E-3,-1.8551327E-2,1.2272977E-2,-2.105834E-3,3.5501715E-2],"categories":[],"categories_nodes":[],"categories_segments":[],"categories_sizes":[],"default_left":[0,0,0,0,0,0,0,0,0,0,0,0,0,0,0,0,0,0,0,0,0,0,0,0,0,0,0,0,0,0,0,0,0,0,0,0,0,0,0,0,0,0,0,0,0,0,0,0,0,0,0,0,0,0,0,0,0],"id":0,"left_children":[1,3,-1,5,7,9,11,13,-1,15,17,-1,-1,19,21,23,25,27,29,31,33,-1,35,37,39,41,-1,-1,43,45,47,49,51,53,55,-1,-1,-1,-1,-1,-1,-1,-1,-1,-1,-1,-1,-1,-1,-1,-1,-1,-1,-1,-1,-1,-1],"loss_changes":[1.0649849E1,7.9506373E0,0E0,9.7277155E0,1.3388607E1,3.3618863E0,1.9511414E0,6.8165193E0,0E0,4.135191E0,1.773692E0,0E0,0E0,6.6072383E0,1.8737059E0,1.616387E0,3.0761356E0,2.3471189E-1,6.9561464E-1,4.27952E0,6.0488844E0,0E0,4.4726753E-1,6.709025E-1,2.9839793E-1,4.7552943E-1,0E0,0E0,4.5287013E-2,2.640438E-1,4.0180087E-1,4.779854E0,5.219796E0,2.843497E0,6.9912376E0,0E0,0E0,0E0,0E0,0E0,0E0,0E0,0E0,0E0,0E0,0E0,0E0,0E0,0E0,0E0,0E0,0E0,0E0,0E0,0E0,0E0,0E0],"parents":[2147483647,0,0,1,1,3,3,4,4,5,5,6,6,7,7,9,9,10,10,13,13,14,14,15,15,16,16,17,17,18,18,19,19,20,20,22,22,23,23,24,24,25,25,28,28,29,29,30,30,31,31,32,32,33,33,34,34],"right_children":[2,4,-1,6,8,10,12,14,-1,16,18,-1,-1,20,22,24,26,28,30,32,34,-1,36,38,40,42,-1,-1,44,46,48,50,52,54,56,-1,-1,-1,-1,-1,-1,-1,-1,-1,-1,-1,-1,-1,-1,-1,-1,-1,-1,-1,-1,-1,-1],"split_conditions":[4.2303543E1,3.6555058E1,6.5787934E-2,2.4439003E1,8.429902E0,3.7175121E0,2.1038782E1,2.1980932E-1,6.322793E-2,9.156788E-1,-1.9782302E-1,-7.989823E-2,-1.8186944E-2,4.01125E1,-6.664995E-1,3.0019241E1,3.5056E1,-1.0257657E8,-3.8850003E-1,3.68775E1,-3.3168502E-2,7.007666E-3,3.976E1,3.261E1,3.6042168E1,1.3577494E-1,-5.541195E-2,4.3404857E-3,3.603847E1,-1.9229987E0,3.502E1,2.445114E1,4.2155E1,-2.3109554E-1,-1.008821E2,5.9211805E-2,1.8909078E-2,-2.5709324E-2,1.3727874E-3,1.1261312E-2,-2.9071616E-3,-1.9394195E-2,2.0472503E-3,2.7342936E-2,9.736291E-3,-4.0229666E-3,1.1845396E-2,-1.6899515E-2,-2.245013E-3,-2.7893407E-2,1.2100018E-2,-1.9550007E-2,8.820627E-3,-1.8551327E-2,1.2272977E-2,-2.105834E-3,3.5501715E-2],"split_indices":[17,87,0,50,25,9,9,7,0,43,7,0,0,61,48,70,15,5,48,61,26,0,3,2,22,7,0,0,12,48,3,47,31,7,49,0,0,0,0,0,0,0,0,0,0,0,0,0,0,0,0,0,0,0,0,0,0],"split_type":[0,0,0,0,0,0,0,0,0,0,0,0,0,0,0,0,0,0,0,0,0,0,0,0,0,0,0,0,0,0,0,0,0,0,0,0,0,0,0,0,0,0,0,0,0,0,0,0,0,0,0,0,0,0,0,0,0],"sum_hessian":[2.18E2,2.15E2,3E0,5.9E1,1.56E2,5.4E1,5E0,1.51E2,5E0,2.9E1,2.5E1,3E0,2E0,1.43E2,8E0,1.6E1,1.3E1,7E0,1.8E1,9.1E1,5.2E1,3E0,5E0,6E0,1E1,8E0,5E0,2E0,5E0,6E0,1.2E1,3.1E1,6E1,1.9E1,3.3E1,3E0,2E0,4E0,2E0,7E0,3E0,6E0,2E0,3E0,2E0,2E0,4E0,5E0,7E0,5E0,2.6E1,4.7E1,1.3E1,1.2E1,7E0,1.3E1,2E1],"tree_param":{"num_deleted":"0","num_feature":"91","num_nodes":"57","size_leaf_vector":"1"}},{"base_weights":[-2.0963117E-3,-3.3226478E-1,1.291638E-1,-2.1180907E-1,-1.2828599E0,1.4055712E0,7.068627E-2,-8.066066E-2,-5.5103236E-1,-8.284703E-2,-8.004703E-3,7.0563525E-2,1.5116927E-2,1.6678635E-2,1.0609919E0,-1.9236782E-1,3.0720973E-1,-5.1937323E-2,-2.8329983E-1,-3.300892E-1,1.5263724E-1,1.8185705E-2,5.415004E-2,1.5644221E-1,-4.1574746E-1,3.7964505E-1,4.7127987E-4,9.345829E-2,-6.195866E-1,-5.1741904E-1,4.142778E-1,-2.7373427E-1,2.662126E-1,-1.6629307E-2,3.4853405E-1,-6.8359977E-1,-1.9833067E-1,1.8030116E-2,4.9094283E-3,-7.58889E-3,1.4207576E-2,-5.4657687E-3,-3.8413152E-2,-1.3133612E-1,-8.957763E-1,2.3701843E-2,1.6001219E-1,4.0210867E-1,-4.371806E-1,8.218193E-1,1.6362222E-1,5.5006295E-3,2.3329264E-2,-3.7075803E-2,-6.6307033E-3,7.8073674E-4,-1.5686393E-2,5.128565E-3,-1.6328327E-2,-1.492573E-2,-4.3892182E-2,2.1919839E-3,8.600407E-3,7.0347274E-3,2.0086423E-2,-2.2046337E-2,1.2879953E-2,6.1069135E-2,1.8807357E-2,2.389456E-3,3.3044633E-2],"categories":[],"categories_nodes":[],"categories_segments":[],"categories_sizes":[],"default_left":[0,0,0,0,0,0,0,0,0,0,0,0,0,0,0,0,0,0,0,0,0,0,0,0,0,0,0,0,0,0,0,0,0,0,0,0,0,0,0,0,0,0,0,0,0,0,0,0,0,0,0,0,0,0,0,0,0,0,0,0,0,0,0,0,0,0,0,0,0,0,0],"id":1,"left_children":[1,3,5,7,9,11,13,15,17,-1,-1,-1,-1,19,21,23,25,-1,27,29,31,-1,-1,33,35,37,-1,39,41,43,45,47,49,-1,51,53,55,-1,-1,-1,-1,-1,-1,57,59,-1,61,63,65,67,69,-1,-1,-1,-1,-1,-1,-1,-1,-1,-1,-1,-1,-1,-1,-1,-1,-1,-1,-1,-1],"loss_changes":[9.750617E0,7.056573E0,1.1917869E1,2.5358918E0,5.4005632E0,1.7911339E0,8.272334E0,1.9221969E0,2.7736907E0,0E0,0E0,0E0,0E0,7.0280027E0,7.54467E-1,2.7142203E0,2.0967162E-1,0E0,1.7049893E0,6.0709248E0,5.2543793E0,0E0,0E0,1.6690216E0,1.0873692E0,8.212221E-2,0E0,5.7254755E-1,9.897828E-1,4.848979E0,2.9853582E-1,2.7164674E0,4.710524E0,0E0,4.5474422E-1,9.377799E-1,5.4299945E-1,0E0,0E0,0E0,0E0,0E0,0E0,1.3153107E0,1.2915258E0,0E0,1.6278505E-2,2.1281898E-2,1.7178164E0,2.488843E0,4.9363585E0,0E0,0E0,0E0,0E0,0E0,0E0,0E0,0E0,0E0,0E0,0E0,0E0,0E0,0E0,0E0,0E0,0E0,0E0,0E0,0E0],"parents":[2147483647,0,0,1,1,2,2,3,3,4,4,5,5,6,6,7,7,8,8,13,13,14,14,15,15,16,16,18,18,19,19,20,20,23,23,24,24,25,25,27,27,28,28,29,29,30,30,31,31,32,32,34,34,35,35,36,36,43,43,44,44,46,46,47,47,48,48,49,49,50,50],"right_children":[2,4,6,8,10,12,14,16,18,-1,-1,-1,-1,20,22,24,26,-1,28,30,32,-1,-1,34,36,38,-1,40,42,44,46,48,50,-1,52,54,56,-1,-1,-1,-1,-1,-1,58,60,-1,62,64,66,68,70,-1,-1,-1,-1,-1,-1,-1,-1,-1,-1,-1,-1,-1,-1,-1,-1,-1,-1,-1,-1],"split_conditions":[3.6555058E1,1.6349989E0,3.486007E1,3.5701668E1,8.810006E0,3.7113663E1,2.3280455E-1,2.8827972E1,3.40152E7,-8.284703E-2,-8.004703E-3,7.0563525E-2,1.5116927E-2,3.7309998E1,3.685951E1,-4.4790196E0,2.6530014E1,-5.1937323E-2,-1.9782302E-1,-6.0285932E7,3.6417297E1,1.8185705E-2,5.415004E-2,3.27E1,2.5750177E1,9.131044E-1,4.7127987E-4,-8.550781E7,3.618E1,3.50442E1,4.432E1,-2.7346945E1,3.5063538E1,-1.6629307E-2,-1.451396E0,3.91402E7,1.1068586E0,1.8030116E-2,4.9094283E-3,-7.58889E-3,1.4207576E-2,-5.4657687E-3,-3.8413152E-2,3.581433E1,1.7927992E-1,2.3701843E-2,4.56E1,-2.9344618E6,2.324674E1,-5.159515E0,8.2321334E-1,5.5006295E-3,2.3329264E-2,-3.7075803E-2,-6.6307033E-3,7.8073674E-4,-1.5686393E-2,5.128565E-3,-1.6328327E-2,-1.492573E-2,-4.3892182E-2,2.1919839E-3,8.600407E-3,7.0347274E-3,2.0086423E-2,-2.2046337E-2,1.2879953E-2,6.1069135E-2,1.8807357E-2,2.389456E-3,3.3044633E-2],"split_indices":[87,48,24,39,35,42,7,58,6,0,0,0,0,62,12,10,32,0,7,5,70,0,0,0,58,19,0,5,1,17,0,9,13,0,36,6,83,0,0,0,0,0,0,24,71,0,1,8,84,84,19,0,0,0,0,0,0,0,0,0,0,0,0,0,0,0,0,0,0,0,0],"split_type":[0,0,0,0,0,0,0,0,0,0,0,0,0,0,0,0,0,0,0,0,0,0,0,0,0,0,0,0,0,0,0,0,0,0,0,0,0,0,0,0,0,0,0,0,0,0,0,0,0,0,0,0,0,0,0,0,0,0,0,0,0,0,0,0,0,0,0,0,0,0,0],"sum_hessian":[2.23E2,6.3E1,1.6E2,5.7E1,6E0,6E0,1.54E2,4.2E1,1.5E1,3E0,3E0,4E0,2E0,1.47E2,7E0,3.3E1,9E0,3E0,1.2E1,4.1E1,1.06E2,3E0,4E0,1.3E1,2E1,7E0,2E0,6E0,6E0,3.3E1,8E0,2.2E1,8.4E1,3E0,1E1,8E0,1.2E1,5E0,2E0,3E0,3E0,3E0,3E0,1.7E1,1.6E1,4E0,4E0,4E0,1.8E1,1.2E1,7.2E1,6E0,4E0,5E0,3E0,6E0,6E0,9E0,8E0,5E0,1.1E1,2E0,2E0,2E0,2E0,1.6E1,2E0,3E0,9E0,6.3E1,9E0],"tree_param":{"num_deleted":"0","num_feature":"91","num_nodes":"71","size_leaf_vector":"1"}},{"base_weights":[-6.826039E-3,-3.5758936E-1,1.2343834E-1,-2.3541412E-1,-1.4586558E0,6.757301E-2,6.5404736E-2,-5.6965772E-2,-1.442215E-1,-7.574158E-2,-1.7070128E-2,2.7392585E-2,6.313216E-2,-2.9328856E-1,3.026336E-1,-1.6974583E-2,8.6694473E-1,-4.3206617E-2,-1.5607919E-1,5.4830986E-1,4.983768E-2,-1.6720732E-1,2.5102144E-1,1.2871395E-3,1.1400232E0,-3.3810532E-1,2.3614849E-1,2.6311178E-2,7.922878E-3,-6.6742925E-3,6.02628E-3,-6.839492E-2,-6.3399607E-1,-2.7907807E-1,4.955154E-1,5.6134984E-2,1.7423162E-2,-3.4222994E-2,-6.836323E-3,2.3850596E-4,1.2636062E-2,-4.1287117E-2,2.6961655E-4,-3.4310363E-2,-4.0735328E-3,-2.6339725E-2,1.0805984E-2,3.8140617E-2,1.2230577E-2],"categories":[],"categories_nodes":[],"categories_segments":[],"categories_sizes":[],"default_left":[0,0,0,0,0,0,0,0,0,0,0,0,0,0,0,0,0,0,0,0,0,0,0,0,0,0,0,0,0,0,0,0,0,0,0,0,0,0,0,0,0,0,0,0,0,0,0,0,0],"id":2,"left_children":[1,3,5,7,9,-1,11,-1,13,-1,-1,15,-1,17,19,21,23,-1,25,27,29,31,33,-1,35,37,39,-1,-1,-1,-1,41,43,45,47,-1,-1,-1,-1,-1,-1,-1,-1,-1,-1,-1,-1,-1,-1],"loss_changes":[1.0461908E1,7.9970403E0,1.4877263E1,5.8903017E0,1.7796164E0,0E0,9.161161E0,0E0,3.6857738E0,0E0,0E0,5.937236E0,0E0,4.189671E0,8.4215677E-1,6.161763E0,1.788208E0,0E0,2.6500874E0,1.24063015E-1,1.9478248E-1,4.47684E0,7.2666245E0,0E0,4.5470715E-1,2.003836E0,2.0841956E-1,0E0,0E0,0E0,0E0,5.865066E0,1.8534412E0,3.8284602E0,2.9981155E0,0E0,0E0,0E0,0E0,0E0,0E0,0E0,0E0,0E0,0E0,0E0,0E0,0E0,0E0],"parents":[2147483647,0,0,1,1,2,2,3,3,4,4,6,6,8,8,11,11,13,13,14,14,15,15,16,16,18,18,19,19,20,20,21,21,22,22,24,24,25,25,26,26,31,31,32,32,33,33,34,34],"right_children":[2,4,6,8,10,-1,12,-1,14,-1,-1,16,-1,18,20,22,24,-1,26,28,30,32,34,-1,36,38,40,-1,-1,-1,-1,42,44,46,48,-1,-1,-1,-1,-1,-1,-1,-1,-1,-1,-1,-1,-1,-1],"split_conditions":[3.650857E1,2.4439003E1,3.486007E1,-3.200687E-1,2.1038782E1,6.757301E-2,4.2303543E1,-5.6965772E-2,1.1261811E0,-7.574158E-2,-1.7070128E-2,2.3280455E-1,6.313216E-2,-2.4253273E5,7.2701454E0,4.01125E1,-6.664995E-1,-4.3206617E-2,2.8827972E1,1.8306623E-1,-1.0350327E8,2.7943703E1,-2.9184058E0,1.2871395E-3,3.976E1,-5.93499E-1,-6.567756E-1,2.6311178E-2,7.922878E-3,-6.6742925E-3,6.02628E-3,-4.7803313E-1,6.1640945E1,5.617953E-1,1.3346358E1,5.6134984E-2,1.7423162E-2,-3.4222994E-2,-6.836323E-3,2.3850596E-4,1.2636062E-2,-4.1287117E-2,2.6961655E-4,-3.4310363E-2,-4.0735328E-3,-2.6339725E-2,1.0805984E-2,3.8140617E-2,1.2230577E-2],"split_indices":[87,50,24,7,9,0,17,0,44,0,0,7,0,8,25,61,48,0,58,33,5,9,81,0,3,48,88,0,0,0,0,36,9,88,32,0,0,0,0,0,0,0,0,0,0,0,0,0,0],"split_type":[0,0,0,0,0,0,0,0,0,0,0,0,0,0,0,0,0,0,0,0,0,0,0,0,0,0,0,0,0,0,0,0,0,0,0,0,0,0,0,0,0,0,0,0,0,0,0,0,0],"sum_hessian":[2.27E2,6.1E1,1.66E2,5.6E1,5E0,5E0,1.61E2,3E0,5.3E1,3E0,2E0,1.58E2,3E0,4E1,1.3E1,1.51E2,7E0,5E0,3.5E1,6E0,7E0,9.7E1,5.4E1,2E0,5E0,2.4E1,1.1E1,4E0,2E0,2E0,5E0,8.1E1,1.6E1,1.7E1,3.7E1,3E0,2E0,5E0,1.9E1,3E0,8E0,5E0,7.6E1,1.1E1,5E0,1E1,7E0,1E1,2.7E1],"tree_param":{"num_deleted":"0","num_feature":"91","num_nodes":"49","size_leaf_vector":"1"}},{"base_weights":[8.899454E-3,-3.8914904E-1,1.5511668E-1,-2.7227715E-1,-1.4150951E0,1.113941E-1,6.2349837E-2,-6.259021E-2,-1.964368E-1,-7.344273E-2,-1.6609594E-2,7.09854E-2,5.528104E-2,-6.863222E-2,-5.5669045E-1,-8.332961E-1,1.05983466E-1,-2.1260524E-1,1.4712998E-1,-4.7015354E-2,-1.9847675E-1,-9.595689E-3,-4.338646E-2,-9.0876035E-2,2.7754322E-1,-2.9266796E-1,1.1367207E-2,-3.4061468E-3,2.0602372E-2,-2.7672365E-2,1.07205816E-1,-6.0782754E-1,6.767845E-2,-3.0023754E-1,5.078686E-1,6.322856E-3,-1.6232105E-2,3.7767254E-3,-1.4445305E-2,-2.091587E-3,7.328777E-3,-6.5081487E-3,-3.9954364E-2,-2.3955341E-2,8.360177E-3,-2.1252329E-2,1.8698521E-2,4.276601E-2,9.757331E-3],"categories":[],"categories_nodes":[],"categories_segments":[],"categories_sizes":[],"default_left":[0,0,0,0,0,0,0,0,0,0,0,0,0,0,0,0,0,0,0,0,0,0,0,0,0,0,0,0,0,0,0,0,0,0,0,0,0,0,0,0,0,0,0,0,0,0,0,0,0],"id":3,"left_children":[1,3,5,7,9,11,-1,-1,13,-1,-1,15,-1,17,19,21,23,25,27,-1,29,-1,-1,31,33,35,-1,37,-1,-1,39,41,43,45,47,-1,-1,-1,-1,-1,-1,-1,-1,-1,-1,-1,-1,-1,-1],"loss_changes":[1.3213912E1,6.9288607E0,9.884899E0,5.108497E0,1.66465E0,8.116143E0,0E0,0E0,2.4480646E0,0E0,0E0,5.0887156E0,0E0,1.3049018E0,2.8039308E0,6.0003424E-1,5.1925173E0,1.0699742E0,9.280513E-1,0E0,1.5568622E0,0E0,0E0,5.942615E0,1.106484E1,1.1336035E0,0E0,4.7790092E-1,0E0,0E0,9.154616E-2,2.7248635E0,5.253414E0,4.3575754E0,8.384316E0,0E0,0E0,0E0,0E0,0E0,0E0,0E0,0E0,0E0,0E0,0E0,0E0,0E0,0E0],"parents":[2147483647,0,0,1,1,2,2,3,3,4,4,5,5,8,8,11,11,13,13,14,14,15,15,16,16,17,17,18,18,20,20,23,23,24,24,25,25,27,27,30,30,31,31,32,32,33,33,34,34],"right_children":[2,4,6,8,10,12,-1,-1,14,-1,-1,16,-1,18,20,22,24,26,28,-1,30,-1,-1,32,34,36,-1,38,-1,-1,40,42,44,46,48,-1,-1,-1,-1,-1,-1,-1,-1,-1,-1,-1,-1,-1,-1],"split_conditions":[3.650857E1,2.4439003E1,8.429902E0,-3.3746198E-1,2.1038782E1,4.138764E1,6.2349837E-2,-6.259021E-2,2.2762938E1,-7.344273E-2,-1.6609594E-2,-5.392396E-1,5.528104E-2,3.4841E1,3.8787712E1,3.7836E6,-1.2854971E0,3.576E1,7.6917615E0,-4.7015354E-2,3.54E1,-9.595689E-3,-4.338646E-2,3.7928528E1,-2.8804243E-1,-1.0257657E8,1.1367207E-2,1.9928078E1,2.0602372E-2,-2.7672365E-2,5.9063805E1,3.6303093E1,-1.9393401E0,-9.751926E4,3.3047E6,6.322856E-3,-1.6232105E-2,3.7767254E-3,-1.4445305E-2,-2.091587E-3,7.328777E-3,-6.5081487E-3,-3.9954364E-2,-2.3955341E-2,8.360177E-3,-2.1252329E-2,1.8698521E-2,4.276601E-2,9.757331E-3],"split_indices":[87,50,25,7,9,17,0,0,32,0,0,26,0,54,16,4,85,2,9,0,0,0,0,77,7,5,0,32,0,0,13,13,88,11,4,0,0,0,0,0,0,0,0,0,0,0,0,0,0],"split_type":[0,0,0,0,0,0,0,0,0,0,0,0,0,0,0,0,0,0,0,0,0,0,0,0,0,0,0,0,0,0,0,0,0,0,0,0,0,0,0,0,0,0,0,0,0,0,0,0,0],"sum_hessian":[2.25E2,6E1,1.65E2,5.5E1,5E0,1.61E2,4E0,2E0,5.3E1,3E0,2E0,1.57E2,4E0,4E1,1.3E1,5E0,1.52E2,2.4E1,1.6E1,4E0,9E0,2E0,3E0,7.1E1,8.1E1,2.1E1,3E0,1.2E1,4E0,3E0,6E0,1.6E1,5.5E1,2.3E1,5.8E1,4E0,1.7E1,1E1,2E0,2E0,4E0,8E0,8E0,9E0,4.6E1,1.8E1,5E0,1.8E1,4E1],"tree_param":{"num_deleted":"0","num_feature":"91","num_nodes":"49","size_leaf_vector":"1"}},{"base_weights":[-4.094448E-2,-2.4064276E-1,1.6981749E-1,-1.7266864E-1,-1.1537032E0,1.205014E-1,5.9538167E-2,-6.521287E-1,-3.994466E-2,-7.610432E-2,-3.4145558E-1,-8.019633E-2,5.2969944E-1,-1.3004588E0,-2.46685E-1,5.2414093E-2,-4.929182E-1,-2.10328E-2,-1.9974604E-3,3.8235527E-1,-2.143891E-1,-2.661323E-2,6.575667E-1,-4.466027E-1,-7.6656155E-2,-4.942491E-1,6.266026E-2,-2.724122E-1,1.777648E-1,-9.5663846E-1,-7.7478185E-2,-1.4521039E-1,6.1427516E-1,1.0743919E-1,-4.9815693E-1,-2.8509863E-2,8.782516E-1,-2.5833074E-3,-2.7538845E-2,-3.2310866E-2,-2.9328212E-1,-7.4736804E-2,8.852117E-3,-4.2978376E-1,1.9264737E-1,-1.3528071E-1,3.0163565E-1,-1.3850928E-2,-4.5888506E-2,1.2163219E-1,-1.4438077E-2,-1.4065421E-2,7.0010344E-3,7.123691E-1,9.7122155E-3,-2.502994E-2,2.5420114E-1,-7.1230984E-1,-9.972236E-2,-3.669664E-1,1.9679876E-2,5.439814E-1,1.4120674E0,-3.4482623E-3,-1.4547158E-2,-4.2688726E-3,-7.719241E-4,3.526112E-3,-2.0632917E-2,1.6849766E-3,1.33456215E-2,-1.8968906E-2,7.128642E-3,2.1920078E-2,2.8371504E-3,7.3099327E-3,1.9009387E-3,7.721559E-3,3.375588E-2,1.7410148E-2,-1.3983691E-2,-3.4810334E-2,3.8137648E-3,-1.53291635E-2,2.238381E-2,-7.247355E-3,-2.0037938E-2,3.3861347E-2,7.7207475E-3,6.618605E-2,1.6998146E-2],"categories":[],"categories_nodes":[],"categories_segments":[],"categories_sizes":[],"default_left":[0,0,0,0,0,0,0,0,0,0,0,0,0,0,0,0,0,0,0,0,0,0,0,0,0,0,0,0,0,0,0,0,0,0,0,0,0,0,0,0,0,0,0,0,0,0,0,0,0,0,0,0,0,0,0,0,0,0,0,0,0,0,0,0,0,0,0,0,0,0,0,0,0,0,0,0,0,0,0,0,0,0,0,0,0,0,0,0,0,0,0],"id":4,"left_children":[1,3,5,7,9,11,-1,13,15,-1,17,19,21,23,25,27,29,-1,-1,31,33,-1,35,37,-1,39,41,43,45,47,49,51,53,55,57,59,61,-1,-1,-1,63,65,-1,67,69,71,73,-1,-1,75,-1,-1,-1,77,-1,-1,79,81,83,85,-1,87,89,-1,-1,-1,-1,-1,-1,-1,-1,-1,-1,-1,-1,-1,-1,-1,-1,-1,-1,-1,-1,-1,-1,-1,-1,-1,-1,-1,-1],"loss_changes":[9.6792E0,7.124399E0,7.0109205E0,7.0375295E0,4.0811405E0,8.994118E0,0E0,5.9878693E0,3.7074099E0,0E0,2.3471975E-1,4.675233E0,5.897975E0,3.716938E0,1.2562944E0,3.0614986E0,2.8156009E0,0E0,0E0,2.1691997E0,5.350344E0,0E0,5.0214615E0,4.0420657E-1,0E0,3.1599593E-1,1.8790892E-1,1.6197269E0,2.134775E0,3.743744E-1,5.4389185E-1,4.4647825E-1,2.6960993E-1,3.1403763E0,2.5740705E0,1.746631E0,3.6928272E0,0E0,0E0,0E0,6.577313E-2,6.5458566E-3,0E0,7.0664763E-1,1.105189E-1,1.744148E0,2.1293392E0,0E0,0E0,1.7944679E-2,0E0,0E0,0E0,4.1239834E-1,0E0,0E0,2.6822052E0,2.4664536E0,2.395786E0,5.582398E-2,0E0,1.5981617E0,1.3079071E0,0E0,0E0,0E0,0E0,0E0,0E0,0E0,0E0,0E0,0E0,0E0,0E0,0E0,0E0,0E0,0E0,0E0,0E0,0E0,0E0,0E0,0E0,0E0,0E0,0E0,0E0,0E0,0E0],"parents":[2147483647,0,0,1,1,2,2,3,3,4,4,5,5,7,7,8,8,10,10,11,11,12,12,13,13,14,14,15,15,16,16,19,19,20,20,22,22,23,23,25,25,26,26,27,27,28,28,29,29,30,30,31,31,32,32,33,33,34,34,35,35,36,36,40,40,41,41,43,43,44,44,45,45,46,46,49,49,53,53,56,56,57,57,58,58,59,59,61,61,62,62],"right_children":[2,4,6,8,10,12,-1,14,16,-1,18,20,22,24,26,28,30,-1,-1,32,34,-1,36,38,-1,40,42,44,46,48,50,52,54,56,58,60,62,-1,-1,-1,64,66,-1,68,70,72,74,-1,-1,76,-1,-1,-1,78,-1,-1,80,82,84,86,-1,88,90,-1,-1,-1,-1,-1,-1,-1,-1,-1,-1,-1,-1,-1,-1,-1,-1,-1,-1,-1,-1,-1,-1,-1,-1,-1,-1,-1,-1],"split_conditions":[3.764E1,1.6349989E0,4.2303543E1,-1.7978128E0,8.810006E0,1.01855115E3,5.9538167E-2,2.5379368E1,2.5571243E1,-7.610432E-2,-2.4319595E-1,8.750758E0,-5.3271294E0,1.5754456E1,6.3569992E1,3.5392E1,1.0554875E3,-2.10328E-2,-1.9974604E-3,-5.7440653E0,1.3535942E1,-2.661323E-2,-1.1132558E6,6.120001E-1,-7.6656155E-2,3.62E1,3.628E1,2.8056297E1,8.982831E-2,-2.4645543E-1,1.5829362E1,3.889E1,-7.44064E7,-1.791143E-1,4.246467E1,7.0546618E0,4.023E1,-2.5833074E-3,-2.7538845E-2,-3.2310866E-2,3.766E1,3.574E1,8.852117E-3,3.30325E1,3.6E1,-2.6401383E-1,3.631E1,-1.3850928E-2,-4.5888506E-2,3.579E1,-1.4438077E-2,-1.4065421E-2,7.0010344E-3,-1.8681326E0,9.7122155E-3,-2.502994E-2,1.496258E2,1.37273E0,5.6791355E1,-2.9512E6,1.9679876E-2,3.5897E6,9.5807874E-1,-3.4482623E-3,-1.4547158E-2,-4.2688726E-3,-7.719241E-4,3.526112E-3,-2.0632917E-2,1.6849766E-3,1.33456215E-2,-1.8968906E-2,7.128642E-3,2.1920078E-2,2.8371504E-3,7.3099327E-3,1.9009387E-3,7.721559E-3,3.375588E-2,1.7410148E-2,-1.3983691E-2,-3.4810334E-2,3.8137648E-3,-1.53291635E-2,2.238381E-2,-7.247355E-3,-2.0037938E-2,3.3861347E-2,7.7207475E-3,6.618605E-2,1.6998146E-2],"split_indices":[3,48,17,85,35,14,0,58,47,0,7,49,85,50,13,53,14,0,0,9,59,0,8,48,0,2,0,58,33,38,85,0,5,38,22,25,1,0,0,0,1,0,0,15,0,7,0,0,0,0,0,0,0,88,0,0,49,26,70,6,0,4,19,0,0,0,0,0,0,0,0,0,0,0,0,0,0,0,0,0,0,0,0,0,0,0,0,0,0,0,0],"split_type":[0,0,0,0,0,0,0,0,0,0,0,0,0,0,0,0,0,0,0,0,0,0,0,0,0,0,0,0,0,0,0,0,0,0,0,0,0,0,0,0,0,0,0,0,0,0,0,0,0,0,0,0,0,0,0,0,0,0,0,0,0,0,0,0,0,0,0,0,0,0,0,0,0,0,0,0,0,0,0,0,0,0,0,0,0,0,0,0,0,0,0],"sum_hessian":[2.28E2,1.17E2,1.11E2,1.1E2,7E0,1.08E2,3E0,2.3E1,8.7E1,3E0,4E0,7.3E1,3.5E1,8E0,1.5E1,7.3E1,1.4E1,2E0,2E0,1.6E1,5.7E1,3E0,3.2E1,4E0,4E0,8E0,7E0,2E1,5.3E1,6E0,8E0,5E0,1.1E1,2.7E1,3E1,8E0,2.4E1,2E0,2E0,2E0,6E0,4E0,3E0,1.5E1,5E0,1.5E1,3.8E1,2E0,4E0,5E0,3E0,3E0,2E0,8E0,3E0,4E0,2.3E1,1.9E1,1.1E1,5E0,3E0,1.6E1,8E0,2E0,4E0,2E0,2E0,2E0,1.3E1,3E0,2E0,7E0,8E0,1.8E1,2E1,2E0,3E0,2E0,6E0,1.8E1,5E0,1.6E1,3E0,8E0,3E0,3E0,2E0,8E0,8E0,6E0,2E0],"tree_param":{"num_deleted":"0","num_feature":"91","num_nodes":"91","size_leaf_vector":"1"}},{"base_weights":[5.2437726E-3,-2.9622018E-1,1.2579757E-1,-2.0405869E-1,-1.3797785E0,7.868982E-2,5.5079006E-2,-5.265233E-2,-1.2622622E-1,-7.687637E-2,-1.6185986E-2,4.3847643E-2,5.7731107E-2,-5.314394E-1,-2.2293191E-2,3.1807735E-3,9.148262E-1,-5.2234035E-2,-1.3492516E-1,-4.8203576E-1,6.795641E-2,-1.03263356E-1,3.3393466E-1,7.4395805E-4,5.1383786E-2,-2.1920895E-2,5.8673162E-2,-7.7062086E-3,-2.2156509E-2,1.3327359E-1,-2.3048602E-2,4.55707E-1,-1.5502223E-1,5.3483587E-2,1.7416704E-1,-3.4431848E-3,7.598399E-3,-1.2334816E-2,7.265349E-3,9.043799E-4,3.57982E-2,-3.2047223E-2,-3.2549114E-3,4.10054E-4,3.164587E-2],"categories":[],"categories_nodes":[],"categories_segments":[],"categories_sizes":[],"default_left":[0,0,0,0,0,0,0,0,0,0,0,0,0,0,0,0,0,0,0,0,0,0,0,0,0,0,0,0,0,0,0,0,0,0,0,0,0,0,0,0,0,0,0,0,0],"id":5,"left_children":[1,3,5,7,9,11,-1,-1,13,-1,-1,15,-1,17,19,21,23,-1,25,27,29,31,33,-1,-1,-1,35,-1,-1,37,-1,39,41,-1,43,-1,-1,-1,-1,-1,-1,-1,-1,-1,-1],"loss_changes":[8.396067E0,6.3093586E0,9.494149E0,5.129538E0,1.7871532E0,7.451557E0,0E0,0E0,2.4729397E0,0E0,0E0,5.558026E0,0E0,3.4387143E0,2.0243533E0,5.350711E0,2.2036915E0,0E0,7.405047E-1,4.8465967E-2,1.783139E0,3.3977873E0,5.6083884E0,0E0,0E0,0E0,1.458762E-1,0E0,0E0,8.2476926E-1,0E0,1.8388638E0,4.9719515E0,0E0,3.2823033E0,0E0,0E0,0E0,0E0,0E0,0E0,0E0,0E0,0E0,0E0],"parents":[2147483647,0,0,1,1,2,2,3,3,4,4,5,5,8,8,11,11,13,13,14,14,15,15,16,16,18,18,19,19,20,20,21,21,22,22,26,26,29,29,31,31,32,32,34,34],"right_children":[2,4,6,8,10,12,-1,-1,14,-1,-1,16,-1,18,20,22,24,-1,26,28,30,32,34,-1,-1,-1,36,-1,-1,38,-1,40,42,-1,44,-1,-1,-1,-1,-1,-1,-1,-1,-1,-1],"split_conditions":[3.6555058E1,7.8632174E0,8.429902E0,-3.200687E-1,2.1038782E1,4.2303543E1,5.5079006E-2,-5.265233E-2,-6.381013E0,-7.687637E-2,-1.6185986E-2,2.3280455E-1,5.7731107E-2,2.7433702E1,3.3897E1,4.0405E1,7.961871E1,-5.2234035E-2,1.945E7,4.2786E6,2.5793058E1,3.478E1,-1.445229E0,7.4395805E-4,5.1383786E-2,-2.1920895E-2,-8.3437704E7,-7.7062086E-3,-2.2156509E-2,3.4097496E1,-2.3048602E-2,-1.8652208E1,3.666E1,5.3483587E-2,8.047041E0,-3.4431848E-3,7.598399E-3,-1.2334816E-2,7.265349E-3,9.043799E-4,3.57982E-2,-3.2047223E-2,-3.2549114E-3,4.10054E-4,3.164587E-2],"split_indices":[87,50,25,7,9,17,0,0,86,0,0,7,0,58,54,62,49,0,6,4,47,61,84,0,0,0,5,0,0,42,0,9,3,0,9,0,0,0,0,0,0,0,0,0,0],"split_type":[0,0,0,0,0,0,0,0,0,0,0,0,0,0,0,0,0,0,0,0,0,0,0,0,0,0,0,0,0,0,0,0,0,0,0,0,0,0,0,0,0,0,0,0,0],"sum_hessian":[2.29E2,6.5E1,1.64E2,6.1E1,4E0,1.59E2,5E0,3E0,5.8E1,2E0,2E0,1.56E2,3E0,1.1E1,4.7E1,1.5E2,6E0,3E0,8E0,7E0,4E1,1.14E2,3.6E1,2E0,4E0,2E0,6E0,2E0,5E0,3.7E1,3E0,9E0,1.05E2,4E0,3.2E1,3E0,3E0,3E0,3.4E1,5E0,4E0,1E1,9.5E1,2.6E1,6E0],"tree_param":{"num_deleted":"0","num_feature":"91","num_nodes":"45","size_leaf_vector":"1"}},{"base_weights":[-1.5652573E-2,-3.257589E-1,1.3751306E-1,-7.792385E-1,-1.3019906E-1,1.02063596E-1,5.9046492E-2,-1.8101911E-1,-1.3125215E0,-3.2887E-2,-9.19433E-1,-3.4048155E-1,2.1276957E-1,-1.8791419E-2,1.8688865E-2,-1.7570598E0,-3.3875564E-1,-1.4516108E-1,4.3072543E-1,-2.9882188E-3,-5.3570792E-2,3.7498176E-1,-5.6478256E-1,-2.2544877E-1,3.3255437E-1,-3.1421095E-2,4.559944E-3,-8.369466E-2,-2.2225028E-2,5.474469E-3,-2.8322626E-2,-3.12372E-1,2.8496298E-1,3.914796E-3,5.600437E-1,5.297098E-1,-2.406585E-3,-1.1776041E0,-2.9508626E-1,-3.9481175E-1,3.1484717E-1,8.6067164E-1,1.4713676E-1,4.345686E-4,-2.233268E-3,-5.32528E-1,-1.3601646E-1,-1.2909733E-1,5.081303E-1,9.235895E-3,2.6188154E-2,2.6021892E-2,8.177148E-3,-1.1403172E-2,-5.9876133E-2,-6.038933E-1,2.7645236E-1,-5.497196E-1,8.4077746E-2,-3.9004488E-3,2.6197825E-2,2.8659928E-1,1.1139646E0,5.4801993E-2,4.7310565E-2,-3.157149E-2,-8.450962E-3,-1.9567384E-4,-1.3818645E-2,4.267921E-3,-1.2975189E-2,2.5551032E-2,3.7331749E-3,-3.040728E-2,-1.583134E-2,-2.991484E-3,2.2569751E-2,-3.723351E-2,-1.4147725E-2,1.1238679E-2,-8.179924E-3,-4.1918983E-3,1.6708514E-2,6.0462993E-2,2.4688778E-2,-2.8798457E-2,5.1364703E-3],"categories":[],"categories_nodes":[],"categories_segments":[],"categories_sizes":[],"default_left":[0,0,0,0,0,0,0,0,0,0,0,0,0,0,0,0,0,0,0,0,0,0,0,0,0,0,0,0,0,0,0,0,0,0,0,0,0,0,0,0,0,0,0,0,0,0,0,0,0,0,0,0,0,0,0,0,0,0,0,0,0,0,0,0,0,0,0,0,0,0,0,0,0,0,0,0,0,0,0,0,0,0,0,0,0,0,0],"id":6,"left_children":[1,3,5,7,9,11,-1,13,15,17,19,21,23,-1,25,27,29,31,33,-1,-1,35,37,39,41,43,-1,-1,-1,-1,-1,45,47,-1,49,51,-1,53,55,57,59,61,63,-1,-1,65,67,69,71,-1,-1,-1,-1,-1,-1,73,75,77,79,-1,-1,81,83,85,-1,-1,-1,-1,-1,-1,-1,-1,-1,-1,-1,-1,-1,-1,-1,-1,-1,-1,-1,-1,-1,-1,-1],"loss_changes":[1.1064247E1,6.727089E0,7.1594853E0,7.0998716E0,4.1938715E0,7.56828E0,0E0,6.8767476E-1,4.5993023E0,2.6651077E0,1.9536715E0,5.1866374E0,6.5314765E0,0E0,4.1219305E-2,1.8702145E0,9.5057905E-1,3.0377936E0,3.7773085E-1,0E0,0E0,5.692738E-1,3.619122E0,2.594971E0,9.371821E0,6.6039893E-3,0E0,0E0,0E0,0E0,0E0,1.0923395E0,1.1744552E0,0E0,5.4578543E-2,9.282017E-2,0E0,1.4766922E0,3.3438604E0,1.6040776E0,1.019584E0,3.3159504E0,6.824241E0,0E0,0E0,8.7910557E-1,4.8347306E-1,2.5843856E-1,3.5182142E-1,0E0,0E0,0E0,0E0,0E0,0E0,8.249426E-2,7.310519E-1,8.6416054E-1,3.886593E-1,0E0,0E0,4.8621547E-1,2.3446064E0,3.8492043E0,0E0,0E0,0E0,0E0,0E0,0E0,0E0,0E0,0E0,0E0,0E0,0E0,0E0,0E0,0E0,0E0,0E0,0E0,0E0,0E0,0E0,0E0,0E0],"parents":[2147483647,0,0,1,1,2,2,3,3,4,4,5,5,7,7,8,8,9,9,10,10,11,11,12,12,14,14,15,15,16,16,17,17,18,18,21,21,22,22,23,23,24,24,25,25,31,31,32,32,34,34,35,35,37,37,38,38,39,39,40,40,41,41,42,42,45,45,46,46,47,47,48,48,55,55,56,56,57,57,58,58,61,61,62,62,63,63],"right_children":[2,4,6,8,10,12,-1,14,16,18,20,22,24,-1,26,28,30,32,34,-1,-1,36,38,40,42,44,-1,-1,-1,-1,-1,46,48,-1,50,52,-1,54,56,58,60,62,64,-1,-1,66,68,70,72,-1,-1,-1,-1,-1,-1,74,76,78,80,-1,-1,82,84,86,-1,-1,-1,-1,-1,-1,-1,-1,-1,-1,-1,-1,-1,-1,-1,-1,-1,-1,-1,-1,-1,-1,-1],"split_conditions":[3.663678E1,3.5388634E-1,4.3321667E1,-8.9666056E7,3.64075E1,-6.1666436E0,5.9046492E-2,3.285E1,5.6237817E0,3.8225E1,1.9449648E1,1.1220597E1,-2.8804243E-1,-1.8791419E-2,5.12315E7,-6.2240616E7,6.2685E6,3.5765E1,6.295945E0,-2.9882188E-3,-5.3570792E-2,-6.234906E6,1.3697737E0,-9.751926E4,3.3047E6,-2.4445038E0,4.559944E-3,-8.369466E-2,-2.2225028E-2,5.474469E-3,-2.8322626E-2,2.7433702E1,2.5095922E-1,3.914796E-3,3.2762E1,4.432E1,-2.406585E-3,2.2605E6,-7.04998E-2,-1.6622816E7,4.3932777E1,-9.001638E-1,1.0381926E1,4.345686E-4,-2.233268E-3,-2.6100007E-1,-3.127243E0,3.4461E6,9.131044E-1,9.235895E-3,2.6188154E-2,2.6021892E-2,8.177148E-3,-1.1403172E-2,-5.9876133E-2,6.1847353E-1,1.8378879E-1,6.0532913E0,-1.0013845E7,-3.9004488E-3,2.6197825E-2,3.8E1,2.1621714E1,1.4455045E1,4.7310565E-2,-3.157149E-2,-8.450962E-3,-1.9567384E-4,-1.3818645E-2,4.267921E-3,-1.2975189E-2,2.5551032E-2,3.7331749E-3,-3.040728E-2,-1.583134E-2,-2.991484E-3,2.2569751E-2,-3.723351E-2,-1.4147725E-2,1.1238679E-2,-8.179924E-3,-4.1918983E-3,1.6708514E-2,6.0462993E-2,2.4688778E-2,-2.8798457E-2,5.1364703E-3],"split_indices":[41,71,24,5,39,84,0,0,84,55,32,59,7,0,6,5,4,2,25,0,0,5,34,11,4,88,0,0,0,0,0,58,38,0,0,0,0,4,48,5,16,83,84,0,0,48,86,4,19,0,0,0,0,0,0,72,26,25,5,0,0,0,57,58,0,0,0,0,0,0,0,0,0,0,0,0,0,0,0,0,0,0,0,0,0,0,0],"split_type":[0,0,0,0,0,0,0,0,0,0,0,0,0,0,0,0,0,0,0,0,0,0,0,0,0,0,0,0,0,0,0,0,0,0,0,0,0,0,0,0,0,0,0,0,0,0,0,0,0,0,0,0,0,0,0,0,0,0,0,0,0,0,0,0,0,0,0,0,0,0,0,0,0,0,0,0,0,0,0,0,0,0,0,0,0,0,0],"sum_hessian":[2.31E2,7.6E1,1.55E2,2.2E1,5.4E1,1.52E2,3E0,1.1E1,1.1E1,4.9E1,5E0,3E1,1.22E2,4E0,7E0,7E0,4E0,4E1,9E0,2E0,3E0,7E0,2.3E1,2.6E1,9.6E1,5E0,2E0,5E0,2E0,2E0,2E0,2.9E1,1.1E1,3E0,6E0,5E0,2E0,6E0,1.7E1,2E1,6E0,2.4E1,7.2E1,2E0,3E0,1.2E1,1.7E1,4E0,7E0,2E0,4E0,3E0,2E0,2E0,4E0,1.1E1,6E0,1.5E1,5E0,3E0,3E0,8E0,1.6E1,6.7E1,5E0,6E0,6E0,1.1E1,6E0,2E0,2E0,5E0,2E0,5E0,6E0,3E0,3E0,4E0,1.1E1,3E0,2E0,2E0,6E0,8E0,8E0,5E0,6.2E1],"tree_param":{"num_deleted":"0","num_feature":"91","num_nodes":"87","size_leaf_vector":"1"}},{"base_weights":[4.323851E-3,-2.9308745E-1,1.2517926E-1,-1.8299289E-1,-1.3084869E0,6.0821313E-2,6.923454E-2,-5.9229463E-2,-6.068486E-1,-7.98058E-2,-1.9574182E-2,3.3855297E-2,5.471784E-2,-4.5045218E-1,2.2540055E-2,-1.2935344E0,-1.5978238E-2,3.2079607E-1,-7.6410376E-2,-2.0765105E-2,-7.080652E-3,8.2300976E-2,-4.002944E-1,-6.560949E-2,-1.7215181E-2,-2.0116648E-2,2.2724336E-1,-1.6564348E-1,5.5255884E-1,-7.891958E-1,1.348374E-2,-2.1178484E-2,1.3486473E-1,-2.3207018E-2,-3.7917646E-3,1.571917E-2,2.00488E-3,-6.3899434E-1,8.7596275E-2,7.706405E-2,7.737372E-1,-4.9957696E-2,-5.036002E-1,-3.0414236E-1,1.2960762E-1,1.1144993E-2,-1.2814909E-3,-9.610309E-3,-3.348814E-2,1.3151176E-2,-5.0511803E-3,-6.520893E-3,2.7784573E-2,4.4802632E-2,1.7845456E-3,-4.423376E-3,-2.7620912E-2,1.5594024E-2,-1.6625566E-2,-1.588853E-2,1.11895045E-2],"categories":[],"categories_nodes":[],"categories_segments":[],"categories_sizes":[],"default_left":[0,0,0,0,0,0,0,0,0,0,0,0,0,0,0,0,0,0,0,0,0,0,0,0,0,0,0,0,0,0,0,0,0,0,0,0,0,0,0,0,0,0,0,0,0,0,0,0,0,0,0,0,0,0,0,0,0,0,0,0,0],"id":7,"left_children":[1,3,5,7,9,-1,11,13,15,-1,-1,17,-1,19,21,23,25,27,29,-1,-1,31,33,-1,-1,-1,35,37,39,41,43,-1,45,-1,-1,-1,-1,47,49,51,53,-1,55,57,59,-1,-1,-1,-1,-1,-1,-1,-1,-1,-1,-1,-1,-1,-1,-1,-1],"loss_changes":[7.836485E0,6.8033237E0,1.184305E1,3.0066113E0,2.329976E0,0E0,6.7623153E0,1.4816974E0,5.253981E0,0E0,0E0,4.6755505E0,0E0,4.833126E-2,1.0184346E0,1.0173473E0,1.0491061E0,4.713809E0,6.8666887E0,0E0,0E0,1.1847851E0,2.1172976E-1,0E0,0E0,0E0,1.52616E-1,1.7341708E0,2.88511E0,9.043908E-1,3.580281E0,0E0,7.810366E-1,0E0,0E0,0E0,0E0,1.8195367E-1,5.447867E-1,1.5624834E0,4.572669E0,0E0,5.603597E-1,2.0708168E0,5.5550113E0,0E0,0E0,0E0,0E0,0E0,0E0,0E0,0E0,0E0,0E0,0E0,0E0,0E0,0E0,0E0,0E0],"parents":[2147483647,0,0,1,1,2,2,3,3,4,4,6,6,7,7,8,8,11,11,13,13,14,14,15,15,16,16,17,17,18,18,21,21,22,22,26,26,27,27,28,28,29,29,30,30,32,32,37,37,38,38,39,39,40,40,42,42,43,43,44,44],"right_children":[2,4,6,8,10,-1,12,14,16,-1,-1,18,-1,20,22,24,26,28,30,-1,-1,32,34,-1,-1,-1,36,38,40,42,44,-1,46,-1,-1,-1,-1,48,50,52,54,-1,56,58,60,-1,-1,-1,-1,-1,-1,-1,-1,-1,-1,-1,-1,-1,-1,-1,-1],"split_conditions":[3.6555058E1,1.6349989E0,3.486007E1,3.5766666E1,1.7931164E1,6.0821313E-2,4.2303543E1,3.3897E1,3.8839188E1,-7.98058E-2,-1.9574182E-2,3.698425E1,5.471784E-2,1.4668669E1,6.121201E1,6.505179E1,3.376E1,-8.5449886E-1,3.7385498E1,-2.0765105E-2,-7.080652E-3,-3.200687E-1,3.54E1,-6.560949E-2,-1.7215181E-2,-2.0116648E-2,9.329656E-1,-6.202516E7,-1.4424423E0,5.6E1,-2.9138967E-1,-2.1178484E-2,7.485954E0,-2.3207018E-2,-3.7917646E-3,1.571917E-2,2.00488E-3,-6.4278364E7,-2.6368327E0,1.4839107E0,1.8219697E0,-4.9957696E-2,5.135062E0,-3.5116837E0,-6.5590487E0,1.1144993E-2,-1.2814909E-3,-9.610309E-3,-3.348814E-2,1.3151176E-2,-5.0511803E-3,-6.520893E-3,2.7784573E-2,4.4802632E-2,1.7845456E-3,-4.423376E-3,-2.7620912E-2,1.5594024E-2,-1.6625566E-2,-1.588853E-2,1.11895045E-2],"split_indices":[87,48,24,39,18,0,17,54,16,0,0,61,0,9,75,13,0,48,61,0,0,7,2,0,0,0,44,5,88,65,7,0,25,0,0,0,0,5,84,34,88,0,9,85,84,0,0,0,0,0,0,0,0,0,0,0,0,0,0,0,0],"split_type":[0,0,0,0,0,0,0,0,0,0,0,0,0,0,0,0,0,0,0,0,0,0,0,0,0,0,0,0,0,0,0,0,0,0,0,0,0,0,0,0,0,0,0,0,0,0,0,0,0,0,0,0,0,0,0,0,0,0,0,0,0],"sum_hessian":[2.16E2,6.2E1,1.54E2,5.7E1,5E0,5E0,1.49E2,4.5E1,1.2E1,2E0,3E0,1.46E2,3E0,7E0,3.8E1,5E0,7E0,4E1,1.06E2,5E0,2E0,3.4E1,4E0,3E0,2E0,2E0,5E0,1.3E1,2.7E1,1.1E1,9.5E1,2E0,3.2E1,2E0,2E0,2E0,3E0,4E0,9E0,9E0,1.8E1,3E0,8E0,2.5E1,7E1,1.7E1,1.5E1,2E0,2E0,4E0,5E0,7E0,2E0,1.2E1,6E0,3E0,5E0,3E0,2.2E1,1.5E1,5.5E1],"tree_param":{"num_deleted":"0","num_feature":"91","num_nodes":"61","size_leaf_vector":"1"}},{"base_weights":[-1.16706155E-2,-3.513422E-2,5.305708E-2,-2.764241E-1,5.6299362E-2,-1.7137815E-1,-1.2282901E0,7.9256207E-1,3.3435917E-3,-6.67797E-1,-7.670165E-2,-7.098912E-2,-2.1318544E-2,1.7871904E-1,5.1569328E-2,-3.754335E-2,7.5422317E-1,-4.191119E-2,2.061272E-3,-1.3748942E-1,3.8185894E-1,-8.668999E-3,1.7350458E-2,-2.6907492E-1,6.0773306E-2,1.4792649E-4,1.0038031E0,-2.5671726E-1,8.720412E-2,6.892547E-3,1.8010413E-2,-4.458571E-1,1.8677935E-1,-2.0337848E-1,2.4299514E-1,4.9520217E-2,1.5217637E-2,-5.7759485E-3,-2.1776024E-2,-8.959794E-3,1.1918272E-2,-3.3309106E-3,-2.6703898E-2,2.2649359E-2,-4.704198E-3,-1.3545219E-2,2.103799E-2,2.232744E-3,2.8289504E-2],"categories":[],"categories_nodes":[],"categories_segments":[],"categories_sizes":[],"default_left":[0,0,0,0,0,0,0,0,0,0,0,0,0,0,0,0,0,0,0,0,0,0,0,0,0,0,0,0,0,0,0,0,0,0,0,0,0,0,0,0,0,0,0,0,0,0,0,0,0],"id":8,"left_children":[1,3,-1,5,7,9,11,13,15,17,19,-1,-1,21,-1,23,25,-1,-1,27,29,-1,-1,31,33,-1,35,37,39,-1,-1,41,43,45,47,-1,-1,-1,-1,-1,-1,-1,-1,-1,-1,-1,-1,-1,-1],"loss_changes":[7.1223564E0,4.9795127E0,0E0,5.988858E0,6.391605E0,2.6277332E0,1.2893877E0,3.025159E0,4.756295E0,2.4322581E0,1.4183705E0,0E0,0E0,6.812986E-1,0E0,3.3625736E0,1.4949446E0,0E0,0E0,1.2011347E0,4.4028163E-3,0E0,0E0,3.6291008E0,5.0553794E0,0E0,3.680253E-1,8.5336566E-1,1.0888106E0,0E0,0E0,2.435421E0,1.5340282E0,4.258364E0,5.272212E0,0E0,0E0,0E0,0E0,0E0,0E0,0E0,0E0,0E0,0E0,0E0,0E0,0E0,0E0],"parents":[2147483647,0,0,1,1,3,3,4,4,5,5,6,6,7,7,8,8,9,9,10,10,13,13,15,15,16,16,19,19,20,20,23,23,24,24,26,26,27,27,28,28,31,31,32,32,33,33,34,34],"right_children":[2,4,-1,6,8,10,12,14,16,18,20,-1,-1,22,-1,24,26,-1,-1,28,30,-1,-1,32,34,-1,36,38,40,-1,-1,42,44,46,48,-1,-1,-1,-1,-1,-1,-1,-1,-1,-1,-1,-1,-1,-1],"split_conditions":[4.2303543E1,3.6555058E1,5.305708E-2,2.4439003E1,3.50652E1,-6.381013E0,3.4875336E1,-1.0627179E2,2.3280455E-1,2.8849594E1,3.563E1,-7.098912E-2,-2.1318544E-2,-2.9039383E-1,5.1569328E-2,3.817977E1,-6.664995E-1,-4.191119E-2,2.061272E-3,4.4924966E-1,2.941E6,-8.668999E-3,1.7350458E-2,9.012603E-1,1.4176205E-1,1.4792649E-4,3.976E1,5.4565E6,2.3482658E1,6.892547E-3,1.8010413E-2,3.249168E-1,1.82345E-1,-7.064609E0,8.284377E-1,4.9520217E-2,1.5217637E-2,-5.7759485E-3,-2.1776024E-2,-8.959794E-3,1.1918272E-2,-3.3309106E-3,-2.6703898E-2,2.2649359E-2,-4.704198E-3,-1.3545219E-2,2.103799E-2,2.232744E-3,2.8289504E-2],"split_indices":[17,87,0,50,24,86,24,50,7,58,2,0,0,7,0,67,48,0,0,48,4,0,0,33,73,0,3,4,13,0,0,26,7,51,88,0,0,0,0,0,0,0,0,0,0,0,0,0,0],"split_type":[0,0,0,0,0,0,0,0,0,0,0,0,0,0,0,0,0,0,0,0,0,0,0,0,0,0,0,0,0,0,0,0,0,0,0,0,0,0,0,0,0,0,0,0,0,0,0,0,0],"sum_hessian":[2.27E2,2.24E2,3E0,6.1E1,1.63E2,5.6E1,5E0,1E1,1.53E2,8E0,4.8E1,2E0,3E0,5E0,5E0,1.46E2,7E0,5E0,3E0,4.3E1,5E0,2E0,3E0,4.3E1,1.03E2,2E0,5E0,2.8E1,1.5E1,2E0,3E0,3.1E1,1.2E1,4.2E1,6.1E1,3E0,2E0,2.1E1,7E0,6E0,9E0,1.2E1,1.9E1,5E0,7E0,3.6E1,6E0,4.4E1,1.7E1],"tree_param":{"num_deleted":"0","num_feature":"91","num_nodes":"49","size_leaf_vector":"1"}},{"base_weights":[1.0818401E-2,-9.501696E-3,6.0321342E-2,-2.006609E-1,1.0863709E-1,-1.0662358E-1,-8.858746E-1,2.5881994E-1,-2.0081757E-1,-4.8304547E-2,-4.4753093E-2,-2.8842294E-1,-5.769342E-2,-2.099324E-2,4.561143E-1,-6.478804E-1,2.1981107E-2,6.410482E-1,-9.452152E-2,1.5840721E-3,-1.8696072E-2,-1.3949794E-1,5.406708E-1,-1.06327966E-1,6.751646E-1,1.2450792E-1,-9.400677E-1,4.265576E-1,-1.9098663E-1,5.5913753E-3,3.76456E-2,-1.3321142E-1,2.2574067E-2,8.665975E-2,-4.526162E-1,-8.339398E-3,3.5635743E-2,2.8343084E-1,-3.6852634E-1,8.2569474E-1,-1.3092954E-1,1.4049509E-2,-5.6517837E-3,-8.916049E-3,-1.0755312E0,6.3190335E-1,-1.3421968E-2,-3.0878033E-2,1.4952928E-1,-2.0092571E-2,-1.3290258E-3,-5.423905E-3,2.0867754E-2,-2.3029467E-2,-7.7723275E-4,-5.8021815E-3,1.9539295E-2,-4.5835115E-3,-1.6923266E-2,4.9327146E-2,1.34244375E-2,4.645455E-4,-1.3137427E-2,-5.598326E-2,-2.2361767E-2,-4.5507395E-4,3.307346E-2,-1.50770685E-2,1.6010227E-2],"categories":[],"categories_nodes":[],"categories_segments":[],"categories_sizes":[],"default_left":[0,0,0,0,0,0,0,0,0,0,0,0,0,0,0,0,0,0,0,0,0,0,0,0,0,0,0,0,0,0,0,0,0,0,0,0,0,0,0,0,0,0,0,0,0,0,0,0,0,0,0,0,0,0,0,0,0,0,0,0,0,0,0,0,0,0,0,0,0],"id":9,"left_children":[1,3,-1,5,7,9,11,13,15,-1,17,19,-1,21,23,25,27,29,31,-1,-1,33,35,37,39,41,43,45,47,-1,-1,49,-1,51,53,-1,-1,55,57,59,61,-1,-1,-1,63,65,-1,-1,67,-1,-1,-1,-1,-1,-1,-1,-1,-1,-1,-1,-1,-1,-1,-1,-1,-1,-1,-1,-1],"loss_changes":[6.659386E0,4.9675455E0,0E0,5.31814E0,6.372546E0,4.990634E0,2.8136592E0,5.0884867E0,4.496466E0,0E0,2.5180433E0,3.592163E-1,0E0,2.671256E0,6.72476E0,3.5022774E0,2.752481E0,5.986352E-1,1.7905614E0,0E0,0E0,2.3760893E0,1.9582481E0,1.7395579E0,4.8404236E0,3.4258908E-1,8.355303E-1,1.9222572E0,4.2045817E0,0E0,0E0,2.353818E0,0E0,1.9625969E0,6.9570065E-1,0E0,0E0,6.6495556E-1,7.939649E-2,6.0053673E0,1.9682334E-1,0E0,0E0,0E0,6.845169E-1,1.0821347E0,0E0,0E0,1.94617E0,0E0,0E0,0E0,0E0,0E0,0E0,0E0,0E0,0E0,0E0,0E0,0E0,0E0,0E0,0E0,0E0,0E0,0E0,0E0,0E0],"parents":[2147483647,0,0,1,1,3,3,4,4,5,5,6,6,7,7,8,8,10,10,11,11,13,13,14,14,15,15,16,16,17,17,18,18,21,21,22,22,23,23,24,24,25,25,26,26,27,27,28,28,31,31,33,33,34,34,37,37,38,38,39,39,40,40,44,44,45,45,48,48],"right_children":[2,4,-1,6,8,10,12,14,16,-1,18,20,-1,22,24,26,28,30,32,-1,-1,34,36,38,40,42,44,46,48,-1,-1,50,-1,52,54,-1,-1,56,58,60,62,-1,-1,-1,64,66,-1,-1,68,-1,-1,-1,-1,-1,-1,-1,-1,-1,-1,-1,-1,-1,-1,-1,-1,-1,-1,-1,-1],"split_conditions":[4.4540833E1,3.6703465E1,6.0321342E-2,3.68945E1,7.4897896E1,-3.200687E-1,-5.530072E-1,-1.4280376E0,4.179904E1,-4.8304547E-2,-1.2461202E6,3.428E1,-5.769342E-2,-4.7082464E7,-2.7463196E-2,-1.4550142E-1,-1.8557127E1,3.28E1,7.998704E1,1.5840721E-3,-1.8696072E-2,6.395937E-1,3.88E1,6.1227296E-2,5.4990964E0,-6.549719E7,-9.3122E6,9.139402E-1,-6.0490404E7,5.5913753E-3,3.76456E-2,-6.245203E0,2.2574067E-2,6.925208E-1,9.012603E-1,-8.339398E-3,3.5635743E-2,-7.2629E6,-3.5274693E-1,2.1621714E1,4.2E1,1.4049509E-2,-5.6517837E-3,-8.916049E-3,4.175E1,2.6906023E-2,-1.3421968E-2,-3.0878033E-2,5.037E5,-2.0092571E-2,-1.3290258E-3,-5.423905E-3,2.0867754E-2,-2.3029467E-2,-7.7723275E-4,-5.8021815E-3,1.9539295E-2,-4.5835115E-3,-1.6923266E-2,4.9327146E-2,1.34244375E-2,4.645455E-4,-1.3137427E-2,-5.598326E-2,-2.2361767E-2,-4.5507395E-4,3.307346E-2,-1.50770685E-2,1.6010227E-2],"split_indices":[39,41,0,15,50,7,36,85,41,0,11,0,0,5,26,48,9,0,13,0,0,33,0,19,10,5,6,10,5,0,0,86,0,88,33,0,0,6,38,57,0,0,0,0,1,33,0,0,6,0,0,0,0,0,0,0,0,0,0,0,0,0,0,0,0,0,0,0,0],"split_type":[0,0,0,0,0,0,0,0,0,0,0,0,0,0,0,0,0,0,0,0,0,0,0,0,0,0,0,0,0,0,0,0,0,0,0,0,0,0,0,0,0,0,0,0,0,0,0,0,0,0,0,0,0,0,0,0,0,0,0,0,0,0,0,0,0,0,0,0,0],"sum_hessian":[2.2E2,2.18E2,2E0,8.3E1,1.35E2,7.4E1,9E0,9.1E1,4.4E1,3E0,7.1E1,5E0,4E0,3.8E1,5.3E1,1.4E1,3E1,4E0,6.7E1,2E0,3E0,3.2E1,6E0,1.5E1,3.8E1,4E0,1E1,1E1,2E1,2E0,2E0,6.4E1,3E0,1.9E1,1.3E1,2E0,4E0,6E0,9E0,3.2E1,6E0,2E0,2E0,2E0,8E0,8E0,2E0,7E0,1.3E1,1.3E1,5.1E1,1.3E1,6E0,1E1,3E0,2E0,4E0,2E0,7E0,1.7E1,1.5E1,4E0,2E0,4E0,4E0,2E0,6E0,4E0,9E0],"tree_param":{"num_deleted":"0","num_feature":"91","num_nodes":"69","size_leaf_vector":"1"}},{"base_weights":[-1.1342668E-2,-3.5042506E-2,5.4563876E-2,-5.8777746E-2,8.569136E-1,-9.1789615E-1,-3.4971863E-2,1.2785115E-2,4.2428028E-2,-5.6470424E-2,-1.3365849E-2,-2.3149638E-1,8.205699E-2,-4.0916938E-1,1.0732561E-1,7.838051E-1,9.003163E-3,-5.2116312E-2,-3.3223206E-1,-1.1853071E-1,4.8768422E-1,1.0108346E0,-1.2541351E-2,5.3118452E-2,-7.485451E-1,-2.668086E-3,-2.1528402E-2,7.029147E-3,-1.6142966E-2,-9.524719E-3,3.1899076E-2,5.3560656E-2,1.5010141E-2,-1.1790989E-5,4.3218356E-2,-4.783766E-2,9.047136E-3],"categories":[],"categories_nodes":[],"categories_segments":[],"categories_sizes":[],"default_left":[0,0,0,0,0,0,0,0,0,0,0,0,0,0,0,0,0,0,0,0,0,0,0,0,0,0,0,0,0,0,0,0,0,0,0,0,0],"id":10,"left_children":[1,3,-1,5,7,9,11,-1,-1,-1,-1,13,15,17,19,21,23,-1,25,27,29,31,-1,33,35,-1,-1,-1,-1,-1,-1,-1,-1,-1,-1,-1,-1],"loss_changes":[7.523104E0,4.8984795E0,0E0,4.5491633E0,2.903986E-1,1.2227325E0,5.055785E0,0E0,0E0,0E0,0E0,4.9802747E0,7.067566E0,3.2226295E0,2.5490909E0,3.5412211E0,4.2506137E0,0E0,2.6777925E0,1.6259946E0,2.5760498E0,1.7101269E0,0E0,6.50457E0,3.214496E0,0E0,0E0,0E0,0E0,0E0,0E0,0E0,0E0,0E0,0E0,0E0,0E0],"parents":[2147483647,0,0,1,1,3,3,4,4,5,5,6,6,11,11,12,12,13,13,14,14,15,15,16,16,18,18,19,19,20,20,21,21,23,23,24,24],"right_children":[2,4,-1,6,8,10,12,-1,-1,-1,-1,14,16,18,20,22,24,-1,26,28,30,32,-1,34,36,-1,-1,-1,-1,-1,-1,-1,-1,-1,-1,-1,-1],"split_conditions":[4.3321667E1,1.06483E7,5.4563876E-2,3.27E1,3.537E1,3.285E1,-1.2854971E0,1.2785115E-2,4.2428028E-2,-5.6470424E-2,-1.3365849E-2,7.962623E1,-8.650262E-1,3.578E1,-5.9785412E7,9.5028055E-1,1.0870514E3,-5.2116312E-2,9.2070144E-1,8.691492E-1,3.88E1,1.499038E0,-1.2541351E-2,3.217746E1,5.200008E6,-2.668086E-3,-2.1528402E-2,7.029147E-3,-1.6142966E-2,-9.524719E-3,3.1899076E-2,5.3560656E-2,1.5010141E-2,-1.1790989E-5,4.3218356E-2,-4.783766E-2,9.047136E-3],"split_indices":[24,4,0,0,0,1,85,0,0,0,0,76,85,1,5,71,14,0,43,19,0,34,0,58,8,0,0,0,0,0,0,0,0,0,0,0,0],"split_type":[0,0,0,0,0,0,0,0,0,0,0,0,0,0,0,0,0,0,0,0,0,0,0,0,0,0,0,0,0,0,0,0,0,0,0,0,0],"sum_hessian":[2.31E2,2.28E2,3E0,2.23E2,5E0,5E0,2.18E2,2E0,3E0,2E0,3E0,8.1E1,1.37E2,5.3E1,2.8E1,1.2E1,1.25E2,3E0,5E1,1.8E1,1E1,1E1,2E0,1.19E2,6E0,2.2E1,2.8E1,9E0,9E0,3E0,7E0,6E0,4E0,1.14E2,5E0,4E0,2E0],"tree_param":{"num_deleted":"0","num_feature":"91","num_nodes":"37","size_leaf_vector":"1"}},{"base_weights":[-2.858488E-4,-2.8083354E-1,1.1125893E-1,-1.9052711E-1,-1.1521434E0,5.7348043E-2,7.8531004E-2,-5.3127233E-2,-1.3023269E-1,-6.69294E-2,-1.9741025E-2,5.315892E-2,5.7221863E-2,-2.1135582E-1,2.429733E-1,-2.9897898E-1,1.4282863E-1,-7.766961E-1,-1.1440843E-1,-4.744337E-4,3.3995008E-1,-5.11221E-2,-1.9601697E-1,-2.3482656E-1,2.4985012E-1,-4.4869453E-2,1.4419317E-3,-5.0350744E-2,-2.9395558E-2,1.664511E-2,3.395732E-3,-3.763363E-1,2.8657877E-1,-3.8477358E-1,2.9140317E-1,8.199186E-1,5.1539212E-2,-1.8357404E-2,1.3822733E-3,1.12824505E-2,-2.3221018E-2,-7.650558E-4,2.724169E-2,-1.972321E-2,3.3208304E-3,-3.3037544E-3,2.3940833E-2,4.9635965E-2,1.7804585E-2,-8.708682E-3,1.2549841E-2],"categories":[],"categories_nodes":[],"categories_segments":[],"categories_sizes":[],"default_left":[0,0,0,0,0,0,0,0,0,0,0,0,0,0,0,0,0,0,0,0,0,0,0,0,0,0,0,0,0,0,0,0,0,0,0,0,0,0,0,0,0,0,0,0,0,0,0,0,0,0,0],"id":11,"left_children":[1,3,5,7,9,-1,11,-1,13,-1,-1,15,-1,17,19,21,23,25,27,-1,29,-1,31,33,35,-1,-1,37,-1,-1,-1,39,41,43,45,47,49,-1,-1,-1,-1,-1,-1,-1,-1,-1,-1,-1,-1,-1,-1],"loss_changes":[7.2600737E0,4.973687E0,6.9831734E0,3.9567347E0,1.1930876E0,0E0,5.4478207E0,0E0,1.8376166E0,0E0,0E0,5.126455E0,0E0,2.5967445E0,2.756819E-1,3.0287628E0,5.2724934E0,1.9276786E0,1.6490989E0,0E0,1.1165708E-1,0E0,2.8055117E0,2.4004152E0,1.1375872E1,0E0,0E0,1.3786784E0,0E0,0E0,0E0,3.1354656E0,1.0755742E0,1.1416237E0,8.321796E-1,3.4772892E0,5.3085685E0,0E0,0E0,0E0,0E0,0E0,0E0,0E0,0E0,0E0,0E0,0E0,0E0,0E0,0E0],"parents":[2147483647,0,0,1,1,2,2,3,3,4,4,6,6,8,8,11,11,13,13,14,14,15,15,16,16,17,17,18,18,20,20,22,22,23,23,24,24,27,27,31,31,32,32,33,33,34,34,35,35,36,36],"right_children":[2,4,6,8,10,-1,12,-1,14,-1,-1,16,-1,18,20,22,24,26,28,-1,30,-1,32,34,36,-1,-1,38,-1,-1,-1,40,42,44,46,48,50,-1,-1,-1,-1,-1,-1,-1,-1,-1,-1,-1,-1,-1,-1],"split_conditions":[3.6555058E1,2.4439003E1,3.4811535E1,-3.3746198E-1,3.4875336E1,5.7348043E-2,4.4540833E1,-5.3127233E-2,3.5765E1,-6.69294E-2,-1.9741025E-2,-6.1666436E0,5.7221863E-2,-6.381013E0,1.9132756E-1,-6.2628303E0,-2.8804243E-1,3.90751E7,2.5793058E1,-4.744337E-4,9.131044E-1,-5.11221E-2,5.3549975E-1,-9.751926E4,3.3212E6,-4.4869453E-2,1.4419317E-3,3.3897E1,-2.9395558E-2,1.664511E-2,3.395732E-3,1.1220597E1,4.518041E5,-1.6622816E7,2.7378E6,-1.23828E0,7.1204686E-1,-1.8357404E-2,1.3822733E-3,1.12824505E-2,-2.3221018E-2,-7.650558E-4,2.724169E-2,-1.972321E-2,3.3208304E-3,-3.3037544E-3,2.3940833E-2,4.9635965E-2,1.7804585E-2,-8.708682E-3,1.2549841E-2],"split_indices":[87,50,24,7,24,0,39,0,2,0,0,84,0,86,38,80,7,6,47,0,19,0,48,11,4,0,0,54,0,0,0,59,8,5,4,84,84,0,0,0,0,0,0,0,0,0,0,0,0,0,0],"split_type":[0,0,0,0,0,0,0,0,0,0,0,0,0,0,0,0,0,0,0,0,0,0,0,0,0,0,0,0,0,0,0,0,0,0,0,0,0,0,0,0,0,0,0,0,0,0,0,0,0,0,0],"sum_hessian":[2.3E2,6.5E1,1.65E2,6E1,5E0,3E0,1.62E2,2E0,5.8E1,2E0,3E0,1.6E2,2E0,4.8E1,1E1,3.2E1,1.28E2,6E0,4.2E1,3E0,7E0,2E0,3E1,2.8E1,1E2,4E0,2E0,3.9E1,3E0,5E0,2E0,2.2E1,8E0,2.2E1,6E0,2.5E1,7.5E1,6E0,3.3E1,5E0,1.7E1,5E0,3E0,1.8E1,4E0,3E0,3E0,1.1E1,1.4E1,3.7E1,3.8E1],"tree_param":{"num_deleted":"0","num_feature":"91","num_nodes":"51","size_leaf_vector":"1"}},{"base_weights":[-1.1081766E-2,-2.7479592E-1,9.415591E-2,-1.8857335E-1,-1.119963E0,8.16215E-1,3.8366962E-2,-5.169392E-2,-1.3098963E-1,-6.5123715E-2,-1.9141858E-2,1.7346992E-1,5.0607223E-2,8.002902E-3,4.8472695E-2,-2.692987E-1,4.8028816E-2,-7.831578E-3,1.6403755E-2,-2.7796946E-2,6.648248E-1,-1.4152453E-2,-5.9154046E-1,-1.1178494E-1,2.2873478E-1,-2.0710798E-1,1.16865546E-1,-1.2801251E-3,9.022494E-1,1.446593E-1,-3.2975417E-1,-2.6249883E-1,-4.2141877E-2,2.6185825E-2,-2.014318E-2,-5.1733743E-2,3.5913566E-1,-4.8781136E-1,-6.527279E-2,3.9891148E-1,-1.1253803E-1,4.460063E-2,1.3557645E-2,-7.822091E-3,1.0295105E-2,-1.9585084E-2,1.5043616E-3,-1.5636615E-2,6.2879636E-3,-3.1885342E-3,1.0353296E-2,3.4990883E-4,-3.8392108E-3,5.78256E-3,2.0377994E-2,-7.409521E-3,-3.1398766E-2,7.3847864E-3,-1.5543563E-2,7.513337E-3,3.14976E-2,-2.2981238E-2,6.0395445E-3],"categories":[],"categories_nodes":[],"categories_segments":[],"categories_sizes":[],"default_left":[0,0,0,0,0,0,0,0,0,0,0,0,0,0,0,0,0,0,0,0,0,0,0,0,0,0,0,0,0,0,0,0,0,0,0,0,0,0,0,0,0,0,0,0,0,0,0,0,0,0,0,0,0,0,0,0,0,0,0,0,0,0,0],"id":12,"left_children":[1,3,5,7,9,11,13,-1,15,-1,-1,17,-1,19,-1,21,23,-1,-1,25,27,29,31,33,35,37,39,-1,41,43,45,47,-1,49,-1,51,53,55,57,59,61,-1,-1,-1,-1,-1,-1,-1,-1,-1,-1,-1,-1,-1,-1,-1,-1,-1,-1,-1,-1,-1,-1],"loss_changes":[6.519997E0,4.6712604E0,6.7362137E0,3.7199588E0,1.1380906E0,3.1329699E0,5.5175743E0,0E0,1.4985266E0,0E0,0E0,5.890291E-1,0E0,3.639655E0,0E0,2.7870665E0,8.0531025E-1,0E0,0E0,3.8373218E0,1.3513896E0,1.0501273E0,1.9467521E0,8.1181455E-1,4.9403298E-1,2.5958579E0,5.350485E0,0E0,3.1097746E-1,5.683799E-1,4.140678E-1,5.7775545E-1,0E0,3.09453E-1,0E0,1.3842982E-2,2.0911324E-1,1.7891145E0,3.6246006E0,2.8492022E0,5.56792E0,0E0,0E0,0E0,0E0,0E0,0E0,0E0,0E0,0E0,0E0,0E0,0E0,0E0,0E0,0E0,0E0,0E0,0E0,0E0,0E0,0E0,0E0],"parents":[2147483647,0,0,1,1,2,2,3,3,4,4,5,5,6,6,8,8,11,11,13,13,15,15,16,16,19,19,20,20,21,21,22,22,23,23,24,24,25,25,26,26,28,28,29,29,30,30,31,31,33,33,35,35,36,36,37,37,38,38,39,39,40,40],"right_children":[2,4,6,8,10,12,14,-1,16,-1,-1,18,-1,20,-1,22,24,-1,-1,26,28,30,32,34,36,38,40,-1,42,44,46,48,-1,50,-1,52,54,56,58,60,62,-1,-1,-1,-1,-1,-1,-1,-1,-1,-1,-1,-1,-1,-1,-1,-1,-1,-1,-1,-1,-1,-1],"split_conditions":[3.6555058E1,2.4439003E1,3.50652E1,-3.3746198E-1,3.4875336E1,-1.0627179E2,4.2303543E1,-5.169392E-2,3.7175121E0,-6.5123715E-2,-1.9141858E-2,-2.9039383E-1,5.0607223E-2,2.3280455E-1,4.8472695E-2,9.156788E-1,1.0399775E3,-7.831578E-3,1.6403755E-2,3.934533E1,-6.664995E-1,3.1487268E1,3.5056E1,2.2762938E1,3.5108E1,-7.46384E0,7.256687E1,-1.2801251E-3,3.976E1,6.6831493E0,3.251E1,3.614E1,-4.2141877E-2,5.3014946E0,-2.014318E-2,3.457E1,-3.3363605E0,4.036237E1,1.5207685E0,1.0364453E3,-1.3031127E1,4.460063E-2,1.3557645E-2,-7.822091E-3,1.0295105E-2,-1.9585084E-2,1.5043616E-3,-1.5636615E-2,6.2879636E-3,-3.1885342E-3,1.0353296E-2,3.4990883E-4,-3.8392108E-3,5.78256E-3,2.0377994E-2,-7.409521E-3,-3.1398766E-2,7.3847864E-3,-1.5543563E-2,7.513337E-3,3.14976E-2,-2.2981238E-2,6.0395445E-3],"split_indices":[87,50,24,7,24,50,17,0,9,0,0,7,0,7,0,43,14,0,0,67,48,59,15,32,15,9,50,0,3,25,2,0,0,85,0,2,86,16,34,14,51,0,0,0,0,0,0,0,0,0,0,0,0,0,0,0,0,0,0,0,0,0,0],"split_type":[0,0,0,0,0,0,0,0,0,0,0,0,0,0,0,0,0,0,0,0,0,0,0,0,0,0,0,0,0,0,0,0,0,0,0,0,0,0,0,0,0,0,0,0,0,0,0,0,0,0,0,0,0,0,0,0,0,0,0,0,0,0,0],"sum_hessian":[2.33E2,6.6E1,1.67E2,6.1E1,5E0,1.1E1,1.56E2,2E0,5.9E1,2E0,3E0,5E0,6E0,1.53E2,3E0,3.3E1,2.6E1,2E0,3E0,1.46E2,7E0,1.9E1,1.4E1,1.4E1,1.2E1,6.5E1,8.1E1,2E0,5E0,1.3E1,6E0,9E0,5E0,1.1E1,3E0,4E0,8E0,2.1E1,4.4E1,3.6E1,4.5E1,3E0,2E0,3E0,1E1,4E0,2E0,7E0,2E0,8E0,3E0,2E0,2E0,4E0,4E0,1.1E1,1E1,2.5E1,1.9E1,2.4E1,1.2E1,1.6E1,2.9E1],"tree_param":{"num_deleted":"0","num_feature":"91","num_nodes":"63","size_leaf_vector":"1"}},{"base_weights":[-3.30885E-2,-9.922257E-1,-1.0938159E-2,-1.3909376E-2,-5.301358E-2,-3.734473E-2,6.8690246E-1,-9.348937E-3,-3.4474477E-2,3.4046866E-4,3.6893543E-2,-3.428623E-2,6.0901767E-1,9.981101E-2,-1.9631192E-1,3.9396692E-2,4.606199E-5,-3.9836124E-1,1.7142142E-1,-4.0094525E-1,9.4263814E-2,1.0967858E-3,-2.5808359E-2,9.1706775E-3,-1.567259E-2,1.1736491E-2,-2.0044949E-2,1.33351665E-2,-4.527344E-3],"categories":[],"categories_nodes":[],"categories_segments":[],"categories_sizes":[],"default_left":[0,0,0,0,0,0,0,0,0,0,0,0,0,0,0,0,0,0,0,0,0,0,0,0,0,0,0,0,0],"id":13,"left_children":[1,3,5,-1,-1,7,9,11,-1,-1,-1,13,15,17,19,-1,-1,21,23,25,27,-1,-1,-1,-1,-1,-1,-1,-1],"loss_changes":[4.7055845E0,5.801492E-1,4.0428643E0,0E0,0E0,4.803626E0,1.2123122E0,3.1820605E0,0E0,0E0,0E0,4.3215795E0,1.7714684E0,3.9567888E0,5.389328E0,0E0,0E0,1.4431484E0,3.048E0,3.5998793E0,1.879683E0,0E0,0E0,0E0,0E0,0E0,0E0,0E0,0E0],"parents":[2147483647,0,0,1,1,2,2,5,5,6,6,7,7,11,11,12,12,13,13,14,14,17,17,18,18,19,19,20,20],"right_children":[2,4,6,-1,-1,8,10,12,-1,-1,-1,14,16,18,20,-1,-1,22,24,26,28,-1,-1,-1,-1,-1,-1,-1,-1],"split_conditions":[3.293E1,-1.0210028E8,1.2040644E1,-1.3909376E-2,-5.301358E-2,7.9237E6,3.457E1,2.3280455E-1,-3.4474477E-2,3.4046866E-4,3.6893543E-2,9.4606435E-1,3.311158E-1,-1.1538402E0,7.962623E1,3.9396692E-2,4.606199E-5,3.658E6,1.2844482E1,8E0,8.694784E-1,1.0967858E-3,-2.5808359E-2,9.1706775E-3,-1.567259E-2,1.1736491E-2,-2.0044949E-2,1.33351665E-2,-4.527344E-3],"split_indices":[1,5,86,0,0,4,2,7,0,0,0,43,38,83,76,0,0,4,85,63,19,0,0,0,0,0,0,0,0],"split_type":[0,0,0,0,0,0,0,0,0,0,0,0,0,0,0,0,0,0,0,0,0,0,0,0,0,0,0,0,0],"sum_hessian":[2.21E2,4E0,2.17E2,2E0,2E0,2.1E2,7E0,2.04E2,6E0,2E0,5E0,1.97E2,7E0,1.08E2,8.9E1,4E0,3E0,1.3E1,9.5E1,5.2E1,3.7E1,5E0,8E0,8.7E1,8E0,6E0,4.6E1,1.7E1,2E1],"tree_param":{"num_deleted":"0","num_feature":"91","num_nodes":"29","size_leaf_vector":"1"}},{"base_weights":[1.7100327E-2,-1.5348169E-1,1.7177056E-1,-9.00809E-2,-9.3473136E-1,6.963225E-2,5.950595E-1,7.803507E-2,-4.0932918E-1,-2.7456465E-1,-6.1765157E-2,4.6057053E-2,2.342478E-2,-8.3604194E-2,8.972001E-1,2.1799794E-1,-5.2011824E-1,-1.9415165E-1,-6.724081E-2,-1.8454E-2,-6.4647604E-5,-1.3771409E-1,2.3508511E-1,1.0995942E-2,-1.4210076E-2,1.0789055E0,-1.0110012E-2,3.1447923E-1,-1.9651623E-1,-2.555129E-1,-7.1042097E-1,-6.1693627E-1,-8.91186E-2,-2.633893E-1,2.4017143E-1,-1.3235375E-1,5.284005E-1,6.0175303E-2,6.8698364E-1,1.8951456E-1,8.687515E-1,5.2364774E-2,-2.0462696E-2,-1.2213636E-2,-3.771061E-3,-1.1228138E-2,-3.3512544E-2,-3.395265E-3,-3.4903172E-2,-1.633993E-1,1.0341298E-2,4.6095353E-2,-6.24166E-1,4.7396684E-1,-6.1333522E-2,-4.042697E-1,3.9154068E-1,9.2287344E-1,3.6755392E-1,3.1251166E-2,1.0483971E-2,2.5469933E-3,2.0010859E-2,4.8095413E-2,-2.4388942E-3,-2.7586406E-3,6.467097E-3,-8.423088E-3,7.6622083E-3,-1.5795406E-2,1.0579222E-2,-1.1776215E-2,-3.214259E-2,2.4118846E-2,2.9107707E-3,-8.208749E-3,1.4503528E-3,-2.3085916E-2,4.5443247E-3,-7.881067E-5,2.2230316E-2,4.4298988E-2,1.5629087E-2,2.3316279E-2,7.3824935E-3],"categories":[],"categories_nodes":[],"categories_segments":[],"categories_sizes":[],"default_left":[0,0,0,0,0,0,0,0,0,0,0,0,0,0,0,0,0,0,0,0,0,0,0,0,0,0,0,0,0,0,0,0,0,0,0,0,0,0,0,0,0,0,0,0,0,0,0,0,0,0,0,0,0,0,0,0,0,0,0,0,0,0,0,0,0,0,0,0,0,0,0,0,0,0,0,0,0,0,0,0,0,0,0,0,0],"id":14,"left_children":[1,3,5,7,9,11,13,15,17,19,-1,-1,21,23,25,27,29,31,-1,-1,-1,33,35,-1,-1,37,-1,39,41,43,45,47,49,51,53,55,57,-1,59,61,63,65,-1,-1,-1,-1,-1,-1,-1,67,-1,69,71,73,75,77,79,81,83,-1,-1,-1,-1,-1,-1,-1,-1,-1,-1,-1,-1,-1,-1,-1,-1,-1,-1,-1,-1,-1,-1,-1,-1,-1,-1],"loss_changes":[5.989138E0,5.265238E0,5.1034126E0,5.4526863E0,2.7049875E0,4.7623434E0,4.7912035E0,5.7225747E0,9.108252E0,2.4691498E-1,0E0,0E0,3.238405E0,8.5589993E-1,3.6042662E0,2.2614071E0,4.730947E-1,1.3216165E0,0E0,0E0,0E0,2.627764E0,4.4887304E0,0E0,0E0,1.2174911E0,0E0,2.952259E0,8.727808E-1,2.4479508E-2,1.2694335E-1,7.129421E-1,7.0739377E-1,4.60662E0,1.0159367E0,2.8649378E0,1.1201358E0,0E0,1.282711E-1,1.4357423E0,2.4478102E0,1.0154492E-1,0E0,0E0,0E0,0E0,0E0,0E0,0E0,3.8660622E-1,0E0,2.2633362E0,8.456259E-1,3.4960485E-1,1.0352605E-1,1.1801333E0,4.3567467E-1,1.3038206E-1,5.900321E-1,0E0,0E0,0E0,0E0,0E0,0E0,0E0,0E0,0E0,0E0,0E0,0E0,0E0,0E0,0E0,0E0,0E0,0E0,0E0,0E0,0E0,0E0,0E0,0E0,0E0,0E0],"parents":[2147483647,0,0,1,1,2,2,3,3,4,4,5,5,6,6,7,7,8,8,9,9,12,12,13,13,14,14,15,15,16,16,17,17,21,21,22,22,25,25,27,27,28,28,29,29,30,30,31,31,32,32,33,33,34,34,35,35,36,36,38,38,39,39,40,40,41,41,49,49,51,51,52,52,53,53,54,54,55,55,56,56,57,57,58,58],"right_children":[2,4,6,8,10,12,14,16,18,20,-1,-1,22,24,26,28,30,32,-1,-1,-1,34,36,-1,-1,38,-1,40,42,44,46,48,50,52,54,56,58,-1,60,62,64,66,-1,-1,-1,-1,-1,-1,-1,68,-1,70,72,74,76,78,80,82,84,-1,-1,-1,-1,-1,-1,-1,-1,-1,-1,-1,-1,-1,-1,-1,-1,-1,-1,-1,-1,-1,-1,-1,-1,-1,-1],"split_conditions":[3.661E1,1.6349989E0,4.0289187E0,-2.3747843E-2,3.9657767E0,1.7682E6,3.750042E1,4.076687E1,5.622498E-1,3.439E1,-6.1765157E-2,4.6057053E-2,-1.1388756E0,6.503024E0,2.3555663E-1,4.6062515E1,-3.1446617E1,-6.245203E0,-6.724081E-2,-1.8454E-2,-6.4647604E-5,9.1601557E-1,-2.3109554E-1,1.0995942E-2,-1.4210076E-2,2.1493004E1,-1.0110012E-2,3.716986E1,3.8958108E0,3.729E1,-7.575757E7,3.64E1,2.8959309E1,6.772107E-1,-3.5987487E0,-3.708E5,-7.1579283E-1,6.0175303E-2,-2.7746132E-1,8.047041E0,3.6037727E1,3.595E1,-2.0462696E-2,-1.2213636E-2,-3.771061E-3,-1.1228138E-2,-3.3512544E-2,-3.395265E-3,-3.4903172E-2,1.5897504E2,1.0341298E-2,4.7482845E1,4E1,4.471E1,6.680819E0,-1.6991944E7,4.3932777E1,6.25009E7,2.17263E7,3.1251166E-2,1.0483971E-2,2.5469933E-3,2.0010859E-2,4.8095413E-2,-2.4388942E-3,-2.7586406E-3,6.467097E-3,-8.423088E-3,7.6622083E-3,-1.5795406E-2,1.0579222E-2,-1.1776215E-2,-3.214259E-2,2.4118846E-2,2.9107707E-3,-8.208749E-3,1.4503528E-3,-2.3085916E-2,4.5443247E-3,-7.881067E-5,2.2230316E-2,4.4298988E-2,1.5629087E-2,2.3316279E-2,7.3824935E-3],"split_indices":[2,48,86,45,84,4,75,16,48,0,0,0,85,84,7,75,51,86,0,0,0,33,7,0,0,59,0,12,84,1,5,3,58,33,85,6,85,0,10,9,17,0,0,0,0,0,0,0,0,60,0,76,65,0,25,5,16,6,6,0,0,0,0,0,0,0,0,0,0,0,0,0,0,0,0,0,0,0,0,0,0,0,0,0,0],"split_type":[0,0,0,0,0,0,0,0,0,0,0,0,0,0,0,0,0,0,0,0,0,0,0,0,0,0,0,0,0,0,0,0,0,0,0,0,0,0,0,0,0,0,0,0,0,0,0,0,0,0,0,0,0,0,0,0,0,0,0,0,0,0,0,0,0,0,0,0,0,0,0,0,0,0,0,0,0,0,0,0,0,0,0,0,0],"sum_hessian":[2.25E2,1.07E2,1.18E2,1E2,7E0,9.6E1,2.2E1,6.6E1,3.4E1,4E0,3E0,3E0,9.3E1,7E0,1.5E1,5.4E1,1.2E1,3E1,4E0,2E0,2E0,5.3E1,4E1,3E0,4E0,1.3E1,2E0,4.4E1,1E1,6E0,6E0,5E0,2.5E1,4E1,1.3E1,1.8E1,2.2E1,5E0,8E0,3.7E1,7E0,6E0,4E0,4E0,2E0,2E0,4E0,2E0,3E0,2.1E1,4E0,2.2E1,1.8E1,7E0,6E0,1.2E1,6E0,5E0,1.7E1,6E0,2E0,2.7E1,1E1,5E0,2E0,3E0,3E0,1.9E1,2E0,7E0,1.5E1,7E0,1.1E1,5E0,2E0,2E0,4E0,9E0,3E0,2E0,4E0,3E0,2E0,7E0,1E1],"tree_param":{"num_deleted":"0","num_feature":"91","num_nodes":"85","size_leaf_vector":"1"}},{"base_weights":[-2.3695981E-2,-4.6937156E-2,4.959931E-2,-2.9465568E-1,4.487565E-2,-1.9728132E-1,-1.1056867E0,-3.5855237E-1,1.5513112E-1,-6.5460175E-2,-5.978494E-1,-6.797715E-2,-1.613517E-2,-5.085416E-1,4.2615414E-1,5.2391496E-2,1.16179734E-1,-1.8835276E-1,1.0203328E-1,-8.9091696E-2,-1.0212001E0,-1.0278008E0,-3.2839563E-1,2.8395845E-2,-3.3695824E-3,-1.973666E-1,2.1716028E-1,-4.8243728E-1,-3.8880467E-2,-1.7156082E-1,2.9173505E-1,-1.5902799E-2,1.1105269E-1,-5.257283E-2,-8.806691E-3,-1.021401E-2,-5.2102413E-2,-2.1898413E-1,-3.9853714E-2,-3.2538986E-1,2.6976556E-1,6.81879E-1,9.490601E-2,-2.5268966E-2,-7.4607106E-3,-1.1248956E-2,1.3033941E-3,-1.5780207E-2,1.5157019E-3,1.5385176E-2,1.6962762E-3,6.5976526E-3,8.9255284E-4,-1.9010875E-2,2.092636E-3,-1.7886063E-2,8.337841E-3,-3.571119E-3,2.2675829E-2,1.6207116E-2,4.9566116E-2,-2.3321204E-2,7.486396E-3],"categories":[],"categories_nodes":[],"categories_segments":[],"categories_sizes":[],"default_left":[0,0,0,0,0,0,0,0,0,0,0,0,0,0,0,0,0,0,0,0,0,0,0,0,0,0,0,0,0,0,0,0,0,0,0,0,0,0,0,0,0,0,0,0,0,0,0,0,0,0,0,0,0,0,0,0,0,0,0,0,0,0,0],"id":15,"left_children":[1,3,-1,5,7,9,11,13,15,17,19,-1,-1,21,23,-1,25,27,29,31,33,35,37,-1,-1,39,41,43,45,47,49,-1,51,-1,-1,-1,-1,53,-1,55,57,59,61,-1,-1,-1,-1,-1,-1,-1,-1,-1,-1,-1,-1,-1,-1,-1,-1,-1,-1,-1,-1],"loss_changes":[6.3583026E0,4.8803816E0,0E0,4.36234E0,7.039005E0,2.7594414E0,1.7653966E0,4.218432E0,5.353326E0,8.6315006E-1,2.7089977E0,0E0,0E0,2.3752055E0,9.0057206E-1,0E0,3.8739715E0,1.0362222E0,9.842735E-1,4.6937478E-1,1.2805433E0,1.0845661E0,1.4361885E0,0E0,0E0,1.8818924E0,5.16216E0,2.2344172E-1,2.9789093E-1,3.7975907E-1,2.271055E-1,0E0,1.9534402E-2,0E0,0E0,0E0,0E0,1.4499111E0,0E0,1.5780227E0,7.776328E-1,2.412221E0,4.581075E0,0E0,0E0,0E0,0E0,0E0,0E0,0E0,0E0,0E0,0E0,0E0,0E0,0E0,0E0,0E0,0E0,0E0,0E0,0E0,0E0],"parents":[2147483647,0,0,1,1,3,3,4,4,5,5,6,6,7,7,8,8,9,9,10,10,13,13,14,14,16,16,17,17,18,18,19,19,20,20,21,21,22,22,25,25,26,26,27,27,28,28,29,29,30,30,32,32,37,37,39,39,40,40,41,41,42,42],"right_children":[2,4,-1,6,8,10,12,14,16,18,20,-1,-1,22,24,-1,26,28,30,32,34,36,38,-1,-1,40,42,44,46,48,50,-1,52,-1,-1,-1,-1,54,-1,56,58,60,62,-1,-1,-1,-1,-1,-1,-1,-1,-1,-1,-1,-1,-1,-1,-1,-1,-1,-1,-1,-1],"split_conditions":[4.3321667E1,3.6555058E1,4.959931E-2,1.6349989E0,-5.966205E0,3.5753334E1,1.7931164E1,-4.7082464E7,3.4811535E1,3.5392E1,-7.6574177E-1,-6.797715E-2,-1.613517E-2,1.3697737E0,4.309E1,5.2391496E-2,-2.8804243E-1,2.5766909E1,3.018558E1,3.376E1,4.5018E6,2.2605E6,4.3792E6,2.8395845E-2,-3.3695824E-3,-9.751926E4,3.2172E6,3.91402E7,-5.93499E-1,-6.6211243E0,4.5844887E1,-1.5902799E-2,3.626E1,-5.257283E-2,-8.806691E-3,-1.021401E-2,-5.2102413E-2,-1.9571277E-1,-3.9853714E-2,-1.6622816E7,4.3932777E1,3.9677715E-4,-4.6601784E-1,-2.5268966E-2,-7.4607106E-3,-1.1248956E-2,1.3033941E-3,-1.5780207E-2,1.5157019E-3,1.5385176E-2,1.6962762E-3,6.5976526E-3,8.9255284E-4,-1.9010875E-2,2.092636E-3,-1.7886063E-2,8.337841E-3,-3.571119E-3,2.2675829E-2,1.6207116E-2,4.9566116E-2,-2.3321204E-2,7.486396E-3],"split_indices":[24,87,0,48,84,39,18,5,24,53,10,0,0,34,1,0,7,58,70,0,4,4,4,0,0,11,4,6,48,9,76,0,1,0,0,0,0,48,0,5,16,36,38,0,0,0,0,0,0,0,0,0,0,0,0,0,0,0,0,0,0,0,0],"split_type":[0,0,0,0,0,0,0,0,0,0,0,0,0,0,0,0,0,0,0,0,0,0,0,0,0,0,0,0,0,0,0,0,0,0,0,0,0,0,0,0,0,0,0,0,0,0,0,0,0,0,0,0,0,0,0,0,0,0,0,0,0,0,0],"sum_hessian":[2.16E2,2.13E2,3E0,5.7E1,1.56E2,5.2E1,5E0,3.3E1,1.23E2,4E1,1.2E1,2E0,3E0,2.8E1,5E0,3E0,1.2E2,2.3E1,1.7E1,6E0,6E0,6E0,2.2E1,3E0,2E0,2.9E1,9.1E1,7E0,1.6E1,7E0,1E1,2E0,4E0,4E0,2E0,2E0,4E0,2E1,2E0,2.3E1,6E0,1.8E1,7.3E1,4E0,3E0,3E0,1.3E1,3E0,4E0,7E0,3E0,2E0,2E0,1E1,1E1,1.9E1,4E0,3E0,3E0,1.3E1,5E0,8E0,6.5E1],"tree_param":{"num_deleted":"0","num_feature":"91","num_nodes":"63","size_leaf_vector":"1"}},{"base_weights":[3.1188894E-3,-1.8156309E-2,4.80939E-2,-2.3887478E-1,6.832456E-2,-1.6513379E-1,-1.0612434E0,7.3874116E-1,1.4235736E-2,-4.7190443E-2,-1.0955395E-1,-5.926493E-2,-1.2313082E-2,1.505235E-1,4.602847E-2,-2.9933244E-1,1.1227242E-1,-2.3891571E-1,5.387415E-2,-7.453874E-3,1.472757E-2,-3.7618447E-2,-2.1386859E-1,-4.0624717E-1,1.7662662E-1,1.4293481E-2,-3.1234854E-1,2.0717171E-1,-1.153597E-1,-7.854196E-2,-5.660127E-1,4.0927166E-3,-7.585517E-1,-3.415185E-1,2.422909E-1,-2.2511732E-2,-4.3479106E-3,-1.9508585E-3,1.2712897E-2,-1.4896737E-2,3.5863689E-3,3.1263758E-3,-1.2948368E-2,-2.9547736E-2,-7.216043E-3,-1.1929638E-2,1.2219482E-2,-3.8260125E-2,-1.5460263E-2,-2.8905207E-2,-2.6652988E-3,-1.9800246E-2,1.2100848E-2],"categories":[],"categories_nodes":[],"categories_segments":[],"categories_sizes":[],"default_left":[0,0,0,0,0,0,0,0,0,0,0,0,0,0,0,0,0,0,0,0,0,0,0,0,0,0,0,0,0,0,0,0,0,0,0,0,0,0,0,0,0,0,0,0,0,0,0,0,0,0,0,0,0],"id":16,"left_children":[1,3,-1,5,7,9,11,13,15,-1,17,-1,-1,19,-1,21,23,25,27,-1,-1,-1,29,31,33,-1,35,37,39,41,43,45,47,49,51,-1,-1,-1,-1,-1,-1,-1,-1,-1,-1,-1,-1,-1,-1,-1,-1,-1,-1],"loss_changes":[5.720791E0,4.272928E0,0E0,3.6452165E0,5.8276734E0,3.1546488E0,1.0806012E0,2.642726E0,4.6447845E0,0E0,1.2179282E0,0E0,0E0,4.9560767E-1,0E0,1.7402632E0,3.9091787E0,1.5017077E0,6.984208E-1,0E0,0E0,0E0,1.528142E0,1.8824444E0,3.5871804E0,0E0,1.3897576E0,3.9760172E-1,7.02849E-1,9.650319E-1,4.425075E-1,7.121834E-1,1.3136244E-1,1.1859652E0,3.964398E0,0E0,0E0,0E0,0E0,0E0,0E0,0E0,0E0,0E0,0E0,0E0,0E0,0E0,0E0,0E0,0E0,0E0,0E0],"parents":[2147483647,0,0,1,1,3,3,4,4,5,5,6,6,7,7,8,8,10,10,13,13,15,15,16,16,17,17,18,18,22,22,23,23,24,24,26,26,27,27,28,28,29,29,30,30,31,31,32,32,33,33,34,34],"right_children":[2,4,-1,6,8,10,12,14,16,-1,18,-1,-1,20,-1,22,24,26,28,-1,-1,-1,30,32,34,-1,36,38,40,42,44,46,48,50,52,-1,-1,-1,-1,-1,-1,-1,-1,-1,-1,-1,-1,-1,-1,-1,-1,-1,-1],"split_conditions":[4.3321667E1,3.650857E1,4.80939E-2,2.4439003E1,3.50652E1,-3.3746198E-1,2.1038782E1,-1.0627179E2,-1.9393401E0,-4.7190443E-2,3.7175121E0,-5.926493E-2,-1.2313082E-2,-2.9039383E-1,4.602847E-2,5.8880925E0,-5.3271294E0,-9.2E1,4.248E6,-7.453874E-3,1.472757E-2,-3.7618447E-2,-1.757041E1,9.6733527E2,-7.6E1,1.4293481E-2,4.20321E7,2.8568E6,4.6770775E1,1.0278346E3,-1.6891818E0,6.413913E-1,-2.1124542E0,-5.288932E0,3.3965076E1,-2.2511732E-2,-4.3479106E-3,-1.9508585E-3,1.2712897E-2,-1.4896737E-2,3.5863689E-3,3.1263758E-3,-1.2948368E-2,-2.9547736E-2,-7.216043E-3,-1.1929638E-2,1.2219482E-2,-3.8260125E-2,-1.5460263E-2,-2.8905207E-2,-2.6652988E-3,-1.9800246E-2,1.2100848E-2],"split_indices":[24,87,0,50,24,7,9,50,88,0,9,0,0,7,0,25,85,65,4,0,0,0,9,14,65,0,6,4,75,14,9,26,10,80,66,0,0,0,0,0,0,0,0,0,0,0,0,0,0,0,0,0,0],"split_type":[0,0,0,0,0,0,0,0,0,0,0,0,0,0,0,0,0,0,0,0,0,0,0,0,0,0,0,0,0,0,0,0,0,0,0,0,0,0,0,0,0,0,0,0,0,0,0,0,0,0,0,0,0],"sum_hessian":[2.25E2,2.22E2,3E0,6.2E1,1.6E2,5.8E1,4E0,1.1E1,1.49E2,2E0,5.6E1,2E0,2E0,5E0,6E0,3.5E1,1.14E2,3.1E1,2.5E1,2E0,3E0,3E0,3.2E1,1.2E1,1.02E2,3E0,2.8E1,1.3E1,1.2E1,2.4E1,8E0,6E0,6E0,1.1E1,9.1E1,1.2E1,1.6E1,4E0,9E0,5E0,7E0,1.5E1,9E0,5E0,3E0,3E0,3E0,3E0,3E0,4E0,7E0,6E0,8.5E1],"tree_param":{"num_deleted":"0","num_feature":"91","num_nodes":"53","size_leaf_vector":"1"}},{"base_weights":[-4.844103E-3,-2.5486855E-2,4.6634194E-2,-2.4327289E-1,6.3148014E-2,-1.5908931E-1,-1.0445632E0,-3.0948937E-1,1.5509568E-1,-1.0858769E-1,-4.3803964E-2,-6.4707175E-2,-1.4877296E-2,-4.5954E-2,-2.1656671E-1,4.940432E-2,1.20032474E-1,-2.4201962E-1,4.301867E-2,-3.5013506E-1,1.9451311E-1,-2.651118E-1,1.995862E-1,-1.4078282E-2,-4.842185E-1,1.3281678E-1,-3.0837718E-1,1.4397173E-1,-5.3299457E-1,-6.9903503E-3,1.8186891E-2,-3.893512E-1,1.5835412E-2,3.7614357E-1,-2.1497735E-3,5.3131045E-3,-9.732782E-3,-7.0339493E-3,-3.7265606E-2,-1.17800655E-2,8.537126E-3,-3.9439453E-3,-1.970046E-2,-3.6051422E-3,1.0319911E-2,-9.41193E-3,-2.9138489E-2,-2.3428679E-2,7.4299297E-4,-4.836181E-3,2.2023106E-2,-7.968625E-3,1.5681375E-2],"categories":[],"categories_nodes":[],"categories_segments":[],"categories_sizes":[],"default_left":[0,0,0,0,0,0,0,0,0,0,0,0,0,0,0,0,0,0,0,0,0,0,0,0,0,0,0,0,0,0,0,0,0,0,0,0,0,0,0,0,0,0,0,0,0,0,0,0,0,0,0,0,0],"id":17,"left_children":[1,3,-1,5,7,9,11,13,15,17,-1,-1,-1,-1,19,-1,21,23,25,27,29,31,33,35,37,39,41,43,45,-1,-1,47,-1,49,51,-1,-1,-1,-1,-1,-1,-1,-1,-1,-1,-1,-1,-1,-1,-1,-1,-1,-1],"loss_changes":[5.451923E0,4.3393316E0,0E0,4.2184267E0,5.5301027E0,2.6802566E0,1.663909E0,2.2103987E0,4.6738644E0,1.1837008E0,0E0,0E0,0E0,0E0,1.7153234E0,0E0,3.9135098E0,1.7046044E0,9.244888E-1,2.1548355E0,8.2651424E-1,1.946512E0,3.740696E0,5.91132E-1,1.8729658E0,8.232784E-1,1.7836809E-1,2.0386833E-1,7.877588E-1,0E0,0E0,1.4792631E0,0E0,4.7298074E0,3.8706834E0,0E0,0E0,0E0,0E0,0E0,0E0,0E0,0E0,0E0,0E0,0E0,0E0,0E0,0E0,0E0,0E0,0E0,0E0],"parents":[2147483647,0,0,1,1,3,3,4,4,5,5,6,6,7,7,8,8,9,9,14,14,16,16,17,17,18,18,19,19,20,20,21,21,22,22,23,23,24,24,25,25,26,26,27,27,28,28,31,31,33,33,34,34],"right_children":[2,4,-1,6,8,10,12,14,16,18,-1,-1,-1,-1,20,-1,22,24,26,28,30,32,34,36,38,40,42,44,46,-1,-1,48,-1,50,52,-1,-1,-1,-1,-1,-1,-1,-1,-1,-1,-1,-1,-1,-1,-1,-1,-1,-1],"split_conditions":[4.3321667E1,3.6555058E1,4.6634194E-2,1.6349989E0,-6.1666436E0,1E0,1.7931164E1,-6.2628303E0,3.4811535E1,3.7175121E0,-4.3803964E-2,-6.4707175E-2,-1.4877296E-2,-4.5954E-2,5.3549975E-1,4.940432E-2,3.6417297E1,9.156788E-1,6.3144E6,1.1220597E1,3.72475E1,-1.0902246E1,3.7818E6,1E2,3.5056E1,3.38085E1,3.383E1,4.2564E1,5.4549828E1,-6.9903503E-3,1.8186891E-2,3.4929905E1,1.5835412E-2,-2.8804243E-1,4.2933626E0,5.3131045E-3,-9.732782E-3,-7.0339493E-3,-3.7265606E-2,-1.17800655E-2,8.537126E-3,-3.9439453E-3,-1.970046E-2,-3.6051422E-3,1.0319911E-2,-9.41193E-3,-2.9138489E-2,-2.3428679E-2,7.4299297E-4,-4.836181E-3,2.2023106E-2,-7.968625E-3,1.5681375E-2],"split_indices":[24,87,0,48,84,69,18,80,24,9,0,0,0,0,48,0,70,43,4,59,62,51,4,64,15,54,0,0,70,0,0,13,0,7,86,0,0,0,0,0,0,0,0,0,0,0,0,0,0,0,0,0,0],"split_type":[0,0,0,0,0,0,0,0,0,0,0,0,0,0,0,0,0,0,0,0,0,0,0,0,0,0,0,0,0,0,0,0,0,0,0,0,0,0,0,0,0,0,0,0,0,0,0,0,0,0,0,0,0],"sum_hessian":[2.26E2,2.23E2,3E0,6.4E1,1.59E2,5.9E1,5E0,3.1E1,1.28E2,5.7E1,2E0,2E0,3E0,2E0,2.9E1,3E0,1.25E2,3E1,2.7E1,2.2E1,7E0,2.1E1,1.04E2,1.6E1,1.4E1,2.2E1,5E0,6E0,1.6E1,3E0,4E0,1.8E1,3E0,5.5E1,4.9E1,1E1,6E0,9E0,5E0,3E0,1.9E1,3E0,2E0,2E0,4E0,7E0,9E0,1.2E1,6E0,1.4E1,4.1E1,3.3E1,1.6E1],"tree_param":{"num_deleted":"0","num_feature":"91","num_nodes":"53","size_leaf_vector":"1"}},{"base_weights":[8.554654E-4,-4.73699E-2,4.2279178E-1,-6.542455E-2,3.6373E-2,1.1363568E0,1.2180584E-1,-7.11259E-1,-4.2607304E-2,1.8646795E-2,6.182963E-2,-2.8025433E-1,4.0313998E-1,-1.1888714E-2,-4.7346987E-2,-3.9193794E-2,-2.8434956E-2,1.1260051E-2,-2.7154345E-2,2.9575853E-2,1.8889827E-1,2.2889458E-1,-9.0592824E-2,-3.481538E-3,1.5016284E-2,1.0421279E-1,4.2730086E-2,-4.109901E-1,1.1733079E-2,-2.8742878E-2,9.397442E-3,-2.2737386E-2,3.3469412E-3,6.0115657E-3,-3.945412E-3],"categories":[],"categories_nodes":[],"categories_segments":[],"categories_sizes":[],"default_left":[0,0,0,0,0,0,0,0,0,0,0,0,0,0,0,0,0,0,0,0,0,0,0,0,0,0,0,0,0,0,0,0,0,0,0],"id":18,"left_children":[1,3,5,7,-1,9,11,13,15,-1,-1,17,19,-1,-1,-1,21,-1,-1,-1,23,25,27,-1,-1,29,-1,31,33,-1,-1,-1,-1,-1,-1],"loss_changes":[4.7611194E0,3.646185E0,5.016139E0,3.0200803E0,0E0,1.1474066E0,2.1490202E0,9.968238E-1,2.610009E0,0E0,0E0,1.9325516E0,6.342193E-1,0E0,0E0,0E0,3.2037518E0,0E0,0E0,0E0,4.3258023E-1,3.9112928E0,5.2831974E0,0E0,0E0,3.8138661E0,0E0,2.9512467E0,1.8525985E0,0E0,0E0,0E0,0E0,0E0,0E0],"parents":[2147483647,0,0,1,1,2,2,3,3,5,5,6,6,7,7,8,8,11,11,12,12,16,16,20,20,21,21,22,22,25,25,27,27,28,28],"right_children":[2,4,6,8,-1,10,12,14,16,-1,-1,18,20,-1,-1,-1,22,-1,-1,-1,24,26,28,-1,-1,30,-1,32,34,-1,-1,-1,-1,-1,-1],"split_conditions":[4.1923462E1,1.06483E7,1.3346358E1,3.27E1,3.6373E-2,5.769426E1,1.9651383E-1,4.308861E0,3.5377E1,1.8646795E-2,6.182963E-2,-1.4081542E-1,1.860879E-1,-1.1888714E-2,-4.7346987E-2,-3.9193794E-2,3.65675E1,1.1260051E-2,-2.7154345E-2,2.9575853E-2,2.477543E1,5.9590073E0,3.75205E1,-3.481538E-3,1.5016284E-2,-1.22674675E1,4.2730086E-2,9.1601557E-1,-4.1993707E-1,-2.8742878E-2,9.397442E-3,-2.2737386E-2,3.3469412E-3,6.0115657E-3,-3.945412E-3],"split_indices":[40,4,32,0,0,13,73,84,55,0,0,7,72,0,0,0,61,0,0,0,47,35,61,0,0,51,0,33,88,0,0,0,0,0,0],"split_type":[0,0,0,0,0,0,0,0,0,0,0,0,0,0,0,0,0,0,0,0,0,0,0,0,0,0,0,0,0,0,0,0,0,0,0],"sum_hessian":[2.32E2,2.09E2,2.3E1,2.06E2,3E0,6E0,1.7E1,6E0,2E2,3E0,3E0,7E0,1E1,4E0,2E0,2E0,1.98E2,3E0,4E0,3E0,7E0,3.8E1,1.6E2,3E0,4E0,3.4E1,4E0,3.8E1,1.22E2,4E0,3E1,2.9E1,9E0,5.4E1,6.8E1],"tree_param":{"num_deleted":"0","num_feature":"91","num_nodes":"35","size_leaf_vector":"1"}},{"base_weights":[-1.8969214E-2,-1.8884714E-1,7.976391E-2,-6.734712E-2,-4.680333E-1,3.06006E-1,-5.2879985E-2,-3.0044597E-1,1.8414985E-1,-6.0218257E-1,1.8900025E-1,4.8270333E-1,-3.5594627E-2,-2.5339234E-1,8.2971595E-2,-1.7084807E-1,-9.4018555E-1,-1.6634253E-1,3.773744E-1,-4.2253233E-2,-4.36783E-1,-2.4057415E-3,1.5153299E-2,9.340441E-1,2.3692028E-1,-4.036388E-1,2.687683E-1,-1.4555892E-1,-4.478346E-2,2.014969E-1,-1.7185803E-1,-4.7819442E-1,7.033968E-2,-2.5932586E-3,-6.0819726E-2,-2.8313348E-1,9.691282E-3,6.3853973E-1,7.84716E-2,-5.146626E-1,3.974383E-3,4.5068315E-1,5.432036E-2,5.1409286E-1,-2.8215545E-1,-1.1886668E-1,-2.4591958E-2,4.6804094E-1,-1.6941646E-2,5.0546985E-2,-3.4463817E-1,-1.9012505E-1,3.2959077E-1,-4.9913383E-1,2.9962844E-1,-2.385914E-1,-3.099556E-2,1.41761005E-2,-5.2172344E-2,-1.626969E-2,-1.3758669E-3,3.7264783E-2,-6.1168603E-4,-1.6216816E-2,2.4836251E-1,-7.137441E-1,-3.0263674E-1,2.647654E-2,9.647865E-3,8.538145E-2,7.6278156E-1,-2.2495674E-2,4.8002854E-2,-1.0484066E-2,2.4668283E-3,1.5527646E-3,2.7376117E-2,-2.2168048E-1,2.051341E-1,-1.5400419E-1,-5.398509E-1,-3.120348E-1,8.026606E-3,1.03199385E-1,4.8332593E-1,-2.5577486E-2,-8.629629E-3,2.3876918E-2,7.394231E-3,2.4425683E-3,-1.7402709E-2,-1.2476656E-2,2.7300725E-3,1.2650777E-2,1.5006599E-3,-3.6447927E-2,-1.40992E-2,-1.7575763E-2,-6.653656E-3,-6.080505E-3,8.4856525E-3,3.907472E-2,1.4847417E-2,-9.6972304E-5,3.3346359E-3,-1.3893042E-2,2.222615E-3,1.293567E-2,-9.9131195E-3,-1.1414383E-2,1.232657E-3,-9.059087E-3,-2.770776E-2,-2.3718565E-3,-1.8306587E-2,-3.7805683E-3,6.9414335E-3,2.8930098E-2,5.401146E-3,1.7489269E-3,-1.2502059E-3],"categories":[],"categories_nodes":[],"categories_segments":[],"categories_sizes":[],"default_left":[0,0,0,0,0,0,0,0,0,0,0,0,0,0,0,0,0,0,0,0,0,0,0,0,0,0,0,0,0,0,0,0,0,0,0,0,0,0,0,0,0,0,0,0,0,0,0,0,0,0,0,0,0,0,0,0,0,0,0,0,0,0,0,0,0,0,0,0,0,0,0,0,0,0,0,0,0,0,0,0,0,0,0,0,0,0,0,0,0,0,0,0,0,0,0,0,0,0,0,0,0,0,0,0,0,0,0,0,0,0,0,0,0,0,0,0,0,0,0,0,0],"id":19,"left_children":[1,3,5,7,9,11,13,15,17,19,21,23,25,27,29,31,33,35,37,-1,39,-1,-1,41,43,45,47,49,-1,51,53,55,57,-1,-1,59,-1,61,63,65,-1,67,-1,69,71,73,-1,75,-1,77,79,81,83,85,87,89,-1,-1,91,-1,-1,-1,-1,-1,93,95,97,-1,-1,99,101,-1,103,-1,-1,-1,-1,105,107,109,111,113,-1,115,117,-1,-1,-1,119,-1,-1,-1,-1,-1,-1,-1,-1,-1,-1,-1,-1,-1,-1,-1,-1,-1,-1,-1,-1,-1,-1,-1,-1,-1,-1,-1,-1,-1,-1,-1,-1],"loss_changes":[3.7888935E0,2.7839332E0,4.307559E0,3.514123E0,2.317327E0,3.2162576E0,2.499857E0,2.409547E0,2.0267615E0,1.0789218E0,2.5263008E-1,3.6613226E0,2.2368464E0,3.2431924E0,1.6958358E0,2.0350966E0,2.3686538E0,5.891618E-1,1.4330907E0,0E0,7.588501E-1,0E0,0E0,1.7630205E0,3.5980191E0,4.507221E-1,1.7027364E0,1.3448014E0,0E0,1.9689097E0,2.9270644E0,6.4453816E-1,5.670534E-1,0E0,0E0,2.5293303E-1,0E0,1.859168E0,9.136424E-1,4.171512E-1,0E0,1.465162E-1,0E0,1.6407237E0,8.400436E-1,1.4184958E-1,0E0,7.800915E-1,0E0,8.0296564E-1,5.4950166E-1,5.354698E-1,9.594462E-1,2.8317237E-1,6.745223E-1,4.8380366E-1,0E0,0E0,3.885074E-1,0E0,0E0,0E0,0E0,0E0,9.6999645E-2,1.6421151E-1,9.239042E-2,0E0,0E0,2.365391E-1,4.485364E-1,0E0,8.865633E-3,0E0,0E0,0E0,0E0,2.5434887E-1,6.9680905E-1,2.4480222E-1,2.1284485E-1,2.5799698E-1,0E0,1.9067413E-1,1.2817926E0,0E0,0E0,0E0,8.19299E-3,0E0,0E0,0E0,0E0,0E0,0E0,0E0,0E0,0E0,0E0,0E0,0E0,0E0,0E0,0E0,0E0,0E0,0E0,0E0,0E0,0E0,0E0,0E0,0E0,0E0,0E0,0E0,0E0,0E0,0E0,0E0,0E0],"parents":[2147483647,0,0,1,1,2,2,3,3,4,4,5,5,6,6,7,7,8,8,9,9,10,10,11,11,12,12,13,13,14,14,15,15,16,16,17,17,18,18,20,20,23,23,24,24,25,25,26,26,27,27,29,29,30,30,31,31,32,32,35,35,37,37,38,38,39,39,41,41,43,43,44,44,45,45,47,47,49,49,50,50,51,51,52,52,53,53,54,54,55,55,58,58,64,64,65,65,66,66,69,69,70,70,72,72,77,77,78,78,79,79,80,80,81,81,83,83,84,84,88,88],"right_children":[2,4,6,8,10,12,14,16,18,20,22,24,26,28,30,32,34,36,38,-1,40,-1,-1,42,44,46,48,50,-1,52,54,56,58,-1,-1,60,-1,62,64,66,-1,68,-1,70,72,74,-1,76,-1,78,80,82,84,86,88,90,-1,-1,92,-1,-1,-1,-1,-1,94,96,98,-1,-1,100,102,-1,104,-1,-1,-1,-1,106,108,110,112,114,-1,116,118,-1,-1,-1,120,-1,-1,-1,-1,-1,-1,-1,-1,-1,-1,-1,-1,-1,-1,-1,-1,-1,-1,-1,-1,-1,-1,-1,-1,-1,-1,-1,-1,-1,-1,-1,-1],"split_conditions":[-2.071946E-1,2.6892883E-1,6.861293E0,9.183688E0,4.66331E1,7.494584E-1,2.8056297E1,1.0520067E3,3.2843174E1,3.6865833E1,2.3939E6,1.3346358E1,2.7378E6,2.7431032E-1,1.9642525E1,-2.7452278E1,-2.338951E6,4.397112E1,7.4700147E-1,-4.2253233E-2,6.254746E-1,-2.4057415E-3,1.5153299E-2,8.4788567E-1,-3.047785E0,2.4741E6,1.8599192E6,8E0,-4.478346E-2,1.3808022E1,8.2759786E-1,-2.591618E-1,1.7992955E0,-2.5932586E-3,-6.0819726E-2,4.78253E7,9.691282E-3,3.2763786E1,5.835887E-2,2.8089E6,3.974383E-3,6.2924085E0,5.432036E-2,4.355486E1,6.1107713E-1,1.8413E6,-2.4591958E-2,-2.1593E6,-1.6941646E-2,3.533E1,3.618E1,1.0537097E3,3.742E1,7.731705E-1,-3.5987487E0,1.7259961E-2,-3.099556E-2,1.41761005E-2,3.157857E-1,-1.626969E-2,-1.3758669E-3,3.7264783E-2,-6.1168603E-4,-1.6216816E-2,2.0747514E0,-1.7002118E7,-7.5501345E-2,2.647654E-2,9.647865E-3,3.239E1,3.817977E1,-2.2495674E-2,-7.9089784E7,-1.0484066E-2,2.4668283E-3,1.5527646E-3,2.7376117E-2,7.41607E0,4.9219E6,3.713E1,-9.409798E1,-9.943542E-1,8.026606E-3,-2.36886E-1,1.4539702E1,-2.5577486E-2,-8.629629E-3,2.3876918E-2,2.2110847E1,2.4425683E-3,-1.7402709E-2,-1.2476656E-2,2.7300725E-3,1.2650777E-2,1.5006599E-3,-3.6447927E-2,-1.40992E-2,-1.7575763E-2,-6.653656E-3,-6.080505E-3,8.4856525E-3,3.907472E-2,1.4847417E-2,-9.6972304E-5,3.3346359E-3,-1.3893042E-2,2.222615E-3,1.293567E-2,-9.9131195E-3,-1.1414383E-2,1.232657E-3,-9.059087E-3,-2.770776E-2,-2.3718565E-3,-1.8306587E-2,-3.7805683E-3,6.9414335E-3,2.8930098E-2,5.401146E-3,1.7489269E-3,-1.2502059E-3],"split_indices":[83,19,51,76,16,72,58,14,13,39,4,32,4,37,18,51,8,75,48,0,85,0,0,43,51,4,8,63,0,18,72,7,84,0,0,6,0,59,73,4,0,18,0,75,26,4,0,6,0,3,3,14,3,72,85,33,0,0,85,0,0,0,0,0,48,5,48,0,0,0,67,0,5,0,0,0,0,35,4,30,50,84,0,7,9,0,0,0,32,0,0,0,0,0,0,0,0,0,0,0,0,0,0,0,0,0,0,0,0,0,0,0,0,0,0,0,0,0,0,0,0],"split_type":[0,0,0,0,0,0,0,0,0,0,0,0,0,0,0,0,0,0,0,0,0,0,0,0,0,0,0,0,0,0,0,0,0,0,0,0,0,0,0,0,0,0,0,0,0,0,0,0,0,0,0,0,0,0,0,0,0,0,0,0,0,0,0,0,0,0,0,0,0,0,0,0,0,0,0,0,0,0,0,0,0,0,0,0,0,0,0,0,0,0,0,0,0,0,0,0,0,0,0,0,0,0,0,0,0,0,0,0,0,0,0,0,0,0,0,0,0,0,0,0,0],"sum_hessian":[2.24E2,8.2E1,1.42E2,5.8E1,2.4E1,5.2E1,9E1,3E1,2.8E1,2E1,4E0,3.4E1,1.8E1,3.6E1,5.4E1,2.6E1,4E0,1E1,1.8E1,4E0,1.6E1,2E0,2E0,1.1E1,2.3E1,8E0,1E1,3.3E1,3E0,3.7E1,1.7E1,1.1E1,1.5E1,2E0,2E0,8E0,2E0,9E0,9E0,1.4E1,2E0,6E0,5E0,1.5E1,8E0,4E0,4E0,8E0,2E0,1.7E1,1.6E1,9E0,2.8E1,1E1,7E0,7E0,4E0,4E0,1.1E1,5E0,3E0,6E0,3E0,2E0,7E0,6E0,8E0,2E0,4E0,6E0,9E0,4E0,4E0,2E0,2E0,3E0,5E0,6E0,1.1E1,9E0,7E0,7E0,2E0,1.2E1,1.6E1,6E0,4E0,3E0,4E0,3E0,4E0,3E0,8E0,5E0,2E0,3E0,3E0,3E0,5E0,2E0,4E0,5E0,4E0,2E0,2E0,4E0,2E0,9E0,2E0,5E0,4E0,3E0,4E0,3E0,4E0,3E0,9E0,9E0,7E0,2E0,2E0],"tree_param":{"num_deleted":"0","num_feature":"91","num_nodes":"121","size_leaf_vector":"1"}},{"base_weights":[3.7620906E-2,2.1868179E-2,4.7764055E-2,-1.6251934E-1,9.202924E-2,-7.931645E-2,-9.11993E-1,4.570351E-2,6.5014176E-2,-4.0112257E-1,-6.385452E-4,-5.4192774E-2,-1.471575E-2,1.1895757E-1,-2.8999817E-1,-3.7096024E-2,-9.321016E-2,8.726423E-2,-2.882623E-1,-2.7988246E-1,1.9357415E-1,2.674981E-1,-4.3690893E-1,4.7557697E-2,-1.3908006E-2,-1.3920696E-2,1.519206E-1,-4.320613E-1,-2.9291268E-2,-1.3872151E-1,-2.9626314E-2,-7.684312E-2,3.0201527E-1,1.3592375E-2,4.449653E-3,-5.9776723E-1,6.870435E-2,-1.9701028E-3,6.4759706E-3,-6.161506E-3,9.225614E-3,-5.9164595E-3,-2.0928876E-2,1.5363233E-3,-3.5119408E-3,-9.905773E-3,1.9147776E-2,1.00954E-2,-1.5408453E-2,-5.460112E-3,1.5583906E-2,-1.4768508E-2,-2.8233465E-2,8.329671E-3,-3.695747E-3],"categories":[],"categories_nodes":[],"categories_segments":[],"categories_sizes":[],"default_left":[0,0,0,0,0,0,0,0,0,0,0,0,0,0,0,0,0,0,0,0,0,0,0,0,0,0,0,0,0,0,0,0,0,0,0,0,0,0,0,0,0,0,0,0,0,0,0,0,0,0,0,0,0,0,0],"id":20,"left_children":[1,3,-1,5,7,9,11,-1,13,15,17,-1,-1,19,21,-1,23,25,27,29,31,33,35,37,-1,-1,39,41,43,45,-1,47,49,-1,-1,51,53,-1,-1,-1,-1,-1,-1,-1,-1,-1,-1,-1,-1,-1,-1,-1,-1,-1,-1],"loss_changes":[3.9701915E0,2.861058E0,0E0,3.731525E0,4.4103594E0,1.4176097E0,9.1841125E-1,0E0,3.0411372E0,1.6607243E0,1.1881698E0,0E0,0E0,4.1313086E0,1.8368188E0,0E0,2.9840454E-1,1.0560578E0,3.9698178E-1,1.3027786E0,3.4248328E0,1.693216E-2,1.4237149E0,7.273394E-2,0E0,0E0,7.7495366E-1,9.468806E-2,2.2627316E-2,1.2838987E0,0E0,3.4666913E0,3.0646768E0,0E0,0E0,4.7766685E-2,1.285188E-1,0E0,0E0,0E0,0E0,0E0,0E0,0E0,0E0,0E0,0E0,0E0,0E0,0E0,0E0,0E0,0E0,0E0,0E0],"parents":[2147483647,0,0,1,1,3,3,4,4,5,5,6,6,8,8,9,9,10,10,13,13,14,14,16,16,17,17,18,18,19,19,20,20,21,21,22,22,23,23,26,26,27,27,28,28,29,29,31,31,32,32,35,35,36,36],"right_children":[2,4,-1,6,8,10,12,-1,14,16,18,-1,-1,20,22,-1,24,26,28,30,32,34,36,38,-1,-1,40,42,44,46,-1,48,50,-1,-1,52,54,-1,-1,-1,-1,-1,-1,-1,-1,-1,-1,-1,-1,-1,-1,-1,-1,-1,-1],"split_conditions":[4.4785E1,3.6555058E1,4.7764055E-2,2.4439003E1,3.4811535E1,-6.381013E0,3.4875336E1,4.570351E-2,2.9222008E1,2.7433702E1,5.8972E6,-5.4192774E-2,-1.471575E-2,3.6417297E1,-4.9729577E-1,-3.7096024E-2,-7.776541E7,3.27E1,3.91402E7,3.604285E1,-1.7198225E0,3.794E1,8.970773E-1,-8.3437704E7,-1.3908006E-2,-1.3920696E-2,3.3785385E1,3.239E1,3.299E1,1.7901576E-1,-2.9626314E-2,-2.524174E0,-5.385984E0,1.3592375E-2,4.449653E-3,1.8182382E-1,4.230287E1,-1.9701028E-3,6.4759706E-3,-6.161506E-3,9.225614E-3,-5.9164595E-3,-2.0928876E-2,1.5363233E-3,-3.5119408E-3,-9.905773E-3,1.9147776E-2,1.00954E-2,-1.5408453E-2,-5.460112E-3,1.5583906E-2,-1.4768508E-2,-2.8233465E-2,8.329671E-3,-3.695747E-3],"split_indices":[2,87,0,50,24,86,24,0,9,58,4,0,0,70,37,0,5,0,6,70,88,0,33,5,0,0,40,0,2,73,0,80,85,0,0,36,9,0,0,0,0,0,0,0,0,0,0,0,0,0,0,0,0,0,0],"split_type":[0,0,0,0,0,0,0,0,0,0,0,0,0,0,0,0,0,0,0,0,0,0,0,0,0,0,0,0,0,0,0,0,0,0,0,0,0,0,0,0,0,0,0,0,0,0,0,0,0,0,0,0,0,0,0],"sum_hessian":[2.21E2,2.19E2,2E0,6E1,1.59E2,5.5E1,5E0,3E0,1.56E2,1E1,4.5E1,2E0,3E0,1.36E2,2E1,3E0,7E0,3.5E1,1E1,2.1E1,1.15E2,4E0,1.6E1,5E0,2E0,4E0,3.1E1,6E0,4E0,1.7E1,4E0,3.3E1,8.2E1,2E0,2E0,1.2E1,4E0,3E0,2E0,6E0,2.5E1,2E0,4E0,2E0,2E0,1.5E1,2E0,1.6E1,1.7E1,1.3E1,6.9E1,5E0,7E0,2E0,2E0],"tree_param":{"num_deleted":"0","num_feature":"91","num_nodes":"55","size_leaf_vector":"1"}},{"base_weights":[-5.5165086E-3,3.9129462E-2,-2.3252612E-2,-6.257189E-2,3.5045162E-1,-2.147503E-1,3.5235394E-2,-1.5467657E-1,8.237206E-1,-1.292008E-1,-7.8356683E-1,2.5383604E-1,-8.696288E-2,-2.240962E-2,2.701825E-1,4.148211E-2,8.706051E-3,-4.3101843E-2,-8.536764E-2,-5.7061154E-2,-3.1365663E-1,4.9793047E-1,9.318061E-3,-2.7343506E-1,1.1130181E-1,2.0974077E-2,6.7021546E-4,3.0995932E-1,-1.22248195E-1,-2.1023033E-3,-1.6509067E-2,2.938001E-1,4.585933E-2,-2.8474316E-1,1.2985398E-1,-3.645879E-1,3.1905445E-1,1.9755924E-1,-2.0831529E-2,1.6269073E-3,1.7595151E-2,-7.25028E-3,5.2532214E-3,2.599047E-2,2.6733163E-3,-1.6670303E-2,8.9661434E-4,1.28977E-2,-8.6293025E-5,-3.6601674E-2,-1.0879558E-2,-2.0102176E-3,2.0875093E-2,4.9942685E-4,1.5901912E-2],"categories":[],"categories_nodes":[],"categories_segments":[],"categories_sizes":[],"default_left":[0,0,0,0,0,0,0,0,0,0,0,0,0,0,0,0,0,0,0,0,0,0,0,0,0,0,0,0,0,0,0,0,0,0,0,0,0,0,0,0,0,0,0,0,0,0,0,0,0,0,0,0,0,0,0],"id":21,"left_children":[1,-1,3,5,7,9,11,13,15,17,19,21,23,-1,25,-1,-1,-1,27,-1,29,31,33,35,37,-1,-1,39,41,-1,-1,43,-1,45,47,49,51,53,-1,-1,-1,-1,-1,-1,-1,-1,-1,-1,-1,-1,-1,-1,-1,-1,-1],"loss_changes":[3.8513472E0,0E0,3.2398663E0,2.9695141E0,5.1477017E0,3.6943963E0,3.2810137E0,2.0146937E0,1.1272707E0,2.7396162E0,2.5014968E0,2.621521E0,2.9511309E0,0E0,3.689576E-1,0E0,0E0,0E0,1.0147438E0,0E0,1.5154761E-1,2.5200343E0,8.522086E-1,2.3306148E0,2.2077947E0,0E0,0E0,1.8456072E-1,9.126397E-1,0E0,0E0,1.3859504E0,0E0,2.823699E-1,4.2442974E-1,1.6176958E0,4.6097928E-1,1.2617745E0,0E0,0E0,0E0,0E0,0E0,0E0,0E0,0E0,0E0,0E0,0E0,0E0,0E0,0E0,0E0,0E0,0E0],"parents":[2147483647,0,0,2,2,3,3,4,4,5,5,6,6,7,7,8,8,9,9,10,10,11,11,12,12,14,14,18,18,20,20,21,21,22,22,23,23,24,24,27,27,28,28,31,31,33,33,34,34,35,35,36,36,37,37],"right_children":[2,-1,4,6,8,10,12,14,16,18,20,22,24,-1,26,-1,-1,-1,28,-1,30,32,34,36,38,-1,-1,40,42,-1,-1,44,-1,46,48,50,52,54,-1,-1,-1,-1,-1,-1,-1,-1,-1,-1,-1,-1,-1,-1,-1,-1,-1],"split_conditions":[1.7682E6,3.9129462E-2,3.292387E1,3.7133427E1,8.2957447E-1,1.5754456E1,3.66E1,8.944096E0,8.226592E1,-3.3746198E-1,3.66175E1,6.861293E0,4.157846E1,-2.240962E-2,3.995E1,4.148211E-2,8.706051E-3,-4.3101843E-2,-8.8E1,-5.7061154E-2,3.8325333E1,9.0130764E-1,-9.782797E1,6.757087E1,2.7943703E1,2.0974077E-2,6.7021546E-4,-2.6060864E-1,3.652E1,-2.1023033E-3,-1.6509067E-2,3.639E1,4.585933E-2,-5.499345E7,1.1797394E1,-4.5443015E0,9.7074963E2,3.471483E0,-2.0831529E-2,1.6269073E-3,1.7595151E-2,-7.25028E-3,5.2532214E-3,2.599047E-2,2.6733163E-3,-1.6670303E-2,8.9661434E-4,1.28977E-2,-8.6293025E-5,-3.6601674E-2,-1.0879558E-2,-2.0102176E-3,2.0875093E-2,4.9942685E-4,1.5901912E-2],"split_indices":[4,0,58,87,44,50,66,80,77,7,52,51,40,0,1,0,0,0,65,0,23,43,60,70,9,0,0,7,3,0,0,0,0,5,18,85,14,35,0,0,0,0,0,0,0,0,0,0,0,0,0,0,0,0,0],"split_type":[0,0,0,0,0,0,0,0,0,0,0,0,0,0,0,0,0,0,0,0,0,0,0,0,0,0,0,0,0,0,0,0,0,0,0,0,0,0,0,0,0,0,0,0,0,0,0,0,0,0,0,0,0,0,0],"sum_hessian":[2.21E2,3E0,2.18E2,1.98E2,2E1,7.7E1,1.21E2,1E1,1E1,6.8E1,9E0,4.3E1,7.8E1,5E0,5E0,7E0,3E0,2E0,6.6E1,3E0,6E0,2.1E1,2.2E1,4E1,3.8E1,2E0,3E0,5E0,6.1E1,2E0,4E0,1.7E1,4E0,6E0,1.6E1,3.5E1,5E0,3.4E1,4E0,2E0,3E0,5E1,1.1E1,6E0,1.1E1,4E0,2E0,6E0,1E1,4E0,3.1E1,2E0,3E0,1.8E1,1.6E1],"tree_param":{"num_deleted":"0","num_feature":"91","num_nodes":"55","size_leaf_vector":"1"}},{"base_weights":[-1.3286277E-3,-7.8500175E-1,2.05475E-2,-1.3142355E-2,-4.6012368E-2,-2.1106234E-2,3.1136262E-1,-3.528378E-2,-7.344509E-3,-2.7126867E-1,5.28847E-1,-2.7766451E-2,3.001004E-2,-1.8026331E-2,5.7730585E-4,-1.2564192E-2,6.952245E-1,-5.5615522E-2,4.5958403E-1,4.2214906E-1,9.496658E-1,-3.5338927E-2,-2.9699612E-2,-1.0763201E-1,3.4627452E-2,7.361517E-3,2.0198693E-2,4.555845E-2,1.1366954E-2,-8.211639E-3,1.1518423E-3,6.384313E-4,-7.897922E-3],"categories":[],"categories_nodes":[],"categories_segments":[],"categories_sizes":[],"default_left":[0,0,0,0,0,0,0,0,0,0,0,0,0,0,0,0,0,0,0,0,0,0,0,0,0,0,0,0,0,0,0,0,0],"id":22,"left_children":[1,3,5,-1,-1,7,9,-1,11,13,15,17,-1,-1,-1,-1,19,21,23,25,27,29,-1,31,-1,-1,-1,-1,-1,-1,-1,-1,-1],"loss_changes":[3.787751E0,6.0277534E-1,2.6109817E0,0E0,0E0,2.206443E0,3.5647166E0,0E0,2.8806129E0,4.0421486E-1,3.0087128E0,2.5092833E0,0E0,0E0,0E0,0E0,7.802887E-1,2.3671267E0,2.338742E0,9.412825E-2,6.260333E-1,1.8233529E0,0E0,5.708888E-2,0E0,0E0,0E0,0E0,0E0,0E0,0E0,0E0,0E0],"parents":[2147483647,0,0,1,1,2,2,5,5,6,6,8,8,9,9,10,10,11,11,16,16,17,17,18,18,19,19,20,20,21,21,23,23],"right_children":[2,4,6,-1,-1,8,10,-1,12,14,16,18,-1,-1,-1,-1,20,22,24,26,28,30,-1,32,-1,-1,-1,-1,-1,-1,-1,-1,-1],"split_conditions":[-1.27321E7,-2.5919485E6,4.12425E1,-1.3142355E-2,-4.6012368E-2,3.5377E1,3.2504642E1,-3.528378E-2,2.4605258E-1,1.4417387E0,-2.4999964E0,8.1134E0,3.001004E-2,-1.8026331E-2,5.7730585E-4,-1.2564192E-2,3.7813145E1,7.9237E6,-8.0117625E-1,3.5146122E1,6.6746206E0,1.7752235E6,-2.9699612E-2,3.615E1,3.4627452E-2,7.361517E-3,2.0198693E-2,4.555845E-2,1.1366954E-2,-8.211639E-3,1.1518423E-3,6.384313E-4,-7.897922E-3],"split_indices":[6,8,62,0,0,55,75,0,7,34,88,86,0,0,0,0,75,4,36,75,25,11,0,1,0,0,0,0,0,0,0,0,0],"split_type":[0,0,0,0,0,0,0,0,0,0,0,0,0,0,0,0,0,0,0,0,0,0,0,0,0,0,0,0,0,0,0,0,0],"sum_hessian":[2.19E2,5E0,2.14E2,3E0,2E0,1.88E2,2.6E1,2E0,1.86E2,7E0,1.9E1,1.82E2,4E0,4E0,3E0,3E0,1.6E1,1.73E2,9E0,9E0,7E0,1.69E2,4E0,4E0,5E0,3E0,6E0,5E0,2E0,4.6E1,1.23E2,2E0,2E0],"tree_param":{"num_deleted":"0","num_feature":"91","num_nodes":"33","size_leaf_vector":"1"}},{"base_weights":[-6.5636076E-3,-2.5575303E-2,4.230862E-2,-4.6832496E-1,4.348115E-3,-2.2701678E-1,-5.1696315E-2,-2.3094316E-1,6.0012627E-2,-2.3706933E-2,2.5608363E-2,-3.405347E-1,2.4998975E-1,-1.1275807E-1,1.833127E-1,-1.1740632E-1,1.2266034E-2,-4.2362016E-2,-2.6120213E-1,-5.001026E-3,3.9510897E-1,-4.5897323E-1,4.7350903E-3,4.370374E-2,1.3419178E-1,-6.461244E-3,-8.8749704E-4,4.6746813E-2,-4.329114E-1,1.8976415E-2,6.6769603E-3,1.739148E-1,-7.8991014E-1,2.7119914E-2,-3.3745322E-2,-1.4365161E-2,3.8927126E-1,-6.830775E-3,9.097982E-3,9.1444363E-4,-2.0826017E-2,1.0572447E-2,-1.1986265E-3,-4.74046E-2,-1.4167011E-2,-6.4924597E-3,5.9206393E-3,-4.867253E-3,1.0797938E-2,-5.533429E-3,2.4489162E-2],"categories":[],"categories_nodes":[],"categories_segments":[],"categories_sizes":[],"default_left":[0,0,0,0,0,0,0,0,0,0,0,0,0,0,0,0,0,0,0,0,0,0,0,0,0,0,0,0,0,0,0,0,0,0,0,0,0,0,0,0,0,0,0,0,0,0,0,0,0,0,0],"id":23,"left_children":[1,3,-1,5,7,9,-1,11,13,-1,15,17,19,21,23,25,-1,-1,27,-1,29,31,33,-1,35,-1,-1,37,39,-1,-1,41,43,-1,45,47,49,-1,-1,-1,-1,-1,-1,-1,-1,-1,-1,-1,-1,-1,-1],"loss_changes":[4.5069633E0,2.9299731E0,0E0,2.4434745E0,2.7381134E0,1.1026951E0,0E0,2.1933773E0,3.620816E0,0E0,3.5307094E-1,1.5755403E0,4.8252252E-1,2.890305E0,4.2153893E0,2.0704582E-2,0E0,0E0,1.6594458E0,0E0,2.4542272E-2,3.9074051E0,1.4053094E0,0E0,3.605506E0,0E0,0E0,4.9852186E-1,7.560463E-1,0E0,0E0,1.3217041E-1,1.6034198E0,0E0,1.2095844E0,1.8486795E0,4.056987E0,0E0,0E0,0E0,0E0,0E0,0E0,0E0,0E0,0E0,0E0,0E0,0E0,0E0,0E0],"parents":[2147483647,0,0,1,1,3,3,4,4,5,5,7,7,8,8,10,10,11,11,12,12,13,13,14,14,15,15,18,18,20,20,21,21,22,22,24,24,27,27,28,28,31,31,32,32,34,34,35,35,36,36],"right_children":[2,4,-1,6,8,10,-1,12,14,-1,16,18,20,22,24,26,-1,-1,28,-1,30,32,34,-1,36,-1,-1,38,40,-1,-1,42,44,-1,46,48,50,-1,-1,-1,-1,-1,-1,-1,-1,-1,-1,-1,-1,-1,-1],"split_conditions":[4.3321667E1,7.3739166E0,4.230862E-2,2.844593E1,-6.1666436E0,2.521231E1,-5.1696315E-2,8.557598E-1,3.7254997E1,-2.3706933E-2,3.863E1,-6.2628303E0,3.3965076E1,1.6204977E1,3.689E1,5.3896E6,1.2266034E-2,-4.2362016E-2,2.0895113E1,-5.001026E-3,3.9E1,3.2780113E1,1.1688433E1,4.370374E-2,1.013858E3,-6.461244E-3,-8.8749704E-4,-8E0,-2.1599808E-1,1.8976415E-2,6.6769603E-3,3.6439514E1,3.66175E1,2.7119914E-2,3.7175121E0,6.068669E0,8.976644E-2,-6.830775E-3,9.097982E-3,9.1444363E-4,-2.0826017E-2,1.0572447E-2,-1.1986265E-3,-4.74046E-2,-1.4167011E-2,-6.4924597E-3,5.9206393E-3,-4.867253E-3,1.0797938E-2,-5.533429E-3,2.4489162E-2],"split_indices":[24,77,0,57,84,47,0,26,52,0,0,80,66,57,1,4,0,0,57,0,0,17,32,0,14,0,0,65,7,0,0,12,52,0,9,35,71,0,0,0,0,0,0,0,0,0,0,0,0,0,0],"split_type":[0,0,0,0,0,0,0,0,0,0,0,0,0,0,0,0,0,0,0,0,0,0,0,0,0,0,0,0,0,0,0,0,0,0,0,0,0,0,0,0,0,0,0,0,0,0,0,0,0,0,0],"sum_hessian":[2.23E2,2.2E2,3E0,1.3E1,2.07E2,1.1E1,2E0,3.9E1,1.68E2,4E0,7E0,3.2E1,7E0,7E1,9.8E1,5E0,2E0,2E0,3E1,2E0,5E0,1.7E1,5.3E1,4E0,9.4E1,3E0,2E0,1.1E1,1.9E1,3E0,2E0,6E0,1.1E1,2E0,5.1E1,6E1,3.4E1,5E0,6E0,3E0,1.6E1,4E0,2E0,5E0,6E0,3E1,2.1E1,4.4E1,1.6E1,1E1,2.4E1],"tree_param":{"num_deleted":"0","num_feature":"91","num_nodes":"51","size_leaf_vector":"1"}},{"base_weights":[3.4153385E-3,-3.1393182E-1,5.9594445E-2,-5.69895E-1,9.243665E-2,4.003505E-2,3.9208904E-2,-3.0581433E-1,-5.4785714E-2,-1.4061886E-1,4.266138E-1,6.227182E-1,2.4070451E-2,-2.4901262E-2,-1.2557381E-1,-1.4928163E-2,3.499475E-2,2.0674627E-2,6.9625764E-3,2.4659638E-3,3.9534707E-2,-1.6940457E-1,7.691243E-2,4.380853E-2,-1.2231877E-2,-1.3472635E-3,4.6287137E-3,-4.121913E-2,-9.790864E-2,-2.6282406E-1,1.1781985E-1,6.685895E-3,-3.7795726E-2,-1.5826505E-1,1.8400455E-2,-6.2168E-1,1.4657525E-2,3.1425333E-1,4.5727156E-2,-3.3163605E-3,7.6714036E-4,8.983214E-3,-9.26883E-3,-1.0070931E-2,-2.9179186E-2,-9.703785E-3,6.3924007E-3,3.545227E-2,3.4839888E-3,-3.3728622E-3,7.961347E-3],"categories":[],"categories_nodes":[],"categories_segments":[],"categories_sizes":[],"default_left":[0,0,0,0,0,0,0,0,0,0,0,0,0,0,0,0,0,0,0,0,0,0,0,0,0,0,0,0,0,0,0,0,0,0,0,0,0,0,0,0,0,0,0,0,0,0,0,0,0,0,0],"id":24,"left_children":[1,3,5,7,9,11,-1,13,-1,15,17,19,21,-1,23,-1,25,-1,-1,-1,-1,27,29,31,-1,-1,-1,-1,33,35,37,-1,39,41,-1,43,45,47,49,-1,-1,-1,-1,-1,-1,-1,-1,-1,-1,-1,-1],"loss_changes":[4.030072E0,3.5892022E0,3.3759356E0,3.9332356E0,1.1503356E0,1.7431462E0,0E0,8.711033E-1,0E0,3.736881E-1,4.081464E-2,9.3541515E-1,1.9043958E0,0E0,3.7236673E-1,0E0,3.633289E-2,0E0,0E0,0E0,0E0,2.3286963E0,2.0600364E0,7.559406E-2,0E0,0E0,0E0,0E0,1.3393636E0,1.602327E0,1.840776E0,0E0,1.40825845E-2,9.927423E-1,0E0,7.985878E-2,4.0250275E-1,4.4108844E0,1.9069614E0,0E0,0E0,0E0,0E0,0E0,0E0,0E0,0E0,0E0,0E0,0E0,0E0],"parents":[2147483647,0,0,1,1,2,2,3,3,4,4,5,5,7,7,9,9,10,10,11,11,12,12,14,14,16,16,21,21,22,22,23,23,28,28,29,29,30,30,32,32,33,33,35,35,36,36,37,37,38,38],"right_children":[2,4,6,8,10,12,-1,14,-1,16,18,20,22,-1,24,-1,26,-1,-1,-1,-1,28,30,32,-1,-1,-1,-1,34,36,38,-1,40,42,-1,44,46,48,50,-1,-1,-1,-1,-1,-1,-1,-1,-1,-1,-1,-1],"split_conditions":[3.585E1,3.8225E1,4.2303543E1,4.4924966E-1,3.5388634E-1,1.7682E6,3.9208904E-2,1.8510355E6,-5.4785714E-2,7.2507896E0,4.0866E6,-6.053489E7,-6.1666436E0,-2.4901262E-2,5.0642673E1,-1.4928163E-2,-1.0333508E8,2.0674627E-2,6.9625764E-3,2.4659638E-3,3.9534707E-2,-6.2628303E0,3.0257672E-2,-9.912102E7,-1.2231877E-2,-1.3472635E-3,4.6287137E-3,-4.121913E-2,8.383619E-1,-1.4043252E1,3.3212E6,6.685895E-3,3.383E1,1.1220597E1,1.8400455E-2,3.523548E1,-1.791143E-1,2.7491203E-1,6.068669E0,-3.3163605E-3,7.6714036E-4,8.983214E-3,-9.26883E-3,-1.0070931E-2,-2.9179186E-2,-9.703785E-3,6.3924007E-3,3.545227E-2,3.4839888E-3,-3.3728622E-3,7.961347E-3],"split_indices":[1,55,17,48,71,4,0,11,0,25,4,5,84,0,13,0,5,0,0,0,0,80,73,5,0,0,0,0,72,51,4,0,0,59,0,70,38,71,35,0,0,0,0,0,0,0,0,0,0,0,0],"split_type":[0,0,0,0,0,0,0,0,0,0,0,0,0,0,0,0,0,0,0,0,0,0,0,0,0,0,0,0,0,0,0,0,0,0,0,0,0,0,0,0,0,0,0,0,0,0,0,0,0,0,0],"sum_hessian":[2.24E2,3.3E1,1.91E2,2E1,1.3E1,1.88E2,3E0,1.6E1,4E0,8E0,5E0,4E0,1.84E2,5E0,1.1E1,3E0,5E0,3E0,2E0,2E0,2E0,3.9E1,1.45E2,6E0,5E0,3E0,2E0,2E0,3.7E1,1.5E1,1.3E2,2E0,4E0,3.4E1,3E0,6E0,9E0,3.4E1,9.6E1,2E0,2E0,5E0,2.9E1,2E0,4E0,3E0,6E0,9E0,2.5E1,5.2E1,4.4E1],"tree_param":{"num_deleted":"0","num_feature":"91","num_nodes":"51","size_leaf_vector":"1"}},{"base_weights":[-3.5728745E-3,-1.5990293E-1,1.0145159E-1,-3.7636802E-1,1.3008953E-2,-2.2903634E-2,2.9193607E-1,-4.2280752E-2,-5.54635E-1,-1.0231968E-1,4.4168758E-1,-2.5586486E-1,6.67799E-2,-3.0542346E-2,4.3221164E-1,-1.0634452E-2,9.4249375E-2,-1.0223354E0,-2.899717E-1,-4.4808835E-1,-4.184936E-2,5.9591293E-1,9.2328474E-4,-4.2451642E-2,-5.831241E-1,3.5021073E-1,-6.302881E-2,-5.5612326E-1,3.066948E-1,-8.989349E-2,6.032416E-1,-1.5295295E-2,1.6982837E-1,-6.146912E-2,-3.212621E-1,-2.157271E-2,-1.5546443E-1,-2.1426998E-2,-7.6974942E-3,1.6828856E-1,-1.4104159E-1,8.724914E-3,2.7791725E-2,2.0869988E-1,-4.5396224E-1,-7.108859E-1,-3.6679956E-3,4.3209606E-1,-9.329707E-3,-3.52047E-1,5.088238E-2,-2.9477263E-2,-3.3838563E-3,2.3676908E-2,6.404066E-2,-2.2619136E-1,1.2283449E-2,2.240937E-1,8.0142975E-1,4.3599674E-4,-1.4676233E-3,3.66215E-3,8.8624945E-3,-3.9144526E-3,-1.7753812E-2,7.957563E-2,-3.123114E-1,-3.0548923E-2,3.1467947E-1,-3.4506404E-1,-4.712441E-3,-7.625687E-2,5.0890803E-1,-7.956486E-3,-2.1589316E-2,-3.2636162E-2,-1.2732681E-2,2.8877312E-1,2.2550512E-2,-4.902253E-1,1.8965869E-3,-2.0784244E-1,1.8398194E-1,-1.4373484E-2,7.0165717E-3,-9.521088E-4,-1.3884072E-2,-1.54709015E-2,4.9927682E-1,3.4332606E-1,4.587416E-2,8.636897E-3,-1.6472271E-3,-1.4742679E-2,-4.2179488E-3,1.7198665E-3,-3.1442982E-3,1.5380776E-2,4.0793726E-3,1.965462E-3,-1.819228E-2,5.8971187E-3,-3.4939991E-3,-5.352136E-3,9.641964E-4,7.862209E-3,2.6462268E-2,1.5808763E-2,1.5501193E-3,-5.2161263E-3,-2.6280522E-2,-1.5151821E-2,7.1732574E-3,1.1006905E-2,-1.0442446E-2,1.416705E-3,-2.3861579E-3,2.3389183E-2,7.101443E-3,2.281929E-3,2.7838273E-2],"categories":[],"categories_nodes":[],"categories_segments":[],"categories_sizes":[],"default_left":[0,0,0,0,0,0,0,0,0,0,0,0,0,0,0,0,0,0,0,0,0,0,0,0,0,0,0,0,0,0,0,0,0,0,0,0,0,0,0,0,0,0,0,0,0,0,0,0,0,0,0,0,0,0,0,0,0,0,0,0,0,0,0,0,0,0,0,0,0,0,0,0,0,0,0,0,0,0,0,0,0,0,0,0,0,0,0,0,0,0,0,0,0,0,0,0,0,0,0,0,0,0,0,0,0,0,0,0,0,0,0,0,0,0,0,0,0,0,0,0,0],"id":25,"left_children":[1,3,5,7,9,11,13,15,17,19,21,23,25,27,29,-1,31,33,35,37,39,41,-1,43,45,47,49,51,53,55,57,59,61,-1,63,-1,65,-1,-1,67,69,-1,-1,71,73,75,-1,77,-1,79,81,-1,-1,-1,83,85,-1,87,89,-1,-1,-1,-1,-1,-1,91,93,95,97,99,101,103,105,-1,-1,-1,-1,107,-1,109,-1,111,113,115,-1,-1,-1,-1,117,119,-1,-1,-1,-1,-1,-1,-1,-1,-1,-1,-1,-1,-1,-1,-1,-1,-1,-1,-1,-1,-1,-1,-1,-1,-1,-1,-1,-1,-1,-1,-1],"loss_changes":[3.6775434E0,3.3735409E0,3.1808436E0,2.3588185E0,2.5665781E0,1.730295E0,2.4107003E0,4.7634763E-1,2.9219136E0,8.385062E-1,6.970129E-1,1.5815989E0,2.2295806E0,3.1837325E0,3.3581672E0,0E0,8.539033E-2,2.6454372E0,5.057119E-1,2.5215626E-2,7.7412146E-1,1.2831545E-1,0E0,1.6450146E0,5.018537E-1,1.003166E0,1.4006541E0,5.0891256E-1,7.055739E-1,6.0488683E-1,1.9243975E0,3.1241428E-3,3.5869926E-3,0E0,8.941722E-2,0E0,5.0410163E-1,0E0,0E0,3.589091E-1,6.9372916E-1,0E0,0E0,8.9427114E-1,1.7904878E-2,1.1363506E-2,0E0,1.4399123E-1,0E0,6.84428E-1,1.1057601E0,0E0,0E0,0E0,6.25106E-2,1.8144837E-1,0E0,2.0264215E0,2.349678E0,0E0,0E0,0E0,0E0,0E0,0E0,1.0528214E-1,4.8574924E-2,2.3966772E-2,5.9583962E-2,4.330958E-1,2.0905201E-1,3.6777634E-2,1.01052284E-1,0E0,0E0,0E0,0E0,2.4019313E-1,0E0,4.3395686E-1,0E0,7.7196574E-1,8.870932E-1,1.3073714E-2,0E0,0E0,0E0,0E0,1.0240114E-1,8.5105765E-1,0E0,0E0,0E0,0E0,0E0,0E0,0E0,0E0,0E0,0E0,0E0,0E0,0E0,0E0,0E0,0E0,0E0,0E0,0E0,0E0,0E0,0E0,0E0,0E0,0E0,0E0,0E0,0E0,0E0,0E0,0E0],"parents":[2147483647,0,0,1,1,2,2,3,3,4,4,5,5,6,6,7,7,8,8,9,9,10,10,11,11,12,12,13,13,14,14,16,16,17,17,18,18,19,19,20,20,21,21,23,23,24,24,25,25,26,26,27,27,28,28,29,29,30,30,31,31,32,32,34,34,36,36,39,39,40,40,43,43,44,44,45,45,47,47,49,49,50,50,54,54,55,55,57,57,58,58,65,65,66,66,67,67,68,68,69,69,70,70,71,71,72,72,77,77,79,79,81,81,82,82,83,83,88,88,89,89],"right_children":[2,4,6,8,10,12,14,16,18,20,22,24,26,28,30,-1,32,34,36,38,40,42,-1,44,46,48,50,52,54,56,58,60,62,-1,64,-1,66,-1,-1,68,70,-1,-1,72,74,76,-1,78,-1,80,82,-1,-1,-1,84,86,-1,88,90,-1,-1,-1,-1,-1,-1,92,94,96,98,100,102,104,106,-1,-1,-1,-1,108,-1,110,-1,112,114,116,-1,-1,-1,-1,118,120,-1,-1,-1,-1,-1,-1,-1,-1,-1,-1,-1,-1,-1,-1,-1,-1,-1,-1,-1,-1,-1,-1,-1,-1,-1,-1,-1,-1,-1,-1,-1],"split_conditions":[3.667E1,3.5388634E-1,1.013858E3,-8.721867E7,1.0979391E0,3.235087E1,3.66175E1,3.292E1,3.6604767E1,-2.0079908E-1,1.8603364E0,2.5566906E-1,1.9819295E-2,9.3911594E-1,5.280201E-2,-1.0634452E-2,4.60487E7,2.9512571E1,-1.0780531E1,3.624E1,4.9944082E-1,-1.3475002E0,9.2328474E-4,6.503024E0,4.629525E1,4.4345886E1,2.4517956E1,3.819E1,1.1513638E1,7.0546618E0,-2.440123E0,3.6304E1,4.8311E6,-6.146912E-2,3.259E1,-2.157271E-2,-4.1109276E0,-2.1426998E-2,-7.6974942E-3,-1.5181168E0,3.2757878E0,8.724914E-3,2.7791725E-2,3.982E1,3.7836E6,-1.7002118E7,-3.6679956E-3,4.04819E1,-9.329707E-3,6.998556E0,-2.990003E0,-2.9477263E-2,-3.3838563E-3,2.3676908E-2,