{"learner":{"attributes":{"scikit_learn":"{\"_estimator_type\": \"regressor\"}"},"feature_names":["Open","High","Low","Close","Volume","volume_adi","volume_obv","volume_cmf","volume_fi","volume_em","volume_sma_em","volume_vpt","volume_vwap","volume_mfi","volume_nvi","volatility_bbm","volatility_bbh","volatility_bbl","volatility_bbw","volatility_bbp","volatility_bbhi","volatility_bbli","volatility_kcc","volatility_kch","volatility_kcl","volatility_kcw","volatility_kcp","volatility_kchi","volatility_kcli","volatility_dcl","volatility_dch","volatility_dcm","volatility_dcw","volatility_dcp","volatility_atr","volatility_ui","trend_macd","trend_macd_signal","trend_macd_diff","trend_sma_fast","trend_sma_slow","trend_ema_fast","trend_ema_slow","trend_vortex_ind_pos","trend_vortex_ind_neg","trend_vortex_ind_diff","trend_trix","trend_mass_index","trend_dpo","trend_kst","trend_kst_sig","trend_kst_diff","trend_ichimoku_conv","trend_ichimoku_base","trend_ichimoku_a","trend_ichimoku_b","trend_stc","trend_adx","trend_adx_pos","trend_adx_neg","trend_cci","trend_visual_ichimoku_a","trend_visual_ichimoku_b","trend_aroon_up","trend_aroon_down","trend_aroon_ind","trend_psar_up","trend_psar_down","trend_psar_up_indicator","trend_psar_down_indicator","momentum_rsi","momentum_stoch_rsi","momentum_stoch_rsi_k","momentum_stoch_rsi_d","momentum_tsi","momentum_uo","momentum_stoch","momentum_stoch_signal","momentum_wr","momentum_ao","momentum_roc","momentum_ppo","momentum_ppo_signal","momentum_ppo_hist","momentum_pvo","momentum_pvo_signal","momentum_pvo_hist","momentum_kama","others_dr","others_dlr","others_cr"],"feature_types":["float","float","float","float","int","float","int","float","float","float","float","float","float","float","float","float","float","float","float","float","float","float","float","float","float","float","float","float","float","float","float","float","float","float","float","float","float","float","float","float","float","float","float","float","float","float","float","float","float","float","float","float","float","float","float","float","float","float","float","float","float","float","float","float","float","float","float","float","float","float","float","float","float","float","float","float","float","float","float","float","float","float","float","float","float","float","float","float","float","float","float"],"gradient_booster":{"model":{"gbtree_model_param":{"num_parallel_tree":"1","num_trees":"1100"},"iteration_indptr":[0,1,2,3,4,5,6,7,8,9,10,11,12,13,14,15,16,17,18,19,20,21,22,23,24,25,26,27,28,29,30,31,32,33,34,35,36,37,38,39,40,41,42,43,44,45,46,47,48,49,50,51,52,53,54,55,56,57,58,59,60,61,62,63,64,65,66,67,68,69,70,71,72,73,74,75,76,77,78,79,80,81,82,83,84,85,86,87,88,89,90,91,92,93,94,95,96,97,98,99,100,101,102,103,104,105,106,107,108,109,110,111,112,113,114,115,116,117,118,119,120,121,122,123,124,125,126,127,128,129,130,131,132,133,134,135,136,137,138,139,140,141,142,143,144,145,146,147,148,149,150,151,152,153,154,155,156,157,158,159,160,161,162,163,164,165,166,167,168,169,170,171,172,173,174,175,176,177,178,179,180,181,182,183,184,185,186,187,188,189,190,191,192,193,194,195,196,197,198,199,200,201,202,203,204,205,206,207,208,209,210,211,212,213,214,215,216,217,218,219,220,221,222,223,224,225,226,227,228,229,230,231,232,233,234,235,236,237,238,239,240,241,242,243,244,245,246,247,248,249,250,251,252,253,254,255,256,257,258,259,260,261,262,263,264,265,266,267,268,269,270,271,272,273,274,275,276,277,278,279,280,281,282,283,284,285,286,287,288,289,290,291,292,293,294,295,296,297,298,299,300,301,302,303,304,305,306,307,308,309,310,311,312,313,314,315,316,317,318,319,320,321,322,323,324,325,326,327,328,329,330,331,332,333,334,335,336,337,338,339,340,341,342,343,344,345,346,347,348,349,350,351,352,353,354,355,356,357,358,359,360,361,362,363,364,365,366,367,368,369,370,371,372,373,374,375,376,377,378,379,380,381,382,383,384,385,386,387,388,389,390,391,392,393,394,395,396,397,398,399,400,401,402,403,404,405,406,407,408,409,410,411,412,413,414,415,416,417,418,419,420,421,422,423,424,425,426,427,428,429,430,431,432,433,434,435,436,437,438,439,440,441,442,443,444,445,446,447,448,449,450,451,452,453,454,455,456,457,458,459,460,461,462,463,464,465,466,467,468,469,470,471,472,473,474,475,476,477,478,479,480,481,482,483,484,485,486,487,488,489,490,491,492,493,494,495,496,497,498,499,500,501,502,503,504,505,506,507,508,509,510,511,512,513,514,515,516,517,518,519,520,521,522,523,524,525,526,527,528,529,530,531,532,533,534,535,536,537,538,539,540,541,542,543,544,545,546,547,548,549,550,551,552,553,554,555,556,557,558,559,560,561,562,563,564,565,566,567,568,569,570,571,572,573,574,575,576,577,578,579,580,581,582,583,584,585,586,587,588,589,590,591,592,593,594,595,596,597,598,599,600,601,602,603,604,605,606,607,608,609,610,611,612,613,614,615,616,617,618,619,620,621,622,623,624,625,626,627,628,629,630,631,632,633,634,635,636,637,638,639,640,641,642,643,644,645,646,647,648,649,650,651,652,653,654,655,656,657,658,659,660,661,662,663,664,665,666,667,668,669,670,671,672,673,674,675,676,677,678,679,680,681,682,683,684,685,686,687,688,689,690,691,692,693,694,695,696,697,698,699,700,701,702,703,704,705,706,707,708,709,710,711,712,713,714,715,716,717,718,719,720,721,722,723,724,725,726,727,728,729,730,731,732,733,734,735,736,737,738,739,740,741,742,743,744,745,746,747,748,749,750,751,752,753,754,755,756,757,758,759,760,761,762,763,764,765,766,767,768,769,770,771,772,773,774,775,776,777,778,779,780,781,782,783,784,785,786,787,788,789,790,791,792,793,794,795,796,797,798,799,800,801,802,803,804,805,806,807,808,809,810,811,812,813,814,815,816,817,818,819,820,821,822,823,824,825,826,827,828,829,830,831,832,833,834,835,836,837,838,839,840,841,842,843,844,845,846,847,848,849,850,851,852,853,854,855,856,857,858,859,860,861,862,863,864,865,866,867,868,869,870,871,872,873,874,875,876,877,878,879,880,881,882,883,884,885,886,887,888,889,890,891,892,893,894,895,896,897,898,899,900,901,902,903,904,905,906,907,908,909,910,911,912,913,914,915,916,917,918,919,920,921,922,923,924,925,926,927,928,929,930,931,932,933,934,935,936,937,938,939,940,941,942,943,944,945,946,947,948,949,950,951,952,953,954,955,956,957,958,959,960,961,962,963,964,965,966,967,968,969,970,971,972,973,974,975,976,977,978,979,980,981,982,983,984,985,986,987,988,989,990,991,992,993,994,995,996,997,998,999,1000,1001,1002,1003,1004,1005,1006,1007,1008,1009,1010,1011,1012,1013,1014,1015,1016,1017,1018,1019,1020,1021,1022,1023,1024,1025,1026,1027,1028,1029,1030,1031,1032,1033,1034,1035,1036,1037,1038,1039,1040,1041,1042,1043,1044,1045,1046,1047,1048,1049,1050,1051,1052,1053,1054,1055,1056,1057,1058,1059,1060,1061,1062,1063,1064,1065,1066,1067,1068,1069,1070,1071,1072,1073,1074,1075,1076,1077,1078,1079,1080,1081,1082,1083,1084,1085,1086,1087,1088,1089,1090,1091,1092,1093,1094,1095,1096,1097,1098,1099,1100],"tree_info":[0,0,0,0,0,0,0,0,0,0,0,0,0,0,0,0,0,0,0,0,0,0,0,0,0,0,0,0,0,0,0,0,0,0,0,0,0,0,0,0,0,0,0,0,0,0,0,0,0,0,0,0,0,0,0,0,0,0,0,0,0,0,0,0,0,0,0,0,0,0,0,0,0,0,0,0,0,0,0,0,0,0,0,0,0,0,0,0,0,0,0,0,0,0,0,0,0,0,0,0,0,0,0,0,0,0,0,0,0,0,0,0,0,0,0,0,0,0,0,0,0,0,0,0,0,0,0,0,0,0,0,0,0,0,0,0,0,0,0,0,0,0,0,0,0,0,0,0,0,0,0,0,0,0,0,0,0,0,0,0,0,0,0,0,0,0,0,0,0,0,0,0,0,0,0,0,0,0,0,0,0,0,0,0,0,0,0,0,0,0,0,0,0,0,0,0,0,0,0,0,0,0,0,0,0,0,0,0,0,0,0,0,0,0,0,0,0,0,0,0,0,0,0,0,0,0,0,0,0,0,0,0,0,0,0,0,0,0,0,0,0,0,0,0,0,0,0,0,0,0,0,0,0,0,0,0,0,0,0,0,0,0,0,0,0,0,0,0,0,0,0,0,0,0,0,0,0,0,0,0,0,0,0,0,0,0,0,0,0,0,0,0,0,0,0,0,0,0,0,0,0,0,0,0,0,0,0,0,0,0,0,0,0,0,0,0,0,0,0,0,0,0,0,0,0,0,0,0,0,0,0,0,0,0,0,0,0,0,0,0,0,0,0,0,0,0,0,0,0,0,0,0,0,0,0,0,0,0,0,0,0,0,0,0,0,0,0,0,0,0,0,0,0,0,0,0,0,0,0,0,0,0,0,0,0,0,0,0,0,0,0,0,0,0,0,0,0,0,0,0,0,0,0,0,0,0,0,0,0,0,0,0,0,0,0,0,0,0,0,0,0,0,0,0,0,0,0,0,0,0,0,0,0,0,0,0,0,0,0,0,0,0,0,0,0,0,0,0,0,0,0,0,0,0,0,0,0,0,0,0,0,0,0,0,0,0,0,0,0,0,0,0,0,0,0,0,0,0,0,0,0,0,0,0,0,0,0,0,0,0,0,0,0,0,0,0,0,0,0,0,0,0,0,0,0,0,0,0,0,0,0,0,0,0,0,0,0,0,0,0,0,0,0,0,0,0,0,0,0,0,0,0,0,0,0,0,0,0,0,0,0,0,0,0,0,0,0,0,0,0,0,0,0,0,0,0,0,0,0,0,0,0,0,0,0,0,0,0,0,0,0,0,0,0,0,0,0,0,0,0,0,0,0,0,0,0,0,0,0,0,0,0,0,0,0,0,0,0,0,0,0,0,0,0,0,0,0,0,0,0,0,0,0,0,0,0,0,0,0,0,0,0,0,0,0,0,0,0,0,0,0,0,0,0,0,0,0,0,0,0,0,0,0,0,0,0,0,0,0,0,0,0,0,0,0,0,0,0,0,0,0,0,0,0,0,0,0,0,0,0,0,0,0,0,0,0,0,0,0,0,0,0,0,0,0,0,0,0,0,0,0,0,0,0,0,0,0,0,0,0,0,0,0,0,0,0,0,0,0,0,0,0,0,0,0,0,0,0,0,0,0,0,0,0,0,0,0,0,0,0,0,0,0,0,0,0,0,0,0,0,0,0,0,0,0,0,0,0,0,0,0,0,0,0,0,0,0,0,0,0,0,0,0,0,0,0,0,0,0,0,0,0,0,0,0,0,0,0,0,0,0,0,0,0,0,0,0,0,0,0,0,0,0,0,0,0,0,0,0,0,0,0,0,0,0,0,0,0,0,0,0,0,0,0,0,0,0,0,0,0,0,0,0,0,0,0,0,0,0,0,0,0,0,0,0,0,0,0,0,0,0,0,0,0,0,0,0,0,0,0,0,0,0,0,0,0,0,0,0,0,0,0,0,0,0,0,0,0,0,0,0,0,0,0,0,0,0,0,0,0,0,0,0,0,0,0,0,0,0,0,0,0,0,0,0,0,0,0,0,0,0,0,0,0,0,0,0,0,0,0,0,0,0,0,0,0,0,0,0,0,0,0,0,0,0,0,0,0,0,0,0,0,0,0,0,0,0,0,0,0,0,0,0,0,0,0,0,0,0,0,0,0,0,0,0,0,0,0,0,0,0,0,0,0,0,0,0,0,0,0,0,0,0,0,0,0,0,0,0,0,0,0,0,0,0,0,0,0,0,0,0,0,0,0,0,0,0,0,0,0,0,0,0,0,0,0,0,0,0,0,0,0,0,0,0,0,0,0,0,0,0,0,0,0,0,0,0,0,0,0,0,0,0,0,0,0,0,0,0,0,0,0,0,0,0,0,0,0,0,0,0,0,0,0,0,0,0,0,0,0,0,0,0,0,0,0,0,0,0,0,0,0,0,0,0,0,0,0,0,0,0,0,0,0,0,0,0,0,0,0,0,0,0,0,0,0,0,0,0,0],"trees":[{"base_weights":[-6.6161157E-9,-1.6004683E-1,5.702558E-2,-3.4930862E-2,-4.4730693E-2,4.7296796E-2,-3.8407836E-2,-7.3282155E-3,2.197102E0,-4.356524E-2,1.6350714E-2,1.7350877E-2,6.0031954E-3,1.032838E-4,-1.1817946E-2],"categories":[],"categories_nodes":[],"categories_segments":[],"categories_sizes":[],"default_left":[0,0,0,0,0,0,0,0,0,0,0,0,0,0,0],"id":0,"left_children":[1,3,-1,5,-1,7,-1,9,11,13,-1,-1,-1,-1,-1],"loss_changes":[3.9701306E2,2.3435158E2,0E0,1.3316336E2,0E0,2.8434917E1,0E0,2.4522537E1,2.4925423E0,2.8991047E1,0E0,0E0,0E0,0E0,0E0],"parents":[2147483647,0,0,1,1,3,3,5,5,7,7,8,8,9,9],"right_children":[2,4,-1,6,-1,8,-1,10,12,14,-1,-1,-1,-1,-1],"split_conditions":[3.955E1,6.295454E-1,5.702558E-2,5.0535263E1,-4.4730693E-2,5.0020683E1,-3.8407836E-2,4.3951954E1,2.875E1,4.345776E1,1.6350714E-2,1.7350877E-2,6.0031954E-3,1.032838E-4,-1.1817946E-2],"split_indices":[3,45,0,35,0,57,0,16,3,35,0,0,0,0,0],"split_type":[0,0,0,0,0,0,0,0,0,0,0,0,0,0,0],"sum_hessian":[2.49E2,2.46E2,3E0,2.43E2,3E0,2.41E2,2E0,2.36E2,5E0,2.34E2,2E0,2E0,3E0,2.28E2,6E0],"tree_param":{"num_deleted":"0","num_feature":"91","num_nodes":"15","size_leaf_vector":"1"}},{"base_weights":[7.5133444E-6,-1.593466E-1,5.6778803E-2,-3.4771997E-2,-4.4537112E-2,4.713955E-2,-3.8260087E-2,-7.2663683E-3,2.1883168E0,-4.336371E-2,1.6287819E-2,1.7284133E-2,5.9772157E-3,1.0269045E-4,-1.1759498E-2],"categories":[],"categories_nodes":[],"categories_segments":[],"categories_sizes":[],"default_left":[0,0,0,0,0,0,0,0,0,0,0,0,0,0,0],"id":1,"left_children":[1,3,-1,5,-1,7,-1,9,11,13,-1,-1,-1,-1,-1],"loss_changes":[3.9358368E2,2.3232806E2,0E0,1.321418E2,0E0,2.820714E1,0E0,2.4333658E1,2.4780102E0,2.8704584E1,0E0,0E0,0E0,0E0,0E0],"parents":[2147483647,0,0,1,1,3,3,5,5,7,7,8,8,9,9],"right_children":[2,4,-1,6,-1,8,-1,10,12,14,-1,-1,-1,-1,-1],"split_conditions":[3.955E1,6.295454E-1,5.6778803E-2,5.0535263E1,-4.4537112E-2,5.0020683E1,-3.8260087E-2,4.3951954E1,2.875E1,4.345776E1,1.6287819E-2,1.7284133E-2,5.9772157E-3,1.0269045E-4,-1.1759498E-2],"split_indices":[3,45,0,35,0,57,0,16,3,35,0,0,0,0,0],"split_type":[0,0,0,0,0,0,0,0,0,0,0,0,0,0,0],"sum_hessian":[2.49E2,2.46E2,3E0,2.43E2,3E0,2.41E2,2E0,2.36E2,5E0,2.34E2,2E0,2E0,3E0,2.28E2,6E0],"tree_param":{"num_deleted":"0","num_feature":"91","num_nodes":"15","size_leaf_vector":"1"}},{"base_weights":[1.4951408E-5,-1.5864946E-1,5.653309E-2,-3.4613866E-2,-4.4344373E-2,4.698279E-2,-3.8112912E-2,-7.204917E-3,2.1795669E0,-4.3163117E-2,1.6225163E-2,1.7217644E-2,5.951349E-3,1.021004E-4,-1.1701337E-2],"categories":[],"categories_nodes":[],"categories_segments":[],"categories_sizes":[],"default_left":[0,0,0,0,0,0,0,0,0,0,0,0,0,0,0],"id":2,"left_children":[1,3,-1,5,-1,7,-1,9,11,13,-1,-1,-1,-1,-1],"loss_changes":[3.901839E2,2.3032205E2,0E0,1.3112808E2,0E0,2.7981182E1,0E0,2.414624E1,2.46356E0,2.8420956E1,0E0,0E0,0E0,0E0,0E0],"parents":[2147483647,0,0,1,1,3,3,5,5,7,7,8,8,9,9],"right_children":[2,4,-1,6,-1,8,-1,10,12,14,-1,-1,-1,-1,-1],"split_conditions":[3.955E1,6.295454E-1,5.653309E-2,5.0535263E1,-4.4344373E-2,5.0020683E1,-3.8112912E-2,4.3951954E1,2.875E1,4.345776E1,1.6225163E-2,1.7217644E-2,5.951349E-3,1.021004E-4,-1.1701337E-2],"split_indices":[3,45,0,35,0,57,0,16,3,35,0,0,0,0,0],"split_type":[0,0,0,0,0,0,0,0,0,0,0,0,0,0,0],"sum_hessian":[2.49E2,2.46E2,3E0,2.43E2,3E0,2.41E2,2E0,2.36E2,5E0,2.34E2,2E0,2E0,3E0,2.28E2,6E0],"tree_param":{"num_deleted":"0","num_feature":"91","num_nodes":"15","size_leaf_vector":"1"}},{"base_weights":[2.2354126E-5,-1.5795532E-1,5.6288436E-2,-3.4456417E-2,-4.4152472E-2,4.682656E-2,-3.79663E-2,-7.143813E-3,2.170852E0,-4.2963408E-2,1.6162748E-2,1.7151412E-2,5.925594E-3,1.0151391E-4,-1.1643464E-2],"categories":[],"categories_nodes":[],"categories_segments":[],"categories_sizes":[],"default_left":[0,0,0,0,0,0,0,0,0,0,0,0,0,0,0],"id":3,"left_children":[1,3,-1,5,-1,7,-1,9,11,13,-1,-1,-1,-1,-1],"loss_changes":[3.8681354E2,2.2833334E2,0E0,1.3012216E2,0E0,2.7757042E1,0E0,2.3960257E1,2.4491806E0,2.814013E1,0E0,0E0,0E0,0E0,0E0],"parents":[2147483647,0,0,1,1,3,3,5,5,7,7,8,8,9,9],"right_children":[2,4,-1,6,-1,8,-1,10,12,14,-1,-1,-1,-1,-1],"split_conditions":[3.955E1,6.295454E-1,5.6288436E-2,5.0535263E1,-4.4152472E-2,5.0020683E1,-3.79663E-2,4.3951954E1,2.875E1,4.345776E1,1.6162748E-2,1.7151412E-2,5.925594E-3,1.0151391E-4,-1.1643464E-2],"split_indices":[3,45,0,35,0,57,0,16,3,35,0,0,0,0,0],"split_type":[0,0,0,0,0,0,0,0,0,0,0,0,0,0,0],"sum_hessian":[2.49E2,2.46E2,3E0,2.43E2,3E0,2.41E2,2E0,2.36E2,5E0,2.34E2,2E0,2E0,3E0,2.28E2,6E0],"tree_param":{"num_deleted":"0","num_feature":"91","num_nodes":"15","size_leaf_vector":"1"}},{"base_weights":[2.9687822E-5,-1.5726423E-1,5.6044843E-2,-3.4299694E-2,-4.39614E-2,4.667081E-2,-3.7820257E-2,-7.083104E-3,2.1621718E0,-4.2764626E-2,1.6100574E-2,1.7085435E-2,5.8999504E-3,1.00930665E-4,-1.1585878E-2],"categories":[],"categories_nodes":[],"categories_segments":[],"categories_sizes":[],"default_left":[0,0,0,0,0,0,0,0,0,0,0,0,0,0,0],"id":4,"left_children":[1,3,-1,5,-1,7,-1,9,11,13,-1,-1,-1,-1,-1],"loss_changes":[3.8347226E2,2.2636182E2,0E0,1.2912395E2,0E0,2.7534702E1,0E0,2.3775715E1,2.4348736E0,2.7862078E1,0E0,0E0,0E0,0E0,0E0],"parents":[2147483647,0,0,1,1,3,3,5,5,7,7,8,8,9,9],"right_children":[2,4,-1,6,-1,8,-1,10,12,14,-1,-1,-1,-1,-1],"split_conditions":[3.955E1,6.295454E-1,5.6044843E-2,5.0535263E1,-4.39614E-2,5.0020683E1,-3.7820257E-2,4.3951954E1,2.875E1,4.345776E1,1.6100574E-2,1.7085435E-2,5.8999504E-3,1.00930665E-4,-1.1585878E-2],"split_indices":[3,45,0,35,0,57,0,16,3,35,0,0,0,0,0],"split_type":[0,0,0,0,0,0,0,0,0,0,0,0,0,0,0],"sum_hessian":[2.49E2,2.46E2,3E0,2.43E2,3E0,2.41E2,2E0,2.36E2,5E0,2.34E2,2E0,2E0,3E0,2.28E2,6E0],"tree_param":{"num_deleted":"0","num_feature":"91","num_nodes":"15","size_leaf_vector":"1"}},{"base_weights":[3.6986054E-5,-1.5657614E-1,5.5802304E-2,-3.4143653E-2,-4.3771148E-2,4.6515573E-2,-3.767477E-2,-7.0227515E-3,2.1535268E0,-4.256673E-2,1.603864E-2,1.701971E-2,5.8744173E-3,1.00350866E-4,-1.1528576E-2],"categories":[],"categories_nodes":[],"categories_segments":[],"categories_sizes":[],"default_left":[0,0,0,0,0,0,0,0,0,0,0,0,0,0,0],"id":5,"left_children":[1,3,-1,5,-1,7,-1,9,11,13,-1,-1,-1,-1,-1],"loss_changes":[3.8015982E2,2.2440727E2,0E0,1.2813339E2,0E0,2.731414E1,0E0,2.3592588E1,2.4206429E0,2.7586773E1,0E0,0E0,0E0,0E0,0E0],"parents":[2147483647,0,0,1,1,3,3,5,5,7,7,8,8,9,9],"right_children":[2,4,-1,6,-1,8,-1,10,12,14,-1,-1,-1,-1,-1],"split_conditions":[3.955E1,6.295454E-1,5.5802304E-2,5.0535263E1,-4.3771148E-2,5.0020683E1,-3.767477E-2,4.3951954E1,2.875E1,4.345776E1,1.603864E-2,1.701971E-2,5.8744173E-3,1.00350866E-4,-1.1528576E-2],"split_indices":[3,45,0,35,0,57,0,16,3,35,0,0,0,0,0],"split_type":[0,0,0,0,0,0,0,0,0,0,0,0,0,0,0],"sum_hessian":[2.49E2,2.46E2,3E0,2.43E2,3E0,2.41E2,2E0,2.36E2,5E0,2.34E2,2E0,2E0,3E0,2.28E2,6E0],"tree_param":{"num_deleted":"0","num_feature":"91","num_nodes":"15","size_leaf_vector":"1"}},{"base_weights":[4.4220687E-5,-1.5589106E-1,5.5560812E-2,-3.3988312E-2,-4.3581728E-2,4.6360835E-2,-3.752984E-2,-6.962769E-3,2.1449163E0,-4.2369742E-2,1.5976945E-2,1.6954241E-2,5.848995E-3,9.9774385E-5,-1.1471557E-2],"categories":[],"categories_nodes":[],"categories_segments":[],"categories_sizes":[],"default_left":[0,0,0,0,0,0,0,0,0,0,0,0,0,0,0],"id":6,"left_children":[1,3,-1,5,-1,7,-1,9,11,13,-1,-1,-1,-1,-1],"loss_changes":[3.76876E2,2.2246968E2,0E0,1.2715043E2,0E0,2.7095348E1,0E0,2.3410875E1,2.4064903E0,2.7314186E1,0E0,0E0,0E0,0E0,0E0],"parents":[2147483647,0,0,1,1,3,3,5,5,7,7,8,8,9,9],"right_children":[2,4,-1,6,-1,8,-1,10,12,14,-1,-1,-1,-1,-1],"split_conditions":[3.955E1,6.295454E-1,5.5560812E-2,5.0535263E1,-4.3581728E-2,5.0020683E1,-3.752984E-2,4.3951954E1,2.875E1,4.345776E1,1.5976945E-2,1.6954241E-2,5.848995E-3,9.9774385E-5,-1.1471557E-2],"split_indices":[3,45,0,35,0,57,0,16,3,35,0,0,0,0,0],"split_type":[0,0,0,0,0,0,0,0,0,0,0,0,0,0,0],"sum_hessian":[2.49E2,2.46E2,3E0,2.43E2,3E0,2.41E2,2E0,2.36E2,5E0,2.34E2,2E0,2E0,3E0,2.28E2,6E0],"tree_param":{"num_deleted":"0","num_feature":"91","num_nodes":"15","size_leaf_vector":"1"}},{"base_weights":[5.138713E-5,-1.5520898E-1,5.5320367E-2,-3.383369E-2,-4.339312E-2,4.6206575E-2,-3.7385475E-2,-6.9031734E-3,2.1363404E0,-4.2173665E-2,1.5915485E-2,1.6889023E-2,5.8236835E-3,9.9201134E-5,-1.1414821E-2],"categories":[],"categories_nodes":[],"categories_segments":[],"categories_sizes":[],"default_left":[0,0,0,0,0,0,0,0,0,0,0,0,0,0,0],"id":7,"left_children":[1,3,-1,5,-1,7,-1,9,11,13,-1,-1,-1,-1,-1],"loss_changes":[3.7362054E2,2.2054874E2,0E0,1.2617501E2,0E0,2.6878315E1,0E0,2.3230562E1,2.3924046E0,2.70443E1,0E0,0E0,0E0,0E0,0E0],"parents":[2147483647,0,0,1,1,3,3,5,5,7,7,8,8,9,9],"right_children":[2,4,-1,6,-1,8,-1,10,12,14,-1,-1,-1,-1,-1],"split_conditions":[3.955E1,6.295454E-1,5.5320367E-2,5.0535263E1,-4.339312E-2,5.0020683E1,-3.7385475E-2,4.3951954E1,2.875E1,4.345776E1,1.5915485E-2,1.6889023E-2,5.8236835E-3,9.9201134E-5,-1.1414821E-2],"split_indices":[3,45,0,35,0,57,0,16,3,35,0,0,0,0,0],"split_type":[0,0,0,0,0,0,0,0,0,0,0,0,0,0,0],"sum_hessian":[2.49E2,2.46E2,3E0,2.43E2,3E0,2.41E2,2E0,2.36E2,5E0,2.34E2,2E0,2E0,3E0,2.28E2,6E0],"tree_param":{"num_deleted":"0","num_feature":"91","num_nodes":"15","size_leaf_vector":"1"}},{"base_weights":[5.8497488E-5,-1.5452987E-1,5.508096E-2,-3.367975E-2,-4.3205332E-2,4.6052817E-2,-3.7241664E-2,-6.843934E-3,2.127799E0,-4.197847E-2,1.5854262E-2,1.6824055E-2,5.798481E-3,-1.7412549E-2,-2.0104564E-5],"categories":[],"categories_nodes":[],"categories_segments":[],"categories_sizes":[],"default_left":[0,0,0,0,0,0,0,0,0,0,0,0,0,0,0],"id":8,"left_children":[1,3,-1,5,-1,7,-1,9,11,13,-1,-1,-1,-1,-1],"loss_changes":[3.703932E2,2.1864442E2,0E0,1.25207085E2,0E0,2.6663023E1,0E0,2.3051638E1,2.3783932E0,2.6908318E1,0E0,0E0,0E0,0E0,0E0],"parents":[2147483647,0,0,1,1,3,3,5,5,7,7,8,8,9,9],"right_children":[2,4,-1,6,-1,8,-1,10,12,14,-1,-1,-1,-1,-1],"split_conditions":[3.955E1,6.295454E-1,5.508096E-2,5.0535263E1,-4.3205332E-2,5.0020683E1,-3.7241664E-2,4.3951954E1,2.875E1,-1.2539205E8,1.5854262E-2,1.6824055E-2,5.798481E-3,-1.7412549E-2,-2.0104564E-5],"split_indices":[3,45,0,35,0,57,0,16,3,8,0,0,0,0,0],"split_type":[0,0,0,0,0,0,0,0,0,0,0,0,0,0,0],"sum_hessian":[2.49E2,2.46E2,3E0,2.43E2,3E0,2.41E2,2E0,2.36E2,5E0,2.34E2,2E0,2E0,3E0,2E0,2.32E2],"tree_param":{"num_deleted":"0","num_feature":"91","num_nodes":"15","size_leaf_vector":"1"}},{"base_weights":[4.0884912E-5,-1.538787E-1,5.4842595E-2,-3.355179E-2,-4.301836E-2,4.5874048E-2,-3.7098404E-2,-6.8110973E-3,2.1192918E0,-4.1810423E-2,1.5793273E-2,1.6759336E-2,5.7733874E-3,-1.7345566E-2,-1.998902E-5],"categories":[],"categories_nodes":[],"categories_segments":[],"categories_sizes":[],"default_left":[0,0,0,0,0,0,0,0,0,0,0,0,0,0,0],"id":9,"left_children":[1,3,-1,5,-1,7,-1,9,11,13,-1,-1,-1,-1,-1],"loss_changes":[3.6719568E2,2.1675507E2,0E0,1.2424559E2,0E0,2.6450104E1,0E0,2.2874523E1,2.3644543E0,2.6701817E1,0E0,0E0,0E0,0E0,0E0],"parents":[2147483647,0,0,1,1,3,3,5,5,7,7,8,8,9,9],"right_children":[2,4,-1,6,-1,8,-1,10,12,14,-1,-1,-1,-1,-1],"split_conditions":[3.955E1,6.295454E-1,5.4842595E-2,5.0535263E1,-4.301836E-2,5.0020683E1,-3.7098404E-2,4.3951954E1,2.875E1,-1.2539205E8,1.5793273E-2,1.6759336E-2,5.7733874E-3,-1.7345566E-2,-1.998902E-5],"split_indices":[3,45,0,35,0,57,0,16,3,8,0,0,0,0,0],"split_type":[0,0,0,0,0,0,0,0,0,0,0,0,0,0,0],"sum_hessian":[2.49E2,2.46E2,3E0,2.43E2,3E0,2.41E2,2E0,2.36E2,5E0,2.34E2,2E0,2E0,3E0,2E0,2.32E2],"tree_param":{"num_deleted":"0","num_feature":"91","num_nodes":"15","size_leaf_vector":"1"}},{"base_weights":[2.339524E-5,-1.532303E-1,5.4605257E-2,-3.342433E-2,-4.2832192E-2,4.5695968E-2,-3.6955696E-2,-6.7784265E-3,2.1108186E0,-4.1643064E-2,1.5732521E-2,1.6694866E-2,5.7484023E-3,9.8861616E-5,-1.1300931E-2],"categories":[],"categories_nodes":[],"categories_segments":[],"categories_sizes":[],"default_left":[0,0,0,0,0,0,0,0,0,0,0,0,0,0,0],"id":10,"left_children":[1,3,-1,5,-1,7,-1,9,11,13,-1,-1,-1,-1,-1],"loss_changes":[3.6402573E2,2.1488205E2,0E0,1.2329149E2,0E0,2.6238894E1,0E0,2.2698767E1,2.3505898E0,2.6510359E1,0E0,0E0,0E0,0E0,0E0],"parents":[2147483647,0,0,1,1,3,3,5,5,7,7,8,8,9,9],"right_children":[2,4,-1,6,-1,8,-1,10,12,14,-1,-1,-1,-1,-1],"split_conditions":[3.955E1,6.295454E-1,5.4605257E-2,5.0535263E1,-4.2832192E-2,5.0020683E1,-3.6955696E-2,4.3951954E1,2.875E1,4.345776E1,1.5732521E-2,1.6694866E-2,5.7484023E-3,9.8861616E-5,-1.1300931E-2],"split_indices":[3,45,0,35,0,57,0,16,3,35,0,0,0,0,0],"split_type":[0,0,0,0,0,0,0,0,0,0,0,0,0,0,0],"sum_hessian":[2.49E2,2.46E2,3E0,2.43E2,3E0,2.41E2,2E0,2.36E2,5E0,2.34E2,2E0,2E0,3E0,2.28E2,6E0],"tree_param":{"num_deleted":"0","num_feature":"91","num_nodes":"15","size_leaf_vector":"1"}},{"base_weights":[3.0435562E-5,-1.5255995E-1,5.436895E-2,-3.3272367E-2,-4.264683E-2,4.5543768E-2,-3.6813535E-2,-6.7201895E-3,2.1023793E0,-4.1450437E-2,1.5672E-2,1.6630646E-2,5.723526E-3,-1.723537E-2,-1.9312847E-5],"categories":[],"categories_nodes":[],"categories_segments":[],"categories_sizes":[],"default_left":[0,0,0,0,0,0,0,0,0,0,0,0,0,0,0],"id":11,"left_children":[1,3,-1,5,-1,7,-1,9,11,13,-1,-1,-1,-1,-1],"loss_changes":[3.6088126E2,2.1302663E2,0E0,1.2234567E2,0E0,2.6028736E1,0E0,2.252394E1,2.336792E0,2.6365313E1,0E0,0E0,0E0,0E0,0E0],"parents":[2147483647,0,0,1,1,3,3,5,5,7,7,8,8,9,9],"right_children":[2,4,-1,6,-1,8,-1,10,12,14,-1,-1,-1,-1,-1],"split_conditions":[3.955E1,6.295454E-1,5.436895E-2,5.0535263E1,-4.264683E-2,5.0020683E1,-3.6813535E-2,4.3951954E1,2.875E1,-1.2539205E8,1.5672E-2,1.6630646E-2,5.723526E-3,-1.723537E-2,-1.9312847E-5],"split_indices":[3,45,0,35,0,57,0,16,3,8,0,0,0,0,0],"split_type":[0,0,0,0,0,0,0,0,0,0,0,0,0,0,0],"sum_hessian":[2.49E2,2.46E2,3E0,2.43E2,3E0,2.41E2,2E0,2.36E2,5E0,2.34E2,2E0,2E0,3E0,2E0,2.32E2],"tree_param":{"num_deleted":"0","num_feature":"91","num_nodes":"15","size_leaf_vector":"1"}},{"base_weights":[1.2981892E-5,-1.5191726E-1,5.413366E-2,-3.3146124E-2,-4.246227E-2,4.5366805E-2,-3.6671925E-2,-6.6880905E-3,2.093974E0,-4.1284688E-2,1.5611716E-2,1.6566671E-2,5.6987563E-3,-1.7169071E-2,-1.9201892E-5],"categories":[],"categories_nodes":[],"categories_segments":[],"categories_sizes":[],"default_left":[0,0,0,0,0,0,0,0,0,0,0,0,0,0,0],"id":12,"left_children":[1,3,-1,5,-1,7,-1,9,11,13,-1,-1,-1,-1,-1],"loss_changes":[3.5776584E2,2.111858E2,0E0,1.2140614E2,0E0,2.5820894E1,0E0,2.2350883E1,2.3230705E0,2.6162975E1,0E0,0E0,0E0,0E0,0E0],"parents":[2147483647,0,0,1,1,3,3,5,5,7,7,8,8,9,9],"right_children":[2,4,-1,6,-1,8,-1,10,12,14,-1,-1,-1,-1,-1],"split_conditions":[3.955E1,6.295454E-1,5.413366E-2,5.0535263E1,-4.246227E-2,5.0020683E1,-3.6671925E-2,4.3951954E1,2.875E1,-1.2539205E8,1.5611716E-2,1.6566671E-2,5.6987563E-3,-1.7169071E-2,-1.9201892E-5],"split_indices":[3,45,0,35,0,57,0,16,3,8,0,0,0,0,0],"split_type":[0,0,0,0,0,0,0,0,0,0,0,0,0,0,0],"sum_hessian":[2.49E2,2.46E2,3E0,2.43E2,3E0,2.41E2,2E0,2.36E2,5E0,2.34E2,2E0,2E0,3E0,2E0,2.32E2],"tree_param":{"num_deleted":"0","num_feature":"91","num_nodes":"15","size_leaf_vector":"1"}},{"base_weights":[-4.3640734E-6,-1.5127732E-1,5.3899396E-2,-3.302039E-2,-4.2278513E-2,4.519051E-2,-3.6530856E-2,-6.6561676E-3,2.0856025E0,-4.1119628E-2,1.5551661E-2,1.6502945E-2,5.6740944E-3,9.851488E-5,-1.1188191E-2],"categories":[],"categories_nodes":[],"categories_segments":[],"categories_sizes":[],"default_left":[0,0,0,0,0,0,0,0,0,0,0,0,0,0,0],"id":13,"left_children":[1,3,-1,5,-1,7,-1,9,11,13,-1,-1,-1,-1,-1],"loss_changes":[3.546773E2,2.0936089E2,0E0,1.2047384E2,0E0,2.561472E1,0E0,2.2179155E1,2.3094215E0,2.5987017E1,0E0,0E0,0E0,0E0,0E0],"parents":[2147483647,0,0,1,1,3,3,5,5,7,7,8,8,9,9],"right_children":[2,4,-1,6,-1,8,-1,10,12,14,-1,-1,-1,-1,-1],"split_conditions":[3.955E1,6.295454E-1,5.3899396E-2,5.0535263E1,-4.2278513E-2,5.0020683E1,-3.6530856E-2,4.3951954E1,2.875E1,4.345776E1,1.5551661E-2,1.6502945E-2,5.6740944E-3,9.851488E-5,-1.1188191E-2],"split_indices":[3,45,0,35,0,57,0,16,3,35,0,0,0,0,0],"split_type":[0,0,0,0,0,0,0,0,0,0,0,0,0,0,0],"sum_hessian":[2.49E2,2.46E2,3E0,2.43E2,3E0,2.41E2,2E0,2.36E2,5E0,2.34E2,2E0,2E0,3E0,2.28E2,6E0],"tree_param":{"num_deleted":"0","num_feature":"91","num_nodes":"15","size_leaf_vector":"1"}},{"base_weights":[2.5794507E-6,-1.5061565E-1,5.366614E-2,-3.28704E-2,-4.209555E-2,4.503983E-2,-3.639033E-2,-6.598939E-3,2.0772645E0,-4.0929556E-2,1.5491837E-2,1.643946E-2,5.649539E-3,-1.7059987E-2,-1.853965E-5],"categories":[],"categories_nodes":[],"categories_segments":[],"categories_sizes":[],"default_left":[0,0,0,0,0,0,0,0,0,0,0,0,0,0,0],"id":14,"left_children":[1,3,-1,5,-1,7,-1,9,11,13,-1,-1,-1,-1,-1],"loss_changes":[3.5161365E2,2.0755315E2,0E0,1.1954962E2,0E0,2.540957E1,0E0,2.2008333E1,2.2958393E0,2.5833223E1,0E0,0E0,0E0,0E0,0E0],"parents":[2147483647,0,0,1,1,3,3,5,5,7,7,8,8,9,9],"right_children":[2,4,-1,6,-1,8,-1,10,12,14,-1,-1,-1,-1,-1],"split_conditions":[3.955E1,6.295454E-1,5.366614E-2,5.0535263E1,-4.209555E-2,5.0020683E1,-3.639033E-2,4.3951954E1,2.875E1,-1.2539205E8,1.5491837E-2,1.643946E-2,5.649539E-3,-1.7059987E-2,-1.853965E-5],"split_indices":[3,45,0,35,0,57,0,16,3,8,0,0,0,0,0],"split_type":[0,0,0,0,0,0,0,0,0,0,0,0,0,0,0],"sum_hessian":[2.49E2,2.46E2,3E0,2.43E2,3E0,2.41E2,2E0,2.36E2,5E0,2.34E2,2E0,2E0,3E0,2E0,2.32E2],"tree_param":{"num_deleted":"0","num_feature":"91","num_nodes":"15","size_leaf_vector":"1"}},{"base_weights":[-1.4684499E-5,-1.4998132E-1,5.3433895E-2,-3.2745834E-2,-4.1913375E-2,4.4864673E-2,-3.6250345E-2,-6.567545E-3,2.06896E0,-4.076605E-2,1.5432244E-2,1.6376222E-2,5.62509E-3,-1.699436E-2,-1.8433071E-5],"categories":[],"categories_nodes":[],"categories_segments":[],"categories_sizes":[],"default_left":[0,0,0,0,0,0,0,0,0,0,0,0,0,0,0],"id":15,"left_children":[1,3,-1,5,-1,7,-1,9,11,13,-1,-1,-1,-1,-1],"loss_changes":[3.4857825E2,2.057596E2,0E0,1.1863155E2,0E0,2.5206688E1,0E0,2.183924E1,2.2823296E0,2.5634966E1,0E0,0E0,0E0,0E0,0E0],"parents":[2147483647,0,0,1,1,3,3,5,5,7,7,8,8,9,9],"right_children":[2,4,-1,6,-1,8,-1,10,12,14,-1,-1,-1,-1,-1],"split_conditions":[3.955E1,6.295454E-1,5.3433895E-2,5.0535263E1,-4.1913375E-2,5.0020683E1,-3.6250345E-2,4.3951954E1,2.875E1,-1.2539205E8,1.5432244E-2,1.6376222E-2,5.62509E-3,-1.699436E-2,-1.8433071E-5],"split_indices":[3,45,0,35,0,57,0,16,3,8,0,0,0,0,0],"split_type":[0,0,0,0,0,0,0,0,0,0,0,0,0,0,0],"sum_hessian":[2.49E2,2.46E2,3E0,2.43E2,3E0,2.41E2,2E0,2.36E2,5E0,2.34E2,2E0,2E0,3E0,2E0,2.32E2],"tree_param":{"num_deleted":"0","num_feature":"91","num_nodes":"15","size_leaf_vector":"1"}},{"base_weights":[-3.185886E-5,-1.493497E-1,5.3202648E-2,-3.2621775E-2,-4.1731995E-2,4.4690173E-2,-3.61109E-2,-6.5363287E-3,2.0606885E0,-4.060323E-2,1.537288E-2,1.6313227E-2,5.600747E-3,9.816131E-5,-1.1076593E-2],"categories":[],"categories_nodes":[],"categories_segments":[],"categories_sizes":[],"default_left":[0,0,0,0,0,0,0,0,0,0,0,0,0,0,0],"id":16,"left_children":[1,3,-1,5,-1,7,-1,9,11,13,-1,-1,-1,-1,-1],"loss_changes":[3.4556903E2,2.0398158E2,0E0,1.1772055E2,0E0,2.5005424E1,0E0,2.1671446E1,2.2688942E0,2.547405E1,0E0,0E0,0E0,0E0,0E0],"parents":[2147483647,0,0,1,1,3,3,5,5,7,7,8,8,9,9],"right_children":[2,4,-1,6,-1,8,-1,10,12,14,-1,-1,-1,-1,-1],"split_conditions":[3.955E1,6.295454E-1,5.3202648E-2,5.0535263E1,-4.1731995E-2,5.0020683E1,-3.61109E-2,4.3951954E1,2.875E1,4.345776E1,1.537288E-2,1.6313227E-2,5.600747E-3,9.816131E-5,-1.1076593E-2],"split_indices":[3,45,0,35,0,57,0,16,3,35,0,0,0,0,0],"split_type":[0,0,0,0,0,0,0,0,0,0,0,0,0,0,0],"sum_hessian":[2.49E2,2.46E2,3E0,2.43E2,3E0,2.41E2,2E0,2.36E2,5E0,2.34E2,2E0,2E0,3E0,2.28E2,6E0],"tree_param":{"num_deleted":"0","num_feature":"91","num_nodes":"15","size_leaf_vector":"1"}},{"base_weights":[-2.4980844E-5,-1.4869656E-1,5.297241E-2,-3.2473706E-2,-4.155139E-2,4.4541027E-2,-3.5971988E-2,-6.4800605E-3,2.0524504E0,-4.0415652E-2,1.5313745E-2,1.6250474E-2,5.5765095E-3,-1.688638E-2,-1.7784194E-5],"categories":[],"categories_nodes":[],"categories_segments":[],"categories_sizes":[],"default_left":[0,0,0,0,0,0,0,0,0,0,0,0,0,0,0],"id":17,"left_children":[1,3,-1,5,-1,7,-1,9,11,13,-1,-1,-1,-1,-1],"loss_changes":[3.4258405E2,2.0222028E2,0E0,1.1681746E2,0E0,2.4805164E1,0E0,2.1504538E1,2.2555294E0,2.5311832E1,0E0,0E0,0E0,0E0,0E0],"parents":[2147483647,0,0,1,1,3,3,5,5,7,7,8,8,9,9],"right_children":[2,4,-1,6,-1,8,-1,10,12,14,-1,-1,-1,-1,-1],"split_conditions":[3.955E1,6.295454E-1,5.297241E-2,5.0535263E1,-4.155139E-2,5.0020683E1,-3.5971988E-2,4.3951954E1,2.875E1,-1.2539205E8,1.5313745E-2,1.6250474E-2,5.5765095E-3,-1.688638E-2,-1.7784194E-5],"split_indices":[3,45,0,35,0,57,0,16,3,8,0,0,0,0,0],"split_type":[0,0,0,0,0,0,0,0,0,0,0,0,0,0,0],"sum_hessian":[2.49E2,2.46E2,3E0,2.43E2,3E0,2.41E2,2E0,2.36E2,5E0,2.34E2,2E0,2E0,3E0,2E0,2.32E2],"tree_param":{"num_deleted":"0","num_feature":"91","num_nodes":"15","size_leaf_vector":"1"}},{"base_weights":[-4.2112886E-5,-1.480705E-1,5.2743167E-2,-3.235083E-2,-4.1371573E-2,4.4367634E-2,-3.5833616E-2,-6.449389E-3,2.0442452E0,-4.0254388E-2,1.52548365E-2,1.6187962E-2,5.5523766E-3,-1.6821422E-2,-1.768206E-5],"categories":[],"categories_nodes":[],"categories_segments":[],"categories_sizes":[],"default_left":[0,0,0,0,0,0,0,0,0,0,0,0,0,0,0],"id":18,"left_children":[1,3,-1,5,-1,7,-1,9,11,13,-1,-1,-1,-1,-1],"loss_changes":[3.396266E2,2.0047281E2,0E0,1.1592038E2,0E0,2.4607117E1,0E0,2.1339321E1,2.2422314E0,2.5117573E1,0E0,0E0,0E0,0E0,0E0],"parents":[2147483647,0,0,1,1,3,3,5,5,7,7,8,8,9,9],"right_children":[2,4,-1,6,-1,8,-1,10,12,14,-1,-1,-1,-1,-1],"split_conditions":[3.955E1,6.295454E-1,5.2743167E-2,5.0535263E1,-4.1371573E-2,5.0020683E1,-3.5833616E-2,4.3951954E1,2.875E1,-1.2539205E8,1.52548365E-2,1.6187962E-2,5.5523766E-3,-1.6821422E-2,-1.768206E-5],"split_indices":[3,45,0,35,0,57,0,16,3,8,0,0,0,0,0],"split_type":[0,0,0,0,0,0,0,0,0,0,0,0,0,0,0],"sum_hessian":[2.49E2,2.46E2,3E0,2.43E2,3E0,2.41E2,2E0,2.36E2,5E0,2.34E2,2E0,2E0,3E0,2E0,2.32E2],"tree_param":{"num_deleted":"0","num_feature":"91","num_nodes":"15","size_leaf_vector":"1"}},{"base_weights":[-5.9093894E-5,-1.4744708E-1,5.251492E-2,-3.222841E-2,-4.1192535E-2,4.4194918E-2,-3.5695773E-2,2.9941448E-3,1.4395858E-2,4.5419846E-2,-1.9327832E-2,1.4178307E-5,1.46987215E-2],"categories":[],"categories_nodes":[],"categories_segments":[],"categories_sizes":[],"default_left":[0,0,0,0,0,0,0,0,0,0,0,0,0],"id":19,"left_children":[1,3,-1,5,-1,7,-1,9,-1,11,-1,-1,-1],"loss_changes":[3.3669467E2,1.9874045E2,0E0,1.1503019E2,0E0,2.4427422E1,0E0,3.414693E1,0E0,2.5469078E1,0E0,0E0,0E0],"parents":[2147483647,0,0,1,1,3,3,5,5,7,7,9,9],"right_children":[2,4,-1,6,-1,8,-1,10,-1,12,-1,-1,-1],"split_conditions":[3.955E1,6.295454E-1,5.251492E-2,5.0535263E1,-4.1192535E-2,3.398E1,-3.5695773E-2,4.7725163E1,1.4395858E-2,3.9691772E1,-1.9327832E-2,1.4178307E-5,1.46987215E-2],"split_indices":[3,45,0,35,0,0,0,35,0,16,0,0,0],"split_type":[0,0,0,0,0,0,0,0,0,0,0,0,0],"sum_hessian":[2.49E2,2.46E2,3E0,2.43E2,3E0,2.41E2,2E0,2.38E2,3E0,2.36E2,2E0,2.33E2,3E0],"tree_param":{"num_deleted":"0","num_feature":"91","num_nodes":"13","size_leaf_vector":"1"}},{"base_weights":[-1.1712617E-4,-1.4686799E-1,5.228765E-2,-3.214866E-2,-4.101427E-2,4.3980323E-2,-3.555846E-2,-6.5769986E-3,2.0336645E0,-4.012945E-2,1.51401935E-2,1.6097976E-2,5.5282866E-3,9.697969E-5,-1.0946159E-2],"categories":[],"categories_nodes":[],"categories_segments":[],"categories_sizes":[],"default_left":[0,0,0,0,0,0,0,0,0,0,0,0,0,0,0],"id":20,"left_children":[1,3,-1,5,-1,7,-1,9,11,13,-1,-1,-1,-1,-1],"loss_changes":[3.337911E2,1.9702069E2,0E0,1.1414526E2,0E0,2.4356903E1,0E0,2.1022589E1,2.2072659E0,2.4877523E1,0E0,0E0,0E0,0E0,0E0],"parents":[2147483647,0,0,1,1,3,3,5,5,7,7,8,8,9,9],"right_children":[2,4,-1,6,-1,8,-1,10,12,14,-1,-1,-1,-1,-1],"split_conditions":[3.955E1,6.295454E-1,5.228765E-2,5.0535263E1,-4.101427E-2,5.0020683E1,-3.555846E-2,4.3951954E1,2.875E1,4.345776E1,1.51401935E-2,1.6097976E-2,5.5282866E-3,9.697969E-5,-1.0946159E-2],"split_indices":[3,45,0,35,0,57,0,16,3,35,0,0,0,0,0],"split_type":[0,0,0,0,0,0,0,0,0,0,0,0,0,0,0],"sum_hessian":[2.49E2,2.46E2,3E0,2.43E2,3E0,2.41E2,2E0,2.36E2,5E0,2.34E2,2E0,2E0,3E0,2.28E2,6E0],"tree_param":{"num_deleted":"0","num_feature":"91","num_nodes":"15","size_leaf_vector":"1"}},{"base_weights":[-1.09912035E-4,-1.4622562E-1,5.2061375E-2,-3.200266E-2,-4.0836778E-2,4.383365E-2,-3.5421673E-2,-6.520937E-3,2.0255344E0,-3.9944056E-2,1.5081953E-2,1.603605E-2,5.5043628E-3,-1.667746E-2,-1.7729624E-5],"categories":[],"categories_nodes":[],"categories_segments":[],"categories_sizes":[],"default_left":[0,0,0,0,0,0,0,0,0,0,0,0,0,0,0],"id":21,"left_children":[1,3,-1,5,-1,7,-1,9,11,13,-1,-1,-1,-1,-1],"loss_changes":[3.3090784E2,1.953195E2,0E0,1.13269585E2,0E0,2.4161839E1,0E0,2.0860676E1,2.1942654E0,2.4688896E1,0E0,0E0,0E0,0E0,0E0],"parents":[2147483647,0,0,1,1,3,3,5,5,7,7,8,8,9,9],"right_children":[2,4,-1,6,-1,8,-1,10,12,14,-1,-1,-1,-1,-1],"split_conditions":[3.955E1,6.295454E-1,5.2061375E-2,5.0535263E1,-4.0836778E-2,5.0020683E1,-3.5421673E-2,4.3951954E1,2.875E1,-1.2539205E8,1.5081953E-2,1.603605E-2,5.5043628E-3,-1.667746E-2,-1.7729624E-5],"split_indices":[3,45,0,35,0,57,0,16,3,8,0,0,0,0,0],"split_type":[0,0,0,0,0,0,0,0,0,0,0,0,0,0,0],"sum_hessian":[2.49E2,2.46E2,3E0,2.43E2,3E0,2.41E2,2E0,2.36E2,5E0,2.34E2,2E0,2E0,3E0,2E0,2.32E2],"tree_param":{"num_deleted":"0","num_feature":"91","num_nodes":"15","size_leaf_vector":"1"}},{"base_weights":[-1.2636799E-4,-1.4560995E-1,5.183607E-2,-3.1881515E-2,-4.066005E-2,4.366306E-2,-3.5285413E-2,-6.4901286E-3,2.0174367E0,-3.978463E-2,1.50239365E-2,1.5974363E-2,5.480542E-3,9.652436E-5,-1.0864468E-2],"categories":[],"categories_nodes":[],"categories_segments":[],"categories_sizes":[],"default_left":[0,0,0,0,0,0,0,0,0,0,0,0,0,0,0],"id":22,"left_children":[1,3,-1,5,-1,7,-1,9,11,13,-1,-1,-1,-1,-1],"loss_changes":[3.2805118E2,1.9363168E2,0E0,1.1239976E2,0E0,2.3968924E1,0E0,2.0700403E1,2.1813354E0,2.4508793E1,0E0,0E0,0E0,0E0,0E0],"parents":[2147483647,0,0,1,1,3,3,5,5,7,7,8,8,9,9],"right_children":[2,4,-1,6,-1,8,-1,10,12,14,-1,-1,-1,-1,-1],"split_conditions":[3.955E1,6.295454E-1,5.183607E-2,5.0535263E1,-4.066005E-2,5.0020683E1,-3.5285413E-2,4.3951954E1,2.875E1,4.345776E1,1.50239365E-2,1.5974363E-2,5.480542E-3,9.652436E-5,-1.0864468E-2],"split_indices":[3,45,0,35,0,57,0,16,3,35,0,0,0,0,0],"split_type":[0,0,0,0,0,0,0,0,0,0,0,0,0,0,0],"sum_hessian":[2.49E2,2.46E2,3E0,2.43E2,3E0,2.41E2,2E0,2.36E2,5E0,2.34E2,2E0,2E0,3E0,2.28E2,6E0],"tree_param":{"num_deleted":"0","num_feature":"91","num_nodes":"15","size_leaf_vector":"1"}},{"base_weights":[-1.192292E-4,-1.4497313E-1,5.1611748E-2,-3.1736787E-2,-4.0484093E-2,4.3517366E-2,-3.514968E-2,2.7880615E-3,1.423038E-2,4.4794418E-2,-1.913747E-2,1.2734979E-5,1.4569334E-2],"categories":[],"categories_nodes":[],"categories_segments":[],"categories_sizes":[],"default_left":[0,0,0,0,0,0,0,0,0,0,0,0,0],"id":23,"left_children":[1,3,-1,5,-1,7,-1,9,-1,11,-1,-1,-1],"loss_changes":[3.252175E2,1.9195976E2,0E0,1.11537476E2,0E0,2.3872412E1,0E0,3.3474068E1,0E0,2.5027218E1,0E0,0E0,0E0],"parents":[2147483647,0,0,1,1,3,3,5,5,7,7,9,9],"right_children":[2,4,-1,6,-1,8,-1,10,-1,12,-1,-1,-1],"split_conditions":[3.955E1,6.295454E-1,5.1611748E-2,5.0535263E1,-4.0484093E-2,3.398E1,-3.514968E-2,4.7725163E1,1.423038E-2,3.9691772E1,-1.913747E-2,1.2734979E-5,1.4569334E-2],"split_indices":[3,45,0,35,0,0,0,35,0,16,0,0,0],"split_type":[0,0,0,0,0,0,0,0,0,0,0,0,0],"sum_hessian":[2.49E2,2.46E2,3E0,2.43E2,3E0,2.41E2,2E0,2.38E2,3E0,2.36E2,2E0,2.33E2,3E0],"tree_param":{"num_deleted":"0","num_feature":"91","num_nodes":"13","size_leaf_vector":"1"}},{"base_weights":[-1.7592555E-4,-1.4440365E-1,5.1388394E-2,-3.1658076E-2,-4.030889E-2,4.3306235E-2,-3.5014465E-2,-6.5900423E-3,2.0069914E0,-3.9634977E-2,1.4910751E-2,1.5885519E-2,5.4567694E-3,-1.6534729E-2,-1.7768632E-5],"categories":[],"categories_nodes":[],"categories_segments":[],"categories_sizes":[],"default_left":[0,0,0,0,0,0,0,0,0,0,0,0,0,0,0],"id":24,"left_children":[1,3,-1,5,-1,7,-1,9,11,13,-1,-1,-1,-1,-1],"loss_changes":[3.2241293E2,1.9029868E2,0E0,1.10679436E2,0E0,2.3724527E1,0E0,2.0392008E1,2.1472626E0,2.4267548E1,0E0,0E0,0E0,0E0,0E0],"parents":[2147483647,0,0,1,1,3,3,5,5,7,7,8,8,9,9],"right_children":[2,4,-1,6,-1,8,-1,10,12,14,-1,-1,-1,-1,-1],"split_conditions":[3.955E1,6.295454E-1,5.1388394E-2,5.0535263E1,-4.030889E-2,5.0020683E1,-3.5014465E-2,4.3951954E1,2.875E1,-1.2539205E8,1.4910751E-2,1.5885519E-2,5.4567694E-3,-1.6534729E-2,-1.7768632E-5],"split_indices":[3,45,0,35,0,57,0,16,3,8,0,0,0,0,0],"split_type":[0,0,0,0,0,0,0,0,0,0,0,0,0,0,0],"sum_hessian":[2.49E2,2.46E2,3E0,2.43E2,3E0,2.41E2,2E0,2.36E2,5E0,2.34E2,2E0,2E0,3E0,2E0,2.32E2],"tree_param":{"num_deleted":"0","num_feature":"91","num_nodes":"15","size_leaf_vector":"1"}},{"base_weights":[-1.9185919E-4,-1.4379562E-1,5.1166E-2,-3.153817E-2,-4.0134452E-2,4.313776E-2,-3.4879778E-2,-6.558943E-3,1.9989679E0,-3.947671E-2,1.4853394E-2,1.5824411E-2,5.4331543E-3,-1.6471123E-2,-1.7666538E-5],"categories":[],"categories_nodes":[],"categories_segments":[],"categories_sizes":[],"default_left":[0,0,0,0,0,0,0,0,0,0,0,0,0,0,0],"id":25,"left_children":[1,3,-1,5,-1,7,-1,9,11,13,-1,-1,-1,-1,-1],"loss_changes":[3.196296E2,1.8865422E2,0E0,1.0982949E2,0E0,2.3535103E1,0E0,2.0235332E1,2.1346207E0,2.4081303E1,0E0,0E0,0E0,0E0,0E0],"parents":[2147483647,0,0,1,1,3,3,5,5,7,7,8,8,9,9],"right_children":[2,4,-1,6,-1,8,-1,10,12,14,-1,-1,-1,-1,-1],"split_conditions":[3.955E1,6.295454E-1,5.1166E-2,5.0535263E1,-4.0134452E-2,5.0020683E1,-3.4879778E-2,4.3951954E1,2.875E1,-1.2539205E8,1.4853394E-2,1.5824411E-2,5.4331543E-3,-1.6471123E-2,-1.7666538E-5],"split_indices":[3,45,0,35,0,57,0,16,3,8,0,0,0,0,0],"split_type":[0,0,0,0,0,0,0,0,0,0,0,0,0,0,0],"sum_hessian":[2.49E2,2.46E2,3E0,2.43E2,3E0,2.41E2,2E0,2.36E2,5E0,2.34E2,2E0,2E0,3E0,2E0,2.32E2],"tree_param":{"num_deleted":"0","num_feature":"91","num_nodes":"15","size_leaf_vector":"1"}},{"base_weights":[-2.0764333E-4,-1.4319016E-1,5.094458E-2,-3.1418715E-2,-3.9960764E-2,4.296994E-2,-3.47456E-2,2.6694539E-3,1.408017E-2,4.43739E-2,-1.9000305E-2,1.2087404E-5,1.4463451E-2],"categories":[],"categories_nodes":[],"categories_segments":[],"categories_sizes":[],"default_left":[0,0,0,0,0,0,0,0,0,0,0,0,0],"id":26,"left_children":[1,3,-1,5,-1,7,-1,9,-1,11,-1,-1,-1],"loss_changes":[3.1687033E2,1.8702399E2,0E0,1.0898607E2,0E0,2.3372812E1,0E0,3.2993973E1,0E0,2.4666666E1,0E0,0E0,0E0],"parents":[2147483647,0,0,1,1,3,3,5,5,7,7,9,9],"right_children":[2,4,-1,6,-1,8,-1,10,-1,12,-1,-1,-1],"split_conditions":[3.955E1,6.295454E-1,5.094458E-2,5.0535263E1,-3.9960764E-2,3.398E1,-3.47456E-2,4.7725163E1,1.408017E-2,3.9691772E1,-1.9000305E-2,1.2087404E-5,1.4463451E-2],"split_indices":[3,45,0,35,0,0,0,35,0,16,0,0,0],"split_type":[0,0,0,0,0,0,0,0,0,0,0,0,0],"sum_hessian":[2.49E2,2.46E2,3E0,2.43E2,3E0,2.41E2,2E0,2.38E2,3E0,2.36E2,2E0,2.33E2,3E0],"tree_param":{"num_deleted":"0","num_feature":"91","num_nodes":"13","size_leaf_vector":"1"}},{"base_weights":[-2.6327098E-4,-1.426277E-1,5.0724108E-2,-3.1340655E-2,-3.978783E-2,4.2761486E-2,-3.4611944E-2,-6.681231E-3,1.9886218E0,-4.451756E-2,1.27428435E-2,1.5736435E-2,5.4095895E-3,-1.5486315E-2,1.4327421E-4],"categories":[],"categories_nodes":[],"categories_segments":[],"categories_sizes":[],"default_left":[0,0,0,0,0,0,0,0,0,0,0,0,0,0,0],"id":27,"left_children":[1,3,-1,5,-1,7,-1,9,11,13,-1,-1,-1,-1,-1],"loss_changes":[3.1413766E2,1.8540561E2,0E0,1.08147644E2,0E0,2.3295773E1,0E0,1.9961542E1,2.1012726E0,4.2896564E1,0E0,0E0,0E0,0E0,0E0],"parents":[2147483647,0,0,1,1,3,3,5,5,7,7,8,8,9,9],"right_children":[2,4,-1,6,-1,8,-1,10,12,14,-1,-1,-1,-1,-1],"split_conditions":[3.955E1,6.295454E-1,5.0724108E-2,5.0535263E1,-3.978783E-2,5.0020683E1,-3.4611944E-2,1.9132074E1,2.875E1,1.17575E1,1.27428435E-2,1.5736435E-2,5.4095895E-3,-1.5486315E-2,1.4327421E-4],"split_indices":[3,45,0,35,0,57,0,88,3,61,0,0,0,0,0],"split_type":[0,0,0,0,0,0,0,0,0,0,0,0,0,0,0],"sum_hessian":[2.49E2,2.46E2,3E0,2.43E2,3E0,2.41E2,2E0,2.36E2,5E0,2.33E2,3E0,2E0,3E0,5E0,2.28E2],"tree_param":{"num_deleted":"0","num_feature":"91","num_nodes":"15","size_leaf_vector":"1"}},{"base_weights":[-2.8228492E-4,-1.4203086E-1,5.0504595E-2,-3.1225672E-2,-3.9615646E-2,4.2591374E-2,-3.44788E-2,-6.6536586E-3,1.9806715E0,-3.9269526E-2,1.4716571E-2,1.56759E-2,5.3861793E-3,-1.6341731E-2,-1.8126782E-5],"categories":[],"categories_nodes":[],"categories_segments":[],"categories_sizes":[],"default_left":[0,0,0,0,0,0,0,0,0,0,0,0,0,0,0],"id":28,"left_children":[1,3,-1,5,-1,7,-1,9,11,13,-1,-1,-1,-1,-1],"loss_changes":[3.1142606E2,1.8380328E2,0E0,1.0731702E2,0E0,2.3109858E1,0E0,1.9866652E1,2.0889149E0,2.3702692E1,0E0,0E0,0E0,0E0,0E0],"parents":[2147483647,0,0,1,1,3,3,5,5,7,7,8,8,9,9],"right_children":[2,4,-1,6,-1,8,-1,10,12,14,-1,-1,-1,-1,-1],"split_conditions":[3.955E1,6.295454E-1,5.0504595E-2,5.0535263E1,-3.9615646E-2,5.0020683E1,-3.44788E-2,4.3951954E1,2.875E1,-1.2539205E8,1.4716571E-2,1.56759E-2,5.3861793E-3,-1.6341731E-2,-1.8126782E-5],"split_indices":[3,45,0,35,0,57,0,16,3,8,0,0,0,0,0],"split_type":[0,0,0,0,0,0,0,0,0,0,0,0,0,0,0],"sum_hessian":[2.49E2,2.46E2,3E0,2.43E2,3E0,2.41E2,2E0,2.36E2,5E0,2.34E2,2E0,2E0,3E0,2E0,2.32E2],"tree_param":{"num_deleted":"0","num_feature":"91","num_nodes":"15","size_leaf_vector":"1"}},{"base_weights":[-2.9734385E-4,-1.4143269E-1,5.028603E-2,-3.1107219E-2,-3.944421E-2,4.2425856E-2,-3.4346167E-2,-6.6222027E-3,1.9727532E0,-4.423167E-2,1.2666521E-2,1.5615598E-2,5.3628697E-3,-1.5396064E-2,1.425952E-4],"categories":[],"categories_nodes":[],"categories_segments":[],"categories_sizes":[],"default_left":[0,0,0,0,0,0,0,0,0,0,0,0,0,0,0],"id":29,"left_children":[1,3,-1,5,-1,7,-1,9,11,13,-1,-1,-1,-1,-1],"loss_changes":[3.087376E2,1.8221497E2,0E0,1.064929E2,0E0,2.2925335E1,0E0,1.9722803E1,2.0766182E0,4.2398895E1,0E0,0E0,0E0,0E0,0E0],"parents":[2147483647,0,0,1,1,3,3,5,5,7,7,8,8,9,9],"right_children":[2,4,-1,6,-1,8,-1,10,12,14,-1,-1,-1,-1,-1],"split_conditions":[3.955E1,6.295454E-1,5.028603E-2,5.0535263E1,-3.944421E-2,5.0020683E1,-3.4346167E-2,1.9132074E1,2.875E1,1.17575E1,1.2666521E-2,1.5615598E-2,5.3628697E-3,-1.5396064E-2,1.425952E-4],"split_indices":[3,45,0,35,0,57,0,88,3,61,0,0,0,0,0],"split_type":[0,0,0,0,0,0,0,0,0,0,0,0,0,0,0],"sum_hessian":[2.49E2,2.46E2,3E0,2.43E2,3E0,2.41E2,2E0,2.36E2,5E0,2.33E2,3E0,2E0,3E0,5E0,2.28E2],"tree_param":{"num_deleted":"0","num_feature":"91","num_nodes":"15","size_leaf_vector":"1"}},{"base_weights":[-3.160633E-4,-1.4084087E-1,5.0068416E-2,-3.0993102E-2,-3.9273508E-2,4.2257063E-2,-3.4214046E-2,2.490149E-3,1.38931265E-2,4.37031E-2,-1.877695E-2,1.0859291E-5,1.4305961E-2],"categories":[],"categories_nodes":[],"categories_segments":[],"categories_sizes":[],"default_left":[0,0,0,0,0,0,0,0,0,0,0,0,0],"id":30,"left_children":[1,3,-1,5,-1,7,-1,9,-1,11,-1,-1,-1],"loss_changes":[3.0607263E2,1.8064017E2,0E0,1.0567497E2,0E0,2.27587E1,0E0,3.2219913E1,0E0,2.4136135E1,0E0,0E0,0E0],"parents":[2147483647,0,0,1,1,3,3,5,5,7,7,9,9],"right_children":[2,4,-1,6,-1,8,-1,10,-1,12,-1,-1,-1],"split_conditions":[3.955E1,6.295454E-1,5.0068416E-2,5.0535263E1,-3.9273508E-2,3.398E1,-3.4214046E-2,4.7725163E1,1.38931265E-2,3.9691772E1,-1.877695E-2,1.0859291E-5,1.4305961E-2],"split_indices":[3,45,0,35,0,0,0,35,0,16,0,0,0],"split_type":[0,0,0,0,0,0,0,0,0,0,0,0,0],"sum_hessian":[2.49E2,2.46E2,3E0,2.43E2,3E0,2.41E2,2E0,2.38E2,3E0,2.36E2,2E0,2.33E2,3E0],"tree_param":{"num_deleted":"0","num_feature":"91","num_nodes":"13","size_leaf_vector":"1"}},{"base_weights":[-3.7018448E-4,-1.4028753E-1,4.985174E-2,-3.0915836E-2,-3.9103545E-2,4.2052206E-2,-3.4082435E-2,-6.7452677E-3,1.9625437E0,-3.9062165E-2,1.4581086E-2,1.5528787E-2,5.3396146E-3,-1.6213436E-2,-1.8571873E-5],"categories":[],"categories_nodes":[],"categories_segments":[],"categories_sizes":[],"default_left":[0,0,0,0,0,0,0,0,0,0,0,0,0,0,0],"id":31,"left_children":[1,3,-1,5,-1,7,-1,9,11,13,-1,-1,-1,-1,-1],"loss_changes":[3.0343314E2,1.7907703E2,0E0,1.0486203E2,0E0,2.26923E1,0E0,1.950488E1,2.0441628E0,2.3330284E1,0E0,0E0,0E0,0E0,0E0],"parents":[2147483647,0,0,1,1,3,3,5,5,7,7,8,8,9,9],"right_children":[2,4,-1,6,-1,8,-1,10,12,14,-1,-1,-1,-1,-1],"split_conditions":[3.955E1,6.295454E-1,4.985174E-2,5.0535263E1,-3.9103545E-2,5.0020683E1,-3.4082435E-2,4.3951954E1,2.875E1,-1.2539205E8,1.4581086E-2,1.5528787E-2,5.3396146E-3,-1.6213436E-2,-1.8571873E-5],"split_indices":[3,45,0,35,0,57,0,16,3,8,0,0,0,0,0],"split_type":[0,0,0,0,0,0,0,0,0,0,0,0,0,0,0],"sum_hessian":[2.49E2,2.46E2,3E0,2.43E2,3E0,2.41E2,2E0,2.36E2,5E0,2.34E2,2E0,2E0,3E0,2E0,2.32E2],"tree_param":{"num_deleted":"0","num_feature":"91","num_nodes":"15","size_leaf_vector":"1"}},{"base_weights":[-3.845234E-4,-1.3969657E-1,4.9636003E-2,-3.0798372E-2,-3.8934324E-2,4.188897E-2,-3.3951327E-2,-6.7133154E-3,1.9546977E0,-3.8905848E-2,1.4524995E-2,1.5469053E-2,5.3165066E-3,9.250702E-5,-1.0562814E-2],"categories":[],"categories_nodes":[],"categories_segments":[],"categories_sizes":[],"default_left":[0,0,0,0,0,0,0,0,0,0,0,0,0,0,0],"id":32,"left_children":[1,3,-1,5,-1,7,-1,9,11,13,-1,-1,-1,-1,-1],"loss_changes":[3.0081366E2,1.7752959E2,0E0,1.0405678E2,0E0,2.2511105E1,0E0,1.9355017E1,2.0321445E0,2.3160868E1,0E0,0E0,0E0,0E0,0E0],"parents":[2147483647,0,0,1,1,3,3,5,5,7,7,8,8,9,9],"right_children":[2,4,-1,6,-1,8,-1,10,12,14,-1,-1,-1,-1,-1],"split_conditions":[3.955E1,6.295454E-1,4.9636003E-2,5.0535263E1,-3.8934324E-2,5.0020683E1,-3.3951327E-2,4.3951954E1,2.875E1,4.345776E1,1.4524995E-2,1.5469053E-2,5.3165066E-3,9.250702E-5,-1.0562814E-2],"split_indices":[3,45,0,35,0,57,0,16,3,35,0,0,0,0,0],"split_type":[0,0,0,0,0,0,0,0,0,0,0,0,0,0,0],"sum_hessian":[2.49E2,2.46E2,3E0,2.43E2,3E0,2.41E2,2E0,2.36E2,5E0,2.34E2,2E0,2E0,3E0,2.28E2,6E0],"tree_param":{"num_deleted":"0","num_feature":"91","num_nodes":"15","size_leaf_vector":"1"}},{"base_weights":[-3.7594844E-4,-1.3908501E-1,4.9421195E-2,-3.0658001E-2,-3.8765833E-2,4.174991E-2,-3.3820726E-2,2.3582275E-3,1.3761565E-2,4.3253984E-2,-1.8632866E-2,1.0014266E-5,1.4201852E-2],"categories":[],"categories_nodes":[],"categories_segments":[],"categories_sizes":[],"default_left":[0,0,0,0,0,0,0,0,0,0,0,0,0],"id":33,"left_children":[1,3,-1,5,-1,7,-1,9,-1,11,-1,-1,-1],"loss_changes":[2.9821518E2,1.7599673E2,0E0,1.0325852E2,0E0,2.233175E1,0E0,3.1725128E1,0E0,2.3788696E1,0E0,0E0,0E0],"parents":[2147483647,0,0,1,1,3,3,5,5,7,7,9,9],"right_children":[2,4,-1,6,-1,8,-1,10,-1,12,-1,-1,-1],"split_conditions":[3.955E1,6.295454E-1,4.9421195E-2,5.0535263E1,-3.8765833E-2,3.398E1,-3.3820726E-2,4.7725163E1,1.3761565E-2,3.9691772E1,-1.8632866E-2,1.0014266E-5,1.4201852E-2],"split_indices":[3,45,0,35,0,0,0,35,0,16,0,0,0],"split_type":[0,0,0,0,0,0,0,0,0,0,0,0,0],"sum_hessian":[2.49E2,2.46E2,3E0,2.43E2,3E0,2.41E2,2E0,2.38E2,3E0,2.36E2,2E0,2.33E2,3E0],"tree_param":{"num_deleted":"0","num_feature":"91","num_nodes":"13","size_leaf_vector":"1"}},{"base_weights":[-4.2907332E-4,-1.3853852E-1,4.9207322E-2,-3.058143E-2,-3.8598068E-2,4.1547604E-2,-3.3690628E-2,-6.8058074E-3,1.9445828E0,-4.3813918E-2,1.2462736E-2,1.5383057E-2,5.293456E-3,-1.5193933E-2,1.3976231E-4],"categories":[],"categories_nodes":[],"categories_segments":[],"categories_sizes":[],"default_left":[0,0,0,0,0,0,0,0,0,0,0,0,0,0,0],"id":34,"left_children":[1,3,-1,5,-1,7,-1,9,11,13,-1,-1,-1,-1,-1],"loss_changes":[2.9564343E2,1.7447377E2,0E0,1.0246417E2,0E0,2.2281649E1,0E0,1.909838E1,2.000349E0,4.1287727E1,0E0,0E0,0E0,0E0,0E0],"parents":[2147483647,0,0,1,1,3,3,5,5,7,7,8,8,9,9],"right_children":[2,4,-1,6,-1,8,-1,10,12,14,-1,-1,-1,-1,-1],"split_conditions":[3.955E1,6.295454E-1,4.9207322E-2,5.0535263E1,-3.8598068E-2,5.0020683E1,-3.3690628E-2,1.9132074E1,2.875E1,1.17575E1,1.2462736E-2,1.5383057E-2,5.293456E-3,-1.5193933E-2,1.3976231E-4],"split_indices":[3,45,0,35,0,57,0,88,3,61,0,0,0,0,0],"split_type":[0,0,0,0,0,0,0,0,0,0,0,0,0,0,0],"sum_hessian":[2.49E2,2.46E2,3E0,2.43E2,3E0,2.41E2,2E0,2.36E2,5E0,2.33E2,3E0,2E0,3E0,5E0,2.28E2],"tree_param":{"num_deleted":"0","num_feature":"91","num_nodes":"15","size_leaf_vector":"1"}},{"base_weights":[-4.4658728E-4,-1.379586E-1,4.8994374E-2,-3.0468935E-2,-3.843103E-2,4.1382596E-2,-3.356103E-2,-6.7774765E-3,1.9368083E0,-3.8674317E-2,1.4391098E-2,1.5323882E-2,5.2705477E-3,-1.604566E-2,-1.8474919E-5],"categories":[],"categories_nodes":[],"categories_segments":[],"categories_sizes":[],"default_left":[0,0,0,0,0,0,0,0,0,0,0,0,0,0,0],"id":35,"left_children":[1,3,-1,5,-1,7,-1,9,11,13,-1,-1,-1,-1,-1],"loss_changes":[2.9309146E2,1.729659E2,0E0,1.0167721E2,0E0,2.2103817E1,0E0,1.900172E1,1.9885998E0,2.2849669E1,0E0,0E0,0E0,0E0,0E0],"parents":[2147483647,0,0,1,1,3,3,5,5,7,7,8,8,9,9],"right_children":[2,4,-1,6,-1,8,-1,10,12,14,-1,-1,-1,-1,-1],"split_conditions":[3.955E1,6.295454E-1,4.8994374E-2,5.0535263E1,-3.843103E-2,5.0020683E1,-3.356103E-2,4.3951954E1,2.875E1,-1.2539205E8,1.4391098E-2,1.5323882E-2,5.2705477E-3,-1.604566E-2,-1.8474919E-5],"split_indices":[3,45,0,35,0,57,0,16,3,8,0,0,0,0,0],"split_type":[0,0,0,0,0,0,0,0,0,0,0,0,0,0,0],"sum_hessian":[2.49E2,2.46E2,3E0,2.43E2,3E0,2.41E2,2E0,2.36E2,5E0,2.34E2,2E0,2E0,3E0,2E0,2.32E2],"tree_param":{"num_deleted":"0","num_feature":"91","num_nodes":"15","size_leaf_vector":"1"}},{"base_weights":[-4.6031762E-4,-1.3737741E-1,4.8782345E-2,-3.0353121E-2,-3.8264718E-2,4.1222002E-2,-3.3431925E-2,-6.7454283E-3,1.9290651E0,-4.3531645E-2,1.2388095E-2,1.5264936E-2,5.247739E-3,-1.5105373E-2,1.3910628E-4],"categories":[],"categories_nodes":[],"categories_segments":[],"categories_sizes":[],"default_left":[0,0,0,0,0,0,0,0,0,0,0,0,0,0,0],"id":36,"left_children":[1,3,-1,5,-1,7,-1,9,11,13,-1,-1,-1,-1,-1],"loss_changes":[2.9056125E2,1.7147124E2,0E0,1.008964E2,0E0,2.1927319E1,0E0,1.8869959E1,1.9769135E0,4.0808674E1,0E0,0E0,0E0,0E0,0E0],"parents":[2147483647,0,0,1,1,3,3,5,5,7,7,8,8,9,9],"right_children":[2,4,-1,6,-1,8,-1,10,12,14,-1,-1,-1,-1,-1],"split_conditions":[3.955E1,6.295454E-1,4.8782345E-2,5.0535263E1,-3.8264718E-2,5.0020683E1,-3.3431925E-2,1.9132074E1,2.875E1,1.17575E1,1.2388095E-2,1.5264936E-2,5.247739E-3,-1.5105373E-2,1.3910628E-4],"split_indices":[3,45,0,35,0,57,0,88,3,61,0,0,0,0,0],"split_type":[0,0,0,0,0,0,0,0,0,0,0,0,0,0,0],"sum_hessian":[2.49E2,2.46E2,3E0,2.43E2,3E0,2.41E2,2E0,2.36E2,5E0,2.33E2,3E0,2E0,3E0,5E0,2.28E2],"tree_param":{"num_deleted":"0","num_feature":"91","num_nodes":"15","size_leaf_vector":"1"}},{"base_weights":[-4.7758318E-4,-1.3680239E-1,4.8571233E-2,-3.02415E-2,-3.809912E-2,4.105825E-2,-3.330332E-2,-6.717391E-3,1.921353E0,-3.8437933E-2,1.4311644E-2,1.5206215E-2,5.225029E-3,-1.595515E-2,-1.8264625E-5],"categories":[],"categories_nodes":[],"categories_segments":[],"categories_sizes":[],"default_left":[0,0,0,0,0,0,0,0,0,0,0,0,0,0,0],"id":37,"left_children":[1,3,-1,5,-1,7,-1,9,11,13,-1,-1,-1,-1,-1],"loss_changes":[2.8805313E2,1.699893E2,0E0,1.00121475E2,0E0,2.1752317E1,0E0,1.8792141E1,1.9652863E0,2.2592918E1,0E0,0E0,0E0,0E0,0E0],"parents":[2147483647,0,0,1,1,3,3,5,5,7,7,8,8,9,9],"right_children":[2,4,-1,6,-1,8,-1,10,12,14,-1,-1,-1,-1,-1],"split_conditions":[3.955E1,6.295454E-1,4.8571233E-2,5.0535263E1,-3.809912E-2,5.0020683E1,-3.330332E-2,4.3951954E1,2.875E1,-1.2539205E8,1.4311644E-2,1.5206215E-2,5.225029E-3,-1.595515E-2,-1.8264625E-5],"split_indices":[3,45,0,35,0,57,0,16,3,8,0,0,0,0,0],"split_type":[0,0,0,0,0,0,0,0,0,0,0,0,0,0,0],"sum_hessian":[2.49E2,2.46E2,3E0,2.43E2,3E0,2.41E2,2E0,2.36E2,5E0,2.34E2,2E0,2E0,3E0,2E0,2.32E2],"tree_param":{"num_deleted":"0","num_feature":"91","num_nodes":"15","size_leaf_vector":"1"}},{"base_weights":[-4.910618E-4,-1.362261E-1,4.8361037E-2,-3.0126557E-2,-3.793424E-2,4.0898904E-2,-3.317521E-2,2.150343E-3,1.3536157E-2,4.2496234E-2,-1.8383017E-2,8.574914E-6,1.4026994E-2],"categories":[],"categories_nodes":[],"categories_segments":[],"categories_sizes":[],"default_left":[0,0,0,0,0,0,0,0,0,0,0,0,0],"id":38,"left_children":[1,3,-1,5,-1,7,-1,9,-1,11,-1,-1,-1],"loss_changes":[2.8556644E2,1.6852036E2,0E0,9.935262E1,0E0,2.1609308E1,0E0,3.0876623E1,0E0,2.3210892E1,0E0,0E0,0E0],"parents":[2147483647,0,0,1,1,3,3,5,5,7,7,9,9],"right_children":[2,4,-1,6,-1,8,-1,10,-1,12,-1,-1,-1],"split_conditions":[3.955E1,6.295454E-1,4.8361037E-2,5.0535263E1,-3.793424E-2,3.398E1,-3.317521E-2,4.7725163E1,1.3536157E-2,3.9691772E1,-1.8383017E-2,8.574914E-6,1.4026994E-2],"split_indices":[3,45,0,35,0,0,0,35,0,16,0,0,0],"split_type":[0,0,0,0,0,0,0,0,0,0,0,0,0],"sum_hessian":[2.49E2,2.46E2,3E0,2.43E2,3E0,2.41E2,2E0,2.38E2,3E0,2.36E2,2E0,2.33E2,3E0],"tree_param":{"num_deleted":"0","num_feature":"91","num_nodes":"13","size_leaf_vector":"1"}},{"base_weights":[-5.4246205E-4,-1.3569075E-1,4.8151746E-2,-3.0051019E-2,-3.777008E-2,4.0700894E-2,-3.3047594E-2,-6.8305647E-3,1.91141E0,-1.7481754E0,3.823366E-2,1.5121669E-2,5.20238E-3,-1.762848E-2,-1.9094449E-3,3.7267593E-5,1.4203577E-2],"categories":[],"categories_nodes":[],"categories_segments":[],"categories_sizes":[],"default_left":[0,0,0,0,0,0,0,0,0,0,0,0,0,0,0,0,0],"id":39,"left_children":[1,3,-1,5,-1,7,-1,9,11,13,15,-1,-1,-1,-1,-1,-1],"loss_changes":[2.831038E2,1.6706213E2,0E0,9.858832E1,0E0,2.1531097E1,0E0,1.8664787E1,1.9345245E0,1.0102707E1,1.7848415E1,0E0,0E0,0E0,0E0,0E0,0E0],"parents":[2147483647,0,0,1,1,3,3,5,5,7,7,8,8,9,9,10,10],"right_children":[2,4,-1,6,-1,8,-1,10,12,14,16,-1,-1,-1,-1,-1,-1],"split_conditions":[3.955E1,6.295454E-1,4.8151746E-2,5.0535263E1,-3.777008E-2,5.0020683E1,-3.3047594E-2,-1.7444735E1,2.875E1,2.261E1,4.3951954E1,1.5121669E-2,5.20238E-3,-1.762848E-2,-1.9094449E-3,3.7267593E-5,1.4203577E-2],"split_indices":[3,45,0,35,0,57,0,86,3,0,16,0,0,0,0,0,0],"split_type":[0,0,0,0,0,0,0,0,0,0,0,0,0,0,0,0,0],"sum_hessian":[2.49E2,2.46E2,3E0,2.43E2,3E0,2.41E2,2E0,2.36E2,5E0,5E0,2.31E2,2E0,3E0,2E0,3E0,2.29E2,2E0],"tree_param":{"num_deleted":"0","num_feature":"91","num_nodes":"17","size_leaf_vector":"1"}},{"base_weights":[-5.6989765E-4,-1.3513367E-1,4.7943365E-2,-2.9951485E-2,-3.7606627E-2,4.0528134E-2,-3.292047E-2,-6.813509E-3,1.9037683E0,-1.7413445E0,3.807442E-2,1.5063499E-2,5.179866E-3,-1.7560666E-2,-1.9011818E-3,3.7053436E-5,1.4148939E-2],"categories":[],"categories_nodes":[],"categories_segments":[],"categories_sizes":[],"default_left":[0,0,0,0,0,0,0,0,0,0,0,0,0,0,0,0,0],"id":40,"left_children":[1,3,-1,5,-1,7,-1,9,11,13,15,-1,-1,-1,-1,-1,-1],"loss_changes":[2.8066074E2,1.6561772E2,0E0,9.783074E1,0E0,2.1359512E1,0E0,1.8519003E1,1.9231625E0,1.0026926E1,1.7711544E1,0E0,0E0,0E0,0E0,0E0,0E0],"parents":[2147483647,0,0,1,1,3,3,5,5,7,7,8,8,9,9,10,10],"right_children":[2,4,-1,6,-1,8,-1,10,12,14,16,-1,-1,-1,-1,-1,-1],"split_conditions":[3.955E1,6.295454E-1,4.7943365E-2,5.0535263E1,-3.7606627E-2,5.0020683E1,-3.292047E-2,-1.7444735E1,2.875E1,2.261E1,4.3951954E1,1.5063499E-2,5.179866E-3,-1.7560666E-2,-1.9011818E-3,3.7053436E-5,1.4148939E-2],"split_indices":[3,45,0,35,0,57,0,86,3,0,16,0,0,0,0,0,0],"split_type":[0,0,0,0,0,0,0,0,0,0,0,0,0,0,0,0,0],"sum_hessian":[2.49E2,2.46E2,3E0,2.43E2,3E0,2.41E2,2E0,2.36E2,5E0,5E0,2.31E2,2E0,3E0,2E0,3E0,2.29E2,2E0],"tree_param":{"num_deleted":"0","num_feature":"91","num_nodes":"17","size_leaf_vector":"1"}},{"base_weights":[-5.9708476E-4,-1.3457888E-1,4.773589E-2,-2.9852245E-2,-3.7443884E-2,4.0356122E-2,-3.279383E-2,-6.796461E-3,1.896157E0,-1.7345405E0,3.7915867E-2,1.5005553E-2,5.1574497E-3,-1.7493116E-2,-1.8929541E-3,8.32193E-6,1.2212784E-2],"categories":[],"categories_nodes":[],"categories_segments":[],"categories_sizes":[],"default_left":[0,0,0,0,0,0,0,0,0,0,0,0,0,0,0,0,0],"id":41,"left_children":[1,3,-1,5,-1,7,-1,9,11,13,15,-1,-1,-1,-1,-1,-1],"loss_changes":[2.7823883E2,1.6418584E2,0E0,9.707899E1,0E0,2.1189293E1,0E0,1.8374361E1,1.9118538E0,9.951717E0,1.7586119E1,0E0,0E0,0E0,0E0,0E0,0E0],"parents":[2147483647,0,0,1,1,3,3,5,5,7,7,8,8,9,9,10,10],"right_children":[2,4,-1,6,-1,8,-1,10,12,14,16,-1,-1,-1,-1,-1,-1],"split_conditions":[3.955E1,6.295454E-1,4.773589E-2,5.0535263E1,-3.7443884E-2,5.0020683E1,-3.279383E-2,-1.7444735E1,2.875E1,2.261E1,1.9132074E1,1.5005553E-2,5.1574497E-3,-1.7493116E-2,-1.8929541E-3,8.32193E-6,1.2212784E-2],"split_indices":[3,45,0,35,0,57,0,86,3,0,88,0,0,0,0,0,0],"split_type":[0,0,0,0,0,0,0,0,0,0,0,0,0,0,0,0,0],"sum_hessian":[2.49E2,2.46E2,3E0,2.43E2,3E0,2.41E2,2E0,2.36E2,5E0,5E0,2.31E2,2E0,3E0,2E0,3E0,2.28E2,3E0],"tree_param":{"num_deleted":"0","num_feature":"91","num_nodes":"17","size_leaf_vector":"1"}},{"base_weights":[-6.316399E-4,-1.3403407E-1,4.7529306E-2,-2.9761115E-2,-3.7281837E-2,4.017698E-2,-3.266768E-2,1.948422E-3,1.3353754E-2,4.191554E-2,-1.8211134E-2,7.524237E-6,1.3889931E-2],"categories":[],"categories_nodes":[],"categories_segments":[],"categories_sizes":[],"default_left":[0,0,0,0,0,0,0,0,0,0,0,0,0],"id":42,"left_children":[1,3,-1,5,-1,7,-1,9,-1,11,-1,-1,-1],"loss_changes":[2.758383E2,1.6276588E2,0E0,9.6332726E1,0E0,2.1034008E1,0E0,3.0298447E1,0E0,2.276269E1,0E0,0E0,0E0],"parents":[2147483647,0,0,1,1,3,3,5,5,7,7,9,9],"right_children":[2,4,-1,6,-1,8,-1,10,-1,12,-1,-1,-1],"split_conditions":[3.955E1,6.295454E-1,4.7529306E-2,5.0535263E1,-3.7281837E-2,3.398E1,-3.266768E-2,4.7725163E1,1.3353754E-2,3.9691772E1,-1.8211134E-2,7.524237E-6,1.3889931E-2],"split_indices":[3,45,0,35,0,0,0,35,0,16,0,0,0],"split_type":[0,0,0,0,0,0,0,0,0,0,0,0,0],"sum_hessian":[2.49E2,2.46E2,3E0,2.43E2,3E0,2.41E2,2E0,2.38E2,3E0,2.36E2,2E0,2.33E2,3E0],"tree_param":{"num_deleted":"0","num_feature":"91","num_nodes":"13","size_leaf_vector":"1"}},{"base_weights":[-6.81522E-4,-1.3350728E-1,4.7323614E-2,-2.9686227E-2,-3.71205E-2,3.9982505E-2,-3.2542016E-2,-6.9295745E-3,1.886346E0,-1.7247328E0,3.752624E-2,1.3528395E-2,3.7310696E-3,-1.7390812E-2,-1.8847947E-3,3.556285E-5,1.40186045E-2],"categories":[],"categories_nodes":[],"categories_segments":[],"categories_sizes":[],"default_left":[0,0,0,0,0,0,0,0,0,0,0,0,0,0,0,0,0],"id":43,"left_children":[1,3,-1,5,-1,7,-1,9,11,13,15,-1,-1,-1,-1,-1,-1],"loss_changes":[2.7345953E2,1.6135745E2,0E0,9.5591675E1,0E0,2.0974325E1,0E0,1.8163544E1,1.8923016E0,9.830013E0,1.7389618E1,0E0,0E0,0E0,0E0,0E0,0E0],"parents":[2147483647,0,0,1,1,3,3,5,5,7,7,8,8,9,9,10,10],"right_children":[2,4,-1,6,-1,8,-1,10,12,14,16,-1,-1,-1,-1,-1,-1],"split_conditions":[3.955E1,6.295454E-1,4.7323614E-2,5.0535263E1,-3.71205E-2,5.0020683E1,-3.2542016E-2,-1.7444735E1,2.906E1,2.261E1,4.3951954E1,1.3528395E-2,3.7310696E-3,-1.7390812E-2,-1.8847947E-3,3.556285E-5,1.40186045E-2],"split_indices":[3,45,0,35,0,57,0,86,3,0,16,0,0,0,0,0,0],"split_type":[0,0,0,0,0,0,0,0,0,0,0,0,0,0,0,0,0],"sum_hessian":[2.49E2,2.46E2,3E0,2.43E2,3E0,2.41E2,2E0,2.36E2,5E0,5E0,2.31E2,3E0,2E0,2E0,3E0,2.29E2,2E0],"tree_param":{"num_deleted":"0","num_feature":"91","num_nodes":"17","size_leaf_vector":"1"}},{"base_weights":[-7.1878673E-4,-1.3297021E-1,4.7118824E-2,-2.9598966E-2,-3.6959853E-2,3.9801545E-2,-3.2416835E-2,-6.9116205E-3,1.8783381E0,-1.7179935E0,3.7370287E-2,1.4870093E-2,5.1048184E-3,-1.7323913E-2,-1.876638E-3,3.535855E-5,1.396468E-2],"categories":[],"categories_nodes":[],"categories_segments":[],"categories_sizes":[],"default_left":[0,0,0,0,0,0,0,0,0,0,0,0,0,0,0,0,0],"id":44,"left_children":[1,3,-1,5,-1,7,-1,9,11,13,15,-1,-1,-1,-1,-1,-1],"loss_changes":[2.7110046E2,1.599618E2,0E0,9.485674E1,0E0,2.0796879E1,0E0,1.8021685E1,1.8858566E0,9.756283E0,1.7256254E1,0E0,0E0,0E0,0E0,0E0,0E0],"parents":[2147483647,0,0,1,1,3,3,5,5,7,7,8,8,9,9,10,10],"right_children":[2,4,-1,6,-1,8,-1,10,12,14,16,-1,-1,-1,-1,-1,-1],"split_conditions":[3.955E1,6.295454E-1,4.7118824E-2,5.0535263E1,-3.6959853E-2,5.0020683E1,-3.2416835E-2,-1.7444735E1,2.875E1,2.261E1,4.3951954E1,1.4870093E-2,5.1048184E-3,-1.7323913E-2,-1.876638E-3,3.535855E-5,1.396468E-2],"split_indices":[3,45,0,35,0,57,0,86,3,0,16,0,0,0,0,0,0],"split_type":[0,0,0,0,0,0,0,0,0,0,0,0,0,0,0,0,0],"sum_hessian":[2.49E2,2.46E2,3E0,2.43E2,3E0,2.41E2,2E0,2.36E2,5E0,5E0,2.31E2,2E0,3E0,2E0,3E0,2.29E2,2E0],"tree_param":{"num_deleted":"0","num_feature":"91","num_nodes":"17","size_leaf_vector":"1"}},{"base_weights":[-7.445898E-4,-1.3242404E-1,4.691491E-2,-2.9500492E-2,-3.6799908E-2,3.9632928E-2,-3.2292135E-2,-6.8936935E-3,1.8708289E0,-4.27099E-2,1.2060024E-2,1.4812891E-2,5.0827265E-3,-1.4779332E-2,1.3540886E-4],"categories":[],"categories_nodes":[],"categories_segments":[],"categories_sizes":[],"default_left":[0,0,0,0,0,0,0,0,0,0,0,0,0,0,0],"id":45,"left_children":[1,3,-1,5,-1,7,-1,9,11,13,-1,-1,-1,-1,-1],"loss_changes":[2.68761E2,1.5857883E2,0E0,9.412784E1,0E0,2.0631142E1,0E0,1.7889282E1,1.8747463E0,3.9062374E1,0E0,0E0,0E0,0E0,0E0],"parents":[2147483647,0,0,1,1,3,3,5,5,7,7,8,8,9,9],"right_children":[2,4,-1,6,-1,8,-1,10,12,14,-1,-1,-1,-1,-1],"split_conditions":[3.955E1,6.295454E-1,4.691491E-2,5.0535263E1,-3.6799908E-2,5.0020683E1,-3.2292135E-2,1.9132074E1,2.875E1,1.17575E1,1.2060024E-2,1.4812891E-2,5.0827265E-3,-1.4779332E-2,1.3540886E-4],"split_indices":[3,45,0,35,0,57,0,88,3,61,0,0,0,0,0],"split_type":[0,0,0,0,0,0,0,0,0,0,0,0,0,0,0],"sum_hessian":[2.49E2,2.46E2,3E0,2.43E2,3E0,2.41E2,2E0,2.36E2,5E0,2.33E2,3E0,2E0,3E0,5E0,2.28E2],"tree_param":{"num_deleted":"0","num_feature":"91","num_nodes":"15","size_leaf_vector":"1"}},{"base_weights":[-7.597504E-4,-1.3186957E-1,4.6711877E-2,-2.9391658E-2,-3.6640655E-2,3.9475784E-2,-3.216792E-2,1.755255E-3,1.3175568E-2,4.1296165E-2,-1.8017594E-2,6.2237054E-6,1.375426E-2],"categories":[],"categories_nodes":[],"categories_segments":[],"categories_sizes":[],"default_left":[0,0,0,0,0,0,0,0,0,0,0,0,0],"id":46,"left_children":[1,3,-1,5,-1,7,-1,9,-1,11,-1,-1,-1],"loss_changes":[2.6644104E2,1.5720833E2,0E0,9.3404915E1,0E0,2.0479435E1,0E0,2.9654612E1,0E0,2.232419E1,0E0,0E0,0E0],"parents":[2147483647,0,0,1,1,3,3,5,5,7,7,9,9],"right_children":[2,4,-1,6,-1,8,-1,10,-1,12,-1,-1,-1],"split_conditions":[3.955E1,6.295454E-1,4.6711877E-2,5.0535263E1,-3.6640655E-2,3.398E1,-3.216792E-2,4.7725163E1,1.3175568E-2,3.9691772E1,-1.8017594E-2,6.2237054E-6,1.375426E-2],"split_indices":[3,45,0,35,0,0,0,35,0,16,0,0,0],"split_type":[0,0,0,0,0,0,0,0,0,0,0,0,0],"sum_hessian":[2.49E2,2.46E2,3E0,2.43E2,3E0,2.41E2,2E0,2.38E2,3E0,2.36E2,2E0,2.33E2,3E0],"tree_param":{"num_deleted":"0","num_feature":"91","num_nodes":"13","size_leaf_vector":"1"}},{"base_weights":[-8.0808456E-4,-1.3135114E-1,4.650973E-2,-2.9317353E-2,-3.648209E-2,3.928485E-2,-3.2044172E-2,-7.0040748E-3,1.8611499E0,-1.703423E0,3.689902E-2,1.3350493E-2,3.677504E-3,-1.7165778E-2,-1.8691296E-3,3.4297846E-5,1.3835709E-2],"categories":[],"categories_nodes":[],"categories_segments":[],"categories_sizes":[],"default_left":[0,0,0,0,0,0,0,0,0,0,0,0,0,0,0,0,0],"id":47,"left_children":[1,3,-1,5,-1,7,-1,9,11,13,15,-1,-1,-1,-1,-1,-1],"loss_changes":[2.6414334E2,1.5584798E2,0E0,9.2686386E1,0E0,2.0421423E1,0E0,1.7714148E1,1.848587E0,9.560577E0,1.69408E1,0E0,0E0,0E0,0E0,0E0,0E0],"parents":[2147483647,0,0,1,1,3,3,5,5,7,7,8,8,9,9,10,10],"right_children":[2,4,-1,6,-1,8,-1,10,12,14,16,-1,-1,-1,-1,-1,-1],"split_conditions":[3.955E1,6.295454E-1,4.650973E-2,5.0535263E1,-3.648209E-2,5.0020683E1,-3.2044172E-2,-1.7444735E1,2.906E1,2.261E1,4.3951954E1,1.3350493E-2,3.677504E-3,-1.7165778E-2,-1.8691296E-3,3.4297846E-5,1.3835709E-2],"split_indices":[3,45,0,35,0,57,0,86,3,0,16,0,0,0,0,0,0],"split_type":[0,0,0,0,0,0,0,0,0,0,0,0,0,0,0,0,0],"sum_hessian":[2.49E2,2.46E2,3E0,2.43E2,3E0,2.41E2,2E0,2.36E2,5E0,5E0,2.31E2,3E0,2E0,2E0,3E0,2.29E2,2E0],"tree_param":{"num_deleted":"0","num_feature":"91","num_nodes":"17","size_leaf_vector":"1"}},{"base_weights":[-8.4402243E-4,-1.3082261E-1,4.6308454E-2,-2.923089E-2,-3.6324207E-2,3.91072E-2,-3.1920906E-2,-6.9854455E-3,1.8532488E0,-1.6967664E0,3.6745895E-2,1.46792E-2,5.0308355E-3,-1.7099744E-2,-1.8610408E-3,3.4100834E-5,1.3782485E-2],"categories":[],"categories_nodes":[],"categories_segments":[],"categories_sizes":[],"default_left":[0,0,0,0,0,0,0,0,0,0,0,0,0,0,0,0,0],"id":48,"left_children":[1,3,-1,5,-1,7,-1,9,11,13,15,-1,-1,-1,-1,-1,-1],"loss_changes":[2.6186462E2,1.5449997E2,0E0,9.197379E1,0E0,2.0248644E1,0E0,1.7575794E1,1.8492451E0,9.488874E0,1.6810875E1,0E0,0E0,0E0,0E0,0E0,0E0],"parents":[2147483647,0,0,1,1,3,3,5,5,7,7,8,8,9,9,10,10],"right_children":[2,4,-1,6,-1,8,-1,10,12,14,16,-1,-1,-1,-1,-1,-1],"split_conditions":[3.955E1,6.295454E-1,4.6308454E-2,5.0535263E1,-3.6324207E-2,5.0020683E1,-3.1920906E-2,-1.7444735E1,2.875E1,2.261E1,4.3951954E1,1.46792E-2,5.0308355E-3,-1.7099744E-2,-1.8610408E-3,3.4100834E-5,1.3782485E-2],"split_indices":[3,45,0,35,0,57,0,86,3,0,16,0,0,0,0,0,0],"split_type":[0,0,0,0,0,0,0,0,0,0,0,0,0,0,0,0,0],"sum_hessian":[2.49E2,2.46E2,3E0,2.43E2,3E0,2.41E2,2E0,2.36E2,5E0,5E0,2.31E2,2E0,3E0,2E0,3E0,2.29E2,2E0],"tree_param":{"num_deleted":"0","num_feature":"91","num_nodes":"17","size_leaf_vector":"1"}},{"base_weights":[-8.6864526E-4,-1.3028508E-1,4.610805E-2,-2.9133359E-2,-3.616701E-2,3.894173E-2,-3.1798117E-2,-6.966848E-3,1.8458402E0,-4.23369E-2,1.1909108E-2,1.4622731E-2,5.009064E-3,-1.4607922E-2,1.3311699E-4],"categories":[],"categories_nodes":[],"categories_segments":[],"categories_sizes":[],"default_left":[0,0,0,0,0,0,0,0,0,0,0,0,0,0,0],"id":49,"left_children":[1,3,-1,5,-1,7,-1,9,11,13,-1,-1,-1,-1,-1],"loss_changes":[2.5960486E2,1.5316422E2,0E0,9.126706E1,0E0,2.0087278E1,0E0,1.7447031E1,1.8383236E0,3.8157795E1,0E0,0E0,0E0,0E0,0E0],"parents":[2147483647,0,0,1,1,3,3,5,5,7,7,8,8,9,9],"right_children":[2,4,-1,6,-1,8,-1,10,12,14,-1,-1,-1,-1,-1],"split_conditions":[3.955E1,6.295454E-1,4.610805E-2,5.0535263E1,-3.616701E-2,5.0020683E1,-3.1798117E-2,1.9132074E1,2.875E1,1.17575E1,1.1909108E-2,1.4622731E-2,5.009064E-3,-1.4607922E-2,1.3311699E-4],"split_indices":[3,45,0,35,0,57,0,88,3,61,0,0,0,0,0],"split_type":[0,0,0,0,0,0,0,0,0,0,0,0,0,0,0],"sum_hessian":[2.49E2,2.46E2,3E0,2.43E2,3E0,2.41E2,2E0,2.36E2,5E0,2.33E2,3E0,2E0,3E0,5E0,2.28E2],"tree_param":{"num_deleted":"0","num_feature":"91","num_nodes":"15","size_leaf_vector":"1"}},{"base_weights":[-8.827881E-4,-1.2973939E-1,4.590851E-2,-2.9025622E-2,-3.6010493E-2,3.8787562E-2,-3.1675797E-2,1.5684691E-3,1.2999712E-2,4.0688194E-2,-1.7826317E-2,4.9631385E-6,1.3620148E-2],"categories":[],"categories_nodes":[],"categories_segments":[],"categories_sizes":[],"default_left":[0,0,0,0,0,0,0,0,0,0,0,0,0],"id":50,"left_children":[1,3,-1,5,-1,7,-1,9,-1,11,-1,-1,-1],"loss_changes":[2.5736395E2,1.5184052E2,0E0,9.05661E1,0E0,1.9939304E1,0E0,2.9025183E1,0E0,2.1894842E1,0E0,0E0,0E0],"parents":[2147483647,0,0,1,1,3,3,5,5,7,7,9,9],"right_children":[2,4,-1,6,-1,8,-1,10,-1,12,-1,-1,-1],"split_conditions":[3.955E1,6.295454E-1,4.590851E-2,5.0535263E1,-3.6010493E-2,3.398E1,-3.1675797E-2,4.7725163E1,1.2999712E-2,3.9691772E1,-1.7826317E-2,4.9631385E-6,1.3620148E-2],"split_indices":[3,45,0,35,0,0,0,35,0,16,0,0,0],"split_type":[0,0,0,0,0,0,0,0,0,0,0,0,0],"sum_hessian":[2.49E2,2.46E2,3E0,2.43E2,3E0,2.41E2,2E0,2.38E2,3E0,2.36E2,2E0,2.33E2,3E0],"tree_param":{"num_deleted":"0","num_feature":"91","num_nodes":"13","size_leaf_vector":"1"}},{"base_weights":[-9.29611E-4,-1.2922919E-1,4.570984E-2,-2.895191E-2,-3.5854653E-2,3.8600102E-2,-3.1553946E-2,-7.073945E-3,1.8362917E0,-1.6823655E0,3.6283053E-2,1.45414695E-2,4.987365E-3,-1.6943496E-2,-1.8535847E-3,3.306843E-5,1.3655107E-2],"categories":[],"categories_nodes":[],"categories_segments":[],"categories_sizes":[],"default_left":[0,0,0,0,0,0,0,0,0,0,0,0,0,0,0,0,0],"id":51,"left_children":[1,3,-1,5,-1,7,-1,9,11,13,15,-1,-1,-1,-1,-1,-1],"loss_changes":[2.5514449E2,1.5052661E2,0E0,8.986942E1,0E0,1.988309E1,0E0,1.727568E1,1.8096771E0,9.298231E0,1.650332E1,0E0,0E0,0E0,0E0,0E0,0E0],"parents":[2147483647,0,0,1,1,3,3,5,5,7,7,8,8,9,9,10,10],"right_children":[2,4,-1,6,-1,8,-1,10,12,14,16,-1,-1,-1,-1,-1,-1],"split_conditions":[3.955E1,6.295454E-1,4.570984E-2,5.0535263E1,-3.5854653E-2,5.0020683E1,-3.1553946E-2,-1.7444735E1,2.875E1,2.261E1,4.3951954E1,1.45414695E-2,4.987365E-3,-1.6943496E-2,-1.8535847E-3,3.306843E-5,1.3655107E-2],"split_indices":[3,45,0,35,0,57,0,86,3,0,16,0,0,0,0,0,0],"split_type":[0,0,0,0,0,0,0,0,0,0,0,0,0,0,0,0,0],"sum_hessian":[2.49E2,2.46E2,3E0,2.43E2,3E0,2.41E2,2E0,2.36E2,5E0,5E0,2.31E2,2E0,3E0,2E0,3E0,2.29E2,2E0],"tree_param":{"num_deleted":"0","num_feature":"91","num_nodes":"17","size_leaf_vector":"1"}},{"base_weights":[-9.533629E-4,-1.2869805E-1,4.5512028E-2,-2.8855072E-2,-3.569949E-2,3.843696E-2,-3.1432565E-2,-7.0546814E-3,1.8289508E0,-1.6757909E0,3.6132697E-2,1.3125781E-2,3.6055322E-3,-1.6878318E-2,-1.8455631E-3,3.2878466E-5,1.3602577E-2],"categories":[],"categories_nodes":[],"categories_segments":[],"categories_sizes":[],"default_left":[0,0,0,0,0,0,0,0,0,0,0,0,0,0,0,0,0],"id":52,"left_children":[1,3,-1,5,-1,7,-1,9,11,13,15,-1,-1,-1,-1,-1,-1],"loss_changes":[2.5294272E2,1.492252E2,0E0,8.9178856E1,0E0,1.9724628E1,0E0,1.7140749E1,1.7994881E0,9.22851E0,1.6376747E1,0E0,0E0,0E0,0E0,0E0,0E0],"parents":[2147483647,0,0,1,1,3,3,5,5,7,7,8,8,9,9,10,10],"right_children":[2,4,-1,6,-1,8,-1,10,12,14,16,-1,-1,-1,-1,-1,-1],"split_conditions":[3.955E1,6.295454E-1,4.5512028E-2,5.0535263E1,-3.569949E-2,5.0020683E1,-3.1432565E-2,-1.7444735E1,2.906E1,2.261E1,4.3951954E1,1.3125781E-2,3.6055322E-3,-1.6878318E-2,-1.8455631E-3,3.2878466E-5,1.3602577E-2],"split_indices":[3,45,0,35,0,57,0,86,3,0,16,0,0,0,0,0,0],"split_type":[0,0,0,0,0,0,0,0,0,0,0,0,0,0,0,0,0],"sum_hessian":[2.49E2,2.46E2,3E0,2.43E2,3E0,2.41E2,2E0,2.36E2,5E0,5E0,2.31E2,3E0,2E0,2E0,3E0,2.29E2,2E0],"tree_param":{"num_deleted":"0","num_feature":"91","num_nodes":"17","size_leaf_vector":"1"}},{"base_weights":[-9.877648E-4,-1.2818009E-1,4.531507E-2,-2.8769678E-2,-3.5544995E-2,3.826329E-2,-3.1311657E-2,-7.035441E-3,1.821186E0,-4.1964676E-2,1.1760011E-2,1.443504E-2,4.936445E-3,-1.4438546E-2,1.3087387E-4],"categories":[],"categories_nodes":[],"categories_segments":[],"categories_sizes":[],"default_left":[0,0,0,0,0,0,0,0,0,0,0,0,0,0,0],"id":53,"left_children":[1,3,-1,5,-1,7,-1,9,11,13,-1,-1,-1,-1,-1],"loss_changes":[2.5076064E2,1.479345E2,0E0,8.8493256E1,0E0,1.9557734E1,0E0,1.7015491E1,1.802578E0,3.7274467E1,0E0,0E0,0E0,0E0,0E0],"parents":[2147483647,0,0,1,1,3,3,5,5,7,7,8,8,9,9],"right_children":[2,4,-1,6,-1,8,-1,10,12,14,-1,-1,-1,-1,-1],"split_conditions":[3.955E1,6.295454E-1,4.531507E-2,5.0535263E1,-3.5544995E-2,5.0020683E1,-3.1311657E-2,1.9132074E1,2.875E1,1.17575E1,1.1760011E-2,1.443504E-2,4.936445E-3,-1.4438546E-2,1.3087387E-4],"split_indices":[3,45,0,35,0,57,0,88,3,61,0,0,0,0,0],"split_type":[0,0,0,0,0,0,0,0,0,0,0,0,0,0,0],"sum_hessian":[2.49E2,2.46E2,3E0,2.43E2,3E0,2.41E2,2E0,2.36E2,5E0,2.33E2,3E0,2E0,3E0,5E0,2.28E2],"tree_param":{"num_deleted":"0","num_feature":"91","num_nodes":"15","size_leaf_vector":"1"}},{"base_weights":[-1.0009378E-3,-1.2764303E-1,4.511896E-2,-2.8663043E-2,-3.539117E-2,3.811203E-2,-3.1191207E-2,1.3878737E-3,1.2826152E-2,4.0091366E-2,-1.7637277E-2,3.7413763E-6,1.3487578E-2],"categories":[],"categories_nodes":[],"categories_segments":[],"categories_sizes":[],"default_left":[0,0,0,0,0,0,0,0,0,0,0,0,0],"id":54,"left_children":[1,3,-1,5,-1,7,-1,9,-1,11,-1,-1,-1],"loss_changes":[2.4859604E2,1.4665602E2,0E0,8.781361E1,0E0,1.941324E1,0E0,2.8409815E1,0E0,2.147445E1,0E0,0E0,0E0],"parents":[2147483647,0,0,1,1,3,3,5,5,7,7,9,9],"right_children":[2,4,-1,6,-1,8,-1,10,-1,12,-1,-1,-1],"split_conditions":[3.955E1,6.295454E-1,4.511896E-2,5.0535263E1,-3.539117E-2,3.398E1,-3.1191207E-2,4.7725163E1,1.2826152E-2,3.9691772E1,-1.7637277E-2,3.7413763E-6,1.3487578E-2],"split_indices":[3,45,0,35,0,0,0,35,0,16,0,0,0],"split_type":[0,0,0,0,0,0,0,0,0,0,0,0,0],"sum_hessian":[2.49E2,2.46E2,3E0,2.43E2,3E0,2.41E2,2E0,2.38E2,3E0,2.36E2,2E0,2.33E2,3E0],"tree_param":{"num_deleted":"0","num_feature":"91","num_nodes":"13","size_leaf_vector":"1"}},{"base_weights":[-1.0462895E-3,-1.2714094E-1,4.4923708E-2,-2.8589914E-2,-3.523801E-2,3.7927985E-2,-3.1071221E-2,-7.139338E-3,1.8117659E0,-1.6615576E0,3.5678115E-2,1.4354834E-2,4.915066E-3,-1.6723935E-2,-1.8381586E-3,3.1873606E-5,1.347677E-2],"categories":[],"categories_nodes":[],"categories_segments":[],"categories_sizes":[],"default_left":[0,0,0,0,0,0,0,0,0,0,0,0,0,0,0,0,0],"id":55,"left_children":[1,3,-1,5,-1,7,-1,9,11,13,15,-1,-1,-1,-1,-1,-1],"loss_changes":[2.464522E2,1.4538698E2,0E0,8.713809E1,0E0,1.9358927E1,0E0,1.6847881E1,1.7745495E0,9.042809E0,1.6076904E1,0E0,0E0,0E0,0E0,0E0,0E0],"parents":[2147483647,0,0,1,1,3,3,5,5,7,7,8,8,9,9,10,10],"right_children":[2,4,-1,6,-1,8,-1,10,12,14,16,-1,-1,-1,-1,-1,-1],"split_conditions":[3.955E1,6.295454E-1,4.4923708E-2,5.0535263E1,-3.523801E-2,5.0020683E1,-3.1071221E-2,-1.7444735E1,2.875E1,2.261E1,4.3951954E1,1.4354834E-2,4.915066E-3,-1.6723935E-2,-1.8381586E-3,3.1873606E-5,1.347677E-2],"split_indices":[3,45,0,35,0,57,0,86,3,0,16,0,0,0,0,0,0],"split_type":[0,0,0,0,0,0,0,0,0,0,0,0,0,0,0,0,0],"sum_hessian":[2.49E2,2.46E2,3E0,2.43E2,3E0,2.41E2,2E0,2.36E2,5E0,5E0,2.31E2,2E0,3E0,2E0,3E0,2.29E2,2E0],"tree_param":{"num_deleted":"0","num_feature":"91","num_nodes":"17","size_leaf_vector":"1"}},{"base_weights":[-1.0689461E-3,-1.2661824E-1,4.4729296E-2,-2.8494038E-2,-3.5085518E-2,3.776787E-2,-3.0951697E-2,-7.119481E-3,1.8045235E0,-1.6550639E0,3.5530455E-2,1.4299616E-2,4.8937956E-3,-1.66596E-2,-1.8302038E-3,4.51918E-6,1.1632172E-2],"categories":[],"categories_nodes":[],"categories_segments":[],"categories_sizes":[],"default_left":[0,0,0,0,0,0,0,0,0,0,0,0,0,0,0,0,0],"id":56,"left_children":[1,3,-1,5,-1,7,-1,9,11,13,15,-1,-1,-1,-1,-1,-1],"loss_changes":[2.4432541E2,1.4413E2,0E0,8.646854E1,0E0,1.9204649E1,0E0,1.6716284E1,1.7640591E0,8.975012E0,1.5963126E1,0E0,0E0,0E0,0E0,0E0,0E0],"parents":[2147483647,0,0,1,1,3,3,5,5,7,7,8,8,9,9,10,10],"right_children":[2,4,-1,6,-1,8,-1,10,12,14,16,-1,-1,-1,-1,-1,-1],"split_conditions":[3.955E1,6.295454E-1,4.4729296E-2,5.0535263E1,-3.5085518E-2,5.0020683E1,-3.0951697E-2,-1.7444735E1,2.875E1,2.261E1,1.9132074E1,1.4299616E-2,4.8937956E-3,-1.66596E-2,-1.8302038E-3,4.51918E-6,1.1632172E-2],"split_indices":[3,45,0,35,0,57,0,86,3,0,88,0,0,0,0,0,0],"split_type":[0,0,0,0,0,0,0,0,0,0,0,0,0,0,0,0,0],"sum_hessian":[2.49E2,2.46E2,3E0,2.43E2,3E0,2.41E2,2E0,2.36E2,5E0,5E0,2.31E2,2E0,3E0,2E0,3E0,2.28E2,3E0],"tree_param":{"num_deleted":"0","num_feature":"91","num_nodes":"17","size_leaf_vector":"1"}},{"base_weights":[-1.0986407E-3,-1.2610503E-1,4.4535723E-2,-2.840589E-2,-3.4933683E-2,3.7600946E-2,-3.0832635E-2,-7.107305E-3,1.79731E0,-1.6485955E0,3.537561E-2,1.4244609E-2,4.8726173E-3,-1.6595514E-2,-1.8222836E-3,3.1081076E-5,1.3402547E-2],"categories":[],"categories_nodes":[],"categories_segments":[],"categories_sizes":[],"default_left":[0,0,0,0,0,0,0,0,0,0,0,0,0,0,0,0,0],"id":57,"left_children":[1,3,-1,5,-1,7,-1,9,11,13,15,-1,-1,-1,-1,-1,-1],"loss_changes":[2.4221745E2,1.4288356E2,0E0,8.580387E1,0E0,1.9051765E1,0E0,1.6585564E1,1.7536163E0,8.907719E0,1.5901779E1,0E0,0E0,0E0,0E0,0E0,0E0],"parents":[2147483647,0,0,1,1,3,3,5,5,7,7,8,8,9,9,10,10],"right_children":[2,4,-1,6,-1,8,-1,10,12,14,16,-1,-1,-1,-1,-1,-1],"split_conditions":[3.955E1,6.295454E-1,4.4535723E-2,5.0535263E1,-3.4933683E-2,5.0020683E1,-3.0832635E-2,-1.7444735E1,2.875E1,2.261E1,4.3951954E1,1.4244609E-2,4.8726173E-3,-1.6595514E-2,-1.8222836E-3,3.1081076E-5,1.3402547E-2],"split_indices":[3,45,0,35,0,57,0,86,3,0,16,0,0,0,0,0,0],"split_type":[0,0,0,0,0,0,0,0,0,0,0,0,0,0,0,0,0],"sum_hessian":[2.49E2,2.46E2,3E0,2.43E2,3E0,2.41E2,2E0,2.36E2,5E0,5E0,2.31E2,2E0,3E0,2E0,3E0,2.29E2,2E0],"tree_param":{"num_deleted":"0","num_feature":"91","num_nodes":"17","size_leaf_vector":"1"}},{"base_weights":[-1.1206786E-3,-1.255864E-1,4.4342995E-2,-2.8310414E-2,-3.47825E-2,3.7442394E-2,-3.0714028E-2,-7.0873178E-3,1.7901255E0,-1.6421525E0,3.52294E-2,1.2856754E-2,3.516183E-3,-1.6531678E-2,-1.8143973E-3,3.0902556E-5,1.3350991E-2],"categories":[],"categories_nodes":[],"categories_segments":[],"categories_sizes":[],"default_left":[0,0,0,0,0,0,0,0,0,0,0,0,0,0,0,0,0],"id":58,"left_children":[1,3,-1,5,-1,7,-1,9,11,13,15,-1,-1,-1,-1,-1,-1],"loss_changes":[2.4012723E2,1.4164824E2,0E0,8.514456E1,0E0,1.8899933E1,0E0,1.6456024E1,1.7454376E0,8.840933E0,1.5779815E1,0E0,0E0,0E0,0E0,0E0,0E0],"parents":[2147483647,0,0,1,1,3,3,5,5,7,7,8,8,9,9,10,10],"right_children":[2,4,-1,6,-1,8,-1,10,12,14,16,-1,-1,-1,-1,-1,-1],"split_conditions":[3.955E1,6.295454E-1,4.4342995E-2,5.0535263E1,-3.47825E-2,5.0020683E1,-3.0714028E-2,-1.7444735E1,2.906E1,2.261E1,4.3951954E1,1.2856754E-2,3.516183E-3,-1.6531678E-2,-1.8143973E-3,3.0902556E-5,1.3350991E-2],"split_indices":[3,45,0,35,0,57,0,86,3,0,16,0,0,0,0,0,0],"split_type":[0,0,0,0,0,0,0,0,0,0,0,0,0,0,0,0,0],"sum_hessian":[2.49E2,2.46E2,3E0,2.43E2,3E0,2.41E2,2E0,2.36E2,5E0,5E0,2.31E2,3E0,2E0,2E0,3E0,2.29E2,2E0],"tree_param":{"num_deleted":"0","num_feature":"91","num_nodes":"17","size_leaf_vector":"1"}},{"base_weights":[-1.1532002E-3,-1.2508075E-1,4.4151094E-2,-2.8226187E-2,-3.4631975E-2,3.727348E-2,-3.0595878E-2,1.1504913E-3,1.2615261E-2,3.9422918E-2,-1.7441696E-2,2.403101E-6,1.3337338E-2],"categories":[],"categories_nodes":[],"categories_segments":[],"categories_sizes":[],"default_left":[0,0,0,0,0,0,0,0,0,0,0,0,0],"id":59,"left_children":[1,3,-1,5,-1,7,-1,9,-1,11,-1,-1,-1],"loss_changes":[2.380557E2,1.404231E2,0E0,8.4489975E1,0E0,1.8783798E1,0E0,2.7779161E1,0E0,2.1002802E1,0E0,0E0,0E0],"parents":[2147483647,0,0,1,1,3,3,5,5,7,7,9,9],"right_children":[2,4,-1,6,-1,8,-1,10,-1,12,-1,-1,-1],"split_conditions":[3.955E1,6.295454E-1,4.4151094E-2,5.0535263E1,-3.4631975E-2,3.398E1,-3.0595878E-2,4.7725163E1,1.2615261E-2,3.9691772E1,-1.7441696E-2,2.403101E-6,1.3337338E-2],"split_indices":[3,45,0,35,0,0,0,35,0,16,0,0,0],"split_type":[0,0,0,0,0,0,0,0,0,0,0,0,0],"sum_hessian":[2.49E2,2.46E2,3E0,2.43E2,3E0,2.41E2,2E0,2.38E2,3E0,2.36E2,2E0,2.33E2,3E0],"tree_param":{"num_deleted":"0","num_feature":"91","num_nodes":"13","size_leaf_vector":"1"}},{"base_weights":[-1.1968138E-3,-1.2458864E-1,4.3960024E-2,-2.8153831E-2,-3.4482103E-2,3.7093576E-2,-3.0478183E-2,-7.1978047E-3,1.7804209E0,-1.6328294E0,3.487542E-2,1.4116088E-2,4.8228293E-3,-1.6434543E-2,-1.8065557E-3,3.2365188E-6,1.1486384E-2],"categories":[],"categories_nodes":[],"categories_segments":[],"categories_sizes":[],"default_left":[0,0,0,0,0,0,0,0,0,0,0,0,0,0,0,0,0],"id":60,"left_children":[1,3,-1,5,-1,7,-1,9,11,13,15,-1,-1,-1,-1,-1,-1],"loss_changes":[2.3600273E2,1.3920801E2,0E0,8.384005E1,0E0,1.8698696E1,0E0,1.6266693E1,1.7297459E0,8.732187E0,1.5568836E1,0E0,0E0,0E0,0E0,0E0,0E0],"parents":[2147483647,0,0,1,1,3,3,5,5,7,7,8,8,9,9,10,10],"right_children":[2,4,-1,6,-1,8,-1,10,12,14,16,-1,-1,-1,-1,-1,-1],"split_conditions":[3.955E1,6.295454E-1,4.3960024E-2,5.0535263E1,-3.4482103E-2,5.0020683E1,-3.0478183E-2,-1.7444735E1,2.875E1,2.261E1,1.9132074E1,1.4116088E-2,4.8228293E-3,-1.6434543E-2,-1.8065557E-3,3.2365188E-6,1.1486384E-2],"split_indices":[3,45,0,35,0,57,0,86,3,0,88,0,0,0,0,0,0],"split_type":[0,0,0,0,0,0,0,0,0,0,0,0,0,0,0,0,0],"sum_hessian":[2.49E2,2.46E2,3E0,2.43E2,3E0,2.41E2,2E0,2.36E2,5E0,5E0,2.31E2,2E0,3E0,2E0,3E0,2.28E2,3E0],"tree_param":{"num_deleted":"0","num_feature":"91","num_nodes":"17","size_leaf_vector":"1"}},{"base_weights":[-1.2251571E-3,-1.2408339E-1,4.376978E-2,-2.8066333E-2,-3.4332883E-2,3.6929913E-2,-3.0360943E-2,-7.1847485E-3,1.7733041E0,-1.626448E0,3.4723718E-2,1.4061787E-2,4.801958E-3,-1.6371323E-2,-1.7987378E-3,2.9568562E-5,1.3227617E-2],"categories":[],"categories_nodes":[],"categories_segments":[],"categories_sizes":[],"default_left":[0,0,0,0,0,0,0,0,0,0,0,0,0,0,0,0,0],"id":61,"left_children":[1,3,-1,5,-1,7,-1,9,11,13,15,-1,-1,-1,-1,-1,-1],"loss_changes":[2.3396652E2,1.3800414E2,0E0,8.3195625E1,0E0,1.8549835E1,0E0,1.6139496E1,1.7194881E0,8.666717E0,1.5492E1,0E0,0E0,0E0,0E0,0E0,0E0],"parents":[2147483647,0,0,1,1,3,3,5,5,7,7,8,8,9,9,10,10],"right_children":[2,4,-1,6,-1,8,-1,10,12,14,16,-1,-1,-1,-1,-1,-1],"split_conditions":[3.955E1,6.295454E-1,4.376978E-2,5.0535263E1,-3.4332883E-2,5.0020683E1,-3.0360943E-2,-1.7444735E1,2.875E1,2.261E1,4.3951954E1,1.4061787E-2,4.801958E-3,-1.6371323E-2,-1.7987378E-3,2.9568562E-5,1.3227617E-2],"split_indices":[3,45,0,35,0,57,0,86,3,0,16,0,0,0,0,0,0],"split_type":[0,0,0,0,0,0,0,0,0,0,0,0,0,0,0,0,0],"sum_hessian":[2.49E2,2.46E2,3E0,2.43E2,3E0,2.41E2,2E0,2.36E2,5E0,5E0,2.31E2,2E0,3E0,2E0,3E0,2.29E2,2E0],"tree_param":{"num_deleted":"0","num_feature":"91","num_nodes":"17","size_leaf_vector":"1"}},{"base_weights":[-1.2459767E-3,-1.2357285E-1,4.358036E-2,-2.797164E-2,-3.41843E-2,3.677447E-2,-3.0244151E-2,-7.1640196E-3,1.7662158E0,-4.1080236E-2,1.1417508E-2,1.4007694E-2,4.7811773E-3,-1.4111022E-2,1.2750723E-4],"categories":[],"categories_nodes":[],"categories_segments":[],"categories_sizes":[],"default_left":[0,0,0,0,0,0,0,0,0,0,0,0,0,0,0],"id":62,"left_children":[1,3,-1,5,-1,7,-1,9,11,13,-1,-1,-1,-1,-1],"loss_changes":[2.319475E2,1.36811E2,0E0,8.255635E1,0E0,1.8402E1,0E0,1.6044153E1,1.7092876E0,3.560059E1,0E0,0E0,0E0,0E0,0E0],"parents":[2147483647,0,0,1,1,3,3,5,5,7,7,8,8,9,9],"right_children":[2,4,-1,6,-1,8,-1,10,12,14,-1,-1,-1,-1,-1],"split_conditions":[3.955E1,6.295454E-1,4.358036E-2,5.0535263E1,-3.41843E-2,5.0020683E1,-3.0244151E-2,1.9132074E1,2.875E1,1.17575E1,1.1417508E-2,1.4007694E-2,4.7811773E-3,-1.4111022E-2,1.2750723E-4],"split_indices":[3,45,0,35,0,57,0,88,3,61,0,0,0,0,0],"split_type":[0,0,0,0,0,0,0,0,0,0,0,0,0,0,0],"sum_hessian":[2.49E2,2.46E2,3E0,2.43E2,3E0,2.41E2,2E0,2.36E2,5E0,2.33E2,3E0,2E0,3E0,5E0,2.28E2],"tree_param":{"num_deleted":"0","num_feature":"91","num_nodes":"15","size_leaf_vector":"1"}},{"base_weights":[-1.257291E-3,-1.2305498E-1,4.3391764E-2,-2.7867703E-2,-3.4036368E-2,3.662932E-2,-3.012781E-2,9.849529E-4,1.244746E-2,3.8851436E-2,-1.7257284E-2,1.5103311E-6,1.3194187E-2],"categories":[],"categories_nodes":[],"categories_segments":[],"categories_sizes":[],"default_left":[0,0,0,0,0,0,0,0,0,0,0,0,0],"id":63,"left_children":[1,3,-1,5,-1,7,-1,9,-1,11,-1,-1,-1],"loss_changes":[2.299453E2,1.3562868E2,0E0,8.192232E1,0E0,1.8289982E1,0E0,2.7192076E1,0E0,2.055708E1,0E0,0E0,0E0],"parents":[2147483647,0,0,1,1,3,3,5,5,7,7,9,9],"right_children":[2,4,-1,6,-1,8,-1,10,-1,12,-1,-1,-1],"split_conditions":[3.955E1,6.295454E-1,4.3391764E-2,5.0535263E1,-3.4036368E-2,3.398E1,-3.012781E-2,4.7725163E1,1.244746E-2,3.9691772E1,-1.7257284E-2,1.5103311E-6,1.3194187E-2],"split_indices":[3,45,0,35,0,0,0,35,0,16,0,0,0],"split_type":[0,0,0,0,0,0,0,0,0,0,0,0,0],"sum_hessian":[2.49E2,2.46E2,3E0,2.43E2,3E0,2.41E2,2E0,2.38E2,3E0,2.36E2,2E0,2.33E2,3E0],"tree_param":{"num_deleted":"0","num_feature":"91","num_nodes":"13","size_leaf_vector":"1"}},{"base_weights":[-1.2995726E-3,-1.2257076E-1,4.3203983E-2,-2.7796008E-2,-3.388907E-2,3.6452617E-2,-3.0011917E-2,-7.2613903E-3,1.7570806E0,-1.6125764E0,3.4286674E-2,1.2622461E-2,3.4472258E-3,-1.6220875E-2,-1.7915118E-3,2.8621464E-5,1.310521E-2],"categories":[],"categories_nodes":[],"categories_segments":[],"categories_sizes":[],"default_left":[0,0,0,0,0,0,0,0,0,0,0,0,0,0,0,0,0],"id":64,"left_children":[1,3,-1,5,-1,7,-1,9,11,13,15,-1,-1,-1,-1,-1,-1],"loss_changes":[2.279623E2,1.3445505E2,0E0,8.129215E1,0E0,1.8214922E1,0E0,1.5862653E1,1.6882839E0,8.491361E0,1.5208177E1,0E0,0E0,0E0,0E0,0E0,0E0],"parents":[2147483647,0,0,1,1,3,3,5,5,7,7,8,8,9,9,10,10],"right_children":[2,4,-1,6,-1,8,-1,10,12,14,16,-1,-1,-1,-1,-1,-1],"split_conditions":[3.955E1,6.295454E-1,4.3203983E-2,5.0535263E1,-3.388907E-2,5.0020683E1,-3.0011917E-2,-1.7444735E1,2.906E1,2.261E1,4.3951954E1,1.2622461E-2,3.4472258E-3,-1.6220875E-2,-1.7915118E-3,2.8621464E-5,1.310521E-2],"split_indices":[3,45,0,35,0,57,0,86,3,0,16,0,0,0,0,0,0],"split_type":[0,0,0,0,0,0,0,0,0,0,0,0,0,0,0,0,0],"sum_hessian":[2.49E2,2.46E2,3E0,2.43E2,3E0,2.41E2,2E0,2.36E2,5E0,5E0,2.31E2,3E0,2E0,2E0,3E0,2.29E2,2E0],"tree_param":{"num_deleted":"0","num_feature":"91","num_nodes":"17","size_leaf_vector":"1"}},{"base_weights":[-1.3301077E-3,-1.2207692E-1,4.3017015E-2,-2.7712759E-2,-3.3742413E-2,3.6288522E-2,-2.9896466E-2,-7.2400803E-3,1.7496202E0,-1.6062737E0,3.4145445E-2,1.3881311E-2,4.7323257E-3,-1.6158476E-2,-1.783759E-3,2.8456989E-5,1.3054797E-2],"categories":[],"categories_nodes":[],"categories_segments":[],"categories_sizes":[],"default_left":[0,0,0,0,0,0,0,0,0,0,0,0,0,0,0,0,0],"id":65,"left_children":[1,3,-1,5,-1,7,-1,9,11,13,15,-1,-1,-1,-1,-1,-1],"loss_changes":[2.2599568E2,1.3329213E2,0E0,8.066719E1,0E0,1.8060768E1,0E0,1.5738758E1,1.6859417E0,8.427708E0,1.5091525E1,0E0,0E0,0E0,0E0,0E0,0E0],"parents":[2147483647,0,0,1,1,3,3,5,5,7,7,8,8,9,9,10,10],"right_children":[2,4,-1,6,-1,8,-1,10,12,14,16,-1,-1,-1,-1,-1,-1],"split_conditions":[3.955E1,6.295454E-1,4.3017015E-2,5.0535263E1,-3.3742413E-2,5.0020683E1,-2.9896466E-2,-1.7444735E1,2.875E1,2.261E1,4.3951954E1,1.3881311E-2,4.7323257E-3,-1.6158476E-2,-1.783759E-3,2.8456989E-5,1.3054797E-2],"split_indices":[3,45,0,35,0,57,0,86,3,0,16,0,0,0,0,0,0],"split_type":[0,0,0,0,0,0,0,0,0,0,0,0,0,0,0,0,0],"sum_hessian":[2.49E2,2.46E2,3E0,2.43E2,3E0,2.41E2,2E0,2.36E2,5E0,5E0,2.31E2,2E0,3E0,2E0,3E0,2.29E2,2E0],"tree_param":{"num_deleted":"0","num_feature":"91","num_nodes":"17","size_leaf_vector":"1"}},{"base_weights":[-1.3498955E-3,-1.2157447E-1,4.283085E-2,-2.7619002E-2,-3.359639E-2,3.613597E-2,-2.9781463E-2,-7.218803E-3,1.7426269E0,-4.0711097E-2,1.1274175E-2,1.38279125E-2,4.7118464E-3,-1.3947871E-2,1.2540897E-4],"categories":[],"categories_nodes":[],"categories_segments":[],"categories_sizes":[],"default_left":[0,0,0,0,0,0,0,0,0,0,0,0,0,0,0],"id":66,"left_children":[1,3,-1,5,-1,7,-1,9,11,13,-1,-1,-1,-1,-1],"loss_changes":[2.240454E2,1.3213974E2,0E0,8.004736E1,0E0,1.7916836E1,0E0,1.5646148E1,1.6759186E0,3.4779022E1,0E0,0E0,0E0,0E0,0E0],"parents":[2147483647,0,0,1,1,3,3,5,5,7,7,8,8,9,9],"right_children":[2,4,-1,6,-1,8,-1,10,12,14,-1,-1,-1,-1,-1],"split_conditions":[3.955E1,6.295454E-1,4.283085E-2,5.0535263E1,-3.359639E-2,5.0020683E1,-2.9781463E-2,1.9132074E1,2.875E1,1.17575E1,1.1274175E-2,1.38279125E-2,4.7118464E-3,-1.3947871E-2,1.2540897E-4],"split_indices":[3,45,0,35,0,57,0,88,3,61,0,0,0,0,0],"split_type":[0,0,0,0,0,0,0,0,0,0,0,0,0,0,0],"sum_hessian":[2.49E2,2.46E2,3E0,2.43E2,3E0,2.41E2,2E0,2.36E2,5E0,2.33E2,3E0,2E0,3E0,5E0,2.28E2],"tree_param":{"num_deleted":"0","num_feature":"91","num_nodes":"15","size_leaf_vector":"1"}},{"base_weights":[-1.3603285E-3,-1.2106482E-1,4.26455E-2,-2.7516155E-2,-3.3450995E-2,3.5993543E-2,-2.9666899E-2,8.2358625E-4,1.228115E-2,3.8288992E-2,-1.7075077E-2,4.0639603E-7,1.3066478E-2],"categories":[],"categories_nodes":[],"categories_segments":[],"categories_sizes":[],"default_left":[0,0,0,0,0,0,0,0,0,0,0,0,0],"id":67,"left_children":[1,3,-1,5,-1,7,-1,9,-1,11,-1,-1,-1],"loss_changes":[2.2211143E2,1.3099776E2,0E0,7.943261E1,0E0,1.780699E1,0E0,2.6618202E1,0E0,2.0164436E1,0E0,0E0,0E0],"parents":[2147483647,0,0,1,1,3,3,5,5,7,7,9,9],"right_children":[2,4,-1,6,-1,8,-1,10,-1,12,-1,-1,-1],"split_conditions":[3.955E1,6.295454E-1,4.26455E-2,5.0535263E1,-3.3450995E-2,3.398E1,-2.9666899E-2,4.7725163E1,1.228115E-2,3.9691772E1,-1.7075077E-2,4.0639603E-7,1.3066478E-2],"split_indices":[3,45,0,35,0,0,0,35,0,16,0,0,0],"split_type":[0,0,0,0,0,0,0,0,0,0,0,0,0],"sum_hessian":[2.49E2,2.46E2,3E0,2.43E2,3E0,2.41E2,2E0,2.38E2,3E0,2.36E2,2E0,2.33E2,3E0],"tree_param":{"num_deleted":"0","num_feature":"91","num_nodes":"13","size_leaf_vector":"1"}},{"base_weights":[-1.4012783E-3,-1.205883E-1,4.246095E-2,-2.7445065E-2,-3.3306234E-2,3.582004E-2,-2.9552778E-2,-7.3132394E-3,1.7336146E0,-1.5925635E0,3.3716135E-2,1.3751097E-2,4.6914537E-3,-1.6009824E-2,-1.776584E-3,2.7535214E-5,1.2933901E-2],"categories":[],"categories_nodes":[],"categories_segments":[],"categories_sizes":[],"default_left":[0,0,0,0,0,0,0,0,0,0,0,0,0,0,0,0,0],"id":68,"left_children":[1,3,-1,5,-1,7,-1,9,11,13,15,-1,-1,-1,-1,-1,-1],"loss_changes":[2.2019597E2,1.2986423E2,0E0,7.882158E1,0E0,1.7734688E1,0E0,1.546861E1,1.6499691E0,8.256903E0,1.4814819E1,0E0,0E0,0E0,0E0,0E0,0E0],"parents":[2147483647,0,0,1,1,3,3,5,5,7,7,8,8,9,9,10,10],"right_children":[2,4,-1,6,-1,8,-1,10,12,14,16,-1,-1,-1,-1,-1,-1],"split_conditions":[3.955E1,6.295454E-1,4.246095E-2,5.0535263E1,-3.3306234E-2,5.0020683E1,-2.9552778E-2,-1.7444735E1,2.875E1,2.261E1,4.3951954E1,1.3751097E-2,4.6914537E-3,-1.6009824E-2,-1.776584E-3,2.7535214E-5,1.2933901E-2],"split_indices":[3,45,0,35,0,57,0,86,3,0,16,0,0,0,0,0,0],"split_type":[0,0,0,0,0,0,0,0,0,0,0,0,0,0,0,0,0],"sum_hessian":[2.49E2,2.46E2,3E0,2.43E2,3E0,2.41E2,2E0,2.36E2,5E0,5E0,2.31E2,2E0,3E0,2E0,3E0,2.29E2,2E0],"tree_param":{"num_deleted":"0","num_feature":"91","num_nodes":"17","size_leaf_vector":"1"}},{"base_weights":[-1.4203095E-3,-1.2009184E-1,4.227719E-2,-2.7352002E-2,-3.31621E-2,3.5669632E-2,-2.9439095E-2,-1.4161196E-2,1.4949915E0,-2.3946157E0,4.7999185E-2,1.7350432E-3,1.2414043E-2,-1.8943274E-2,-2.376796E-3,1.0986287E-4,1.28841465E-2],"categories":[],"categories_nodes":[],"categories_segments":[],"categories_sizes":[],"default_left":[0,0,0,0,0,0,0,0,0,0,0,0,0,0,0,0,0],"id":69,"left_children":[1,3,-1,5,-1,7,-1,9,11,13,15,-1,-1,-1,-1,-1,-1],"loss_changes":[2.1829572E2,1.287415E2,0E0,7.821595E1,0E0,1.7619223E1,0E0,3.488788E1,5.624954E0,9.215961E0,1.45103245E1,0E0,0E0,0E0,0E0,0E0,0E0],"parents":[2147483647,0,0,1,1,3,3,5,5,7,7,8,8,9,9,10,10],"right_children":[2,4,-1,6,-1,8,-1,10,12,14,16,-1,-1,-1,-1,-1,-1],"split_conditions":[3.955E1,6.295454E-1,4.227719E-2,5.0535263E1,-3.31621E-2,1.320887E8,-2.9439095E-2,1.17575E1,2.01E1,1.0099445E8,3.9691772E1,1.7350432E-3,1.2414043E-2,-1.8943274E-2,-2.376796E-3,1.0986287E-4,1.28841465E-2],"split_indices":[3,45,0,35,0,8,0,61,2,8,16,0,0,0,0,0,0],"split_type":[0,0,0,0,0,0,0,0,0,0,0,0,0,0,0,0,0],"sum_hessian":[2.49E2,2.46E2,3E0,2.43E2,3E0,2.41E2,2E0,2.34E2,7E0,5E0,2.29E2,3E0,4E0,3E0,2E0,2.27E2,2E0],"tree_param":{"num_deleted":"0","num_feature":"91","num_nodes":"17","size_leaf_vector":"1"}},{"base_weights":[-1.4701172E-3,-1.1962878E-1,4.2094234E-2,-2.7290972E-2,-3.3018585E-2,3.5487868E-2,-2.932585E-2,-7.422755E-3,1.7245429E0,-1.5800791E0,3.3281386E-2,1.2391886E-2,3.3791647E-3,-1.587537E-2,-1.7693711E-3,2.6300262E-5,1.2834585E-2],"categories":[],"categories_nodes":[],"categories_segments":[],"categories_sizes":[],"default_left":[0,0,0,0,0,0,0,0,0,0,0,0,0,0,0,0,0],"id":70,"left_children":[1,3,-1,5,-1,7,-1,9,11,13,15,-1,-1,-1,-1,-1,-1],"loss_changes":[2.1641374E2,1.2762704E2,0E0,7.7614E1,0E0,1.7552574E1,0E0,1.5223818E1,1.6331959E0,8.105186E0,1.459052E1,0E0,0E0,0E0,0E0,0E0,0E0],"parents":[2147483647,0,0,1,1,3,3,5,5,7,7,8,8,9,9,10,10],"right_children":[2,4,-1,6,-1,8,-1,10,12,14,16,-1,-1,-1,-1,-1,-1],"split_conditions":[3.955E1,6.295454E-1,4.2094234E-2,5.0535263E1,-3.3018585E-2,5.0020683E1,-2.932585E-2,-1.7444735E1,2.906E1,2.261E1,4.3951954E1,1.2391886E-2,3.3791647E-3,-1.587537E-2,-1.7693711E-3,2.6300262E-5,1.2834585E-2],"split_indices":[3,45,0,35,0,57,0,86,3,0,16,0,0,0,0,0,0],"split_type":[0,0,0,0,0,0,0,0,0,0,0,0,0,0,0,0,0],"sum_hessian":[2.49E2,2.46E2,3E0,2.43E2,3E0,2.41E2,2E0,2.36E2,5E0,5E0,2.31E2,3E0,2E0,2E0,3E0,2.29E2,2E0],"tree_param":{"num_deleted":"0","num_feature":"91","num_nodes":"17","size_leaf_vector":"1"}},{"base_weights":[-1.4986848E-3,-1.1914642E-1,4.191207E-2,-2.7208652E-2,-3.2875698E-2,3.5328507E-2,-2.9213043E-2,-1.4225626E-2,1.4865651E0,-2.379073E0,4.7527894E-2,1.7274205E-3,1.2342346E-2,-1.8815532E-2,-2.3677545E-3,1.0842139E-4,1.2785212E-2],"categories":[],"categories_nodes":[],"categories_segments":[],"categories_sizes":[],"default_left":[0,0,0,0,0,0,0,0,0,0,0,0,0,0,0,0,0],"id":71,"left_children":[1,3,-1,5,-1,7,-1,9,11,13,15,-1,-1,-1,-1,-1,-1],"loss_changes":[2.1454675E2,1.2652319E2,0E0,7.7017334E1,0E0,1.7424522E1,0E0,3.443192E1,5.556221E0,9.077782E0,1.4289694E1,0E0,0E0,0E0,0E0,0E0,0E0],"parents":[2147483647,0,0,1,1,3,3,5,5,7,7,8,8,9,9,10,10],"right_children":[2,4,-1,6,-1,8,-1,10,12,14,16,-1,-1,-1,-1,-1,-1],"split_conditions":[3.955E1,6.295454E-1,4.191207E-2,5.0535263E1,-3.2875698E-2,1.320887E8,-2.9213043E-2,1.17575E1,2.01E1,1.0099445E8,3.9691772E1,1.7274205E-3,1.2342346E-2,-1.8815532E-2,-2.3677545E-3,1.0842139E-4,1.2785212E-2],"split_indices":[3,45,0,35,0,8,0,61,2,8,16,0,0,0,0,0,0],"split_type":[0,0,0,0,0,0,0,0,0,0,0,0,0,0,0,0,0],"sum_hessian":[2.49E2,2.46E2,3E0,2.43E2,3E0,2.41E2,2E0,2.34E2,7E0,5E0,2.29E2,3E0,4E0,3E0,2E0,2.27E2,2E0],"tree_param":{"num_deleted":"0","num_feature":"91","num_nodes":"17","size_leaf_vector":"1"}},{"base_weights":[-1.5476184E-3,-1.186869E-1,4.173069E-2,-2.7147688E-2,-3.273342E-2,3.5148546E-2,-2.9100668E-2,-7.529955E-3,1.7150912E0,-1.567685E0,3.285134E-2,1.3602496E-2,4.6425816E-3,-1.5741922E-2,-1.7621833E-3,2.5082732E-5,1.2736031E-2],"categories":[],"categories_nodes":[],"categories_segments":[],"categories_sizes":[],"default_left":[0,0,0,0,0,0,0,0,0,0,0,0,0,0,0,0,0],"id":72,"left_children":[1,3,-1,5,-1,7,-1,9,11,13,15,-1,-1,-1,-1,-1,-1],"loss_changes":[2.1269707E2,1.2542793E2,0E0,7.642462E1,0E0,1.7363691E1,0E0,1.4982757E1,1.6121979E0,7.9560423E0,1.4369615E1,0E0,0E0,0E0,0E0,0E0,0E0],"parents":[2147483647,0,0,1,1,3,3,5,5,7,7,8,8,9,9,10,10],"right_children":[2,4,-1,6,-1,8,-1,10,12,14,16,-1,-1,-1,-1,-1,-1],"split_conditions":[3.955E1,6.295454E-1,4.173069E-2,5.0535263E1,-3.273342E-2,5.0020683E1,-2.9100668E-2,-1.7444735E1,2.875E1,2.261E1,4.3951954E1,1.3602496E-2,4.6425816E-3,-1.5741922E-2,-1.7621833E-3,2.5082732E-5,1.2736031E-2],"split_indices":[3,45,0,35,0,57,0,86,3,0,16,0,0,0,0,0,0],"split_type":[0,0,0,0,0,0,0,0,0,0,0,0,0,0,0,0,0],"sum_hessian":[2.49E2,2.46E2,3E0,2.43E2,3E0,2.41E2,2E0,2.36E2,5E0,5E0,2.31E2,2E0,3E0,2E0,3E0,2.29E2,2E0],"tree_param":{"num_deleted":"0","num_feature":"91","num_nodes":"17","size_leaf_vector":"1"}},{"base_weights":[-1.5650846E-3,-1.18197724E-1,4.1550092E-2,-2.7054964E-2,-3.2591764E-2,3.500153E-2,-2.8988723E-2,-1.4271681E-2,1.478027E0,-2.3636413E0,4.707827E-2,1.7198366E-3,1.2269588E-2,-1.8688725E-2,-2.3587425E-3,1.0709599E-4,1.268704E-2],"categories":[],"categories_nodes":[],"categories_segments":[],"categories_sizes":[],"default_left":[0,0,0,0,0,0,0,0,0,0,0,0,0,0,0,0,0],"id":73,"left_children":[1,3,-1,5,-1,7,-1,9,11,13,15,-1,-1,-1,-1,-1,-1],"loss_changes":[2.1086151E2,1.2434358E2,0E0,7.583741E1,0E0,1.7227898E1,0E0,3.3982697E1,5.4866543E0,8.941715E0,1.4072197E1,0E0,0E0,0E0,0E0,0E0,0E0],"parents":[2147483647,0,0,1,1,3,3,5,5,7,7,8,8,9,9,10,10],"right_children":[2,4,-1,6,-1,8,-1,10,12,14,16,-1,-1,-1,-1,-1,-1],"split_conditions":[3.955E1,6.295454E-1,4.1550092E-2,5.0535263E1,-3.2591764E-2,1.320887E8,-2.8988723E-2,1.17575E1,2.01E1,1.0099445E8,3.9691772E1,1.7198366E-3,1.2269588E-2,-1.8688725E-2,-2.3587425E-3,1.0709599E-4,1.268704E-2],"split_indices":[3,45,0,35,0,8,0,61,2,8,16,0,0,0,0,0,0],"split_type":[0,0,0,0,0,0,0,0,0,0,0,0,0,0,0,0,0],"sum_hessian":[2.49E2,2.46E2,3E0,2.43E2,3E0,2.41E2,2E0,2.34E2,7E0,5E0,2.29E2,3E0,4E0,3E0,2E0,2.27E2,2E0],"tree_param":{"num_deleted":"0","num_feature":"91","num_nodes":"17","size_leaf_vector":"1"}},{"base_weights":[-1.6132485E-3,-1.17741816E-1,4.137028E-2,-2.6994165E-2,-3.245072E-2,3.482326E-2,-2.8877212E-2,-7.6349685E-3,1.7061194E0,-4.017829E-2,1.0952047E-2,1.2256193E-2,3.347478E-3,-1.3580067E-2,1.18913675E-4],"categories":[],"categories_nodes":[],"categories_segments":[],"categories_sizes":[],"default_left":[0,0,0,0,0,0,0,0,0,0,0,0,0,0,0],"id":74,"left_children":[1,3,-1,5,-1,7,-1,9,11,13,-1,-1,-1,-1,-1],"loss_changes":[2.090436E2,1.2326718E2,0E0,7.5253784E1,0E0,1.7185411E1,0E0,1.477443E1,1.5914001E0,3.2953587E1,0E0,0E0,0E0,0E0,0E0],"parents":[2147483647,0,0,1,1,3,3,5,5,7,7,8,8,9,9],"right_children":[2,4,-1,6,-1,8,-1,10,12,14,-1,-1,-1,-1,-1],"split_conditions":[3.955E1,6.295454E-1,4.137028E-2,5.0535263E1,-3.245072E-2,5.0020683E1,-2.8877212E-2,1.9132074E1,2.906E1,1.17575E1,1.0952047E-2,1.2256193E-2,3.347478E-3,-1.3580067E-2,1.18913675E-4],"split_indices":[3,45,0,35,0,57,0,88,3,61,0,0,0,0,0],"split_type":[0,0,0,0,0,0,0,0,0,0,0,0,0,0,0],"sum_hessian":[2.49E2,2.46E2,3E0,2.43E2,3E0,2.41E2,2E0,2.36E2,5E0,2.33E2,3E0,3E0,2E0,5E0,2.28E2],"tree_param":{"num_deleted":"0","num_feature":"91","num_nodes":"15","size_leaf_vector":"1"}},{"base_weights":[-1.6313886E-3,-1.172577E-1,4.1191246E-2,-2.6903082E-2,-3.231029E-2,3.467644E-2,-2.8766127E-2,-7.6014954E-3,1.6988754E0,-1.5509133E0,3.2344505E-2,1.3479219E-2,4.594689E-3,-1.5557235E-2,-1.7555351E-3,2.368615E-5,1.2616942E-2],"categories":[],"categories_nodes":[],"categories_segments":[],"categories_sizes":[],"default_left":[0,0,0,0,0,0,0,0,0,0,0,0,0,0,0,0,0],"id":75,"left_children":[1,3,-1,5,-1,7,-1,9,11,13,15,-1,-1,-1,-1,-1,-1],"loss_changes":[2.0723962E2,1.22201454E2,0E0,7.4675545E1,0E0,1.7039768E1,0E0,1.4661009E1,1.5903854E0,7.7462053E0,1.4104757E1,0E0,0E0,0E0,0E0,0E0,0E0],"parents":[2147483647,0,0,1,1,3,3,5,5,7,7,8,8,9,9,10,10],"right_children":[2,4,-1,6,-1,8,-1,10,12,14,16,-1,-1,-1,-1,-1,-1],"split_conditions":[3.955E1,6.295454E-1,4.1191246E-2,5.0535263E1,-3.231029E-2,5.0020683E1,-2.8766127E-2,-1.7444735E1,2.875E1,2.261E1,4.3951954E1,1.3479219E-2,4.594689E-3,-1.5557235E-2,-1.7555351E-3,2.368615E-5,1.2616942E-2],"split_indices":[3,45,0,35,0,57,0,86,3,0,16,0,0,0,0,0,0],"split_type":[0,0,0,0,0,0,0,0,0,0,0,0,0,0,0,0,0],"sum_hessian":[2.49E2,2.46E2,3E0,2.43E2,3E0,2.41E2,2E0,2.36E2,5E0,5E0,2.31E2,2E0,3E0,2E0,3E0,2.29E2,2E0],"tree_param":{"num_deleted":"0","num_feature":"91","num_nodes":"17","size_leaf_vector":"1"}},{"base_weights":[-1.6479169E-3,-1.1677413E-1,4.1012987E-2,-2.6810817E-2,-3.2170463E-2,3.4531727E-2,-2.8655471E-2,-1.431933E-2,1.4652151E0,-2.33702E0,4.633512E-2,1.7117767E-3,1.2157754E-2,-1.850423E-2,-2.2975209E-3,1.0433124E-4,1.2568407E-2],"categories":[],"categories_nodes":[],"categories_segments":[],"categories_sizes":[],"default_left":[0,0,0,0,0,0,0,0,0,0,0,0,0,0,0,0,0],"id":76,"left_children":[1,3,-1,5,-1,7,-1,9,11,13,15,-1,-1,-1,-1,-1,-1],"loss_changes":[2.0545119E2,1.2114503E2,0E0,7.410179E1,0E0,1.6934458E1,0E0,3.3215588E1,5.3747463E0,8.842457E0,1.3814195E1,0E0,0E0,0E0,0E0,0E0,0E0],"parents":[2147483647,0,0,1,1,3,3,5,5,7,7,8,8,9,9,10,10],"right_children":[2,4,-1,6,-1,8,-1,10,12,14,16,-1,-1,-1,-1,-1,-1],"split_conditions":[3.955E1,6.295454E-1,4.1012987E-2,5.0535263E1,-3.2170463E-2,1.320887E8,-2.8655471E-2,1.17575E1,2.01E1,1.0099445E8,3.9691772E1,1.7117767E-3,1.2157754E-2,-1.850423E-2,-2.2975209E-3,1.0433124E-4,1.2568407E-2],"split_indices":[3,45,0,35,0,8,0,61,2,8,16,0,0,0,0,0,0],"split_type":[0,0,0,0,0,0,0,0,0,0,0,0,0,0,0,0,0],"sum_hessian":[2.49E2,2.46E2,3E0,2.43E2,3E0,2.41E2,2E0,2.34E2,7E0,5E0,2.29E2,3E0,4E0,3E0,2E0,2.27E2,2E0],"tree_param":{"num_deleted":"0","num_feature":"91","num_nodes":"17","size_leaf_vector":"1"}},{"base_weights":[-1.6946819E-3,-1.1632333E-1,4.0835503E-2,-2.6750023E-2,-3.2031238E-2,3.43562E-2,-2.854524E-2,-7.7035227E-3,1.6899892E0,-3.989557E-2,1.0833176E-2,1.3403784E-2,4.5743533E-3,-1.34271085E-2,1.1657301E-4],"categories":[],"categories_nodes":[],"categories_segments":[],"categories_sizes":[],"default_left":[0,0,0,0,0,0,0,0,0,0,0,0,0,0,0],"id":77,"left_children":[1,3,-1,5,-1,7,-1,9,11,13,-1,-1,-1,-1,-1],"loss_changes":[2.0367992E2,1.2009633E2,0E0,7.353151E1,0E0,1.6864801E1,0E0,1.4457766E1,1.5659428E0,3.221065E1,0E0,0E0,0E0,0E0,0E0],"parents":[2147483647,0,0,1,1,3,3,5,5,7,7,8,8,9,9],"right_children":[2,4,-1,6,-1,8,-1,10,12,14,-1,-1,-1,-1,-1],"split_conditions":[3.955E1,6.295454E-1,4.0835503E-2,5.0535263E1,-3.2031238E-2,5.0020683E1,-2.854524E-2,1.9132074E1,2.875E1,1.17575E1,1.0833176E-2,1.3403784E-2,4.5743533E-3,-1.34271085E-2,1.1657301E-4],"split_indices":[3,45,0,35,0,57,0,88,3,61,0,0,0,0,0],"split_type":[0,0,0,0,0,0,0,0,0,0,0,0,0,0,0],"sum_hessian":[2.49E2,2.46E2,3E0,2.43E2,3E0,2.41E2,2E0,2.36E2,5E0,2.33E2,3E0,2E0,3E0,5E0,2.28E2],"tree_param":{"num_deleted":"0","num_feature":"91","num_nodes":"15","size_leaf_vector":"1"}},{"base_weights":[-1.7018619E-3,-1.1583462E-1,4.0658783E-2,-2.664913E-2,-3.1892624E-2,3.4222018E-2,-2.8435433E-2,-7.66952E-3,1.6832341E0,-3.5387833E-2,1.2498999E-2,1.3352222E-2,4.5545576E-3,-1.5291408E-2,-9.060119E-6],"categories":[],"categories_nodes":[],"categories_segments":[],"categories_sizes":[],"default_left":[0,0,0,0,0,0,0,0,0,0,0,0,0,0,0],