{"learner":{"attributes":{"scikit_learn":"{\"_estimator_type\": \"regressor\"}"},"feature_names":["Open","High","Low","Close","Volume","volume_adi","volume_obv","volume_cmf","volume_fi","volume_em","volume_sma_em","volume_vpt","volume_vwap","volume_mfi","volume_nvi","volatility_bbm","volatility_bbh","volatility_bbl","volatility_bbw","volatility_bbp","volatility_bbhi","volatility_bbli","volatility_kcc","volatility_kch","volatility_kcl","volatility_kcw","volatility_kcp","volatility_kchi","volatility_kcli","volatility_dcl","volatility_dch","volatility_dcm","volatility_dcw","volatility_dcp","volatility_atr","volatility_ui","trend_macd","trend_macd_signal","trend_macd_diff","trend_sma_fast","trend_sma_slow","trend_ema_fast","trend_ema_slow","trend_vortex_ind_pos","trend_vortex_ind_neg","trend_vortex_ind_diff","trend_trix","trend_mass_index","trend_dpo","trend_kst","trend_kst_sig","trend_kst_diff","trend_ichimoku_conv","trend_ichimoku_base","trend_ichimoku_a","trend_ichimoku_b","trend_stc","trend_adx","trend_adx_pos","trend_adx_neg","trend_cci","trend_visual_ichimoku_a","trend_visual_ichimoku_b","trend_aroon_up","trend_aroon_down","trend_aroon_ind","trend_psar_up","trend_psar_down","trend_psar_up_indicator","trend_psar_down_indicator","momentum_rsi","momentum_stoch_rsi","momentum_stoch_rsi_k","momentum_stoch_rsi_d","momentum_tsi","momentum_uo","momentum_stoch","momentum_stoch_signal","momentum_wr","momentum_ao","momentum_roc","momentum_ppo","momentum_ppo_signal","momentum_ppo_hist","momentum_pvo","momentum_pvo_signal","momentum_pvo_hist","momentum_kama","others_dr","others_dlr","others_cr","ema2","ema3","ema4","ema5","ema6","ema7","ema10","ema20"],"feature_types":["float","float","float","float","int","float","int","float","float","float","float","float","float","float","float","float","float","float","float","float","float","float","float","float","float","float","float","float","float","float","float","float","float","float","float","float","float","float","float","float","float","float","float","float","float","float","float","float","float","float","float","float","float","float","float","float","float","float","float","float","float","float","float","float","float","float","float","float","float","float","float","float","float","float","float","float","float","float","float","float","float","float","float","float","float","float","float","float","float","float","float","float","float","float","float","float","float","float","float"],"gradient_booster":{"model":{"gbtree_model_param":{"num_parallel_tree":"1","num_trees":"1100"},"iteration_indptr":[0,1,2,3,4,5,6,7,8,9,10,11,12,13,14,15,16,17,18,19,20,21,22,23,24,25,26,27,28,29,30,31,32,33,34,35,36,37,38,39,40,41,42,43,44,45,46,47,48,49,50,51,52,53,54,55,56,57,58,59,60,61,62,63,64,65,66,67,68,69,70,71,72,73,74,75,76,77,78,79,80,81,82,83,84,85,86,87,88,89,90,91,92,93,94,95,96,97,98,99,100,101,102,103,104,105,106,107,108,109,110,111,112,113,114,115,116,117,118,119,120,121,122,123,124,125,126,127,128,129,130,131,132,133,134,135,136,137,138,139,140,141,142,143,144,145,146,147,148,149,150,151,152,153,154,155,156,157,158,159,160,161,162,163,164,165,166,167,168,169,170,171,172,173,174,175,176,177,178,179,180,181,182,183,184,185,186,187,188,189,190,191,192,193,194,195,196,197,198,199,200,201,202,203,204,205,206,207,208,209,210,211,212,213,214,215,216,217,218,219,220,221,222,223,224,225,226,227,228,229,230,231,232,233,234,235,236,237,238,239,240,241,242,243,244,245,246,247,248,249,250,251,252,253,254,255,256,257,258,259,260,261,262,263,264,265,266,267,268,269,270,271,272,273,274,275,276,277,278,279,280,281,282,283,284,285,286,287,288,289,290,291,292,293,294,295,296,297,298,299,300,301,302,303,304,305,306,307,308,309,310,311,312,313,314,315,316,317,318,319,320,321,322,323,324,325,326,327,328,329,330,331,332,333,334,335,336,337,338,339,340,341,342,343,344,345,346,347,348,349,350,351,352,353,354,355,356,357,358,359,360,361,362,363,364,365,366,367,368,369,370,371,372,373,374,375,376,377,378,379,380,381,382,383,384,385,386,387,388,389,390,391,392,393,394,395,396,397,398,399,400,401,402,403,404,405,406,407,408,409,410,411,412,413,414,415,416,417,418,419,420,421,422,423,424,425,426,427,428,429,430,431,432,433,434,435,436,437,438,439,440,441,442,443,444,445,446,447,448,449,450,451,452,453,454,455,456,457,458,459,460,461,462,463,464,465,466,467,468,469,470,471,472,473,474,475,476,477,478,479,480,481,482,483,484,485,486,487,488,489,490,491,492,493,494,495,496,497,498,499,500,501,502,503,504,505,506,507,508,509,510,511,512,513,514,515,516,517,518,519,520,521,522,523,524,525,526,527,528,529,530,531,532,533,534,535,536,537,538,539,540,541,542,543,544,545,546,547,548,549,550,551,552,553,554,555,556,557,558,559,560,561,562,563,564,565,566,567,568,569,570,571,572,573,574,575,576,577,578,579,580,581,582,583,584,585,586,587,588,589,590,591,592,593,594,595,596,597,598,599,600,601,602,603,604,605,606,607,608,609,610,611,612,613,614,615,616,617,618,619,620,621,622,623,624,625,626,627,628,629,630,631,632,633,634,635,636,637,638,639,640,641,642,643,644,645,646,647,648,649,650,651,652,653,654,655,656,657,658,659,660,661,662,663,664,665,666,667,668,669,670,671,672,673,674,675,676,677,678,679,680,681,682,683,684,685,686,687,688,689,690,691,692,693,694,695,696,697,698,699,700,701,702,703,704,705,706,707,708,709,710,711,712,713,714,715,716,717,718,719,720,721,722,723,724,725,726,727,728,729,730,731,732,733,734,735,736,737,738,739,740,741,742,743,744,745,746,747,748,749,750,751,752,753,754,755,756,757,758,759,760,761,762,763,764,765,766,767,768,769,770,771,772,773,774,775,776,777,778,779,780,781,782,783,784,785,786,787,788,789,790,791,792,793,794,795,796,797,798,799,800,801,802,803,804,805,806,807,808,809,810,811,812,813,814,815,816,817,818,819,820,821,822,823,824,825,826,827,828,829,830,831,832,833,834,835,836,837,838,839,840,841,842,843,844,845,846,847,848,849,850,851,852,853,854,855,856,857,858,859,860,861,862,863,864,865,866,867,868,869,870,871,872,873,874,875,876,877,878,879,880,881,882,883,884,885,886,887,888,889,890,891,892,893,894,895,896,897,898,899,900,901,902,903,904,905,906,907,908,909,910,911,912,913,914,915,916,917,918,919,920,921,922,923,924,925,926,927,928,929,930,931,932,933,934,935,936,937,938,939,940,941,942,943,944,945,946,947,948,949,950,951,952,953,954,955,956,957,958,959,960,961,962,963,964,965,966,967,968,969,970,971,972,973,974,975,976,977,978,979,980,981,982,983,984,985,986,987,988,989,990,991,992,993,994,995,996,997,998,999,1000,1001,1002,1003,1004,1005,1006,1007,1008,1009,1010,1011,1012,1013,1014,1015,1016,1017,1018,1019,1020,1021,1022,1023,1024,1025,1026,1027,1028,1029,1030,1031,1032,1033,1034,1035,1036,1037,1038,1039,1040,1041,1042,1043,1044,1045,1046,1047,1048,1049,1050,1051,1052,1053,1054,1055,1056,1057,1058,1059,1060,1061,1062,1063,1064,1065,1066,1067,1068,1069,1070,1071,1072,1073,1074,1075,1076,1077,1078,1079,1080,1081,1082,1083,1084,1085,1086,1087,1088,1089,1090,1091,1092,1093,1094,1095,1096,1097,1098,1099,1100],"tree_info":[0,0,0,0,0,0,0,0,0,0,0,0,0,0,0,0,0,0,0,0,0,0,0,0,0,0,0,0,0,0,0,0,0,0,0,0,0,0,0,0,0,0,0,0,0,0,0,0,0,0,0,0,0,0,0,0,0,0,0,0,0,0,0,0,0,0,0,0,0,0,0,0,0,0,0,0,0,0,0,0,0,0,0,0,0,0,0,0,0,0,0,0,0,0,0,0,0,0,0,0,0,0,0,0,0,0,0,0,0,0,0,0,0,0,0,0,0,0,0,0,0,0,0,0,0,0,0,0,0,0,0,0,0,0,0,0,0,0,0,0,0,0,0,0,0,0,0,0,0,0,0,0,0,0,0,0,0,0,0,0,0,0,0,0,0,0,0,0,0,0,0,0,0,0,0,0,0,0,0,0,0,0,0,0,0,0,0,0,0,0,0,0,0,0,0,0,0,0,0,0,0,0,0,0,0,0,0,0,0,0,0,0,0,0,0,0,0,0,0,0,0,0,0,0,0,0,0,0,0,0,0,0,0,0,0,0,0,0,0,0,0,0,0,0,0,0,0,0,0,0,0,0,0,0,0,0,0,0,0,0,0,0,0,0,0,0,0,0,0,0,0,0,0,0,0,0,0,0,0,0,0,0,0,0,0,0,0,0,0,0,0,0,0,0,0,0,0,0,0,0,0,0,0,0,0,0,0,0,0,0,0,0,0,0,0,0,0,0,0,0,0,0,0,0,0,0,0,0,0,0,0,0,0,0,0,0,0,0,0,0,0,0,0,0,0,0,0,0,0,0,0,0,0,0,0,0,0,0,0,0,0,0,0,0,0,0,0,0,0,0,0,0,0,0,0,0,0,0,0,0,0,0,0,0,0,0,0,0,0,0,0,0,0,0,0,0,0,0,0,0,0,0,0,0,0,0,0,0,0,0,0,0,0,0,0,0,0,0,0,0,0,0,0,0,0,0,0,0,0,0,0,0,0,0,0,0,0,0,0,0,0,0,0,0,0,0,0,0,0,0,0,0,0,0,0,0,0,0,0,0,0,0,0,0,0,0,0,0,0,0,0,0,0,0,0,0,0,0,0,0,0,0,0,0,0,0,0,0,0,0,0,0,0,0,0,0,0,0,0,0,0,0,0,0,0,0,0,0,0,0,0,0,0,0,0,0,0,0,0,0,0,0,0,0,0,0,0,0,0,0,0,0,0,0,0,0,0,0,0,0,0,0,0,0,0,0,0,0,0,0,0,0,0,0,0,0,0,0,0,0,0,0,0,0,0,0,0,0,0,0,0,0,0,0,0,0,0,0,0,0,0,0,0,0,0,0,0,0,0,0,0,0,0,0,0,0,0,0,0,0,0,0,0,0,0,0,0,0,0,0,0,0,0,0,0,0,0,0,0,0,0,0,0,0,0,0,0,0,0,0,0,0,0,0,0,0,0,0,0,0,0,0,0,0,0,0,0,0,0,0,0,0,0,0,0,0,0,0,0,0,0,0,0,0,0,0,0,0,0,0,0,0,0,0,0,0,0,0,0,0,0,0,0,0,0,0,0,0,0,0,0,0,0,0,0,0,0,0,0,0,0,0,0,0,0,0,0,0,0,0,0,0,0,0,0,0,0,0,0,0,0,0,0,0,0,0,0,0,0,0,0,0,0,0,0,0,0,0,0,0,0,0,0,0,0,0,0,0,0,0,0,0,0,0,0,0,0,0,0,0,0,0,0,0,0,0,0,0,0,0,0,0,0,0,0,0,0,0,0,0,0,0,0,0,0,0,0,0,0,0,0,0,0,0,0,0,0,0,0,0,0,0,0,0,0,0,0,0,0,0,0,0,0,0,0,0,0,0,0,0,0,0,0,0,0,0,0,0,0,0,0,0,0,0,0,0,0,0,0,0,0,0,0,0,0,0,0,0,0,0,0,0,0,0,0,0,0,0,0,0,0,0,0,0,0,0,0,0,0,0,0,0,0,0,0,0,0,0,0,0,0,0,0,0,0,0,0,0,0,0,0,0,0,0,0,0,0,0,0,0,0,0,0,0,0,0,0,0,0,0,0,0,0,0,0,0,0,0,0,0,0,0,0,0,0,0,0,0,0,0,0,0,0,0,0,0,0,0,0,0,0,0,0,0,0,0,0,0,0,0,0,0,0,0,0,0,0,0,0,0,0,0,0,0,0,0,0,0,0,0,0,0,0,0,0,0,0,0,0,0,0,0,0,0,0,0,0,0,0,0,0,0,0,0,0,0,0,0,0,0,0,0,0,0,0,0,0,0,0,0,0,0,0,0,0,0,0,0,0,0,0,0,0,0,0,0,0,0,0,0,0,0,0,0,0,0,0,0,0,0,0,0,0,0,0,0,0,0,0,0,0,0,0,0,0,0,0,0,0,0,0,0,0,0,0,0,0,0,0,0,0,0,0,0,0,0,0,0,0,0,0,0,0,0,0,0,0,0,0,0,0,0,0,0,0,0,0,0,0,0],"trees":[{"base_weights":[6.151199E-8,-2.146063E0,4.3438387E0,-1.1339382E0,-1.9900944E1,1.6702332E1,2.223759E0,-3.4959224E-1,-4.0517774E-1,-2.0233682E-1,-5.341069E-1,5.059664E0,5.653967E-1,-1.5968759E0,7.625877E0,-3.4517685E-1,2.5732923E-1,1.35017205E-2,1.6853254E-1,-6.107469E0,2.2284884E0,1.1633262E1,2.215061E0,3.1342456E0,-2.947371E0,1.2051201E-1,-1.0488044E1,6.282293E0,-4.075067E0,1.7468845E0,1.6867023E1,-8.8739455E-2,4.3887744E0,-3.0745551E-2,1.9131513E-1,-5.84707E-1,-2.8872529E-2,-2.8784302E-1,-5.9310228E-2,-3.594045E-2,1.9245717E-1,-2.3089446E-1,1.2257338E-2,-2.1395436E-2,8.424404E-2,4.6240148E-1,2.8793307E-2,1.3921465E-1,3.5989538E-3],"categories":[],"categories_nodes":[],"categories_segments":[],"categories_sizes":[],"default_left":[0,0,0,0,0,0,0,0,0,0,0,0,0,0,0,0,0,0,0,0,0,0,0,0,0,0,0,0,0,0,0,0,0,0,0,0,0,0,0,0,0,0,0,0,0,0,0,0,0],"id":0,"left_children":[1,3,5,7,9,11,13,-1,15,-1,-1,17,-1,19,21,-1,23,-1,-1,25,27,29,31,33,35,-1,37,39,41,43,45,-1,47,-1,-1,-1,-1,-1,-1,-1,-1,-1,-1,-1,-1,-1,-1,-1,-1],"loss_changes":[2.33986E3,2.9964197E3,2.13754E3,1.8436648E3,2.9462744E2,1.3696548E3,1.4982229E3,0E0,1.67599E3,0E0,0E0,9.133092E1,0E0,7.555609E2,6.247283E2,0E0,1.3829662E3,0E0,0E0,1.1101323E3,6.3888184E2,8.501653E2,2.1770966E2,2.2711836E3,2.7529055E3,0E0,3.6026038E2,3.872663E2,3.40972E2,5.0137344E1,9.254634E2,0E0,1.092608E2,0E0,0E0,0E0,0E0,0E0,0E0,0E0,0E0,0E0,0E0,0E0,0E0,0E0,0E0,0E0,0E0],"parents":[2147483647,0,0,1,1,2,2,3,3,4,4,5,5,6,6,8,8,11,11,13,13,14,14,16,16,19,19,20,20,21,21,22,22,23,23,24,24,26,26,27,27,28,28,29,29,30,30,32,32],"right_children":[2,4,6,8,10,12,14,-1,16,-1,-1,18,-1,20,22,-1,24,-1,-1,26,28,30,32,34,36,-1,38,40,42,44,46,-1,48,-1,-1,-1,-1,-1,-1,-1,-1,-1,-1,-1,-1,-1,-1,-1,-1],"split_conditions":[5.6644333E1,2.2078094E-1,-9.528953E-2,-1.3898662E2,1.1378133E4,5.7210174E0,5.473654E-1,-3.4959224E-1,6.417947E2,-2.0233682E-1,-5.341069E-1,4.391E5,5.653967E-1,1.1227162E0,1.2310859E3,-3.4517685E-1,4E1,1.35017205E-2,1.6853254E-1,5.6124E-1,5.1503954E0,6.901936E2,1.0395048E0,6.873364E2,1.3281861E-1,1.2051201E-1,3.143291E1,-1.1033416E4,6.3773724E1,-5.7786237E-2,2.0913061E1,-8.8739455E-2,1.098053E0,-3.0745551E-2,1.9131513E-1,-5.84707E-1,-2.8872529E-2,-2.8784302E-1,-5.9310228E-2,-3.594045E-2,1.9245717E-1,-2.3089446E-1,1.2257338E-2,-2.1395436E-2,8.424404E-2,4.6240148E-1,2.8793307E-2,1.3921465E-1,3.5989538E-3],"split_indices":[13,45,7,50,10,36,88,0,87,0,0,4,0,43,14,0,63,0,0,33,25,0,43,0,56,0,57,8,13,7,32,0,43,0,0,0,0,0,0,0,0,0,0,0,0,0,0,0,0],"split_type":[0,0,0,0,0,0,0,0,0,0,0,0,0,0,0,0,0,0,0,0,0,0,0,0,0,0,0,0,0,0,0,0,0,0,0,0,0,0,0,0,0,0,0,0,0,0,0,0,0],"sum_hessian":[2.49E2,1.67E2,8.2E1,1.59E2,8E0,1.1E1,7.1E1,6E0,1.53E2,4E0,4E0,6E0,5E0,4.2E1,2.9E1,5E0,1.48E2,3E0,3E0,1.9E1,2.3E1,1.6E1,1.3E1,7.8E1,7E1,5E0,1.4E1,1.4E1,9E0,6E0,1E1,3E0,1E1,4.5E1,3.3E1,3E0,6.7E1,9E0,5E0,4E0,1E1,3E0,6E0,3E0,3E0,7E0,3E0,6E0,4E0],"tree_param":{"num_deleted":"0","num_feature":"99","num_nodes":"49","size_leaf_vector":"1"}},{"base_weights":[-3.269662E-3,-2.1131587E0,4.2673883E0,-1.1177996E0,-1.9573635E1,1.6421242E1,2.182477E0,1.2588624E0,-5.8064113E0,-1.9900902E-1,-5.253225E-1,4.9816484E0,5.5571026E-1,-1.5707618E0,7.48937E0,8.114657E0,-1.6443521E0,-8.097907E0,6.5508356E0,1.329354E-2,1.6593392E-1,-3.0022511E0,2.0371525E-1,1.1426689E1,2.1733847E0,1.4570138E0,1.5562853E1,-7.0974407E0,2.9390395E0,-1.9763786E1,-4.308391E0,-4.0840168E-2,3.6428118E-1,3.571922E0,-5.7125306E0,1.7199491E0,1.6564915E1,-8.737118E-2,4.31153E0,-1.721321E-1,1.4534163E-1,4.2587504E-1,1.7403191E-1,-2.1766052E-1,3.04131E-2,-2.0125015E-1,8.571145E-2,-6.9048685E-1,-2.134406E-1,-2.9023892E-1,-2.98886E-2,-7.227532E-2,1.878366E-1,-2.2401522E-1,6.7628115E-2,-2.1065544E-2,8.294508E-2,4.5408347E-1,2.8349344E-2,1.3676146E-1,3.5397636E-3],"categories":[],"categories_nodes":[],"categories_segments":[],"categories_sizes":[],"default_left":[0,0,0,0,0,0,0,0,0,0,0,0,0,0,0,0,0,0,0,0,0,0,0,0,0,0,0,0,0,0,0,0,0,0,0,0,0,0,0,0,0,0,0,0,0,0,0,0,0,0,0,0,0,0,0,0,0,0,0,0,0],"id":1,"left_children":[1,3,5,7,9,11,13,15,17,-1,-1,19,-1,21,23,25,27,29,31,-1,-1,33,-1,35,37,39,41,43,45,47,49,-1,-1,51,53,55,57,-1,59,-1,-1,-1,-1,-1,-1,-1,-1,-1,-1,-1,-1,-1,-1,-1,-1,-1,-1,-1,-1,-1,-1],"loss_changes":[2.2616711E3,2.897867E3,2.0673564E3,1.7902288E3,2.8501538E2,1.3217388E3,1.4458628E3,2.1430544E3,1.5821434E3,0E0,0E0,8.853615E1,0E0,7.363754E2,6.0308716E2,1.5641226E3,1.9203761E3,1.9484197E3,8.9333234E2,0E0,0E0,7.1530066E2,0E0,8.193916E2,2.1059714E2,1.0522653E3,3.7318677E2,1.0632812E3,6.9839606E2,1.077773E3,9.87517E2,0E0,0E0,5.054004E2,1.3424851E3,4.860314E1,8.920293E2,0E0,1.054355E2,0E0,0E0,0E0,0E0,0E0,0E0,0E0,0E0,0E0,0E0,0E0,0E0,0E0,0E0,0E0,0E0,0E0,0E0,0E0,0E0,0E0,0E0],"parents":[2147483647,0,0,1,1,2,2,3,3,4,4,5,5,6,6,7,7,8,8,11,11,13,13,14,14,15,15,16,16,17,17,18,18,21,21,23,23,24,24,25,25,26,26,27,27,28,28,29,29,30,30,33,33,34,34,35,35,36,36,38,38],"right_children":[2,4,6,8,10,12,14,16,18,-1,-1,20,-1,22,24,26,28,30,32,-1,-1,34,-1,36,38,40,42,44,46,48,50,-1,-1,52,54,56,58,-1,60,-1,-1,-1,-1,-1,-1,-1,-1,-1,-1,-1,-1,-1,-1,-1,-1,-1,-1,-1,-1,-1,-1],"split_conditions":[5.6644333E1,2.2078094E-1,-9.528953E-2,7.2511477E0,1.1378133E4,5.7210174E0,5.473654E-1,-2.7035138E-1,5.981659E1,-1.9900902E-1,-5.253225E-1,4.391E5,5.5571026E-1,1.6838653E5,1.2310859E3,1.9531226E-1,3.2208803E0,5.2531905E0,1.2671324E1,1.329354E-2,1.6593392E-1,1.017518E1,2.0371525E-1,6.901936E2,1.0395048E0,1.1152128E-1,1.1206499E0,1.665807E0,-1.7594E6,4.1611776E-1,6.4415674E2,-4.0840168E-2,3.6428118E-1,-7.3658147E0,1.2114251E0,-5.7786237E-2,2.0913061E1,-8.737118E-2,1.098053E0,-1.721321E-1,1.4534163E-1,4.2587504E-1,1.7403191E-1,-2.1766052E-1,3.04131E-2,-2.0125015E-1,8.571145E-2,-6.9048685E-1,-2.134406E-1,-2.9023892E-1,-2.98886E-2,-7.227532E-2,1.878366E-1,-2.2401522E-1,6.7628115E-2,-2.1065544E-2,8.294508E-2,4.5408347E-1,2.8349344E-2,1.3676146E-1,3.5397636E-3],"split_indices":[13,45,7,84,10,36,88,45,70,0,0,4,0,11,14,56,79,25,59,0,0,18,0,0,43,71,56,38,6,19,87,0,0,51,43,7,32,0,43,0,0,0,0,0,0,0,0,0,0,0,0,0,0,0,0,0,0,0,0,0,0],"split_type":[0,0,0,0,0,0,0,0,0,0,0,0,0,0,0,0,0,0,0,0,0,0,0,0,0,0,0,0,0,0,0,0,0,0,0,0,0,0,0,0,0,0,0,0,0,0,0,0,0,0,0,0,0,0,0,0,0,0,0,0,0],"sum_hessian":[2.49E2,1.67E2,8.2E1,1.59E2,8E0,1.1E1,7.1E1,1.06E2,5.3E1,4E0,4E0,6E0,5E0,4.2E1,2.9E1,3.1E1,7.5E1,4.5E1,8E0,3E0,3E0,3.8E1,4E0,1.6E1,1.3E1,1.7E1,1.4E1,3.4E1,4.1E1,1E1,3.5E1,5E0,3E0,1.1E1,2.7E1,6E0,1E1,3E0,1E1,6E0,1.1E1,7E0,7E0,2.4E1,1E1,3E0,3.8E1,3E0,7E0,7E0,2.8E1,5E0,6E0,1.7E1,1E1,3E0,3E0,7E0,3E0,6E0,4E0],"tree_param":{"num_deleted":"0","num_feature":"99","num_nodes":"61","size_leaf_vector":"1"}},{"base_weights":[-2.6406825E-3,-2.0777783E0,4.1976695E0,-1.0987586E0,-1.9251709E1,1.6144888E1,2.1481657E0,-3.3893E-1,-3.9220142E-1,-1.9573593E-1,-5.166826E-1,4.904837E0,5.461898E-1,-1.534681E0,7.355307E0,-2.9641566E0,4.1616516E0,1.3088567E-2,1.633754E-1,-2.9415758E0,2.0036477E-1,1.122379E1,2.1324837E0,-1.4975787E0,-1.9459282E1,8.137739E0,-1.8969849E0,3.5081184E0,-5.600674E0,1.6934295E0,1.626822E1,-8.602401E-2,4.2356462E0,-5.4386783E-2,2.6353672E-1,-1.3664605E-1,-6.2930346E-1,3.5178137E-1,8.681611E-2,-2.2990008E-1,2.6800869E-2,-7.1037084E-2,1.8452662E-1,-2.1966565E-1,6.636416E-2,-2.0740736E-2,8.166616E-2,4.5227292E-1,1.0261176E-1,1.3435149E-1,3.4815439E-3],"categories":[],"categories_nodes":[],"categories_segments":[],"categories_sizes":[],"default_left":[0,0,0,0,0,0,0,0,0,0,0,0,0,0,0,0,0,0,0,0,0,0,0,0,0,0,0,0,0,0,0,0,0,0,0,0,0,0,0,0,0,0,0,0,0,0,0,0,0,0,0],"id":2,"left_children":[1,3,5,7,9,11,13,-1,15,-1,-1,17,-1,19,21,23,25,-1,-1,27,-1,29,31,33,35,37,39,41,43,45,47,-1,49,-1,-1,-1,-1,-1,-1,-1,-1,-1,-1,-1,-1,-1,-1,-1,-1,-1,-1],"loss_changes":[2.1877773E3,2.8035352E3,1.9976454E3,1.7330543E3,2.7571704E2,1.2754944E3,1.3920394E3,0E0,1.8160309E3,0E0,0E0,8.5826935E1,0E0,7.1111224E2,5.8219763E2,2.3658054E3,1.3644587E3,0E0,0E0,6.8851227E2,0E0,7.897302E2,2.0371744E2,1.5457849E3,9.395276E2,1.1221562E3,6.9813696E2,4.8788904E2,1.291323E3,4.7115883E1,6.011123E2,0E0,1.01744156E2,0E0,0E0,0E0,0E0,0E0,0E0,0E0,0E0,0E0,0E0,0E0,0E0,0E0,0E0,0E0,0E0,0E0,0E0],"parents":[2147483647,0,0,1,1,2,2,3,3,4,4,5,5,6,6,8,8,11,11,13,13,14,14,15,15,16,16,19,19,21,21,22,22,23,23,24,24,25,25,26,26,27,27,28,28,29,29,30,30,32,32],"right_children":[2,4,6,8,10,12,14,-1,16,-1,-1,18,-1,20,22,24,26,-1,-1,28,-1,30,32,34,36,38,40,42,44,46,48,-1,50,-1,-1,-1,-1,-1,-1,-1,-1,-1,-1,-1,-1,-1,-1,-1,-1,-1,-1],"split_conditions":[5.6644333E1,2.2078094E-1,-9.528953E-2,-1.3898662E2,1.1378133E4,5.7210174E0,5.473654E-1,-3.3893E-1,2.9262951E4,-1.9573593E-1,-5.166826E-1,-1.17025495E-1,5.461898E-1,1.6838653E5,1.2310859E3,6.798973E2,-5.626699E0,1.3088567E-2,1.633754E-1,1.017518E1,2.0036477E-1,6.901936E2,1.0395048E0,3.4128978E0,8.9104617E-1,3.028793E1,-4.3003163E0,-7.3658147E0,1.2114251E0,-5.7786237E-2,1.6505109E0,-8.602401E-2,1.098053E0,-5.4386783E-2,2.6353672E-1,-1.3664605E-1,-6.2930346E-1,3.5178137E-1,8.681611E-2,-2.2990008E-1,2.6800869E-2,-7.1037084E-2,1.8452662E-1,-2.1966565E-1,6.636416E-2,-2.0740736E-2,8.166616E-2,4.5227292E-1,1.0261176E-1,1.3435149E-1,3.4815439E-3],"split_indices":[13,45,7,50,10,36,88,0,11,0,0,7,0,11,14,17,51,0,0,18,0,0,43,38,88,57,51,51,43,7,85,0,43,0,0,0,0,0,0,0,0,0,0,0,0,0,0,0,0,0,0],"split_type":[0,0,0,0,0,0,0,0,0,0,0,0,0,0,0,0,0,0,0,0,0,0,0,0,0,0,0,0,0,0,0,0,0,0,0,0,0,0,0,0,0,0,0,0,0,0,0,0,0,0,0],"sum_hessian":[2.49E2,1.67E2,8.2E1,1.59E2,8E0,1.1E1,7.1E1,6E0,1.53E2,4E0,4E0,6E0,5E0,4.2E1,2.9E1,9.8E1,5.5E1,3E0,3E0,3.8E1,4E0,1.6E1,1.3E1,9.1E1,7E0,3.3E1,2.2E1,1.1E1,2.7E1,6E0,1E1,3E0,1E1,8.5E1,6E0,4E0,3E0,9E0,2.4E1,5E0,1.7E1,5E0,6E0,1.7E1,1E1,3E0,3E0,6E0,4E0,6E0,4E0],"tree_param":{"num_deleted":"0","num_feature":"99","num_nodes":"51","size_leaf_vector":"1"}},{"base_weights":[-1.8737165E-3,-2.0432327E0,4.130056E0,-1.080296E0,-1.893508E1,1.5873193E1,2.1155047E0,-3.329575E-1,-3.862247E-1,-5.081848E-1,-1.925167E-1,4.82921E0,5.3683233E-1,-1.4993964E0,7.2263465E0,-2.908842E0,4.0802994E0,1.2886755E-2,1.6085632E-1,-5.8116302E0,2.1566067E0,1.1029269E1,2.0923436E0,-1.4645172E0,-1.915497E1,7.983339E0,-1.8668159E0,1.1663102E-1,-1.0018082E1,5.1158357E0,-5.760926E0,1.6673186E0,1.5984214E1,-8.469761E-2,4.1610975E0,-4.72711E-2,3.5928836E-1,-1.3356619E-1,-6.206408E-1,2.1518731E-1,-6.356478E-2,-2.2596139E-1,2.628049E-2,-2.499598E-1,-2.2461915E-2,-3.1407524E-2,1.4644119E-1,-2.58445E-1,5.1181056E-2,-2.0420937E-2,8.040696E-2,4.3957636E-1,2.4532927E-2,1.31984E-1,3.4242852E-3],"categories":[],"categories_nodes":[],"categories_segments":[],"categories_sizes":[],"default_left":[0,0,0,0,0,0,0,0,0,0,0,0,0,0,0,0,0,0,0,0,0,0,0,0,0,0,0,0,0,0,0,0,0,0,0,0,0,0,0,0,0,0,0,0,0,0,0,0,0,0,0,0,0,0,0],"id":3,"left_children":[1,3,5,7,9,11,13,-1,15,-1,-1,17,-1,19,21,23,25,-1,-1,27,29,31,33,35,37,39,41,-1,43,45,47,49,51,-1,53,-1,-1,-1,-1,-1,-1,-1,-1,-1,-1,-1,-1,-1,-1,-1,-1,-1,-1,-1,-1],"loss_changes":[2.1171265E3,2.7121948E3,1.9299639E3,1.6723141E3,2.6672266E2,1.2308652E3,1.3410486E3,0E0,1.747038E3,0E0,0E0,8.320064E1,0E0,6.9045166E2,5.6264954E2,2.294951E3,1.3147656E3,0E0,0E0,1.0230331E3,5.917869E2,7.6194434E2,1.9706296E2,1.4949011E3,9.2121484E2,9.676135E2,6.740835E2,0E0,2.732683E2,2.5091983E2,4.2460742E2,4.5674133E1,8.5264453E2,0E0,9.818196E1,0E0,0E0,0E0,0E0,0E0,0E0,0E0,0E0,0E0,0E0,0E0,0E0,0E0,0E0,0E0,0E0,0E0,0E0,0E0,0E0],"parents":[2147483647,0,0,1,1,2,2,3,3,4,4,5,5,6,6,8,8,11,11,13,13,14,14,15,15,16,16,19,19,20,20,21,21,22,22,23,23,24,24,25,25,26,26,28,28,29,29,30,30,31,31,32,32,34,34],"right_children":[2,4,6,8,10,12,14,-1,16,-1,-1,18,-1,20,22,24,26,-1,-1,28,30,32,34,36,38,40,42,-1,44,46,48,50,52,-1,54,-1,-1,-1,-1,-1,-1,-1,-1,-1,-1,-1,-1,-1,-1,-1,-1,-1,-1,-1,-1],"split_conditions":[5.6644333E1,2.2078094E-1,-9.528953E-2,-1.3898662E2,6.329482E2,5.7210174E0,5.473654E-1,-3.329575E-1,2.9262951E4,-5.081848E-1,-1.925167E-1,4.391E5,5.3683233E-1,1.1227162E0,1.2310859E3,6.798973E2,-5.626699E0,1.2886755E-2,1.6085632E-1,5.6124E-1,2.0103188E1,6.901936E2,1.0395048E0,8.385579E1,2.8E1,5.4618664E0,-4.3003163E0,1.1663102E-1,8.2518805E2,-1.1033416E4,3.2213642E6,-5.7786237E-2,2.0913061E1,-8.469761E-2,1.098053E0,-4.72711E-2,3.5928836E-1,-1.3356619E-1,-6.206408E-1,2.1518731E-1,-6.356478E-2,-2.2596139E-1,2.628049E-2,-2.499598E-1,-2.2461915E-2,-3.1407524E-2,1.4644119E-1,-2.58445E-1,5.1181056E-2,-2.0420937E-2,8.040696E-2,4.3957636E-1,2.4532927E-2,1.31984E-1,3.4242852E-3],"split_indices":[13,45,7,50,29,36,88,0,11,0,0,4,0,43,14,17,51,0,0,33,32,0,43,76,64,25,51,0,2,8,8,7,32,0,43,0,0,0,0,0,0,0,0,0,0,0,0,0,0,0,0,0,0,0,0],"split_type":[0,0,0,0,0,0,0,0,0,0,0,0,0,0,0,0,0,0,0,0,0,0,0,0,0,0,0,0,0,0,0,0,0,0,0,0,0,0,0,0,0,0,0,0,0,0,0,0,0,0,0,0,0,0,0],"sum_hessian":[2.49E2,1.67E2,8.2E1,1.59E2,8E0,1.1E1,7.1E1,6E0,1.53E2,4E0,4E0,6E0,5E0,4.2E1,2.9E1,9.8E1,5.5E1,3E0,3E0,1.9E1,2.3E1,1.6E1,1.3E1,9.1E1,7E0,3.3E1,2.2E1,5E0,1.4E1,1.7E1,6E0,6E0,1E1,3E0,1E1,8.8E1,3E0,4E0,3E0,2.7E1,6E0,5E0,1.7E1,1.1E1,3E0,4E0,1.3E1,3E0,3E0,3E0,3E0,7E0,3E0,6E0,4E0],"tree_param":{"num_deleted":"0","num_feature":"99","num_nodes":"55","size_leaf_vector":"1"}},{"base_weights":[-3.7813482E-3,-2.0102975E0,4.0576463E0,-1.0632317E0,-1.8623657E1,1.5606077E1,2.0765517E0,1.2289901E0,-5.5855374E0,-1.893504E-1,-4.9982673E-1,6.1332974E0,5.682664E-1,-1.4743387E0,7.096943E0,7.8061357E0,-1.5565053E0,-3.8754036E0,-5.343869E-1,1.9159672E-1,1.2688054E-2,-5.6999407E0,2.1084273E0,1.0833352E1,2.0529501E0,-1.4199026E-1,1.0786519E1,-6.7972517E0,2.847843E0,-1.1004211E1,1.0788018E0,1.1463289E-1,-9.830286E0,5.9631033E0,-3.88443E0,1.6416103E0,1.5697792E1,5.2899837E0,-1.9397956E0,3.1063324E-1,3.9600436E-2,-2.0901057E-1,3.0390605E-2,-1.9373398E-1,8.292145E-2,-9.534066E-2,-3.6067656E-1,-2.5845002E-2,3.527995E-1,-2.6968288E-1,-5.577064E-2,-3.0890968E-2,1.8121365E-1,-2.1809964E-1,1.0544908E-2,-2.0106066E-2,7.9167165E-2,4.37776E-1,9.710755E-2,2.4237627E-2,1.5461731E-1,-1.07572295E-1,3.7783224E-2],"categories":[],"categories_nodes":[],"categories_segments":[],"categories_sizes":[],"default_left":[0,0,0,0,0,0,0,0,0,0,0,0,0,0,0,0,0,0,0,0,0,0,0,0,0,0,0,0,0,0,0,0,0,0,0,0,0,0,0,0,0,0,0,0,0,0,0,0,0,0,0,0,0,0,0,0,0,0,0,0,0,0,0],"id":4,"left_children":[1,3,5,7,9,11,13,15,17,-1,-1,19,-1,21,23,25,27,29,-1,-1,-1,31,33,35,37,-1,39,41,43,45,47,-1,49,51,53,55,57,59,61,-1,-1,-1,-1,-1,-1,-1,-1,-1,-1,-1,-1,-1,-1,-1,-1,-1,-1,-1,-1,-1,-1,-1,-1],"loss_changes":[2.0454872E3,2.6235012E3,1.8665115E3,1.665445E3,2.58021E2,1.1985527E3,1.2939972E3,1.9724556E3,1.7838705E3,0E0,0E0,1.3485431E2,0E0,6.6300964E2,5.4315234E2,1.4776865E3,1.7735948E3,1.8130677E3,0E0,0E0,0E0,9.862759E2,5.775758E2,7.343458E2,1.9120662E2,0E0,1.00511084E3,9.9092883E2,6.4905164E2,7.929929E2,1.186129E3,0E0,3.1539563E2,3.3255853E2,3.0113037E2,4.427649E1,5.749878E2,6.450131E1,9.668596E1,0E0,0E0,0E0,0E0,0E0,0E0,0E0,0E0,0E0,0E0,0E0,0E0,0E0,0E0,0E0,0E0,0E0,0E0,0E0,0E0,0E0,0E0,0E0,0E0],"parents":[2147483647,0,0,1,1,2,2,3,3,4,4,5,5,6,6,7,7,8,8,11,11,13,13,14,14,15,15,16,16,17,17,21,21,22,22,23,23,24,24,26,26,27,27,28,28,29,29,30,30,32,32,33,33,34,34,35,35,36,36,37,37,38,38],"right_children":[2,4,6,8,10,12,14,16,18,-1,-1,20,-1,22,24,26,28,30,-1,-1,-1,32,34,36,38,-1,40,42,44,46,48,-1,50,52,54,56,58,60,62,-1,-1,-1,-1,-1,-1,-1,-1,-1,-1,-1,-1,-1,-1,-1,-1,-1,-1,-1,-1,-1,-1,-1,-1],"split_conditions":[5.6644333E1,2.2078094E-1,-9.528953E-2,7.2511477E0,1.1378133E4,5.7386074E0,5.473654E-1,-2.7035138E-1,7.7840906E2,-1.893504E-1,-4.9982673E-1,3.964509E0,5.682664E-1,1.1227162E0,1.2310859E3,-3.3645025E6,3.2208803E0,-5.9153366E1,-5.343869E-1,1.9159672E-1,1.2688054E-2,5.6124E-1,5.1503954E0,6.901936E2,2.6861602E4,-1.4199026E-1,5.4618664E0,1.665807E0,-1.7594E6,1.0965399E1,9.0260714E-1,1.1463289E-1,3.143291E1,6.220146E1,6.3773724E1,-5.7786237E-2,1.6505109E0,9.770841E3,9.825321E-1,3.1063324E-1,3.9600436E-2,-2.0901057E-1,3.0390605E-2,-1.9373398E-1,8.292145E-2,-9.534066E-2,-3.6067656E-1,-2.5845002E-2,3.527995E-1,-2.6968288E-1,-5.577064E-2,-3.0890968E-2,1.8121365E-1,-2.1809964E-1,1.0544908E-2,-2.0106066E-2,7.9167165E-2,4.37776E-1,9.710755E-2,2.4237627E-2,1.5461731E-1,-1.07572295E-1,3.7783224E-2],"split_indices":[13,45,7,84,10,36,88,45,17,0,0,35,0,43,14,5,79,49,0,0,0,33,25,0,9,0,25,38,6,58,71,0,57,76,13,7,85,9,19,0,0,0,0,0,0,0,0,0,0,0,0,0,0,0,0,0,0,0,0,0,0,0,0],"split_type":[0,0,0,0,0,0,0,0,0,0,0,0,0,0,0,0,0,0,0,0,0,0,0,0,0,0,0,0,0,0,0,0,0,0,0,0,0,0,0,0,0,0,0,0,0,0,0,0,0,0,0,0,0,0,0,0,0,0,0,0,0,0,0],"sum_hessian":[2.49E2,1.67E2,8.2E1,1.59E2,8E0,1.1E1,7.1E1,1.06E2,5.3E1,4E0,4E0,7E0,4E0,4.2E1,2.9E1,3.1E1,7.5E1,5E1,3E0,4E0,3E0,1.9E1,2.3E1,1.6E1,1.3E1,5E0,2.6E1,3.4E1,4.1E1,2E1,3E1,5E0,1.4E1,1.4E1,9E0,6E0,1E1,7E0,6E0,1.7E1,9E0,2.4E1,1E1,3E0,3.8E1,1.1E1,9E0,2.7E1,3E0,9E0,5E0,4E0,1E1,3E0,6E0,3E0,3E0,6E0,4E0,3E0,4E0,3E0,3E0],"tree_param":{"num_deleted":"0","num_feature":"99","num_nodes":"63","size_leaf_vector":"1"}},{"base_weights":[-4.608803E-3,-1.9775032E0,3.9887753E0,-1.0460272E0,-1.8317354E1,1.5349617E1,2.039902E0,1.2029649E0,-5.4829926E0,-4.9160612E-1,-1.8623616E-1,6.032741E0,5.589202E-1,-1.4502621E0,6.9744735E0,5.722294E0,-2.8617501E0,-3.7982614E0,-5.261471E-1,1.8844555E-1,1.2492418E-2,-2.8105834E0,1.9428481E-1,1.0645572E1,2.0185347E0,-8.049031E0,8.096119E0,-5.6234245E0,6.02221E0,1.1725537E0,-1.0403997E1,3.3639839E0,-5.3564487E0,1.6162983E0,1.5423695E1,-8.3227165E-2,4.04115E0,-6.2335473E-2,-2.1489443E-1,3.7981126E-1,1.15813024E-1,-1.4353424E-1,1.309085E-1,-2.7933553E-2,1.6773169E-1,-2.4676196E-2,3.4735972E-1,-3.315243E-1,-3.957984E-2,-6.876074E-2,1.7749567E-1,-2.090097E-1,6.1707757E-2,-1.979605E-2,7.7946484E-2,4.255448E-1,2.0906443E-2,2.4400806E-2,1.4861566E-1],"categories":[],"categories_nodes":[],"categories_segments":[],"categories_sizes":[],"default_left":[0,0,0,0,0,0,0,0,0,0,0,0,0,0,0,0,0,0,0,0,0,0,0,0,0,0,0,0,0,0,0,0,0,0,0,0,0,0,0,0,0,0,0,0,0,0,0,0,0,0,0,0,0,0,0,0,0,0,0],"id":5,"left_children":[1,3,5,7,9,11,13,15,17,-1,-1,19,-1,21,23,25,27,29,-1,-1,-1,31,-1,33,35,37,39,41,43,45,47,49,51,53,55,-1,57,-1,-1,-1,-1,-1,-1,-1,-1,-1,-1,-1,-1,-1,-1,-1,-1,-1,-1,-1,-1,-1,-1],"loss_changes":[1.977519E3,2.5378298E3,1.806378E3,1.6031877E3,2.4960352E2,1.159405E3,1.2501323E3,1.9819426E3,1.7322708E3,0E0,0E0,1.3042743E2,0E0,6.6417615E2,5.243237E2,1.7323926E3,1.432338E3,1.6868298E3,0E0,0E0,0E0,6.31084E2,0E0,7.085011E2,1.881517E2,6.478198E1,1.0205713E3,7.610963E2,2.3185715E2,1.1395627E3,1.0362644E3,4.5310162E2,1.1561921E3,4.292162E1,8.149712E2,0E0,9.150488E1,0E0,0E0,0E0,0E0,0E0,0E0,0E0,0E0,0E0,0E0,0E0,0E0,0E0,0E0,0E0,0E0,0E0,0E0,0E0,0E0,0E0,0E0],"parents":[2147483647,0,0,1,1,2,2,3,3,4,4,5,5,6,6,7,7,8,8,11,11,13,13,14,14,15,15,16,16,17,17,21,21,23,23,24,24,25,25,26,26,27,27,28,28,29,29,30,30,31,31,32,32,33,33,34,34,36,36],"right_children":[2,4,6,8,10,12,14,16,18,-1,-1,20,-1,22,24,26,28,30,-1,-1,-1,32,-1,34,36,38,40,42,44,46,48,50,52,54,56,-1,58,-1,-1,-1,-1,-1,-1,-1,-1,-1,-1,-1,-1,-1,-1,-1,-1,-1,-1,-1,-1,-1,-1],"split_conditions":[5.6644333E1,2.2078094E-1,-9.528953E-2,7.2511477E0,6.329482E2,5.7386074E0,5.458728E-1,2.56863E1,7.7840906E2,-4.9160612E-1,-1.8623616E-1,3.964509E0,5.589202E-1,1.6838653E5,1.2310859E3,-3.3645025E6,1.3350771E1,1.4863836E1,-5.261471E-1,1.8844555E-1,1.2492418E-2,1.017518E1,1.9428481E-1,6.901936E2,1.0395048E0,-4.7801E6,-1.5782188E2,7.746601E-1,-4.224027E5,9.0260714E-1,2.2527462E1,-7.3658147E0,1.2114251E0,-5.7786237E-2,2.0913061E1,-8.3227165E-2,-7.5891016E4,-6.2335473E-2,-2.1489443E-1,3.7981126E-1,1.15813024E-1,-1.4353424E-1,1.309085E-1,-2.7933553E-2,1.6773169E-1,-2.4676196E-2,3.4735972E-1,-3.315243E-1,-3.957984E-2,-6.876074E-2,1.7749567E-1,-2.090097E-1,6.1707757E-2,-1.979605E-2,7.7946484E-2,4.255448E-1,2.0906443E-2,2.4400806E-2,1.4861566E-1],"split_indices":[13,45,7,84,29,36,89,77,17,0,0,35,0,11,14,5,74,32,0,0,0,18,0,0,43,6,60,73,8,71,34,51,43,7,32,0,5,0,0,0,0,0,0,0,0,0,0,0,0,0,0,0,0,0,0,0,0,0,0],"split_type":[0,0,0,0,0,0,0,0,0,0,0,0,0,0,0,0,0,0,0,0,0,0,0,0,0,0,0,0,0,0,0,0,0,0,0,0,0,0,0,0,0,0,0,0,0,0,0,0,0,0,0,0,0,0,0,0,0,0,0],"sum_hessian":[2.49E2,1.67E2,8.2E1,1.59E2,8E0,1.1E1,7.1E1,1.06E2,5.3E1,4E0,4E0,7E0,4E0,4.2E1,2.9E1,5E1,5.6E1,5E1,3E0,4E0,3E0,3.8E1,4E0,1.6E1,1.3E1,7E0,4.3E1,4.3E1,1.3E1,2.9E1,2.1E1,1.1E1,2.7E1,6E0,1E1,3E0,1E1,3E0,4E0,7E0,3.6E1,3.9E1,4E0,3E0,1E1,2.6E1,3E0,1.2E1,9E0,5E0,6E0,1.7E1,1E1,3E0,3E0,7E0,3E0,6E0,4E0],"tree_param":{"num_deleted":"0","num_feature":"99","num_nodes":"59","size_leaf_vector":"1"}},{"base_weights":[-2.1016025E-3,-1.9422464E0,3.924964E0,-1.2862117E0,-3.9967582E-1,1.3907483E1,2.0418975E0,1.0944774E0,-5.182084E0,4.027936E0,4.4818243E-1,-1.7650484E0,7.0110226E0,7.1134095E0,-3.2373319E0,-3.737244E0,-5.180345E-1,1.33693E-1,1.122223E-2,-9.163741E0,2.8558798E0,1.2846843E0,1.0560042E1,-3.5884886E0,9.662086E0,-5.145535E0,4.8242755E0,-1.0606048E1,9.4577074E-1,-2.4427886E-1,-5.453846E-2,9.543027E0,-1.2457289E0,5.0710735E0,-8.178104E-2,4.064922E0,1.7325186E1,5.329025E-2,-1.4618826E-1,3.486128E-1,1.0523457E-1,6.0473587E-2,-1.4470497E-1,-7.094588E-2,1.6377193E-1,-3.3437815E-1,-9.3888655E-2,-5.136055E-2,2.0867087E-1,1.1533838E-1,2.5397637E-1,-1.5735377E-1,6.055446E-2,1.3450663E-1,4.037499E-2,-1.271115E-2,1.6592112E-1,4.8404005E-1,1.5708658E-1],"categories":[],"categories_nodes":[],"categories_segments":[],"categories_sizes":[],"default_left":[0,0,0,0,0,0,0,0,0,0,0,0,0,0,0,0,0,0,0,0,0,0,0,0,0,0,0,0,0,0,0,0,0,0,0,0,0,0,0,0,0,0,0,0,0,0,0,0,0,0,0,0,0,0,0,0,0,0,0],"id":6,"left_children":[1,3,5,7,-1,9,11,13,15,17,-1,19,21,23,25,27,-1,-1,-1,29,31,33,35,37,39,41,43,45,47,-1,-1,49,51,53,-1,55,57,-1,-1,-1,-1,-1,-1,-1,-1,-1,-1,-1,-1,-1,-1,-1,-1,-1,-1,-1,-1,-1,-1],"loss_changes":[1.9123922E3,1.9035793E3,1.5318154E3,1.5174741E3,0E0,9.2589014E2,1.3554954E3,2.682461E3,1.6988523E3,5.6779198E1,0E0,1.4279125E3,6.16443E2,1.2075264E3,9.4781445E2,1.907867E3,0E0,0E0,0E0,2.5166064E2,7.250175E2,2.792154E2,7.644426E2,2.1436272E2,1.0732166E3,7.7088586E2,3.3948105E2,7.4587744E2,1.166549E3,0E0,0E0,4.1233826E1,4.7912878E2,2.3729279E1,0E0,2.1134612E2,3.6215674E2,0E0,0E0,0E0,0E0,0E0,0E0,0E0,0E0,0E0,0E0,0E0,0E0,0E0,0E0,0E0,0E0,0E0,0E0,0E0,0E0,0E0,0E0],"parents":[2147483647,0,0,1,1,2,2,3,3,5,5,6,6,7,7,8,8,9,9,11,11,12,12,13,13,14,14,15,15,19,19,20,20,21,21,22,22,23,23,24,24,25,25,26,26,27,27,28,28,31,31,32,32,33,33,35,35,36,36],"right_children":[2,4,6,8,-1,10,12,14,16,18,-1,20,22,24,26,28,-1,-1,-1,30,32,34,36,38,40,42,44,46,48,-1,-1,50,52,54,-1,56,58,-1,-1,-1,-1,-1,-1,-1,-1,-1,-1,-1,-1,-1,-1,-1,-1,-1,-1,-1,-1,-1,-1],"split_conditions":[5.6644333E1,1.1378133E4,5.6124E-1,5.3751783E0,-3.9967582E-1,-5.439E5,5.473654E-1,2.3369747E1,7.7942377E2,5.567E5,4.4818243E-1,1.1227162E0,1.3823292E1,2.0884076E-2,1.0662904E1,-5.9153366E1,-5.180345E-1,1.33693E-1,1.122223E-2,3.143291E1,1.6585664E4,1.2010039E1,-1.3918567E1,2.323413E0,6.4783484E-2,1.1293686E1,2.0696836E6,-7.2E1,5.3487593E3,-2.4427886E-1,-5.453846E-2,1.1423144E0,1.2114251E0,9.935061E-1,-8.178104E-2,6.55247E1,7.395875E2,5.329025E-2,-1.4618826E-1,3.486128E-1,1.0523457E-1,6.0473587E-2,-1.4470497E-1,-7.094588E-2,1.6377193E-1,-3.3437815E-1,-9.3888655E-2,-5.136055E-2,2.0867087E-1,1.1533838E-1,2.5397637E-1,-1.5735377E-1,6.055446E-2,1.3450663E-1,4.037499E-2,-1.271115E-2,1.6592112E-1,4.8404005E-1,1.5708658E-1],"split_indices":[13,10,33,84,0,6,88,77,17,4,0,43,32,33,36,49,0,0,0,57,10,32,48,86,72,32,8,65,9,0,0,43,43,26,0,13,0,0,0,0,0,0,0,0,0,0,0,0,0,0,0,0,0,0,0,0,0,0,0],"split_type":[0,0,0,0,0,0,0,0,0,0,0,0,0,0,0,0,0,0,0,0,0,0,0,0,0,0,0,0,0,0,0,0,0,0,0,0,0,0,0,0,0,0,0,0,0,0,0,0,0,0,0,0,0,0,0,0,0,0,0],"sum_hessian":[2.49E2,1.67E2,8.2E1,1.62E2,5E0,1.2E1,7E1,1.01E2,6.1E1,6E0,6E0,4E1,3E1,4.2E1,5.9E1,5.8E1,3E0,3E0,3E0,1.5E1,2.5E1,1.2E1,1.8E1,8E0,3.4E1,4.8E1,1.1E1,2.3E1,3.5E1,1E1,5E0,9E0,1.6E1,7E0,5E0,1E1,8E0,3E0,5E0,1.2E1,2.2E1,9E0,3.9E1,3E0,8E0,1.1E1,1.2E1,2.6E1,9E0,5E0,4E0,6E0,1E1,4E0,3E0,5E0,5E0,4E0,4E0],"tree_param":{"num_deleted":"0","num_feature":"99","num_nodes":"59","size_leaf_vector":"1"}},{"base_weights":[4.82038E-4,-1.9071923E0,3.861793E0,-1.0018553E0,-1.7790163E1,1.4886161E1,1.9707624E0,1.1702378E0,-5.287265E0,-4.769473E-1,-1.8138596E-1,5.845591E0,5.422091E-1,-1.4011829E0,6.7381916E0,5.51297E0,-2.7358952E0,-6.815565E0,2.2723809E-1,1.8215488E-1,1.2660658E-2,-5.437008E0,2.0203872E0,1.0306056E1,1.9244859E0,-7.774674E0,7.8036103E0,-5.3950152E0,5.816761E0,-1.6499903E0,-1.23428545E1,1.0818988E-1,-9.354349E0,5.7440743E0,-3.7671819E0,1.586392E0,1.4918018E1,5.0412674E0,-1.9124764E0,-5.8153026E-2,-2.0921575E-1,3.6809218E-1,1.1119562E-1,-1.3818634E-1,1.2944815E-1,-2.7084386E-2,1.6204722E-1,-1.1655202E-1,5.1132012E-2,-4.3477687E-1,-3.6495186E-2,-2.5630596E-1,-5.3604092E-2,-2.7067807E-2,1.7333548E-1,-2.0908782E-1,8.838812E-3,-1.9341482E-2,7.641596E-2,4.1177258E-1,1.9861972E-2,2.1892855E-2,1.483119E-1,-1.0610383E-1,3.729763E-2],"categories":[],"categories_nodes":[],"categories_segments":[],"categories_sizes":[],"default_left":[0,0,0,0,0,0,0,0,0,0,0,0,0,0,0,0,0,0,0,0,0,0,0,0,0,0,0,0,0,0,0,0,0,0,0,0,0,0,0,0,0,0,0,0,0,0,0,0,0,0,0,0,0,0,0,0,0,0,0,0,0,0,0,0,0],"id":7,"left_children":[1,3,5,7,9,11,13,15,17,-1,-1,19,-1,21,23,25,27,29,-1,-1,-1,31,33,35,37,39,41,43,45,47,49,-1,51,53,55,57,59,61,63,-1,-1,-1,-1,-1,-1,-1,-1,-1,-1,-1,-1,-1,-1,-1,-1,-1,-1,-1,-1,-1,-1,-1,-1,-1,-1],"loss_changes":[1.8488962E3,2.3979229E3,1.7009987E3,1.4955167E3,2.3187085E2,1.0920911E3,1.1668783E3,1.8301549E3,1.4238828E3,0E0,0E0,1.206723E2,0E0,6.0476575E2,4.9540552E2,1.6129684E3,1.3277063E3,1.4072158E3,0E0,0E0,0E0,8.875011E2,5.3886523E2,6.599851E2,1.7706693E2,6.625241E1,9.675481E2,7.247484E2,2.1667874E2,4.6306226E2,2.1957021E3,0E0,2.8251733E2,2.957049E2,2.731203E2,4.1187805E1,7.6507007E2,6.1437744E1,9.4108025E1,0E0,0E0,0E0,0E0,0E0,0E0,0E0,0E0,0E0,0E0,0E0,0E0,0E0,0E0,0E0,0E0,0E0,0E0,0E0,0E0,0E0,0E0,0E0,0E0,0E0,0E0],"parents":[2147483647,0,0,1,1,2,2,3,3,4,4,5,5,6,6,7,7,8,8,11,11,13,13,14,14,15,15,16,16,17,17,21,21,22,22,23,23,24,24,25,25,26,26,27,27,28,28,29,29,30,30,32,32,33,33,34,34,35,35,36,36,37,37,38,38],"right_children":[2,4,6,8,10,12,14,16,18,-1,-1,20,-1,22,24,26,28,30,-1,-1,-1,32,34,36,38,40,42,44,46,48,50,-1,52,54,56,58,60,62,64,-1,-1,-1,-1,-1,-1,-1,-1,-1,-1,-1,-1,-1,-1,-1,-1,-1,-1,-1,-1,-1,-1,-1,-1,-1,-1],"split_conditions":[5.6644333E1,2.2078094E-1,-9.528953E-2,7.2511477E0,6.329482E2,6.7431946E0,5.473654E-1,2.56863E1,5.4850566E4,-4.769473E-1,-1.8138596E-1,3.964509E0,5.422091E-1,1.1227162E0,1.2310859E3,-3.3645025E6,1.3350771E1,1.5794014E1,2.2723809E-1,1.8215488E-1,1.2660658E-2,5.6124E-1,5.1503954E0,6.901936E2,2.6861602E4,-4.7801E6,-1.5782188E2,7.746601E-1,-4.224027E5,6.757156E2,2.2527462E1,1.0818988E-1,3.143291E1,-1.1033416E4,6.3773724E1,-5.7786237E-2,2.0913061E1,9.770841E3,9.825321E-1,-5.8153026E-2,-2.0921575E-1,3.6809218E-1,1.1119562E-1,-1.3818634E-1,1.2944815E-1,-2.7084386E-2,1.6204722E-1,-1.1655202E-1,5.1132012E-2,-4.3477687E-1,-3.6495186E-2,-2.5630596E-1,-5.3604092E-2,-2.7067807E-2,1.7333548E-1,-2.0908782E-1,8.838812E-3,-1.9341482E-2,7.641596E-2,4.1177258E-1,1.9861972E-2,2.1892855E-2,1.483119E-1,-1.0610383E-1,3.729763E-2],"split_indices":[13,45,7,84,29,37,88,77,9,0,0,35,0,43,14,5,74,57,0,0,0,33,25,0,9,6,60,73,8,40,34,0,57,8,13,7,32,9,19,0,0,0,0,0,0,0,0,0,0,0,0,0,0,0,0,0,0,0,0,0,0,0,0,0,0],"split_type":[0,0,0,0,0,0,0,0,0,0,0,0,0,0,0,0,0,0,0,0,0,0,0,0,0,0,0,0,0,0,0,0,0,0,0,0,0,0,0,0,0,0,0,0,0,0,0,0,0,0,0,0,0,0,0,0,0,0,0,0,0,0,0,0,0],"sum_hessian":[2.49E2,1.67E2,8.2E1,1.59E2,8E0,1.1E1,7.1E1,1.06E2,5.3E1,4E0,4E0,7E0,4E0,4.2E1,2.9E1,5E1,5.6E1,4.9E1,4E0,4E0,3E0,1.9E1,2.3E1,1.6E1,1.3E1,7E0,4.3E1,4.3E1,1.3E1,2.6E1,2.3E1,5E0,1.4E1,1.4E1,9E0,6E0,1E1,7E0,6E0,3E0,4E0,7E0,3.6E1,3.9E1,4E0,3E0,1E1,1.3E1,1.3E1,1.2E1,1.1E1,9E0,5E0,4E0,1E1,3E0,6E0,3E0,3E0,7E0,3E0,3E0,4E0,3E0,3E0],"tree_param":{"num_deleted":"0","num_feature":"99","num_nodes":"65","size_leaf_vector":"1"}},{"base_weights":[2.2393484E-3,-1.8717309E0,3.7953088E0,-9.810792E-1,-1.749757E1,1.4641542E1,1.9348909E0,1.1493397E0,-5.1842966E0,-1.7840274E-1,-4.6910304E-1,5.749766E0,5.3329146E-1,-1.3783231E0,6.619334E0,5.824252E0,-2.3376815E0,-3.5611835E0,-5.0539017E-1,1.7915902E-1,1.2465443E-2,-2.6847968E0,1.8683316E-1,1.0122926E1,1.892164E0,-7.648258E0,8.438504E0,-4.588402E0,5.7068167E0,-1.0322511E1,1.1339473E0,3.1616287E0,-5.0945225E0,1.5619315E0,1.4650565E1,-8.11488E-2,3.8435528E0,-5.7256367E-2,-2.057748E-1,-4.407852E-2,2.22453E-1,-1.1686265E-1,1.2731913E-1,-2.6666773E-2,1.5901862E-1,-9.0485424E-2,-3.3707172E-1,-2.1279348E-2,3.2962623E-1,-6.650971E-2,1.6843456E-1,-2.054773E-1,4.6708338E-2,-1.9043257E-2,7.5237714E-2,4.0436527E-1,1.9555721E-2,2.264163E-2,1.4214142E-1],"categories":[],"categories_nodes":[],"categories_segments":[],"categories_sizes":[],"default_left":[0,0,0,0,0,0,0,0,0,0,0,0,0,0,0,0,0,0,0,0,0,0,0,0,0,0,0,0,0,0,0,0,0,0,0,0,0,0,0,0,0,0,0,0,0,0,0,0,0,0,0,0,0,0,0,0,0,0,0],"id":8,"left_children":[1,3,5,7,9,11,13,15,17,-1,-1,19,-1,21,23,25,27,29,-1,-1,-1,31,-1,33,35,37,39,41,43,45,47,49,51,53,55,-1,57,-1,-1,-1,-1,-1,-1,-1,-1,-1,-1,-1,-1,-1,-1,-1,-1,-1,-1,-1,-1,-1,-1],"loss_changes":[1.7841289E3,2.3209197E3,1.646488E3,1.4386968E3,2.2430664E2,1.056419E3,1.126604E3,1.7578777E3,1.6127081E3,0E0,0E0,1.167095E2,0E0,6.1237085E2,4.7770813E2,1.6846846E3,1.148752E3,1.6307161E3,0E0,0E0,0E0,5.655499E2,0E0,6.360553E2,1.7469931E2,6.3977936E1,1.0062698E3,6.1418994E2,2.0889651E2,6.83E2,1.0184294E3,4.127112E2,1.0334292E3,3.9927452E1,7.3752026E2,0E0,8.50031E1,0E0,0E0,0E0,0E0,0E0,0E0,0E0,0E0,0E0,0E0,0E0,0E0,0E0,0E0,0E0,0E0,0E0,0E0,0E0,0E0,0E0,0E0],"parents":[2147483647,0,0,1,1,2,2,3,3,4,4,5,5,6,6,7,7,8,8,11,11,13,13,14,14,15,15,16,16,17,17,21,21,23,23,24,24,25,25,26,26,27,27,28,28,29,29,30,30,31,31,32,32,33,33,34,34,36,36],"right_children":[2,4,6,8,10,12,14,16,18,-1,-1,20,-1,22,24,26,28,30,-1,-1,-1,32,-1,34,36,38,40,42,44,46,48,50,52,54,56,-1,58,-1,-1,-1,-1,-1,-1,-1,-1,-1,-1,-1,-1,-1,-1,-1,-1,-1,-1,-1,-1,-1,-1],"split_conditions":[5.6644333E1,2.2078094E-1,-9.528953E-2,7.2511477E0,1.1378133E4,5.7386074E0,5.473654E-1,2.3369747E1,7.7840906E2,-1.7840274E-1,-4.6910304E-1,3.964509E0,5.3329146E-1,1.6838653E5,1.2310859E3,-3.3645025E6,1.3350771E1,-5.9153366E1,-5.0539017E-1,1.7915902E-1,1.2465443E-2,1.017518E1,1.8683316E-1,6.901936E2,1.0395048E0,-4.7801E6,1.0112485E0,7.746601E-1,-4.224027E5,1.0965399E1,1.4642887E0,-7.3658147E0,1.191774E0,-5.7786237E-2,2.0913061E1,-8.11488E-2,-7.5891016E4,-5.7256367E-2,-2.057748E-1,-4.407852E-2,2.22453E-1,-1.1686265E-1,1.2731913E-1,-2.6666773E-2,1.5901862E-1,-9.0485424E-2,-3.3707172E-1,-2.1279348E-2,3.2962623E-1,-6.650971E-2,1.6843456E-1,-2.054773E-1,4.6708338E-2,-1.9043257E-2,7.5237714E-2,4.0436527E-1,1.9555721E-2,2.264163E-2,1.4214142E-1],"split_indices":[13,45,7,84,10,36,88,77,17,0,0,35,0,11,14,5,74,49,0,0,0,18,0,0,43,6,44,73,8,58,88,51,43,7,32,0,5,0,0,0,0,0,0,0,0,0,0,0,0,0,0,0,0,0,0,0,0,0,0],"split_type":[0,0,0,0,0,0,0,0,0,0,0,0,0,0,0,0,0,0,0,0,0,0,0,0,0,0,0,0,0,0,0,0,0,0,0,0,0,0,0,0,0,0,0,0,0,0,0,0,0,0,0,0,0,0,0,0,0,0,0],"sum_hessian":[2.49E2,1.67E2,8.2E1,1.59E2,8E0,1.1E1,7.1E1,1.06E2,5.3E1,4E0,4E0,7E0,4E0,4.2E1,2.9E1,4.5E1,6.1E1,5E1,3E0,4E0,3E0,3.8E1,4E0,1.6E1,1.3E1,7E0,3.8E1,4.8E1,1.3E1,2E1,3E1,1.1E1,2.7E1,6E0,1E1,3E0,1E1,3E0,4E0,7E0,3.1E1,4.4E1,4E0,3E0,1E1,1.1E1,9E0,2.7E1,3E0,5E0,6E0,1.6E1,1.1E1,3E0,3E0,7E0,3E0,6E0,4E0],"tree_param":{"num_deleted":"0","num_feature":"99","num_nodes":"59","size_leaf_vector":"1"}},{"base_weights":[3.0119875E-3,-2.1630824E0,3.0646741E0,5.4455295E0,-3.7668595E0,1.3428045E1,7.394565E-1,-1.8446186E-1,8.474829E0,-4.6264606E0,9.060762E0,3.2598383E0,1.9087845E1,-9.758243E0,2.5736542E0,5.740268E0,3.977118E-1,-1.3853172E1,-3.3146918E0,5.2294258E-2,2.5620705E-1,1.4414188E-1,-4.6141967E-2,5.712926E-1,8.903302E0,-2.6174061E0,-5.174757E-1,-3.5218678E0,4.5958195E0,9.270225E0,-2.7220008E-1,-1.1109667E-1,-3.6896047E-1,-4.1841283E0,2.958218E-1,9.3688995E-2,2.266299E-1,3.7699573E-2,-1.5285987E-1,-7.4986186E0,1.8734549E-1,-3.1540344E0,6.781099E0,2.1854171E-1,8.002949E-2,5.98462E-2,-8.5999854E-2,-6.45951E-2,-2.6809755E-1,-2.2506398E-1,3.2657597E-2,1.933237E-2,-1.662686E-1,3.3081606E-1,9.42569E-2],"categories":[],"categories_nodes":[],"categories_segments":[],"categories_sizes":[],"default_left":[0,0,0,0,0,0,0,0,0,0,0,0,0,0,0,0,0,0,0,0,0,0,0,0,0,0,0,0,0,0,0,0,0,0,0,0,0,0,0,0,0,0,0,0,0,0,0,0,0,0,0,0,0,0,0],"id":9,"left_children":[1,3,5,7,9,11,13,-1,15,17,19,21,23,25,27,29,-1,31,33,-1,-1,-1,-1,-1,35,37,-1,39,41,43,45,-1,-1,47,-1,-1,-1,-1,-1,49,-1,51,53,-1,-1,-1,-1,-1,-1,-1,-1,-1,-1,-1,-1],"loss_changes":[1.6645913E3,1.8142827E3,2.4961685E3,1.2116296E3,1.387169E3,1.0312266E3,1.6810322E3,0E0,5.42923E2,1.3459622E3,1.4564429E2,1.8092682E2,8.159375E2,1.3648765E3,9.2832135E2,4.0577472E2,0E0,3.8724854E2,1.6302325E3,0E0,0E0,0E0,0E0,0E0,1.426947E1,2.2808841E2,0E0,1.0229835E3,9.69781E2,4.637732E1,1.1177231E2,0E0,0E0,8.6353076E2,0E0,0E0,0E0,0E0,0E0,4.8748853E2,0E0,2.7020154E2,8.2594617E2,0E0,0E0,0E0,0E0,0E0,0E0,0E0,0E0,0E0,0E0,0E0,0E0],"parents":[2147483647,0,0,1,1,2,2,3,3,4,4,5,5,6,6,8,8,9,9,10,10,11,11,12,12,13,13,14,14,15,15,17,17,18,18,24,24,25,25,27,27,28,28,29,29,30,30,33,33,39,39,41,41,42,42],"right_children":[2,4,6,8,10,12,14,-1,16,18,20,22,24,26,28,30,-1,32,34,-1,-1,-1,-1,-1,36,38,-1,40,42,44,46,-1,-1,48,-1,-1,-1,-1,-1,50,-1,52,54,-1,-1,-1,-1,-1,-1,-1,-1,-1,-1,-1,-1],"split_conditions":[7.015897E2,1.1293686E1,7.4328705E2,-1.2044E6,5.3076845E-1,7.243904E2,3.0672719E4,-1.8446186E-1,1.1881468E0,6.496115E2,1.6815E6,7.0746356E2,7.374417E2,2.4983118E1,4.1779747E0,6.97257E2,3.977118E-1,6.3030994E2,9.4986373E-1,5.2294258E-2,2.5620705E-1,1.4414188E-1,-4.6141967E-2,5.712926E-1,-3.6350164E4,2.0071943E0,-5.174757E-1,2.0127767E5,7.4727686E2,6.6779464E-2,6.694098E2,-1.1109667E-1,-3.6896047E-1,7.188271E2,2.958218E-1,9.3688995E-2,2.266299E-1,3.7699573E-2,-1.5285987E-1,5.1383084E-1,1.8734549E-1,7.251749E2,2.4517824E1,2.1854171E-1,8.002949E-2,5.98462E-2,-8.5999854E-2,-6.45951E-2,-2.6809755E-1,-2.2506398E-1,3.2657597E-2,1.933237E-2,-1.662686E-1,3.3081606E-1,9.42569E-2],"split_indices":[24,32,97,6,45,39,11,0,88,67,6,24,12,47,25,61,0,12,33,0,0,0,0,0,9,86,0,11,3,46,2,0,0,0,0,0,0,0,0,38,0,2,47,0,0,0,0,0,0,0,0,0,0,0,0],"split_type":[0,0,0,0,0,0,0,0,0,0,0,0,0,0,0,0,0,0,0,0,0,0,0,0,0,0,0,0,0,0,0,0,0,0,0,0,0,0,0,0,0,0,0,0,0,0,0,0,0,0,0,0,0,0,0],"sum_hessian":[2.49E2,1.46E2,1.03E2,2.5E1,1.21E2,1.8E1,8.5E1,4E0,2.1E1,1.14E2,7E0,7E0,1.1E1,1.2E1,7.3E1,1.8E1,3E0,1.3E1,1.01E2,3E0,4E0,4E0,3E0,5E0,6E0,9E0,3E0,1.8E1,5.5E1,1.1E1,7E0,5E0,8E0,9.7E1,4E0,3E0,3E0,5E0,4E0,1.4E1,4E0,1.2E1,4.3E1,8E0,3E0,4E0,3E0,8.8E1,9E0,1E1,4E0,7E0,5E0,7E0,3.6E1],"tree_param":{"num_deleted":"0","num_feature":"99","num_nodes":"55","size_leaf_vector":"1"}},{"base_weights":[6.5793167E-3,-1.8139509E0,3.6914287E0,-9.4581336E-1,-1.7045956E1,1.4247018E1,1.8808938E0,1.1255232E0,-5.0326133E0,-1.7505933E-1,-4.5573422E-1,5.6322193E0,5.1769197E-1,-1.3211601E0,6.407808E0,1.4029529E1,-5.8937065E-2,-3.4416022E0,-4.9463674E-1,1.753026E-1,1.2452786E-2,-2.576324E0,1.7954539E-1,9.832822E0,1.7911615E0,4.005186E-1,1.18650675E-1,-1.03951435E1,9.6397275E-1,-1.0038365E1,1.1381923E0,3.067769E0,-4.903209E0,2.3787758E0,1.4812777E1,-8.074569E-2,3.707874E0,-2.6823533E-1,-7.8493476E-2,1.3353331E-1,-2.5279319E-2,-8.785044E-2,-3.279663E-1,-2.1603592E-2,3.3257228E-1,-6.567988E-2,1.6441536E-1,-1.9139709E-1,5.660556E-2,-6.6478886E-2,1.3142997E-1,1.08537525E-1,3.7302122E-1,2.1182008E-2,1.3804829E-1],"categories":[],"categories_nodes":[],"categories_segments":[],"categories_sizes":[],"default_left":[0,0,0,0,0,0,0,0,0,0,0,0,0,0,0,0,0,0,0,0,0,0,0,0,0,0,0,0,0,0,0,0,0,0,0,0,0,0,0,0,0,0,0,0,0,0,0,0,0,0,0,0,0,0,0],"id":10,"left_children":[1,3,5,7,9,11,13,15,17,-1,-1,19,-1,21,23,25,27,29,-1,-1,-1,31,-1,33,35,-1,-1,37,39,41,43,45,47,49,51,-1,53,-1,-1,-1,-1,-1,-1,-1,-1,-1,-1,-1,-1,-1,-1,-1,-1,-1,-1],"loss_changes":[1.6837908E3,2.2054214E3,1.5594375E3,1.3600864E3,2.044646E2,9.885325E2,1.0521361E3,1.636245E3,1.5519133E3,0E0,0E0,1.112388E2,0E0,5.651625E2,4.5675012E2,2.9279736E2,1.0567483E3,1.5522283E3,0E0,0E0,0E0,5.272351E2,0E0,5.958174E2,1.6801979E2,0E0,0E0,1.0717981E2,1.1121259E3,6.478811E2,1.0375146E3,3.9601382E2,9.7034503E2,2.0090561E2,2.2181421E2,0E0,8.164673E1,0E0,0E0,0E0,0E0,0E0,0E0,0E0,0E0,0E0,0E0,0E0,0E0,0E0,0E0,0E0,0E0,0E0,0E0],"parents":[2147483647,0,0,1,1,2,2,3,3,4,4,5,5,6,6,7,7,8,8,11,11,13,13,14,14,15,15,16,16,17,17,21,21,23,23,24,24,27,27,28,28,29,29,30,30,31,31,32,32,33,33,34,34,36,36],"right_children":[2,4,6,8,10,12,14,16,18,-1,-1,20,-1,22,24,26,28,30,-1,-1,-1,32,-1,34,36,-1,-1,38,40,42,44,46,48,50,52,-1,54,-1,-1,-1,-1,-1,-1,-1,-1,-1,-1,-1,-1,-1,-1,-1,-1,-1,-1],"split_conditions":[5.6644333E1,2.2078094E-1,-9.528953E-2,7.2511477E0,1.1378133E4,5.7386074E0,5.458728E-1,-1.5782188E2,7.7840906E2,-1.7505933E-1,-4.5573422E-1,3.964509E0,5.1769197E-1,1.6838653E5,1.2310859E3,2.8E1,2.3032307E1,-5.9153366E1,-4.9463674E-1,1.753026E-1,1.2452786E-2,1.017518E1,1.7954539E-1,6.7231885E2,1.0395048E0,4.005186E-1,1.18650675E-1,3.941E5,1.1293686E1,1.0965399E1,9.0260714E-1,-7.3658147E0,1.2114251E0,6.98768E-2,3.0455088E5,-8.074569E-2,-7.5891016E4,-2.6823533E-1,-7.8493476E-2,1.3353331E-1,-2.5279319E-2,-8.785044E-2,-3.279663E-1,-2.1603592E-2,3.3257228E-1,-6.567988E-2,1.6441536E-1,-1.9139709E-1,5.660556E-2,-6.6478886E-2,1.3142997E-1,1.08537525E-1,3.7302122E-1,2.1182008E-2,1.3804829E-1],"split_indices":[13,45,7,84,10,36,89,60,17,0,0,35,0,11,14,63,47,49,0,0,0,18,0,42,43,0,0,4,32,58,71,51,43,7,8,0,5,0,0,0,0,0,0,0,0,0,0,0,0,0,0,0,0,0,0],"split_type":[0,0,0,0,0,0,0,0,0,0,0,0,0,0,0,0,0,0,0,0,0,0,0,0,0,0,0,0,0,0,0,0,0,0,0,0,0,0,0,0,0,0,0,0,0,0,0,0,0,0,0,0,0,0,0],"sum_hessian":[2.49E2,1.67E2,8.2E1,1.59E2,8E0,1.1E1,7.1E1,1.06E2,5.3E1,4E0,4E0,7E0,4E0,4.2E1,2.9E1,8E0,9.8E1,5E1,3E0,4E0,3E0,3.8E1,4E0,1.6E1,1.3E1,4E0,4E0,8E0,9E1,2E1,3E1,1.1E1,2.7E1,7E0,9E0,3E0,1E1,5E0,3E0,2.5E1,6.5E1,1.1E1,9E0,2.7E1,3E0,5E0,6E0,1.7E1,1E1,3E0,4E0,3E0,6E0,6E0,4E0],"tree_param":{"num_deleted":"0","num_feature":"99","num_nodes":"55","size_leaf_vector":"1"}},{"base_weights":[8.541468E-3,-1.7823108E0,3.6332963E0,-9.283612E-1,-1.6765602E1,1.4012906E1,1.8528987E0,1.278743E0,-4.6281805E0,-4.4823885E-1,-1.7218016E-1,5.539898E0,5.0917757E-1,-1.2906618E0,6.2969055E0,8.676214E0,-1.6774954E0,-1.3534058E1,-1.6234778E0,1.724194E-1,1.2260777E-2,-3.6779296E0,3.9171026E0,9.662821E0,1.7599438E0,1.2213317E1,7.3438674E-1,-6.3980575E0,2.3769197E0,-4.7730713E0,-7.490216E-1,-5.1728716E0,3.2493775E0,2.882584E0,-6.6268444E0,-1.4310347E-1,7.516589E0,2.3379905E0,1.4556403E1,-1.9219651E0,4.7616215E0,5.187389E-2,2.976502E-1,-1.003256E-1,1.5058662E-1,-1.9511725E-1,4.0573888E-2,-3.0929536E-2,1.3020827E-1,5.950511E-2,-2.1922319E-1,-4.0053953E-3,-1.879532E-1,3.3317545E-1,-2.0614037E-2,-1.12321585E-1,1.4884359E-1,-1.7774554E-1,8.4602244E-2,7.013474E-2,1.927374E-1,-6.545385E-2,1.2926835E-1,4.383686E-1,1.7701676E-1,2.6247764E-2,-9.539534E-2,2.391419E-2,1.3749623E-1],"categories":[],"categories_nodes":[],"categories_segments":[],"categories_sizes":[],"default_left":[0,0,0,0,0,0,0,0,0,0,0,0,0,0,0,0,0,0,0,0,0,0,0,0,0,0,0,0,0,0,0,0,0,0,0,0,0,0,0,0,0,0,0,0,0,0,0,0,0,0,0,0,0,0,0,0,0,0,0,0,0,0,0,0,0,0,0,0,0],"id":11,"left_children":[1,3,5,7,9,11,13,15,17,-1,-1,19,-1,21,23,25,27,29,31,-1,-1,33,35,37,39,41,43,45,47,49,-1,51,53,55,57,-1,59,61,63,65,67,-1,-1,-1,-1,-1,-1,-1,-1,-1,-1,-1,-1,-1,-1,-1,-1,-1,-1,-1,-1,-1,-1,-1,-1,-1,-1,-1,-1],"loss_changes":[1.6293258E3,2.1339917E3,1.5078617E3,1.3124602E3,1.9779395E2,9.5624097E2,1.0139676E3,2.223292E3,1.5835986E3,0E0,0E0,1.07585236E2,0E0,5.4899695E2,4.4112476E2,8.056714E2,1.4123633E3,2.835426E3,8.1241E2,0E0,0E0,5.994943E2,6.004873E2,5.753264E2,1.6387833E2,4.023955E2,4.0575226E2,8.9903125E2,6.238109E2,5.7282635E2,0E0,5.3174084E2,1.1181122E3,4.032259E2,4.910205E2,0E0,5.193811E1,1.9449821E2,2.1874097E2,6.678716E1,4.7675903E1,0E0,0E0,0E0,0E0,0E0,0E0,0E0,0E0,0E0,0E0,0E0,0E0,0E0,0E0,0E0,0E0,0E0,0E0,0E0,0E0,0E0,0E0,0E0,0E0,0E0,0E0,0E0,0E0],"parents":[2147483647,0,0,1,1,2,2,3,3,4,4,5,5,6,6,7,7,8,8,11,11,13,13,14,14,15,15,16,16,17,17,18,18,21,21,22,22,23,23,24,24,25,25,26,26,27,27,28,28,29,29,31,31,32,32,33,33,34,34,36,36,37,37,38,38,39,39,40,40],"right_children":[2,4,6,8,10,12,14,16,18,-1,-1,20,-1,22,24,26,28,30,32,-1,-1,34,36,38,40,42,44,46,48,50,-1,52,54,56,58,-1,60,62,64,66,68,-1,-1,-1,-1,-1,-1,-1,-1,-1,-1,-1,-1,-1,-1,-1,-1,-1,-1,-1,-1,-1,-1,-1,-1,-1,-1,-1,-1],"split_conditions":[5.6644333E1,2.2078094E-1,-9.528953E-2,5.3751783E0,6.329482E2,5.7386074E0,5.473654E-1,-2.7035138E-1,2.849853E1,-4.4823885E-1,-1.7218016E-1,3.964509E0,5.0917757E-1,5.1012848E4,1.2310859E3,5.4618664E0,3.2208803E0,3.790351E1,-4.9813294E0,1.724194E-1,1.2260777E-2,-3.8802352E0,-8.208E5,6.6473413E2,6.648249E1,2.451193E0,-1.8782E6,1.665807E0,5.623404E0,1.7484941E1,-7.490216E-1,-2.90622E0,-8.8503987E-1,-6.226788E0,1.3241768E3,-1.4310347E-1,4.4034896E0,6.98768E-2,1.7256309E0,-8.9881175E5,3.843E5,5.187389E-2,2.976502E-1,-1.003256E-1,1.5058662E-1,-1.9511725E-1,4.0573888E-2,-3.0929536E-2,1.3020827E-1,5.950511E-2,-2.1922319E-1,-4.0053953E-3,-1.879532E-1,3.3317545E-1,-2.0614037E-2,-1.12321585E-1,1.4884359E-1,-1.7774554E-1,8.4602244E-2,7.013474E-2,1.927374E-1,-6.545385E-2,1.2926835E-1,4.383686E-1,1.7701676E-1,2.6247764E-2,-9.539534E-2,2.391419E-2,1.3749623E-1],"split_indices":[13,45,7,84,29,36,88,45,13,0,0,35,0,11,14,25,79,75,36,0,0,86,6,15,70,76,6,38,48,57,0,38,79,86,14,0,25,7,88,5,4,0,0,0,0,0,0,0,0,0,0,0,0,0,0,0,0,0,0,0,0,0,0,0,0,0,0,0,0],"split_type":[0,0,0,0,0,0,0,0,0,0,0,0,0,0,0,0,0,0,0,0,0,0,0,0,0,0,0,0,0,0,0,0,0,0,0,0,0,0,0,0,0,0,0,0,0,0,0,0,0,0,0,0,0,0,0,0,0,0,0,0,0,0,0,0,0,0,0,0,0],"sum_hessian":[2.49E2,1.67E2,8.2E1,1.59E2,8E0,1.1E1,7.1E1,1E2,5.9E1,4E0,4E0,7E0,4E0,4.2E1,2.9E1,2.8E1,7.2E1,1.4E1,4.5E1,4E0,3E0,2.9E1,1.3E1,1.6E1,1.3E1,1.9E1,9E0,3.3E1,3.9E1,1.1E1,3E0,2.6E1,1.9E1,9E0,2E1,3E0,1E1,7E0,9E0,6E0,7E0,4E0,1.5E1,5E0,4E0,2.4E1,9E0,2E1,1.9E1,5E0,6E0,1.2E1,1.4E1,4E0,1.5E1,3E0,6E0,1.7E1,3E0,4E0,6E0,3E0,4E0,3E0,6E0,3E0,3E0,3E0,4E0],"tree_param":{"num_deleted":"0","num_feature":"99","num_nodes":"69","size_leaf_vector":"1"}},{"base_weights":[1.0223524E-2,-1.7520026E0,3.5770159E0,-9.1204804E-1,-1.648986E1,6.1785192E0,-1.4802146E0,1.089689E0,-4.861563E0,-1.6934834E-1,-4.4086674E-1,1.6298935E1,3.8441129E0,-4.0161514E0,5.678639E0,5.1170335E0,-2.5328414E0,-3.308976E0,-4.819276E-1,1.0532863E-1,4.7069812E-1,-4.410999E0,5.971329E0,-2.2625451E-1,-7.0736814E-1,5.1147103E-2,1.4587404E-1,-7.380321E0,7.2729836E0,-5.3803353E0,4.4836335E0,-9.668839E0,1.1060596E0,1.4087056E-1,-1.0216941E1,-3.2028344E-1,8.005072E0,-4.0932508E0,4.2306595E0,-5.4394264E-2,-1.9925104E-1,3.4249216E-1,1.03757955E-1,-1.3903724E-1,1.21856116E-1,-8.265502E-2,1.3554518E-1,-8.443319E-2,-3.161134E-1,-2.1128293E-2,3.2412553E-1,-1.10059805E-1,-2.575206E-1,1.1132263E-1,-1.467563E-1,2.1710792E-1,7.643419E-2,-1.4810522E-1,4.8805427E-2,3.1514455E-2,1.20694265E-1],"categories":[],"categories_nodes":[],"categories_segments":[],"categories_sizes":[],"default_left":[0,0,0,0,0,0,0,0,0,0,0,0,0,0,0,0,0,0,0,0,0,0,0,0,0,0,0,0,0,0,0,0,0,0,0,0,0,0,0,0,0,0,0,0,0,0,0,0,0,0,0,0,0,0,0,0,0,0,0,0,0],"id":12,"left_children":[1,3,5,7,9,11,13,15,17,-1,-1,19,21,23,25,27,29,31,-1,-1,-1,33,35,-1,37,-1,-1,39,41,43,45,47,49,-1,51,53,55,57,59,-1,-1,-1,-1,-1,-1,-1,-1,-1,-1,-1,-1,-1,-1,-1,-1,-1,-1,-1,-1,-1,-1],"loss_changes":[1.5776407E3,2.0646545E3,1.1011268E3,1.2702402E3,1.9134155E2,1.236729E3,5.492839E2,1.5740027E3,1.4801824E3,0E0,0E0,6.1989795E2,8.341182E2,5.009814E2,1.8514954E1,1.4278041E3,1.1629475E3,1.4427244E3,0E0,0E0,0E0,7.239399E2,4.759983E2,0E0,2.8483047E2,0E0,0E0,6.190909E1,8.3527515E2,6.81093E2,3.3147427E2,6.034701E2,9.859082E2,0E0,1.1557861E1,4.296874E2,2.674889E2,2.182846E2,2.1972473E1,0E0,0E0,0E0,0E0,0E0,0E0,0E0,0E0,0E0,0E0,0E0,0E0,0E0,0E0,0E0,0E0,0E0,0E0,0E0,0E0,0E0,0E0],"parents":[2147483647,0,0,1,1,2,2,3,3,4,4,5,5,6,6,7,7,8,8,11,11,12,12,13,13,14,14,15,15,16,16,17,17,21,21,22,22,24,24,27,27,28,28,29,29,30,30,31,31,32,32,34,34,35,35,36,36,37,37,38,38],"right_children":[2,4,6,8,10,12,14,16,18,-1,-1,20,22,24,26,28,30,32,-1,-1,-1,34,36,-1,38,-1,-1,40,42,44,46,48,50,-1,52,54,56,58,60,-1,-1,-1,-1,-1,-1,-1,-1,-1,-1,-1,-1,-1,-1,-1,-1,-1,-1,-1,-1,-1,-1],"split_conditions":[5.6644333E1,2.2078094E-1,1.2375632E3,7.2511477E0,1.1378133E4,3.6710775E-1,5.1012848E4,2.56863E1,7.7840906E2,-1.6934834E-1,-4.4086674E-1,-5.439E5,-3.0290887E4,1.3321499E1,8.0957947E2,-3.3645025E6,1.2708924E1,-5.9153366E1,-4.819276E-1,1.0532863E-1,4.7069812E-1,-1.076547E1,-2.848E5,-2.2625451E-1,2.969527E1,5.1147103E-2,1.4587404E-1,-4.7801E6,-1.5782188E2,7.746601E-1,-8.315319E0,1.0965399E1,9.0260714E-1,1.4087056E-1,-1.1033416E4,3.886072E0,1.8698518E0,-8.222732E4,8.1477216E2,-5.4394264E-2,-1.9925104E-1,3.4249216E-1,1.03757955E-1,-1.3903724E-1,1.21856116E-1,-8.265502E-2,1.3554518E-1,-8.443319E-2,-3.161134E-1,-2.1128293E-2,3.2412553E-1,-1.10059805E-1,-2.575206E-1,1.1132263E-1,-1.467563E-1,2.1710792E-1,7.643419E-2,-1.4810522E-1,4.8805427E-2,3.1514455E-2,1.20694265E-1],"split_indices":[13,45,14,84,10,72,11,77,17,0,0,6,9,18,12,5,74,49,0,0,0,48,6,0,74,0,0,6,60,73,84,58,71,0,8,80,84,5,23,0,0,0,0,0,0,0,0,0,0,0,0,0,0,0,0,0,0,0,0,0,0],"split_type":[0,0,0,0,0,0,0,0,0,0,0,0,0,0,0,0,0,0,0,0,0,0,0,0,0,0,0,0,0,0,0,0,0,0,0,0,0,0,0,0,0,0,0,0,0,0,0,0,0,0,0,0,0,0,0,0,0,0,0,0,0],"sum_hessian":[2.49E2,1.67E2,8.2E1,1.59E2,8E0,5.4E1,2.8E1,1.06E2,5.3E1,4E0,4E0,9E0,4.5E1,2.1E1,7E0,5E1,5.6E1,5E1,3E0,4E0,5E0,9E0,3.6E1,6E0,1.5E1,3E0,4E0,7E0,4.3E1,4E1,1.6E1,2E1,3E1,3E0,6E0,9E0,2.7E1,9E0,6E0,3E0,4E0,7E0,3.6E1,3.6E1,4E0,3E0,1.3E1,1.1E1,9E0,2.7E1,3E0,3E0,3E0,5E0,4E0,1.6E1,1.1E1,6E0,3E0,3E0,3E0],"tree_param":{"num_deleted":"0","num_feature":"99","num_nodes":"61","size_leaf_vector":"1"}},{"base_weights":[8.692251E-3,-1.7217064E0,3.5110812E0,-8.954924E-1,-1.6218655E1,1.35691805E1,1.7859662E0,-3.0889532E-1,-3.4276173E-1,-1.6656308E-1,-4.336158E-1,4.099088E0,4.5960978E-1,-1.2673378E0,6.102836E0,1.6101843E0,-3.7287073E0,1.1168794E-2,1.3630632E-1,-2.472745E0,1.7245175E-1,9.360442E0,1.7112556E0,8.375179E0,-1.1756612E0,-2.226212E0,-4.7449678E-1,2.8709188E0,-4.674574E0,1.375935E0,1.3590543E1,-1.8875123E0,4.6462708E0,2.4286674E-1,1.3594033E-2,7.542158E-2,-9.4731264E-2,-1.7871891E-1,4.4253197E-2,-6.281235E-2,1.5501982E-1,-1.8229151E-1,5.367022E-2,-1.9342555E-2,6.884531E-2,3.7642917E-1,1.5498358E-2,-9.317517E-2,2.5267126E-2,2.3881815E-2,1.3372782E-1],"categories":[],"categories_nodes":[],"categories_segments":[],"categories_sizes":[],"default_left":[0,0,0,0,0,0,0,0,0,0,0,0,0,0,0,0,0,0,0,0,0,0,0,0,0,0,0,0,0,0,0,0,0,0,0,0,0,0,0,0,0,0,0,0,0,0,0,0,0,0,0],"id":13,"left_children":[1,3,5,7,9,11,13,-1,15,-1,-1,17,-1,19,21,23,25,-1,-1,27,-1,29,31,33,35,37,-1,39,41,43,45,47,49,-1,-1,-1,-1,-1,-1,-1,-1,-1,-1,-1,-1,-1,-1,-1,-1,-1,-1],"loss_changes":[1.5211771E3,1.9977102E3,1.4159302E3,1.2444304E3,1.8509912E2,9.0691455E2,9.56746E2,0E0,1.030952E3,0E0,0E0,5.939781E1,0E0,5.2121826E2,4.1316296E2,1.8756232E3,1.6059249E3,0E0,0E0,4.7228784E2,0E0,5.5547986E2,1.5664401E2,7.6133215E2,1.1973899E3,1.5478365E3,0E0,3.5510486E2,8.783239E2,3.5144554E1,6.526095E2,6.326564E1,4.4251694E1,0E0,0E0,0E0,0E0,0E0,0E0,0E0,0E0,0E0,0E0,0E0,0E0,0E0,0E0,0E0,0E0,0E0,0E0],"parents":[2147483647,0,0,1,1,2,2,3,3,4,4,5,5,6,6,8,8,11,11,13,13,14,14,15,15,16,16,19,19,21,21,22,22,23,23,24,24,25,25,27,27,28,28,29,29,30,30,31,31,32,32],"right_children":[2,4,6,8,10,12,14,-1,16,-1,-1,18,-1,20,22,24,26,-1,-1,28,-1,30,32,34,36,38,-1,40,42,44,46,48,50,-1,-1,-1,-1,-1,-1,-1,-1,-1,-1,-1,-1,-1,-1,-1,-1,-1,-1],"split_conditions":[5.6644333E1,2.2078094E-1,-9.528953E-2,6.417947E2,1.1378133E4,5.7210174E0,5.473654E-1,-3.0889532E-1,5.3751783E0,-1.6656308E-1,-4.336158E-1,4.391E5,4.5960978E-1,1.6838653E5,1.2310859E3,-2.7035138E-1,7.7942377E2,1.1168794E-2,1.3630632E-1,1.017518E1,1.7245175E-1,6.901936E2,6.648249E1,5.4618664E0,3.9535203E0,-5.9153366E1,-4.7449678E-1,-7.3658147E0,1.2114251E0,-5.7786237E-2,2.0913061E1,5.03E5,3.843E5,2.4286674E-1,1.3594033E-2,7.542158E-2,-9.4731264E-2,-1.7871891E-1,4.4253197E-2,-6.281235E-2,1.5501982E-1,-1.8229151E-1,5.367022E-2,-1.9342555E-2,6.884531E-2,3.7642917E-1,1.5498358E-2,-9.317517E-2,2.5267126E-2,2.3881815E-2,1.3372782E-1],"split_indices":[13,45,7,87,10,36,88,0,84,0,0,4,0,11,14,45,17,0,0,18,0,0,70,25,35,49,0,51,43,7,32,4,4,0,0,0,0,0,0,0,0,0,0,0,0,0,0,0,0,0,0],"split_type":[0,0,0,0,0,0,0,0,0,0,0,0,0,0,0,0,0,0,0,0,0,0,0,0,0,0,0,0,0,0,0,0,0,0,0,0,0,0,0,0,0,0,0,0,0,0,0,0,0,0,0],"sum_hessian":[2.49E2,1.67E2,8.2E1,1.59E2,8E0,1.1E1,7.1E1,5E0,1.54E2,4E0,4E0,6E0,5E0,4.2E1,2.9E1,9.8E1,5.6E1,3E0,3E0,3.8E1,4E0,1.6E1,1.3E1,2.8E1,7E1,5.3E1,3E0,1.1E1,2.7E1,6E0,1E1,6E0,7E0,1.9E1,9E0,2.9E1,4.1E1,2.1E1,3.2E1,5E0,6E0,1.7E1,1E1,3E0,3E0,7E0,3E0,3E0,3E0,3E0,4E0],"tree_param":{"num_deleted":"0","num_feature":"99","num_nodes":"51","size_leaf_vector":"1"}},{"base_weights":[8.487034E-3,-1.6939348E0,3.4542508E0,-8.8133675E-1,-1.5951908E1,1.3340808E1,1.7585155E0,-3.0360326E-1,-3.381138E-1,-1.6382363E-1,-4.264842E-1,5.2197948E0,4.8654518E-1,-1.2381194E0,5.9950747E0,-2.775286E-1,2.8247067E-1,1.6290136E-1,1.0996583E-2,-4.923832E0,1.8848962E0,9.193971E0,1.6824818E0,2.8680687E0,-2.598441E0,1.00809224E-1,-8.526512E0,-2.339189E0,6.3039136E0,1.3547195E0,1.334677E1,-7.689345E-2,3.5014167E0,-1.9534582E-2,1.6343248E-1,-1.159151E-1,6.620677E-2,-2.3181832E-1,-5.186889E-2,2.858784E-2,-2.2776353E-1,3.1108154E-2,1.5897362E-1,-1.9044314E-2,6.778379E-2,3.696577E-1,1.5259386E-2,1.974041E-2,1.3072868E-1],"categories":[],"categories_nodes":[],"categories_segments":[],"categories_sizes":[],"default_left":[0,0,0,0,0,0,0,0,0,0,0,0,0,0,0,0,0,0,0,0,0,0,0,0,0,0,0,0,0,0,0,0,0,0,0,0,0,0,0,0,0,0,0,0,0,0,0,0,0],"id":14,"left_children":[1,3,5,7,9,11,13,-1,15,-1,-1,17,-1,19,21,-1,23,-1,-1,25,27,29,31,33,35,-1,37,39,41,43,45,-1,47,-1,-1,-1,-1,-1,-1,-1,-1,-1,-1,-1,-1,-1,-1,-1,-1],"loss_changes":[1.4723871E3,1.9323894E3,1.3680336E3,1.2019498E3,1.7906079E2,8.827053E2,9.2149304E2,0E0,1.2698048E3,0E0,0E0,9.71042E1,0E0,5.04234E2,3.9839734E2,0E0,1.1173356E3,0E0,0E0,7.4990515E2,4.6273743E2,5.3535095E2,1.5118533E2,1.5403579E3,1.2740281E3,0E0,2.191488E2,4.3915778E2,7.0439575E1,3.4069126E1,6.291461E2,0E0,7.3768616E1,0E0,0E0,0E0,0E0,0E0,0E0,0E0,0E0,0E0,0E0,0E0,0E0,0E0,0E0,0E0,0E0],"parents":[2147483647,0,0,1,1,2,2,3,3,4,4,5,5,6,6,8,8,11,11,13,13,14,14,16,16,19,19,20,20,21,21,22,22,23,23,24,24,26,26,27,27,28,28,29,29,30,30,32,32],"right_children":[2,4,6,8,10,12,14,-1,16,-1,-1,18,-1,20,22,-1,24,-1,-1,26,28,30,32,34,36,-1,38,40,42,44,46,-1,48,-1,-1,-1,-1,-1,-1,-1,-1,-1,-1,-1,-1,-1,-1,-1,-1],"split_conditions":[5.6644333E1,2.2078094E-1,-9.528953E-2,6.417947E2,1.1378133E4,5.7386074E0,5.473654E-1,-3.0360326E-1,-1.3898662E2,-1.6382363E-1,-4.264842E-1,3.964509E0,4.8654518E-1,1.1227162E0,1.2310859E3,-2.775286E-1,4E1,1.6290136E-1,1.0996583E-2,5.6124E-1,1.440574E1,6.901936E2,1.0395048E0,6.873364E2,1.1099547E1,1.00809224E-1,3.143291E1,-1.4345859E1,-1.1033416E4,-5.7786237E-2,2.0913061E1,-7.689345E-2,-7.5891016E4,-1.9534582E-2,1.6343248E-1,-1.159151E-1,6.620677E-2,-2.3181832E-1,-5.186889E-2,2.858784E-2,-2.2776353E-1,3.1108154E-2,1.5897362E-1,-1.9044314E-2,6.778379E-2,3.696577E-1,1.5259386E-2,1.974041E-2,1.3072868E-1],"split_indices":[13,45,7,87,10,36,88,0,50,0,0,35,0,43,14,0,63,0,0,33,59,0,43,0,74,0,57,48,8,7,32,0,5,0,0,0,0,0,0,0,0,0,0,0,0,0,0,0,0],"split_type":[0,0,0,0,0,0,0,0,0,0,0,0,0,0,0,0,0,0,0,0,0,0,0,0,0,0,0,0,0,0,0,0,0,0,0,0,0,0,0,0,0,0,0,0,0,0,0,0,0],"sum_hessian":[2.49E2,1.67E2,8.2E1,1.59E2,8E0,1.1E1,7.1E1,5E0,1.54E2,4E0,4E0,7E0,4E0,4.2E1,2.9E1,6E0,1.48E2,4E0,3E0,1.9E1,2.3E1,1.6E1,1.3E1,7.8E1,7E1,5E0,1.4E1,1.2E1,1.1E1,6E0,1E1,3E0,1E1,4.5E1,3.3E1,4.6E1,2.4E1,9E0,5E0,9E0,3E0,3E0,8E0,3E0,3E0,7E0,3E0,6E0,4E0],"tree_param":{"num_deleted":"0","num_feature":"99","num_nodes":"49","size_leaf_vector":"1"}},{"base_weights":[7.906372E-3,-1.9556562E0,2.7832503E0,5.0848346E0,-3.4400587E0,1.24789915E1,6.0880476E-1,-1.7364165E-1,7.9289374E0,-4.0401616E0,2.3458154E-1,3.2103274E0,1.7618185E1,-9.067606E0,2.3004878E0,5.331081E0,3.7594518E-1,-4.8329797E0,7.4652057E0,1.5542737E-1,-1.8742189E-2,5.2876234E-1,8.157084E0,-2.190539E0,-4.9326998E-1,7.904588E0,6.1824286E-1,8.613722E0,-2.592657E-1,1.3344415E0,-5.9625607E0,3.3296578E-2,2.1892135E-1,8.258779E-2,2.1088402E-1,-1.3397539E-1,3.658881E-2,2.3463306E0,1.5509766E1,-3.843949E0,3.0679214E0,2.1383266E-1,8.2874164E-2,5.69608E-2,-8.186127E-2,-6.535358E-2,1.5158822E-1,-3.3741698E-1,-1.01417914E-1,-1.1380325E-1,1.5708944E-1,3.948731E-1,1.631301E-1,1.23203486E-1,-1.3385691E-1,-8.9018114E-2,9.437089E-2],"categories":[],"categories_nodes":[],"categories_segments":[],"categories_sizes":[],"default_left":[0,0,0,0,0,0,0,0,0,0,0,0,0,0,0,0,0,0,0,0,0,0,0,0,0,0,0,0,0,0,0,0,0,0,0,0,0,0,0,0,0,0,0,0,0,0,0,0,0,0,0,0,0,0,0,0,0],"id":15,"left_children":[1,3,5,7,9,11,13,-1,15,17,-1,19,21,23,25,27,-1,29,31,-1,-1,-1,33,35,-1,37,39,41,43,45,47,-1,-1,-1,-1,-1,-1,49,51,53,55,-1,-1,-1,-1,-1,-1,-1,-1,-1,-1,-1,-1,-1,-1,-1,-1],"loss_changes":[1.3678335E3,1.5537778E3,2.1850203E3,1.067543E3,1.1333395E3,8.4847534E2,1.4286298E3,0E0,4.944784E2,1.1124352E3,0E0,1.5033324E2,7.100012E2,1.281833E3,6.927458E2,3.509041E2,0E0,7.8124927E2,1.316271E2,0E0,0E0,0E0,1.9667297E1,1.8336075E2,0E0,6.822251E2,6.4578723E2,5.636371E1,1.0126551E2,5.1405054E2,9.30249E2,0E0,0E0,0E0,0E0,0E0,0E0,5.0135458E2,4.3646484E1,5.899553E2,4.4785757E2,0E0,0E0,0E0,0E0,0E0,0E0,0E0,0E0,0E0,0E0,0E0,0E0,0E0,0E0,0E0,0E0],"parents":[2147483647,0,0,1,1,2,2,3,3,4,4,5,5,6,6,8,8,9,9,11,11,12,12,13,13,14,14,15,15,17,17,18,18,22,22,23,23,25,25,26,26,27,27,28,28,29,29,30,30,37,37,38,38,39,39,40,40],"right_children":[2,4,6,8,10,12,14,-1,16,18,-1,20,22,24,26,28,-1,30,32,-1,-1,-1,34,36,-1,38,40,42,44,46,48,-1,-1,-1,-1,-1,-1,50,52,54,56,-1,-1,-1,-1,-1,-1,-1,-1,-1,-1,-1,-1,-1,-1,-1,-1],"split_conditions":[7.015897E2,1.1293686E1,7.4328705E2,-1.2044E6,9.902203E1,7.243904E2,3.0672719E4,-1.7364165E-1,1.1881468E0,2.6055E6,2.3458154E-1,7.0661383E2,7.374417E2,2.9087424E4,2.4550674E1,6.97257E2,3.7594518E-1,-1.6854203E4,1.0510787E1,1.5542737E-1,-1.8742189E-2,5.2876234E-1,-3.6350164E4,7.92136E2,-4.9326998E-1,6.0803384E-1,2.2935408E-1,7.053529E2,6.694098E2,1.1152128E-1,-2.2574959E0,3.3296578E-2,2.1892135E-1,8.258779E-2,2.1088402E-1,-1.3397539E-1,3.658881E-2,-1.1016803E0,8.158384E-1,3.109E5,3.3122592E0,2.1383266E-1,8.2874164E-2,5.69608E-2,-8.186127E-2,-6.535358E-2,1.5158822E-1,-3.3741698E-1,-1.01417914E-1,-1.1380325E-1,1.5708944E-1,3.948731E-1,1.631301E-1,1.23203486E-1,-1.3385691E-1,-8.9018114E-2,9.437089E-2],"split_indices":[24,32,97,6,76,39,11,0,88,6,0,24,12,11,47,61,0,10,18,0,0,0,9,92,0,86,84,23,2,71,81,0,0,0,0,0,0,88,84,4,50,0,0,0,0,0,0,0,0,0,0,0,0,0,0,0,0],"split_type":[0,0,0,0,0,0,0,0,0,0,0,0,0,0,0,0,0,0,0,0,0,0,0,0,0,0,0,0,0,0,0,0,0,0,0,0,0,0,0,0,0,0,0,0,0,0,0,0,0,0,0,0,0,0,0,0,0],"sum_hessian":[2.49E2,1.46E2,1.03E2,2.5E1,1.21E2,1.8E1,8.5E1,4E0,2.1E1,1.17E2,4E0,7E0,1.1E1,1.2E1,7.3E1,1.8E1,3E0,1.1E2,7E0,3E0,4E0,5E0,6E0,9E0,3E0,1.6E1,5.7E1,1.1E1,7E0,1.7E1,9.3E1,3E0,4E0,3E0,3E0,4E0,5E0,1E1,6E0,2E1,3.7E1,7E0,4E0,4E0,3E0,1E1,7E0,7E0,8.6E1,4E0,6E0,3E0,3E0,4E0,1.6E1,6E0,3.1E1],"tree_param":{"num_deleted":"0","num_feature":"99","num_nodes":"57","size_leaf_vector":"1"}},{"base_weights":[1.4034094E-2,-1.6459439E0,3.3738203E0,-8.506973E-1,-1.5600778E1,1.2902855E1,1.7387892E0,-2.9585573E-1,-3.2107377E-1,-1.5951222E-1,-4.1780186E-1,5.037047E0,4.709476E-1,-1.1719556E0,5.852897E0,-1.3006014E1,2.7701783E-1,1.5713368E-1,1.0692114E-2,-3.4180768E0,3.724872E0,2.6724285E-1,3.9036968E0,-3.2538614E-1,-1.4253819E-1,2.794444E0,-2.5279636E0,2.4217637E-2,-8.583536E0,-1.3537212E-1,7.1351814E0,3.2516626E-1,7.7533407E0,-9.8608695E-3,1.738428E-1,-5.265395E-1,-2.3291321E-2,6.3927785E-2,-1.8989141E-1,-2.3421146E-1,-2.420527E-3,6.69715E-2,1.8267497E-1,-1.1291122E-1,4.9566757E-2,2.7083543E-1,4.1108683E-2],"categories":[],"categories_nodes":[],"categories_segments":[],"categories_sizes":[],"default_left":[0,0,0,0,0,0,0,0,0,0,0,0,0,0,0,0,0,0,0,0,0,0,0,0,0,0,0,0,0,0,0,0,0,0,0,0,0,0,0,0,0,0,0,0,0,0,0],"id":16,"left_children":[1,3,5,7,9,11,13,-1,15,-1,-1,17,-1,19,21,23,25,-1,-1,27,29,-1,31,-1,-1,33,35,37,39,-1,41,43,45,-1,-1,-1,-1,-1,-1,-1,-1,-1,-1,-1,-1,-1,-1],"loss_changes":[1.399846E3,1.851114E3,1.2707269E3,1.142769E3,1.7556323E2,8.289564E2,8.6906775E2,0E0,1.17955E3,0E0,0E0,9.020061E1,0E0,4.8568323E2,3.67136E2,1.0194336E1,1.059203E3,0E0,0E0,5.336389E2,5.392065E2,0E0,3.4188058E2,0E0,0E0,1.4684272E3,2.257373E3,5.716009E2,2.840086E2,0E0,4.5714905E1,1.831174E2,3.4791583E2,0E0,0E0,0E0,0E0,0E0,0E0,0E0,0E0,0E0,0E0,0E0,0E0,0E0,0E0],"parents":[2147483647,0,0,1,1,2,2,3,3,4,4,5,5,6,6,8,8,11,11,13,13,14,14,15,15,16,16,19,19,20,20,22,22,25,25,26,26,27,27,28,28,30,30,31,31,32,32],"right_children":[2,4,6,8,10,12,14,-1,16,-1,-1,18,-1,20,22,24,26,-1,-1,28,30,-1,32,-1,-1,34,36,38,40,-1,42,44,46,-1,-1,-1,-1,-1,-1,-1,-1,-1,-1,-1,-1,-1,-1],"split_conditions":[5.6644333E1,2.2078094E-1,-9.528953E-2,6.417947E2,1.1378133E4,5.7386074E0,5.473654E-1,-2.9585573E-1,-1.3898662E2,-1.5951222E-1,-4.1780186E-1,3.964509E0,4.709476E-1,5.1012848E4,2.589594E1,2.5080004E1,4E1,1.5713368E-1,1.0692114E-2,9.2E1,-8.208E5,2.6724285E-1,5.03E5,-3.2538614E-1,-1.4253819E-1,-3.6539696E1,1.3281861E-1,7.679115E2,8.6328316E-1,-1.3537212E-1,4.4034896E0,2.70979E1,1.6505109E0,-9.8608695E-3,1.738428E-1,-5.265395E-1,-2.3291321E-2,6.3927785E-2,-1.8989141E-1,-2.3421146E-1,-2.420527E-3,6.69715E-2,1.8267497E-1,-1.1291122E-1,4.9566757E-2,2.7083543E-1,4.1108683E-2],"split_indices":[13,45,7,87,10,36,88,0,50,0,0,35,0,11,58,47,63,0,0,63,6,0,4,0,0,49,56,15,33,0,25,58,85,0,0,0,0,0,0,0,0,0,0,0,0,0,0],"split_type":[0,0,0,0,0,0,0,0,0,0,0,0,0,0,0,0,0,0,0,0,0,0,0,0,0,0,0,0,0,0,0,0,0,0,0,0,0,0,0,0,0,0,0,0,0,0,0],"sum_hessian":[2.49E2,1.67E2,8.2E1,1.59E2,8E0,1.1E1,7.1E1,5E0,1.54E2,4E0,4E0,7E0,4E0,4.2E1,2.9E1,6E0,1.48E2,4E0,3E0,2.9E1,1.3E1,5E0,2.4E1,3E0,3E0,7.8E1,7E1,1.8E1,1.1E1,3E0,1E1,1.3E1,1.1E1,5E1,2.8E1,3E0,6.7E1,1.4E1,4E0,8E0,3E0,4E0,6E0,3E0,1E1,5E0,6E0],"tree_param":{"num_deleted":"0","num_feature":"99","num_nodes":"47","size_leaf_vector":"1"}},{"base_weights":[1.0462963E-2,-1.5697451E0,3.2671056E0,-1.0645851E0,-4.5519695E-1,-2.5763324E-1,4.455748E0,2.9426876E-1,-1.5326508E0,9.791231E0,2.8957648E0,-3.8354414E0,1.962828E0,3.7570313E-1,5.7751694E0,1.5262674E0,1.0638832E1,-8.37595E-1,-9.992325E0,-2.7117853E0,7.506936E0,1.4659235E-1,4.4830106E-2,-5.5938487E0,3.746639E0,9.129768E-2,3.5517216E-1,4.1127995E-2,-9.055296E-2,-2.1571591E-2,-2.880188E-1,2.903325E-1,-1.08083755E-1,-1.7624688E-3,2.3246743E-1,-1.6130936E-1,2.9517993E-2,1.9389762E-1,3.809608E-2],"categories":[],"categories_nodes":[],"categories_segments":[],"categories_sizes":[],"default_left":[0,0,0,0,0,0,0,0,0,0,0,0,0,0,0,0,0,0,0,0,0,0,0,0,0,0,0,0,0,0,0,0,0,0,0,0,0,0,0],"id":17,"left_children":[1,3,5,7,-1,-1,9,-1,11,13,15,17,19,-1,21,23,25,27,29,31,33,-1,-1,35,37,-1,-1,-1,-1,-1,-1,-1,-1,-1,-1,-1,-1,-1,-1],"loss_changes":[1.2916716E3,1.7326761E3,1.5957227E3,1.2168109E3,0E0,0E0,6.125381E2,0E0,1.3115238E3,4.7365588E2,6.3061304E2,1.800455E3,1.7049338E3,0E0,4.7783447E1,8.5885126E2,2.9351788E2,6.8709753E2,1.1349697E3,1.6169178E3,8.666743E2,0E0,0E0,2.1710907E2,4.2387683E2,0E0,0E0,0E0,0E0,0E0,0E0,0E0,0E0,0E0,0E0,0E0,0E0,0E0,0E0],"parents":[2147483647,0,0,1,1,2,2,3,3,6,6,8,8,9,9,10,10,11,11,12,12,14,14,15,15,16,16,17,17,18,18,19,19,20,20,23,23,24,24],"right_children":[2,4,6,8,-1,-1,10,-1,12,14,16,18,20,-1,22,24,26,28,30,32,34,-1,-1,36,38,-1,-1,-1,-1,-1,-1,-1,-1,-1,-1,-1,-1,-1,-1],"split_conditions":[5.1012848E4,7.658126E2,6.880647E2,-5.3166285E0,-4.5519695E-1,-2.5763324E-1,7.657802E2,2.9426876E-1,5.218919E-1,-6.1131764E-2,8.4123486E2,1.5025074E1,1.3327041E1,3.7570313E-1,7.3116004E-1,2.2170722E-1,-2.2001598E-2,4.7393383E1,2.4889267E1,1.0632637E1,1.3175927E4,1.4659235E-1,4.4830106E-2,1.13755874E-1,7.741011E2,9.129768E-2,3.5517216E-1,4.1127995E-2,-9.055296E-2,-2.1571591E-2,-2.880188E-1,2.903325E-1,-1.08083755E-1,-1.7624688E-3,2.3246743E-1,-1.6130936E-1,2.9517993E-2,1.9389762E-1,3.809608E-2],"split_indices":[11,61,24,88,0,0,55,0,88,7,67,18,18,0,71,71,19,75,47,32,9,0,0,26,61,0,0,0,0,0,0,0,0,0,0,0,0,0,0],"split_type":[0,0,0,0,0,0,0,0,0,0,0,0,0,0,0,0,0,0,0,0,0,0,0,0,0,0,0,0,0,0,0,0,0,0,0,0,0,0,0],"sum_hessian":[2.49E2,1.68E2,8.1E1,1.65E2,3E0,5E0,7.6E1,4E0,1.61E2,1.6E1,6E1,9.7E1,6.4E1,4E0,1.2E1,5.2E1,8E0,6.6E1,3.1E1,3.5E1,2.9E1,8E0,4E0,1.2E1,4E1,5E0,3E0,3.7E1,2.9E1,1E1,2.1E1,4E0,3.1E1,1E1,1.9E1,9E0,3E0,9E0,3.1E1],"tree_param":{"num_deleted":"0","num_feature":"99","num_nodes":"39","size_leaf_vector":"1"}},{"base_weights":[1.3244557E-2,-1.6073301E0,3.2932842E0,-8.293507E-1,-1.5259482E1,1.2605708E1,1.6954736E0,1.0147929E0,-4.4681287E0,-1.5701127E-1,-4.07673E-1,4.9597044E0,4.5883024E-1,-1.1157312E0,5.668351E0,4.820084E0,-2.407745E0,-2.9809642E0,-4.5871252E-1,1.5804395E-2,1.5049976E-1,-2.0913893E-1,7.4042864E-2,8.783928E0,1.4802685E0,-6.8709545E0,6.83618E0,-4.7209206E0,5.034218E0,-8.898043E0,1.1235391E0,2.658564E0,-5.9626765E0,2.0382433E0,1.3302083E1,-1.942813E0,4.2904315E0,-5.21039E-2,-1.8432835E-1,3.1726673E-1,9.853312E-2,-1.2145742E-1,1.1757106E-1,-3.4442194E-2,1.4424717E-1,-7.6831855E-2,-2.9195738E-1,-5.248099E-2,1.8706316E-1,-1.2832737E-1,8.174748E-2,-2.0217824E-1,-9.2938775E-3,-6.391473E-2,1.1817725E-1,3.5533464E-1,1.2054269E-1,2.1365667E-2,-9.1263294E-2,2.1349875E-2,1.2404847E-1],"categories":[],"categories_nodes":[],"categories_segments":[],"categories_sizes":[],"default_left":[0,0,0,0,0,0,0,0,0,0,0,0,0,0,0,0,0,0,0,0,0,0,0,0,0,0,0,0,0,0,0,0,0,0,0,0,0,0,0,0,0,0,0,0,0,0,0,0,0,0,0,0,0,0,0,0,0,0,0,0,0],"id":18,"left_children":[1,3,5,7,9,11,13,15,17,-1,-1,19,-1,21,23,25,27,29,-1,-1,-1,-1,31,33,35,37,39,41,43,45,47,49,51,53,55,57,59,-1,-1,-1,-1,-1,-1,-1,-1,-1,-1,-1,-1,-1,-1,-1,-1,-1,-1,-1,-1,-1,-1,-1,-1],"loss_changes":[1.3341807E3,1.7716879E3,1.213625E3,1.0782029E3,1.6207935E2,7.804469E2,8.104616E2,1.4051471E3,1.366509E3,0E0,0E0,7.352518E1,0E0,4.6411664E2,3.7844623E2,1.2490542E3,1.0049966E3,1.2486173E3,0E0,0E0,0E0,0E0,6.2433136E2,4.9101392E2,1.4300734E2,4.9958527E1,6.98906E2,5.7900836E2,1.9794736E2,5.2167285E2,9.321539E2,3.532262E2,2.5157065E2,1.7064124E2,1.9486047E2,5.672384E1,3.909111E1,0E0,0E0,0E0,0E0,0E0,0E0,0E0,0E0,0E0,0E0,0E0,0E0,0E0,0E0,0E0,0E0,0E0,0E0,0E0,0E0,0E0,0E0,0E0,0E0],"parents":[2147483647,0,0,1,1,2,2,3,3,4,4,5,5,6,6,7,7,8,8,11,11,13,13,14,14,15,15,16,16,17,17,22,22,23,23,24,24,25,25,26,26,27,27,28,28,29,29,30,30,31,31,32,32,33,33,34,34,35,35,36,36],"right_children":[2,4,6,8,10,12,14,16,18,-1,-1,20,-1,22,24,26,28,30,-1,-1,-1,-1,32,34,36,38,40,42,44,46,48,50,52,54,56,58,60,-1,-1,-1,-1,-1,-1,-1,-1,-1,-1,-1,-1,-1,-1,-1,-1,-1,-1,-1,-1,-1,-1,-1,-1],"split_conditions":[5.6644333E1,2.2078094E-1,-9.528953E-2,7.2511477E0,1.1378133E4,5.7386074E0,5.473654E-1,2.56863E1,7.7840906E2,-1.5701127E-1,-4.07673E-1,6.8833105E2,4.5883024E-1,2.3904879E1,1.2310859E3,-3.3645025E6,1.3350771E1,-5.9153366E1,-4.5871252E-1,1.5804395E-2,1.5049976E-1,-2.0913893E-1,3.828238E0,6.6473413E2,6.648249E1,-4.7801E6,-1.5782188E2,7.746601E-1,-4.224027E5,1.0965399E1,-6.003973E3,1.065792E3,1.1253535E0,6.98768E-2,1.9979143E1,-8.9881175E5,3.843E5,-5.21039E-2,-1.8432835E-1,3.1726673E-1,9.853312E-2,-1.2145742E-1,1.1757106E-1,-3.4442194E-2,1.4424717E-1,-7.6831855E-2,-2.9195738E-1,-5.248099E-2,1.8706316E-1,-1.2832737E-1,8.174748E-2,-2.0217824E-1,-9.2938775E-3,-6.391473E-2,1.1817725E-1,3.5533464E-1,1.2054269E-1,2.1365667E-2,-9.1263294E-2,2.1349875E-2,1.2404847E-1],"split_indices":[13,45,7,84,10,36,88,77,17,0,0,12,0,47,14,5,74,49,0,0,0,0,48,15,70,6,60,73,8,58,9,14,43,7,59,5,4,0,0,0,0,0,0,0,0,0,0,0,0,0,0,0,0,0,0,0,0,0,0,0,0],"split_type":[0,0,0,0,0,0,0,0,0,0,0,0,0,0,0,0,0,0,0,0,0,0,0,0,0,0,0,0,0,0,0,0,0,0,0,0,0,0,0,0,0,0,0,0,0,0,0,0,0,0,0,0,0,0,0,0,0,0,0,0,0],"sum_hessian":[2.49E2,1.67E2,8.2E1,1.59E2,8E0,1.1E1,7.1E1,1.06E2,5.3E1,4E0,4E0,7E0,4E0,4.2E1,2.9E1,5E1,5.6E1,5E1,3E0,3E0,4E0,4E0,3.8E1,1.6E1,1.3E1,7E0,4.3E1,4.3E1,1.3E1,2E1,3E1,2.7E1,1.1E1,7E0,9E0,6E0,7E0,3E0,4E0,7E0,3.6E1,3.9E1,4E0,3E0,1E1,1.1E1,9E0,2.1E1,9E0,3E0,2.4E1,6E0,5E0,3E0,4E0,5E0,4E0,3E0,3E0,3E0,4E0],"tree_param":{"num_deleted":"0","num_feature":"99","num_nodes":"61","size_leaf_vector":"1"}},{"base_weights":[1.2137311E-2,-2.875577E-1,3.5492933E-1,-1.2321549E1,7.2472185E-1,-3.1143272E-1,-1.318663E-1,-9.6871763E-1,4.300123E0,-4.9303502E-1,-4.0611124E-1,1.2973441E1,3.1065004E0,2.8666943E-1,-9.5260066E-1,1.24444135E-1,3.5564414E-1,2.1801798E0,2.5635546E-1,-6.2348593E-2,4.453402E-2,-3.553168E-2,8.215311E-2],"categories":[],"categories_nodes":[],"categories_segments":[],"categories_sizes":[],"default_left":[0,0,0,0,0,0,0,0,0,0,0,0,0,0,0,0,0,0,0,0,0,0,0],"id":19,"left_children":[1,-1,3,5,7,-1,-1,9,11,13,-1,15,17,-1,19,-1,-1,21,-1,-1,-1,-1,-1],"loss_changes":[1.2046819E3,0E0,1.1574082E3,1.9735474E1,1.4512451E3,0E0,0E0,1.4467891E3,7.5685364E2,1.0748469E3,0E0,1.646969E2,5.7126105E2,0E0,1.018619E3,0E0,0E0,4.6113385E2,0E0,0E0,0E0,0E0,0E0],"parents":[2147483647,0,0,2,2,3,3,4,4,7,7,8,8,9,9,11,11,12,12,14,14,17,17],"right_children":[2,-1,4,6,8,-1,-1,10,12,14,-1,16,18,-1,20,-1,-1,22,-1,-1,-1,-1,-1],"split_conditions":[6.417947E2,-2.875577E-1,-1.3898662E2,2.5080004E1,5.1012848E4,-3.1143272E-1,-1.318663E-1,7.64985E2,-4.234093E0,-5.3166285E0,-4.0611124E-1,-1.3947397E1,1.1371895E0,2.8666943E-1,5.218919E-1,1.24444135E-1,3.5564414E-1,-1.1016803E0,2.5635546E-1,-6.2348593E-2,4.453402E-2,-3.553168E-2,8.215311E-2],"split_indices":[87,0,50,47,11,0,0,61,85,88,0,48,43,0,88,0,0,88,0,0,0,0,0],"split_type":[0,0,0,0,0,0,0,0,0,0,0,0,0,0,0,0,0,0,0,0,0,0,0],"sum_hessian":[2.49E2,5E0,2.44E2,6E0,2.38E2,3E0,3E0,1.62E2,7.6E1,1.59E2,3E0,8E0,6.8E1,4E0,1.55E2,4E0,4E0,6.3E1,5E0,9.3E1,6.2E1,2E1,4.3E1],"tree_param":{"num_deleted":"0","num_feature":"99","num_nodes":"23","size_leaf_vector":"1"}},{"base_weights":[1.1547607E-2,-1.5688118E0,3.2102082E0,-8.039019E-1,-1.4992898E1,1.2317667E1,1.6477122E0,-2.8263122E-1,-2.9766926E-1,-1.5399764E-1,-4.0082157E-1,4.8849473E0,4.4707718E-1,-1.0914525E0,5.5189247E0,-1.2131563E1,2.602833E-1,1.5289195E-1,9.740349E-3,-2.0478408E-1,7.365448E-2,8.585975E0,1.4004408E0,-3.0663073E-1,-1.2983306E-1,2.722696E0,-2.4832504E0,2.5895033E0,-5.802797E0,1.9641553E0,1.3024833E1,-7.516558E-2,3.1118932E0,-7.913921E-3,1.6640067E-1,-5.0893193E-1,-2.3367263E-2,-1.2593669E-1,7.97748E-2,-1.9759561E-1,-8.066488E-3,-6.36159E-2,1.1550116E-1,3.9549312E-1,1.5653571E-1,1.5008725E-2,1.1973531E-1],"categories":[],"categories_nodes":[],"categories_segments":[],"categories_sizes":[],"default_left":[0,0,0,0,0,0,0,0,0,0,0,0,0,0,0,0,0,0,0,0,0,0,0,0,0,0,0,0,0,0,0,0,0,0,0,0,0,0,0,0,0,0,0,0,0,0,0],"id":20,"left_children":[1,3,5,7,9,11,13,-1,15,-1,-1,17,-1,19,21,23,25,-1,-1,-1,27,29,31,-1,-1,33,35,37,39,41,43,-1,45,-1,-1,-1,-1,-1,-1,-1,-1,-1,-1,-1,-1,-1,-1],"loss_changes":[1.2687946E3,1.7130074E3,1.1608247E3,1.0443109E3,1.5804431E2,7.3475085E2,7.695036E2,0E0,1.0265841E3,0E0,0E0,8.6532715E1,0E0,4.4509427E2,3.669237E2,1.9131592E1,1.01336224E3,0E0,0E0,0E0,5.916126E2,4.7410352E2,1.3253552E2,0E0,0E0,1.321783E3,2.1013032E3,3.3877454E2,2.4349911E2,1.65255E2,1.8966614E2,0E0,6.680881E1,0E0,0E0,0E0,0E0,0E0,0E0,0E0,0E0,0E0,0E0,0E0,0E0,0E0,0E0],"parents":[2147483647,0,0,1,1,2,2,3,3,4,4,5,5,6,6,8,8,11,11,13,13,14,14,15,15,16,16,20,20,21,21,22,22,25,25,26,26,27,27,28,28,29,29,30,30,32,32],"right_children":[2,4,6,8,10,12,14,-1,16,-1,-1,18,-1,20,22,24,26,-1,-1,-1,28,30,32,-1,-1,34,36,38,40,42,44,-1,46,-1,-1,-1,-1,-1,-1,-1,-1,-1,-1,-1,-1,-1,-1],"split_conditions":[5.6644333E1,2.2078094E-1,-9.528953E-2,6.417947E2,1.1378133E4,1.2100711E-1,5.473654E-1,-2.8263122E-1,-1.3898662E2,-1.5399764E-1,-4.0082157E-1,3.964509E0,4.4707718E-1,2.3904879E1,1.2310859E3,2.5080004E1,4E1,1.5289195E-1,9.740349E-3,-2.0478408E-1,3.828238E0,6.6473413E2,1.0395048E0,-3.0663073E-1,-1.2983306E-1,-3.6539696E1,1.3281861E-1,1.065792E3,1.1253535E0,6.98768E-2,1.7256309E0,-7.516558E-2,-7.5891016E4,-7.913921E-3,1.6640067E-1,-5.0893193E-1,-2.3367263E-2,-1.2593669E-1,7.97748E-2,-1.9759561E-1,-8.066488E-3,-6.36159E-2,1.1550116E-1,3.9549312E-1,1.5653571E-1,1.5008725E-2,1.1973531E-1],"split_indices":[13,45,7,87,10,46,88,0,50,0,0,35,0,47,14,47,63,0,0,0,48,15,43,0,0,49,56,14,43,7,88,0,5,0,0,0,0,0,0,0,0,0,0,0,0,0,0],"split_type":[0,0,0,0,0,0,0,0,0,0,0,0,0,0,0,0,0,0,0,0,0,0,0,0,0,0,0,0,0,0,0,0,0,0,0,0,0,0,0,0,0,0,0,0,0,0,0],"sum_hessian":[2.49E2,1.67E2,8.2E1,1.59E2,8E0,1.1E1,7.1E1,5E0,1.54E2,4E0,4E0,7E0,4E0,4.2E1,2.9E1,6E0,1.48E2,4E0,3E0,4E0,3.8E1,1.6E1,1.3E1,3E0,3E0,7.8E1,7E1,2.7E1,1.1E1,7E0,9E0,3E0,1E1,5E1,2.8E1,3E0,6.7E1,3E0,2.4E1,6E0,5E0,3E0,4E0,3E0,6E0,6E0,4E0],"tree_param":{"num_deleted":"0","num_feature":"99","num_nodes":"47","size_leaf_vector":"1"}},{"base_weights":[7.985681E-3,-1.5463672E0,3.1540494E0,-7.942055E-1,-1.4746311E1,1.2115243E1,1.6167109E0,-2.7778915E-1,-2.967772E-1,-1.5146486E-1,-3.942293E-1,3.678965E0,4.099046E-1,-1.0796325E0,5.4275794E0,-1.1944508E1,2.5242344E-1,9.590164E-3,1.22769944E-1,-2.0141602E-1,6.568319E-2,8.4449835E0,1.3759053E0,-3.0190283E-1,-1.2783116E-1,-4.343337E-1,9.841782E0,2.534618E0,-5.7006383E0,1.9302605E0,1.2812263E1,-1.9488778E0,4.1131024E0,5.256198E-2,-6.140302E-2,3.549358E-1,8.622694E-2,1.10816084E-1,-3.54037E-2,-1.9411364E-1,-7.928292E-3,-6.263501E-2,1.1360151E-1,1.1494382E-1,3.4321702E-1,-9.1110855E-2,2.0995032E-2,1.1669034E-1,2.325628E-2],"categories":[],"categories_nodes":[],"categories_segments":[],"categories_sizes":[],"default_left":[0,0,0,0,0,0,0,0,0,0,0,0,0,0,0,0,0,0,0,0,0,0,0,0,0,0,0,0,0,0,0,0,0,0,0,0,0,0,0,0,0,0,0,0,0,0,0,0,0],"id":21,"left_children":[1,3,5,7,9,11,13,-1,15,-1,-1,17,-1,19,21,23,25,-1,-1,-1,27,29,31,-1,-1,33,35,37,39,41,43,45,47,-1,-1,-1,-1,-1,-1,-1,-1,-1,-1,-1,-1,-1,-1,-1,-1],"loss_changes":[1.2274005E3,1.6562751E3,1.1238533E3,1.0081858E3,1.528883E2,7.1862317E2,7.456894E2,0E0,9.9454083E2,0E0,0E0,4.877217E1,0E0,4.299698E2,3.5514655E2,1.8546265E1,9.855231E2,0E0,0E0,0E0,5.6967914E2,4.5894653E2,1.3542413E2,0E0,0E0,1.0764366E3,3.4679785E2,3.496396E2,2.3498068E2,1.5999048E2,1.8701086E2,5.614693E1,3.0861954E1,0E0,0E0,0E0,0E0,0E0,0E0,0E0,0E0,0E0,0E0,0E0,0E0,0E0,0E0,0E0,0E0],"parents":[2147483647,0,0,1,1,2,2,3,3,4,4,5,5,6,6,8,8,11,11,13,13,14,14,15,15,16,16,20,20,21,21,22,22,25,25,26,26,27,27,28,28,29,29,30,30,31,31,32,32],"right_children":[2,4,6,8,10,12,14,-1,16,-1,-1,18,-1,20,22,24,26,-1,-1,-1,28,30,32,-1,-1,34,36,38,40,42,44,46,48,-1,-1,-1,-1,-1,-1,-1,-1,-1,-1,-1,-1,-1,-1,-1,-1],"split_conditions":[5.6644333E1,2.2078094E-1,-9.528953E-2,6.417947E2,1.1378133E4,5.7210174E0,5.473654E-1,-2.7778915E-1,-1.3898662E2,-1.5146486E-1,-3.942293E-1,-1.17025495E-1,4.099046E-1,2.3904879E1,1.2310859E3,2.5080004E1,3.4128978E0,9.590164E-3,1.22769944E-1,-2.0141602E-1,3.828238E0,6.7231885E2,6.648249E1,-3.0190283E-1,-1.2783116E-1,2.3369747E1,6.9375037E2,6.309209E1,1.1253535E0,6.98768E-2,5.6251225E1,-7.7289444E-1,2.6861602E4,5.256198E-2,-6.140302E-2,3.549358E-1,8.622694E-2,1.10816084E-1,-3.54037E-2,-1.9411364E-1,-7.928292E-3,-6.263501E-2,1.1360151E-1,1.1494382E-1,3.4321702E-1,-9.1110855E-2,2.0995032E-2,1.1669034E-1,2.325628E-2],"split_indices":[13,45,7,87,10,36,88,0,50,0,0,7,0,47,14,47,38,0,0,0,48,42,70,0,0,77,0,70,43,7,70,86,9,0,0,0,0,0,0,0,0,0,0,0,0,0,0,0,0],"split_type":[0,0,0,0,0,0,0,0,0,0,0,0,0,0,0,0,0,0,0,0,0,0,0,0,0,0,0,0,0,0,0,0,0,0,0,0,0,0,0,0,0,0,0,0,0,0,0,0,0],"sum_hessian":[2.49E2,1.67E2,8.2E1,1.59E2,8E0,1.1E1,7.1E1,5E0,1.54E2,4E0,4E0,6E0,5E0,4.2E1,2.9E1,6E0,1.48E2,3E0,3E0,4E0,3.8E1,1.6E1,1.3E1,3E0,3E0,1.39E2,9E0,2.7E1,1.1E1,7E0,9E0,6E0,7E0,6.4E1,7.5E1,3E0,6E0,1.6E1,1.1E1,6E0,5E0,3E0,4E0,4E0,5E0,3E0,3E0,4E0,3E0],"tree_param":{"num_deleted":"0","num_feature":"99","num_nodes":"49","size_leaf_vector":"1"}},{"base_weights":[7.7106343E-3,-1.5194623E0,3.098763E0,-3.469156E-1,-7.9100285E0,1.1911359E1,1.5869586E0,2.1608343E0,-4.0593224E0,-4.1338232E-1,-1.2569595E1,3.6222394E0,4.0288207E-1,-1.0650657E0,5.3352947E0,6.115083E0,-1.4105794E0,-1.2029359E1,-1.2500069E0,-1.6598365E-1,3.4684424E0,-3.6427647E-2,-3.068385E-1,9.442293E-3,1.2087697E-1,-2.1488416E0,1.5627408E-1,8.301315E0,1.3526065E0,-3.4955657E0,8.550863E0,-9.062602E0,1.878478E0,-3.873378E0,-6.885065E-1,-2.4710348E0,2.3802805E-1,-5.53724E-2,1.58388E-1,2.6358626E0,-4.1226845E0,1.8969479E0,1.2594677E1,-1.918828E0,4.0460362E0,1.6269019E-3,-1.6413414E-1,2.9999444E-1,9.053645E-2,-2.3701492E-1,-3.092517E-4,-2.5291968E-2,1.0810488E-1,6.324469E-2,-1.9072038E-1,-2.2405535E-2,-2.5076726E-1,-5.8958232E-2,1.4343213E-1,-1.6145006E-1,4.8446942E-2,-6.166925E-2,1.1173312E-1,3.84103E-1,1.5041094E-1,2.0872952E-2,-8.990766E-2,1.8532187E-2,1.1826355E-1],"categories":[],"categories_nodes":[],"categories_segments":[],"categories_sizes":[],"default_left":[0,0,0,0,0,0,0,0,0,0,0,0,0,0,0,0,0,0,0,0,0,0,0,0,0,0,0,0,0,0,0,0,0,0,0,0,0,0,0,0,0,0,0,0,0,0,0,0,0,0,0,0,0,0,0,0,0,0,0,0,0,0,0,0,0,0,0,0,0],"id":22,"left_children":[1,3,5,7,9,11,13,15,17,19,21,23,-1,25,27,29,31,33,35,-1,37,-1,-1,-1,-1,39,-1,41,43,45,47,49,51,53,-1,55,-1,-1,-1,57,59,61,63,65,67,-1,-1,-1,-1,-1,-1,-1,-1,-1,-1,-1,-1,-1,-1,-1,-1,-1,-1,-1,-1,-1,-1,-1,-1],"loss_changes":[1.1848513E3,1.2561198E3,1.0868997E3,1.3400712E3,9.0301306E2,6.934794E2,7.214113E2,1.2231401E3,1.2836031E3,3.550987E2,3.8049414E2,4.7279747E1,0E0,4.2021188E2,3.4315363E2,9.8967664E2,1.1747493E3,2.4957646E3,7.177991E2,0E0,2.2955203E2,0E0,0E0,0E0,0E0,3.791928E2,0E0,4.4354504E2,1.3112294E2,1.4502621E2,7.6250464E2,3.1220325E2,3.5320508E2,4.791739E2,0E0,5.375177E2,0E0,0E0,0E0,3.06698E2,6.9528284E2,1.5489372E2,1.8469653E2,5.485086E1,3.7744003E1,0E0,0E0,0E0,0E0,0E0,0E0,0E0,0E0,0E0,0E0,0E0,0E0,0E0,0E0,0E0,0E0,0E0,0E0,0E0,0E0,0E0,0E0,0E0,0E0],"parents":[2147483647,0,0,1,1,2,2,3,3,4,4,5,5,6,6,7,7,8,8,9,9,10,10,11,11,13,13,14,14,15,15,16,16,17,17,18,18,20,20,25,25,27,27,28,28,29,29,30,30,31,31,32,32,33,33,35,35,39,39,40,40,41,41,42,42,43,43,44,44],"right_children":[2,4,6,8,10,12,14,16,18,20,22,24,-1,26,28,30,32,34,36,-1,38,-1,-1,-1,-1,40,-1,42,44,46,48,50,52,54,-1,56,-1,-1,-1,58,60,62,64,66,68,-1,-1,-1,-1,-1,-1,-1,-1,-1,-1,-1,-1,-1,-1,-1,-1,-1,-1,-1,-1,-1,-1,-1,-1],"split_conditions":[5.6644333E1,8.796938E-2,-9.528953E-2,5.3751783E0,-4.660092E1,5.7210174E0,5.473654E-1,2.3369747E1,2.849853E1,6.333389E2,2.4764679E1,4.391E5,4.0288207E-1,1.6838653E5,1.2310859E3,2.0884076E-2,-1.4693947E-1,3.790351E1,5.4850566E4,-1.6598365E-1,2.2160591E-1,-3.6427647E-2,-3.068385E-1,9.442293E-3,1.2087697E-1,1.017518E1,1.5627408E-1,6.6473413E2,6.648249E1,3.4453537E1,6.4783484E-2,3.2525256E-1,9.9038655E-1,1.7484941E1,-6.885065E-1,1.4485959E1,2.3802805E-1,-5.53724E-2,1.58388E-1,-7.3658147E0,1.2114251E0,6.98768E-2,1.7256309E0,7.782256E2,3.843E5,1.6269019E-3,-1.6413414E-1,2.9999444E-1,9.053645E-2,-2.3701492E-1,-3.092517E-4,-2.5291968E-2,1.0810488E-1,6.324469E-2,-1.9072038E-1,-2.2405535E-2,-2.5076726E-1,-5.8958232E-2,1.4343213E-1,-1.6145006E-1,4.8446942E-2,-6.166925E-2,1.1173312E-1,3.84103E-1,1.5041094E-1,2.0872952E-2,-8.990766E-2,1.8532187E-2,1.1826355E-1],"split_indices":[13,7,7,84,50,36,88,77,13,54,76,4,0,11,14,33,7,75,9,0,7,0,0,0,0,18,0,15,70,75,72,88,44,57,0,51,0,0,0,51,43,7,88,0,4,0,0,0,0,0,0,0,0,0,0,0,0,0,0,0,0,0,0,0,0,0,0,0,0],"split_type":[0,0,0,0,0,0,0,0,0,0,0,0,0,0,0,0,0,0,0,0,0,0,0,0,0,0,0,0,0,0,0,0,0,0,0,0,0,0,0,0,0,0,0,0,0,0,0,0,0,0,0,0,0,0,0,0,0,0,0,0,0,0,0,0,0,0,0,0,0],"sum_hessian":[2.49E2,1.67E2,8.2E1,1.42E2,2.5E1,1.1E1,7.1E1,8.5E1,5.7E1,1E1,1.5E1,6E0,5E0,4.2E1,2.9E1,4E1,4.5E1,1.4E1,4.3E1,3E0,7E0,3E0,1.2E1,3E0,3E0,3.8E1,4E0,1.6E1,1.3E1,8E0,3.2E1,1.3E1,3.2E1,1.1E1,3E0,4E1,3E0,3E0,4E0,1.1E1,2.7E1,7E0,9E0,6E0,7E0,5E0,3E0,1.2E1,2E1,1E1,3E0,1.7E1,1.5E1,5E0,6E0,3.6E1,4E0,5E0,6E0,1.7E1,1E1,3E0,4E0,3E0,6E0,3E0,3E0,3E0,4E0],"tree_param":{"num_deleted":"0","num_feature":"99","num_nodes":"69","size_leaf_vector":"1"}},{"base_weights":[8.069916E-3,-1.495271E0,3.0508795E0,-7.646338E-1,-1.4318235E1,1.1710912E1,1.5651675E0,9.803364E-1,-4.2081E0,-1.4663644E-1,-3.8321656E-1,4.604746E0,4.2635635E-1,-1.0401987E0,5.2473536E0,4.5691934E0,-2.2479448E0,-2.7769625E0,-4.4001716E-1,1.4402999E-1,9.296703E-3,-4.3535132E0,1.7642385E0,8.165039E0,1.329639E0,-6.5460095E0,6.486294E0,-4.4777217E0,4.9204926E0,-8.4236965E0,1.1378237E0,9.376396E-2,-7.6290107E0,-2.184702E0,5.8952374E0,1.0971189E1,-1.5705943E-2,-7.401878E-2,3.0014973E0,-4.8435085E-2,-1.7657474E-1,2.8053278E-1,8.7486625E-2,-1.15178205E-1,1.1133581E-1,-3.0164555E-2,1.39716E-1,-2.7766705E-1,-7.167467E-2,-5.0346293E-2,1.8327722E-1,-1.92281E-1,-1.13135325E-2,2.4240976E-2,-2.0657425E-1,3.2550648E-2,1.471301E-1,7.298049E-2,3.1178698E-1,9.8378E-2,-1.9747617E-3],"categories":[],"categories_nodes":[],"categories_segments":[],"categories_sizes":[],"default_left":[0,0,0,0,0,0,0,0,0,0,0,0,0,0,0,0,0,0,0,0,0,0,0,0,0,0,0,0,0,0,0,0,0,0,0,0,0,0,0,0,0,0,0,0,0,0,0,0,0,0,0,0,0,0,0,0,0,0,0,0,0],"id":23,"left_children":[1,3,5,7,9,11,13,15,17,-1,-1,19,-1,21,23,25,27,29,-1,-1,-1,31,33,35,37,39,41,43,45,47,49,-1,51,53,55,57,-1,-1,59,-1,-1,-1,-1,-1,-1,-1,-1,-1,-1,-1,-1,-1,-1,-1,-1,-1,-1,-1,-1,-1,-1],"loss_changes":[1.148157E3,1.5630328E3,1.0495746E3,9.6552466E2,1.4655151E2,6.743307E2,6.9618616E2,1.249956E3,1.2694165E3,0E0,0E0,7.6596695E1,0E0,4.0723587E2,3.3206305E2,1.1292164E3,9.3312146E2,1.1369781E3,0E0,0E0,0E0,6.187717E2,4.04393E2,4.3433557E2,1.26198685E2,4.8242065E1,6.4465247E2,5.1993195E2,1.7769406E2,4.7988013E2,8.865537E2,0E0,1.7788885E2,3.557102E2,5.393683E1,3.5084436E2,0E0,0E0,6.123757E1,0E0,0E0,0E0,0E0,0E0,0E0,0E0,0E0,0E0,0E0,0E0,0E0,0E0,0E0,0E0,0E0,0E0,0E0,0E0,0E0,0E0,0E0],"parents":[2147483647,0,0,1,1,2,2,3,3,4,4,5,5,6,6,7,7,8,8,11,11,13,13,14,14,15,15,16,16,17,17,21,21,22,22,23,23,24,24,25,25,26,26,27,27,28,28,29,29,30,30,32,32,33,33,34,34,35,35,38,38],"right_children":[2,4,6,8,10,12,14,16,18,-1,-1,20,-1,22,24,26,28,30,-1,-1,-1,32,34,36,38,40,42,44,46,48,50,-1,52,54,56,58,-1,-1,60,-1,-1,-1,-1,-1,-1,-1,-1,-1,-1,-1,-1,-1,-1,-1,-1,-1,-1,-1,-1,-1,-1],"split_conditions":[5.6644333E1,2.2078094E-1,-9.528953E-2,7.2511477E0,1.1378133E4,6.7431946E0,5.473654E-1,2.56863E1,7.7840906E2,-1.4663644E-1,-3.8321656E-1,3.964509E0,4.2635635E-1,1.1227162E0,1.2310859E3,-3.3645025E6,1.3350771E1,-5.9153366E1,-4.4001716E-1,1.4402999E-1,9.296703E-3,5.6124E-1,1.440574E1,2.5519728E1,1.0395048E0,-4.7801E6,4.797408E0,7.746601E-1,-4.224027E5,6.835475E2,-6.003973E3,9.376396E-2,8.2518805E2,-1.4345859E1,-1.1033416E4,6.6473413E2,-1.5705943E-2,-7.401878E-2,1.098053E0,-4.8435085E-2,-1.7657474E-1,2.8053278E-1,8.7486625E-2,-1.15178205E-1,1.1133581E-1,-3.0164555E-2,1.39716E-1,-2.7766705E-1,-7.167467E-2,-5.0346293E-2,1.8327722E-1,-1.92281E-1,-1.13135325E-2,2.4240976E-2,-2.0657425E-1,3.2550648E-2,1.471301E-1,7.298049E-2,3.1178698E-1,9.8378E-2,-1.9747617E-3],"split_indices":[13,45,7,84,10,37,88,77,17,0,0,35,0,43,14,5,74,49,0,0,0,33,59,47,43,6,25,73,8,52,9,0,2,48,8,15,0,0,43,0,0,0,0,0,0,0,0,0,0,0,0,0,0,0,0,0,0,0,0,0,0],"split_type":[0,0,0,0,0,0,0,0,0,0,0,0,0,0,0,0,0,0,0,0,0,0,0,0,0,0,0,0,0,0,0,0,0,0,0,0,0,0,0,0,0,0,0,0,0,0,0,0,0,0,0,0,0,0,0,0,0,0,0,0,0],"sum_hessian":[2.49E2,1.67E2,8.2E1,1.59E2,8E0,1.1E1,7.1E1,1.06E2,5.3E1,4E0,4E0,7E0,4E0,4.2E1,2.9E1,5E1,5.6E1,5E1,3E0,4E0,3E0,1.9E1,2.3E1,1.6E1,1.3E1,7E0,4.3E1,4.3E1,1.3E1,2E1,3E1,5E0,1.4E1,1.2E1,1.1E1,1.2E1,4E0,3E0,1E1,3E0,4E0,9E0,3.4E1,3.9E1,4E0,3E0,1E1,9E0,1.1E1,2.1E1,9E0,1.1E1,3E0,9E0,3E0,3E0,8E0,5E0,7E0,6E0,4E0],"tree_param":{"num_deleted":"0","num_feature":"99","num_nodes":"61","size_leaf_vector":"1"}},{"base_weights":[7.588338E-3,-1.470111E0,2.9985027E0,-7.5146216E-1,-1.4082745E1,1.1518458E1,1.5368643E0,-2.6684615E-1,-2.7325955E-1,-1.4422473E-1,-3.7691385E-1,4.5292444E0,4.1934413E-1,-1.0214295E0,5.1525235E0,-1.1488039E1,2.5544325E-1,1.4166115E-1,9.153357E-3,-2.0783143E0,1.5267959E-1,8.018887E0,1.3039023E0,-2.8873703E-1,-1.2457436E-1,2.6402934E0,-2.40172E0,2.559316E0,-3.9916449E0,1.0775234E1,-1.54476315E-2,-1.8956374E0,3.9405117E0,-1.597697E-2,1.4773874E-1,-4.9461406E-1,-2.2459395E-2,-5.7494298E-2,1.3947958E-1,-1.6174814E-1,3.7663784E-2,3.0625403E-1,7.1629226E-2,2.0436065E-2,-8.8636436E-2,1.1203075E-1,2.1984313E-2],"categories":[],"categories_nodes":[],"categories_segments":[],"categories_sizes":[],"default_left":[0,0,0,0,0,0,0,0,0,0,0,0,0,0,0,0,0,0,0,0,0,0,0,0,0,0,0,0,0,0,0,0,0,0,0,0,0,0,0,0,0,0,0,0,0,0,0],"id":24,"left_children":[1,3,5,7,9,11,13,-1,15,-1,-1,17,-1,19,21,23,25,-1,-1,27,-1,29,31,-1,-1,33,35,37,39,41,-1,43,45,-1,-1,-1,-1,-1,-1,-1,-1,-1,-1,-1,-1,-1,-1],"loss_changes":[1.1093262E3,1.5121786E3,1.0159046E3,9.320718E2,1.4177051E2,6.523059E2,6.712571E2,0E0,9.219737E2,0E0,0E0,7.408266E1,0E0,3.9936234E2,3.2049048E2,1.2045837E1,9.505447E2,0E0,0E0,3.5627533E2,0E0,4.190536E2,1.2557289E2,0E0,0E0,1.2328846E3,1.9869028E3,2.9053003E2,6.46448E2,3.3874182E2,0E0,5.315124E1,2.8829475E1,0E0,0E0,0E0,0E0,0E0,0E0,0E0,0E0,0E0,0E0,0E0,0E0,0E0,0E0],"parents":[2147483647,0,0,1,1,2,2,3,3,4,4,5,5,6,6,8,8,11,11,13,13,14,14,15,15,16,16,19,19,21,21,22,22,25,25,26,26,27,27,28,28,29,29,31,31,32,32],"right_children":[2,4,6,8,10,12,14,-1,16,-1,-1,18,-1,20,22,24,26,-1,-1,28,-1,30,32,-1,-1,34,36,38,40,42,-1,44,46,-1,-1,-1,-1,-1,-1,-1,-1,-1,-1,-1,-1,-1,-1],"split_conditions":[5.6644333E1,2.2078094E-1,-9.528953E-2,6.417947E2,1.1378133E4,6.7431946E0,5.473654E-1,-2.6684615E-1,-1.3898662E2,-1.4422473E-1,-3.7691385E-1,3.964509E0,4.1934413E-1,1.6838653E5,1.2310859E3,2.5080004E1,4E1,1.4166115E-1,9.153357E-3,1.017518E1,1.5267959E-1,2.5519728E1,6.648249E1,-2.8873703E-1,-1.2457436E-1,6.873364E2,1.3281861E-1,-7.3658147E0,1.191774E0,1.6505109E0,-1.54476315E-2,7.782256E2,2.6861602E4,-1.597697E-2,1.4773874E-1,-4.9461406E-1,-2.2459395E-2,-5.7494298E-2,1.3947958E-1,-1.6174814E-1,3.7663784E-2,3.0625403E-1,7.1629226E-2,2.0436065E-2,-8.8636436E-2,1.1203075E-1,2.1984313E-2],"split_indices":[13,45,7,87,10,37,88,0,50,0,0,35,0,11,14,47,63,0,0,18,0,47,70,0,0,0,56,51,43,85,0,0,9,0,0,0,0,0,0,0,0,0,0,0,0,0,0],"split_type":[0,0,0,0,0,0,0,0,0,0,0,0,0,0,0,0,0,0,0,0,0,0,0,0,0,0,0,0,0,0,0,0,0,0,0,0,0,0,0,0,0,0,0,0,0,0,0],"sum_hessian":[2.49E2,1.67E2,8.2E1,1.59E2,8E0,1.1E1,7.1E1,5E0,1.54E2,4E0,4E0,7E0,4E0,4.2E1,2.9E1,6E0,1.48E2,4E0,3E0,3.8E1,4E0,1.6E1,1.3E1,3E0,3E0,7.8E1,7E1,1.1E1,2.7E1,1.2E1,4E0,6E0,7E0,4.5E1,3.3E1,3E0,6.7E1,5E0,6E0,1.6E1,1.1E1,7E0,5E0,3E0,3E0,4E0,3E0],"tree_param":{"num_deleted":"0","num_feature":"99","num_nodes":"47","size_leaf_vector":"1"}},{"base_weights":[5.521863E-3,-1.4493316E0,2.9502192E0,-7.426723E-1,-1.3851128E1,1.1329168E1,1.5127523E0,9.5972085E-1,-4.10218E0,-1.4185268E-1,-3.7071478E-1,4.4549813E0,4.124472E-1,-9.9785876E-1,5.0608697E0,4.456937E0,-2.1862042E0,-2.7012742E0,-4.3045956E-1,1.3933127E-1,9.012221E-3,1.0608255E0,-5.3380494E0,2.390918E-1,3.281898E0,-6.409518E0,6.331362E0,-4.366942E0,4.823701E0,-8.221887E0,1.1256335E0,-9.1996807E-1,7.700571E0,-7.781534E0,5.583809E-2,-7.153942E-2,4.735541E0,-4.828336E-2,-1.722064E-1,-7.5129144E-2,1.5840991E-1,-1.1247693E-1,1.0976745E-1,-2.9353147E-2,1.3688833E-1,-2.7115732E-1,-6.983884E-2,-1.8073762E-2,3.0586252E-1,-1.767316E-1,2.1487E-2,1.9702418E-1,8.0023415E-2,-2.2178458E-2,-2.088797E-1,-2.5412178E-2,1.1922922E-1],"categories":[],"categories_nodes":[],"categories_segments":[],"categories_sizes":[],"default_left":[0,0,0,0,0,0,0,0,0,0,0,0,0,0,0,0,0,0,0,0,0,0,0,0,0,0,0,0,0,0,0,0,0,0,0,0,0,0,0,0,0,0,0,0,0,0,0,0,0,0,0,0,0,0,0,0,0],"id":25,"left_children":[1,3,5,7,9,11,13,15,17,-1,-1,19,-1,21,23,25,27,29,-1,-1,-1,31,33,-1,35,37,39,41,43,45,47,49,51,53,-1,-1,55,-1,-1,-1,-1,-1,-1,-1,-1,-1,-1,-1,-1,-1,-1,-1,-1,-1,-1,-1,-1],"loss_changes":[1.0753018E3,1.4620393E3,9.8255225E2,9.1900934E2,1.3714551E2,6.310001E2,6.464219E2,1.1869554E3,1.2170653E3,0E0,0E0,7.165115E1,0E0,3.8987128E2,3.1240918E2,1.0793671E3,8.9241034E2,1.0867255E3,0E0,0E0,0E0,4.0164322E2,2.9665585E2,0E0,2.6220532E2,4.4225708E1,6.318248E2,5.0074213E2,1.7008527E2,4.585183E2,8.6773376E2,3.7103253E2,1.2890564E1,1.6441962E2,0E0,0E0,1.4059146E2,0E0,0E0,0E0,0E0,0E0,0E0,0E0,0E0,0E0,0E0,0E0,0E0,0E0,0E0,0E0,0E0,0E0,0E0,0E0,0E0],"parents":[2147483647,0,0,1,1,2,2,3,3,4,4,5,5,6,6,7,7,8,8,11,11,13,13,14,14,15,15,16,16,17,17,21,21,22,22,24,24,25,25,26,26,27,27,28,28,29,29,30,30,31,31,32,32,33,33,36,36],"right_children":[2,4,6,8,10,12,14,16,18,-1,-1,20,-1,22,24,26,28,30,-1,-1,-1,32,34,-1,36,38,40,42,44,46,48,50,52,54,-1,-1,56,-1,-1,-1,-1,-1,-1,-1,-1,-1,-1,-1,-1,-1,-1,-1,-1,-1,-1,-1,-1],"split_conditions":[5.6644333E1,2.2078094E-1,-9.528953E-2,7.2511477E0,1.1378133E4,5.7386074E0,5.458728E-1,2.56863E1,7.7840906E2,-1.4185268E-1,-3.7071478E-1,3.964509E0,4.124472E-1,2.147543E1,2.589594E1,-3.3645025E6,1.3350771E1,-5.9153366E1,-4.3045956E-1,1.3933127E-1,9.012221E-3,3.0012007E0,8.456577E0,2.390918E-1,2.70979E1,-4.7801E6,9.9745756E-1,7.746601E-1,-4.224027E5,6.835475E2,5.4850566E4,2.3406404E-1,5.3034263E0,2.4E1,5.583809E-2,-7.153942E-2,-3.8120567E1,-4.828336E-2,-1.722064E-1,-7.5129144E-2,1.5840991E-1,-1.1247693E-1,1.0976745E-1,-2.9353147E-2,1.3688833E-1,-2.7115732E-1,-6.983884E-2,-1.8073762E-2,3.0586252E-1,-1.767316E-1,2.1487E-2,1.9702418E-1,8.0023415E-2,-2.2178458E-2,-2.088797E-1,-2.5412178E-2,1.1922922E-1],"split_indices":[13,45,7,84,10,36,89,77,17,0,0,35,0,34,58,5,74,49,0,0,0,84,84,0,58,6,44,73,8,52,9,45,36,63,0,0,48,0,0,0,0,0,0,0,0,0,0,0,0,0,0,0,0,0,0,0,0],"split_type":[0,0,0,0,0,0,0,0,0,0,0,0,0,0,0,0,0,0,0,0,0,0,0,0,0,0,0,0,0,0,0,0,0,0,0,0,0,0,0,0,0,0,0,0,0,0,0,0,0,0,0,0,0,0,0,0,0],"sum_hessian":[2.49E2,1.67E2,8.2E1,1.59E2,8E0,1.1E1,7.1E1,1.06E2,5.3E1,4E0,4E0,7E0,4E0,4.2E1,2.9E1,5E1,5.6E1,5E1,3E0,4E0,3E0,2.9E1,1.3E1,5E0,2.4E1,7E0,4.3E1,4.3E1,1.3E1,2E1,3E1,2.3E1,6E0,1E1,3E0,4E0,2E1,3E0,4E0,5E0,3.8E1,3.9E1,4E0,3E0,1E1,9E0,1.1E1,2.7E1,3E0,4E0,1.9E1,3E0,3E0,3E0,7E0,3E0,1.7E1],"tree_param":{"num_deleted":"0","num_feature":"99","num_nodes":"57","size_leaf_vector":"1"}},{"base_weights":[4.368776E-3,-1.4256582E0,2.8988287E0,-7.306294E-1,-1.3623321E1,1.1142989E1,1.4845403E0,2.406525E-1,-6.526554E0,-3.646177E-1,-1.3951965E-1,4.381936E0,4.0566376E-1,-9.7858655E-1,4.9655375E0,2.5851955E0,-3.2385926E0,-9.282522E0,1.07962124E-1,1.370397E-1,8.873262E-3,-1.8808432E-1,9.395534E-2,7.7841544E0,1.1882504E0,6.7694173E0,-1.72932E-1,-1.14904375E1,-2.1439606E-1,-1.4476744E-2,-1.0846952E1,-1.9905041E0,4.41599E0,1.6901711E0,1.1880925E1,-1.9378124E0,3.7750242E0,2.6254457E-1,6.554841E-2,-1.3802184E-1,5.630645E-2,-7.449159E-2,-6.6237736E-1,-7.274744E-2,9.075352E-2,-2.7472267E-1,-5.4259527E-2,1.209148E-2,-1.9411631E-1,-5.5958692E-2,1.4040598E-1,-6.1999284E-2,1.0519549E-1,3.216255E-1,1.02559656E-1,1.947281E-2,-8.919053E-2,1.5864344E-2,1.11483224E-1],"categories":[],"categories_nodes":[],"categories_segments":[],"categories_sizes":[],"default_left":[0,0,0,0,0,0,0,0,0,0,0,0,0,0,0,0,0,0,0,0,0,0,0,0,0,0,0,0,0,0,0,0,0,0,0,0,0,0,0,0,0,0,0,0,0,0,0,0,0,0,0,0,0,0,0,0,0,0,0],"id":26,"left_children":[1,3,5,7,9,11,13,15,17,-1,-1,19,-1,21,23,25,27,29,-1,-1,-1,-1,31,33,35,37,39,41,43,-1,45,47,49,51,53,55,57,-1,-1,-1,-1,-1,-1,-1,-1,-1,-1,-1,-1,-1,-1,-1,-1,-1,-1,-1,-1,-1,-1],"loss_changes":[1.0389218E3,1.4143047E3,9.5120636E2,9.022869E2,1.3267139E2,6.103906E2,6.221972E2,1.1340717E3,7.9532104E2,0E0,0E0,6.929941E1,0E0,3.7765933E2,3.1015216E2,9.5904175E2,1.3950278E3,2.4734644E2,0E0,0E0,0E0,0E0,3.601452E2,4.0433533E2,1.20525116E2,6.6846423E2,9.896725E2,2.32935E3,6.618634E2,0E0,2.9513525E2,5.243602E2,2.4255043E2,1.4443663E2,1.8134033E2,5.258821E1,3.5404144E1,0E0,0E0,0E0,0E0,0E0,0E0,0E0,0E0,0E0,0E0,0E0,0E0,0E0,0E0,0E0,0E0,0E0,0E0,0E0,0E0,0E0,0E0],"parents":[2147483647,0,0,1,1,2,2,3,3,4,4,5,5,6,6,7,7,8,8,11,11,13,13,14,14,15,15,16,16,17,17,22,22,23,23,24,24,25,25,26,26,27,27,28,28,30,30,31,31,32,32,33,33,34,34,35,35,36,36],"right_children":[2,4,6,8,10,12,14,16,18,-1,-1,20,-1,22,24,26,28,30,-1,-1,-1,-1,32,34,36,38,40,42,44,-1,46,48,50,52,54,56,58,-1,-1,-1,-1,-1,-1,-1,-1,-1,-1,-1,-1,-1,-1,-1,-1,-1,-1,-1,-1,-1,-1],"split_conditions":[5.6644333E1,2.2078094E-1,-9.528953E-2,8.796938E-2,6.329482E2,5.7386074E0,5.473654E-1,5.3751783E0,7.746601E-1,-3.646177E-1,-1.3951965E-1,3.964509E0,4.0566376E-1,2.3904879E1,1.2310859E3,4E1,2.849853E1,5.9581696E2,1.07962124E-1,1.370397E-1,8.873262E-3,-1.8808432E-1,5.1012848E4,6.6473413E2,6.648249E1,1.2316312E-1,-1.2044E6,3.790351E1,-4.9813294E0,-1.4476744E-2,2.1415525E1,8.5867004E1,-2.3781931E0,6.98768E-2,1.9979143E1,-8.9881175E5,3.843E5,2.6254457E-1,6.554841E-2,-1.3802184E-1,5.630645E-2,-7.449159E-2,-6.6237736E-1,-7.274744E-2,9.075352E-2,-2.7472267E-1,-5.4259527E-2,1.209148E-2,-1.9411631E-1,-5.5958692E-2,1.4040598E-1,-6.1999284E-2,1.0519549E-1,3.216255E-1,1.02559656E-1,1.947281E-2,-8.919053E-2,1.5864344E-2,1.11483224E-1],"split_indices":[13,45,7,7,29,36,88,84,73,0,0,35,0,47,14,63,13,66,0,0,0,0,11,15,70,72,6,75,36,0,34,50,88,7,59,5,4,0,0,0,0,0,0,0,0,0,0,0,0,0,0,0,0,0,0,0,0,0,0],"split_type":[0,0,0,0,0,0,0,0,0,0,0,0,0,0,0,0,0,0,0,0,0,0,0,0,0,0,0,0,0,0,0,0,0,0,0,0,0,0,0,0,0,0,0,0,0,0,0,0,0,0,0,0,0,0,0,0,0,0,0],"sum_hessian":[2.49E2,1.67E2,8.2E1,1.59E2,8E0,1.1E1,7.1E1,1.37E2,2.2E1,4E0,4E0,7E0,4E0,4.2E1,2.9E1,8.2E1,5.5E1,1.8E1,4E0,4E0,3E0,4E0,3.8E1,1.6E1,1.3E1,3.2E1,5E1,1.4E1,4.1E1,3E0,1.5E1,2.6E1,1.2E1,7E0,9E0,6E0,7E0,1.1E1,2.1E1,1.5E1,3.5E1,1.1E1,3E0,2.4E1,1.7E1,1.1E1,4E0,2E1,6E0,3E0,9E0,3E0,4E0,5E0,4E0,3E0,3E0,3E0,4E0],"tree_param":{"num_deleted":"0","num_feature":"99","num_nodes":"59","size_leaf_vector":"1"}},{"base_weights":[2.5941883E-3,-1.4035637E0,2.848762E0,-7.200335E-1,-1.3399259E1,1.095987E1,1.4573445E0,2.3228122E-1,-6.4026165E0,-1.3722499E-1,-3.5862085E-1,3.309932E0,3.7125024E-1,-9.6511155E-1,4.8809533E0,2.535016E0,-3.1848488E0,-9.109763E0,1.0618649E-1,8.736448E-3,1.1034676E-1,1.0514292E0,-5.217334E0,7.651616E0,1.1679379E0,6.6401896E0,-1.7097896E-1,-4.670661E0,2.6529983E-1,-1.4253528E-2,-1.0644516E1,-8.7550926E-1,7.507871E0,-7.58604E0,5.3471703E-2,1.0324181E1,-1.7009685E-2,-1.9079336E0,3.7133334E0,2.5759682E-1,6.4262085E-2,-1.3536164E-1,5.5181026E-2,-3.4957206E-1,-5.5351116E-2,-2.695454E-1,-5.3367123E-2,-1.7148018E-1,2.1270959E-2,1.9248086E-1,7.763387E-2,-2.1673173E-2,-2.036061E-1,6.693048E-2,2.947094E-1,-8.81703E-2,1.9527545E-2,1.5619732E-2,1.0964967E-1],"categories":[],"categories_nodes":[],"categories_segments":[],"categories_sizes":[],"default_left":[0,0,0,0,0,0,0,0,0,0,0,0,0,0,0,0,0,0,0,0,0,0,0,0,0,0,0,0,0,0,0,0,0,0,0,0,0,0,0,0,0,0,0,0,0,0,0,0,0,0,0,0,0,0,0,0,0,0,0],"id":27,"left_children":[1,3,5,7,9,11,13,15,17,-1,-1,19,-1,21,23,25,27,29,-1,-1,-1,31,33,35,37,39,41,43,-1,-1,45,47,49,51,-1,53,-1,55,57,-1,-1,-1,-1,-1,-1,-1,-1,-1,-1,-1,-1,-1,-1,-1,-1,-1,-1,-1,-1],"loss_changes":[1.0045387E3,1.3678545E3,9.207604E2,8.673445E2,1.2834338E2,5.9184607E2,6.018457E2,1.0939603E3,7.67307E2,0E0,0E0,3.9269897E1,0E0,3.7420114E2,2.9968878E2,9.231476E2,1.399001E3,2.3804626E2,0E0,0E0,0E0,3.798082E2,2.789996E2,3.9377307E2,1.1669513E2,6.438904E2,9.5148895E2,1.2229401E3,0E0,0E0,2.8360657E2,3.5087894E2,1.3091919E1,1.5608325E2,0E0,3.2190015E2,0E0,5.1700264E1,3.42304E1,0E0,0E0,0E0,0E0,0E0,0E0,0E0,0E0,0E0,0E0,0E0,0E0,0E0,0E0,0E0,0E0,0E0,0E0,0E0,0E0],"parents":[2147483647,0,0,1,1,2,2,3,3,4,4,5,5,6,6,7,7,8,8,11,11,13,13,14,14,15,15,16,16,17,17,21,21,22,22,23,23,24,24,25,25,26,26,27,27,30,30,31,31,32,32,33,33,35,35,37,37,38,38],"right_children":[2,4,6,8,10,12,14,16,18,-1,-1,20,-1,22,24,26,28,30,-1,-1,-1,32,34,36,38,40,42,44,-1,-1,46,48,50,52,-1,54,-1,56,58,-1,-1,-1,-1,-1,-1,-1,-1,-1,-1,-1,-1,-1,-1,-1,-1,-1,-1,-1,-1],"split_conditions":[5.6644333E1,2.2078094E-1,-9.528953E-2,8.796938E-2,1.1378133E4,5.7210174E0,5.473654E-1,5.3751783E0,7.746601E-1,-1.3722499E-1,-3.5862085E-1,4.391E5,3.7125024E-1,2.147543E1,1.2310859E3,4E1,4.998474E3,5.9581696E2,1.0618649E-1,8.736448E-3,1.1034676E-1,3.0012007E0,8.456577E0,2.5519728E1,6.648249E1,1.2316312E-1,-1.2044E6,5.0293055E0,2.6529983E-1,-1.4253528E-2,2.1415525E1,2.3406404E-1,5.3034263E0,2.4E1,5.3471703E-2,6.6473413E2,-1.7009685E-2,5.03E5,3.843E5,2.5759682E-1,6.4262085E-2,-1.3536164E-1,5.5181026E-2,-3.4957206E-1,-5.5351116E-2,-2.695454E-1,-5.3367123E-2,-1.7148018E-1,2.1270959E-2,1.9248086E-1,7.763387E-2,-2.1673173E-2,-2.036061E-1,6.693048E-2,2.947094E-1,-8.81703E-2,1.9527545E-2,1.5619732E-2,1.0964967E-1],"split_indices":[13,45,7,7,10,36,88,84,73,0,0,4,0,34,14,63,10,66,0,0,0,84,84,47,70,72,6,25,0,0,34,45,36,63,0,15,0,4,4,0,0,0,0,0,0,0,0,0,0,0,0,0,0,0,0,0,0,0,0],"split_type":[0,0,